//Numpy array shape [3, 3, 28, 28]
//Min -0.489240646362
//Max 0.397272616625
//Number of zeros 0

#ifndef W10_H_
#define W10_H_

#ifndef __SYNTHESIS__
static conv2d_4_weight_t w10[7056];
#else
static conv2d_4_weight_t w10[7056] = {0.0324646942, -0.0355116650, -0.1081415340, -0.0463701747, -0.0644087046, -0.0643787235, 0.0655126274, -0.4022135139, -0.0578038506, 0.0421643630, -0.1999091506, 0.0485981070, 0.0533185713, -0.0271213911, 0.0267510451, -0.2514401078, -0.0268311743, -0.0543800108, -0.1021719202, -0.1574032754, -0.0432985686, -0.1108928174, 0.0115441680, 0.0225273035, -0.1318565607, -0.0091500720, -0.1452626288, -0.0726312846, -0.0450723507, -0.0420569144, -0.1262930930, -0.0581648611, -0.0620378181, -0.1600450277, -0.0899481550, -0.3988832831, -0.1401872337, 0.0985090062, -0.1882158518, 0.0653547868, -0.0657998100, 0.0546337441, -0.0113748424, -0.1298051029, -0.1067682281, -0.0308309719, -0.0563519858, 0.0547328480, -0.0839851722, 0.0075087724, -0.1017772928, -0.0315440446, 0.0156527776, -0.1453115493, -0.1143675596, -0.0470362082, 0.0447888263, -0.0189887844, -0.1255855262, -0.1762707382, -0.0205487385, -0.0631055683, 0.0006257482, -0.4892406464, -0.1579008549, -0.0693940967, -0.0973551944, -0.1343543082, -0.0449541211, 0.0317465775, -0.0449161045, -0.3276234567, -0.1160438210, -0.0626579747, -0.0650713742, -0.0525174625, 0.0372640528, 0.0226710849, -0.1725634933, -0.0604995973, -0.0952342823, 0.0181027800, -0.0520949736, -0.1176503375, 0.1158046648, -0.0664458349, -0.0423648320, 0.0295247883, -0.1897889972, -0.0636480674, -0.0386579484, -0.2134870142, -0.1240179166, -0.0236293133, -0.0034515928, 0.2941820920, -0.1293379366, 0.0249828864, 0.1075551733, 0.0554056540, 0.0078831837, 0.0310338363, 0.1483354867, 0.0803056359, 0.0495359376, -0.0344467908, -0.1264445186, -0.0703991055, -0.0547224805, 0.0879120231, 0.2781791687, -0.1248324662, 0.0930434614, -0.0436111577, -0.1323864609, 0.0086921118, -0.1243117079, -0.0166875888, -0.0628712699, -0.2554293573, -0.0242030136, -0.0104208747, -0.0362517610, 0.1978894174, 0.0126085067, 0.0238660183, -0.0439322256, 0.0317406319, -0.1663832963, 0.0583700389, -0.0395373777, -0.0296138898, -0.0284347069, -0.1206148118, -0.0318301469, 0.0912566110, -0.0354699902, 0.0443553589, 0.2561747134, -0.0373368487, 0.2206096202, 0.0489677116, -0.1226420030, 0.0392394476, -0.1667900681, -0.0782692954, -0.1134300306, -0.0470064208, 0.1622978896, -0.0000080550, 0.0719979033, -0.0001655684, 0.1341813654, -0.0498594642, 0.0247915704, 0.0550739355, 0.0117840255, 0.0019063071, 0.1308592409, -0.0646894947, -0.1052307859, 0.0249932185, -0.1653609723, 0.1822480857, 0.0155967977, 0.0358722135, 0.0386311263, -0.0697743297, -0.0128359841, 0.1124266386, -0.0695588440, 0.0635531396, 0.0027720570, -0.0609030128, -0.1089820638, -0.1014567390, 0.1304638833, -0.0560765043, -0.0792722851, -0.1421145052, -0.0006830731, 0.0582740568, 0.0618347079, -0.0524821058, -0.1277861297, -0.0153432628, -0.0279428121, 0.0071194903, 0.0867716372, -0.0755072460, 0.0378242210, 0.0909994841, -0.1062478796, 0.0539396554, -0.0510414429, 0.0610526018, -0.0919119045, -0.0648596585, -0.0086171050, 0.0904597044, -0.0688846633, 0.0397670157, 0.0300593153, -0.1721402407, -0.0242500845, 0.0669440925, -0.0425595492, -0.3156774342, 0.0109771769, 0.0701564923, 0.1039402038, -0.0537810288, 0.0251336750, 0.1171183810, -0.0457689874, 0.0222252868, 0.0402329862, -0.1041486263, -0.1584788412, -0.0092202397, -0.0000031420, 0.0428480208, -0.0365670696, -0.0770821795, -0.0617835447, -0.0622915924, 0.0222389773, -0.2499100268, 0.0758151561, 0.1358211488, 0.0225684289, -0.1421003044, 0.0318407118, 0.1482887715, 0.0854102895, -0.1212737411, 0.0342315026, 0.0714381114, 0.0138371466, 0.1086051017, 0.0061932229, 0.0535589829, -0.1721339077, 0.0233431682, 0.0084723933, -0.0030961330, 0.1085721701, -0.1519506276, -0.1346126199, -0.0528511479, 0.0971748233, -0.1104455665, 0.0713707879, -0.1229656115, 0.0694720149, -0.0581013374, 0.0581978373, 0.0117798401, 0.0522956662, 0.0505786203, -0.3259109557, -0.1039891616, -0.0223304871, 0.1275303364, -0.0792847574, -0.0294108037, -0.0503965877, 0.0616702884, -0.0818725899, 0.0963613465, -0.0071619796, -0.2581734657, -0.0492718369, 0.0160701908, -0.1025354564, -0.0931839943, 0.1280089170, -0.0773830637, 0.1295494139, 0.0273535904, 0.0690874085, -0.0935965776, -0.1051713079, -0.0073562060, 0.0755470246, 0.0740952492, 0.0815479010, -0.0550269522, -0.1473238617, -0.1959103793, 0.0339656845, 0.0895629525, -0.0361042358, -0.0164274257, -0.0062477868, -0.0395783372, 0.1263638735, -0.1933757812, -0.0080982661, -0.0289400686, -0.1891341507, -0.0409412794, 0.1221266538, 0.0242605358, -0.0657658428, 0.1628952473, -0.0535817035, -0.0157967396, -0.0459441766, -0.0640423447, 0.0097688241, -0.0478102155, 0.0262374021, -0.1193263009, 0.0356892906, -0.0586806349, 0.1019474939, 0.1090892777, -0.0125370789, 0.0117305005, -0.0496868752, 0.0088860206, 0.0784616843, 0.2026130408, -0.0286244918, -0.1648601592, -0.0860309526, 0.0756051019, -0.1623202860, -0.0464400053, -0.0728254840, 0.0502330288, -0.0745137632, -0.0027980120, -0.1974425763, 0.0092785303, -0.0586738512, 0.0662319809, -0.1058841571, -0.0591240488, 0.0441440418, 0.0513690785, -0.0483484454, -0.0201071110, -0.1077181175, -0.0441492163, -0.0673446655, 0.0343959183, -0.1060993448, -0.0289233811, 0.0168631561, 0.0381041095, -0.0429791994, -0.1952981055, 0.0046053668, -0.0164835025, -0.1884286106, -0.0145699568, -0.0071280231, -0.0862254500, 0.1086533964, -0.0843538791, 0.0131735615, 0.0627747253, 0.0024576839, 0.0373196416, 0.0618158542, -0.1152191684, 0.0909987018, 0.0132117020, 0.0322965346, 0.0632291809, -0.0678270757, 0.0959142894, 0.0162337758, 0.0119181955, 0.0503711030, -0.0370186344, -0.0586275123, -0.1107309833, -0.0717259198, -0.0404406488, 0.1191236675, -0.0427837782, -0.2880363464, 0.0263233948, -0.0896006897, 0.1324971765, 0.0658550784, 0.2270212471, -0.1174335256, -0.0348775834, 0.0495424196, -0.0918792263, -0.1063891202, 0.0631738156, -0.0580749474, -0.0722324029, -0.0736126453, 0.0308401454, 0.0034543232, 0.0907006860, -0.0001596512, 0.0833283216, -0.0455343314, 0.0687892660, 0.0158809721, -0.0787085816, 0.0206628740, -0.0960386172, -0.1865974218, -0.0933755264, -0.1276638955, -0.0424203686, -0.1331708431, 0.0465435199, 0.0249094050, -0.0881182924, -0.0165816769, 0.1041776687, 0.0756760165, 0.0290721878, -0.0224156007, 0.1594152004, 0.0294513106, 0.0299313683, 0.0822396651, -0.0365943350, -0.1414154023, 0.0255679991, 0.0371421501, 0.0530410819, -0.0095572826, 0.0299312007, -0.0615678057, 0.0031765257, 0.0275745708, -0.1035484821, -0.1075967476, 0.0983946994, 0.0054536094, -0.0563101806, 0.1202204525, 0.0818663090, -0.0798344016, 0.0343471617, 0.0419289023, 0.0021111434, -0.1123254150, 0.0140169840, 0.0336388871, 0.1017434597, 0.0740485415, -0.0410356931, 0.0677834079, -0.0648096204, 0.0442447327, 0.0044666654, 0.1628291607, 0.1376869529, -0.0447236151, 0.0085166683, -0.0369253159, 0.0111867813, -0.0975420922, -0.0257264897, -0.1221770719, -0.0372629575, 0.1584087163, -0.0148237059, -0.0722513497, 0.0075352537, 0.0294635221, 0.0938464254, 0.0542526543, -0.0679658875, -0.0445333533, 0.0162817035, -0.0696737841, 0.0489104316, -0.0056757270, 0.0092277890, -0.0228176638, 0.0622183196, -0.0328344479, -0.0080990447, 0.0016186456, 0.1201365665, -0.0043753493, -0.0903860331, 0.0283505507, 0.1341547221, 0.0420583151, -0.0280701537, -0.0803719014, -0.0268915035, 0.0609808825, -0.0642583594, -0.0899953768, 0.0970794410, -0.0759598836, 0.0428798869, -0.0995792300, -0.0439448245, 0.0044215964, -0.0752745867, 0.0561038814, 0.0401160456, 0.0306005031, -0.1005649492, 0.0376942307, 0.0765788257, -0.0459806211, -0.0298168454, 0.0014578049, 0.0291850585, -0.0560439900, 0.0333733223, 0.0407323688, 0.0143287098, -0.0376179181, 0.0319347009, 0.0205202326, -0.0042089117, -0.1113756150, -0.0349022821, 0.0419321023, -0.0133543210, 0.0494060703, -0.0237085801, -0.0067771915, 0.0326891728, 0.0369132385, 0.0223406665, -0.0106017096, 0.0267396197, -0.0831071511, 0.1235349923, 0.0106521631, 0.0256107673, 0.0628181919, -0.0484056287, 0.0123336706, -0.0248135813, -0.0372148901, 0.0266898461, -0.0303152222, 0.0033368445, -0.0157464147, -0.0514895581, -0.0374323465, 0.0660558939, 0.1457691789, -0.0448120907, 0.0678133145, -0.0558665209, 0.0221061353, 0.0633956492, -0.0093227364, -0.0688460097, -0.0298019145, -0.0416046567, -0.0282139741, 0.0896235481, 0.0389742032, -0.0720202252, -0.0492837988, -0.0447048992, 0.0380960032, 0.0587154366, 0.0709227473, 0.0143194813, -0.0590081140, -0.0247282982, 0.0723414421, 0.0473680906, -0.0764671564, -0.0465502329, 0.0780683085, 0.0842135698, 0.0695142224, -0.0268158857, -0.0034067251, 0.0022095344, -0.0133262658, 0.0021474282, -0.0306745432, 0.0754664019, -0.0351396464, 0.0900885016, 0.1210771725, -0.0214227606, 0.0152425095, 0.0601984933, -0.0322008803, -0.0940619111, 0.0447677784, -0.0286056865, 0.0325792991, 0.1534952670, -0.1103497073, 0.1212377027, -0.1126628593, 0.0463873856, 0.0704562142, -0.0162622593, -0.0633773580, 0.0463609993, -0.0887877792, -0.0884293839, -0.0590317659, 0.0087098926, 0.0306571983, 0.0626661777, -0.0105728256, 0.0815458074, 0.0046139336, 0.0054905610, 0.1363576204, -0.0848595202, -0.0520916432, 0.0609311424, -0.1034848616, 0.1509888619, -0.0779809058, -0.0368828401, 0.1180868596, -0.0641993061, -0.0437314436, 0.0036496755, 0.0226835385, 0.0551023744, 0.0368322395, -0.0063094259, 0.0391831771, 0.0782082230, 0.0545458719, -0.0755826309, -0.0145467781, -0.1194261611, -0.0108841099, 0.0693994612, -0.1176116765, 0.0879170597, -0.0549052246, -0.0392332077, 0.1359329671, 0.0638413876, -0.0195016153, 0.0620433539, 0.0403253064, -0.0654201657, -0.0734755993, -0.1164331362, -0.0785630420, -0.1445745677, 0.0795758739, -0.0703742430, 0.0341862366, -0.0209530257, 0.0266614389, -0.0110061988, 0.0114278290, 0.0733165890, -0.0478192791, -0.0157779977, -0.0908810720, -0.0360731520, -0.0259160623, 0.0464232080, -0.0441715643, -0.0340785757, 0.0174822472, 0.0267903805, 0.0841461718, -0.0006746275, -0.0452504046, 0.0021772457, 0.0613840036, -0.0943951979, 0.0805368870, -0.0328035690, 0.0300979782, 0.0429336317, -0.0110934498, -0.0516548567, 0.0324344300, 0.0391339287, -0.0016517129, 0.0373393819, 0.1221022531, -0.0761843473, -0.0849259198, -0.0726346597, 0.0495902002, -0.1280704439, -0.0084449835, 0.0220951214, -0.0273554381, 0.0872843862, 0.0272122230, 0.0890424103, 0.0413557887, 0.0179666672, 0.0355822966, -0.0218245517, 0.0852915049, 0.0513231792, -0.0967187136, -0.1236788109, -0.0208332762, -0.0250893310, -0.0171373244, -0.0794981048, -0.0225677267, 0.1194848344, 0.0260938313, 0.0615610965, 0.0872689784, 0.0246221460, 0.1010693237, 0.0141022708, 0.0468829982, -0.0110433856, 0.0152214775, 0.0379643515, -0.0175218228, 0.0369014777, -0.0250338931, -0.0057406398, -0.0562340766, 0.0945093334, 0.0342883915, 0.0383108631, 0.0388091393, -0.0590079650, 0.1071746647, -0.0347276367, -0.0447234958, 0.0771349967, 0.0094501497, 0.0911345854, -0.0032449027, -0.0033889713, 0.0629715547, -0.0545567460, -0.0404466763, -0.0451975875, 0.0220190566, 0.1002247557, -0.0852074474, 0.0178571660, -0.0485146493, 0.0602961406, -0.0230091959, -0.0137462607, 0.0305432454, 0.0237148572, -0.0619580485, -0.0764492676, 0.1157482117, -0.1325318366, 0.1103833020, 0.0321545973, 0.0369796865, 0.0474537238, 0.0041835858, 0.1065350771, -0.0068459706, -0.0939605981, 0.0304040387, -0.0266148970, 0.0090550063, 0.0228616688, -0.0291436501, 0.1239250526, 0.1004697084, 0.0599717200, -0.0079272790, 0.1592076719, 0.0586786941, 0.0199961010, 0.1094206721, -0.0968820453, 0.0388217792, -0.0404287688, -0.0126905730, 0.3282819986, 0.0782081485, -0.1086173877, 0.0019527083, 0.0595238954, -0.0962385535, 0.0162705109, -0.0359656662, 0.0787318647, -0.0982335955, -0.0692403093, 0.0955147669, 0.0759656355, 0.1105700806, 0.0989946872, 0.0609876327, 0.0756165460, 0.1078585535, -0.0400240794, 0.0232061110, 0.2345256358, -0.0059329402, 0.0462320894, -0.0159209762, -0.0594779961, 0.0387144014, 0.0473200344, -0.0618822016, -0.0767815039, 0.0552882887, 0.0661998391, 0.0845869705, -0.0321397260, 0.0077428063, -0.0975514352, -0.0307392757, 0.1211974546, -0.0484329835, -0.0471397527, -0.0733961537, 0.0500589237, -0.0158876181, 0.0619270727, 0.0229059383, 0.0096874088, 0.0508815125, -0.0098749874, -0.0217399299, 0.0633825436, -0.0071530635, 0.0090501308, -0.1145272851, 0.0617165789, -0.0485647619, -0.0020093657, -0.0261608344, 0.0103166280, 0.1368505806, -0.0684721023, 0.0311810169, 0.0763542801, 0.0739654675, 0.0280556232, 0.0482668728, 0.1215210259, 0.1104146913, -0.1581484079, -0.0417497568, -0.0752574131, 0.1936194599, 0.0706293955, 0.0268473513, -0.0988658443, 0.0439051315, 0.0393911265, -0.2797404826, 0.1115465760, -0.0929703265, -0.1332022101, 0.0848948210, 0.0699612871, -0.0266831312, 0.0742744729, -0.0724064186, -0.0367786698, 0.1729816049, -0.1325560361, 0.0418971032, 0.0775794089, 0.0282835085, 0.0334756039, 0.0206640922, 0.1561355293, -0.1003311053, -0.0527255125, 0.0961518884, -0.1652927697, 0.0229917727, 0.0786402076, -0.0148249744, 0.0170189887, 0.1541108340, -0.0338982865, 0.0998006240, -0.1804778278, 0.0744891465, -0.0349847861, 0.0988726914, 0.0028055820, -0.0157596450, 0.0024773795, -0.0631060526, 0.3209243715, -0.0301422346, -0.1901645213, 0.0283150449, 0.0637729168, 0.0102784606, 0.0249758530, -0.1541530937, -0.0980861485, 0.0001265754, -0.0118280118, 0.0084216408, 0.0822590366, 0.0412711874, -0.0080287671, 0.0864376873, -0.0244117472, 0.0081386119, -0.0433919318, 0.0088397050, 0.0621274374, -0.0353972502, -0.0362189598, -0.0121464273, 0.1002434418, -0.1236899793, -0.0185888223, 0.0530789420, 0.0739793628, -0.0348470025, -0.3068521917, -0.0166628864, -0.1710431427, 0.0768134892, -0.0326622762, -0.0437581167, -0.1248939037, 0.1395919472, 0.0104171690, -0.0483589619, 0.0409506671, 0.0220489670, -0.0316045694, -0.0476895943, 0.1217204258, -0.0470999889, 0.0315526053, -0.1573645473, -0.1151352152, 0.0080813700, 0.0303571373, -0.0012730965, 0.0245499164, -0.0319235064, -0.0957278535, -0.0901300535, 0.0294692777, 0.0448637232, -0.1722769439, 0.0466390438, -0.0863158703, 0.0240137111, -0.0538585000, -0.1240564436, -0.2502345443, 0.0698765516, -0.0100682043, -0.0290414933, 0.0142630031, 0.0545696989, 0.0107427808, -0.0318245366, 0.0297343470, -0.1126544252, -0.0730604306, -0.0142589556, -0.0300748032, 0.0514469631, 0.0857724920, -0.0059663695, 0.1042770445, -0.0146253556, 0.0695190579, -0.0510409921, -0.2394433767, -0.0664862990, 0.0176628530, -0.0469727330, -0.0817365646, -0.0045213946, -0.1039255410, 0.1399094760, -0.1560628414, 0.0758841410, 0.0283986349, -0.0156014888, 0.0035475120, -0.1449305266, -0.0061003277, -0.0332473814, 0.0068196966, -0.0898518264, 0.0063930545, -0.2139170915, -0.0790691227, 0.0009327501, -0.0195127521, 0.0930636451, -0.0552009381, -0.0487353355, -0.1299378276, 0.0305063482, 0.0267022792, 0.0282945018, -0.0274677612, -0.0269497186, 0.0615769885, -0.1192825735, -0.1043568552, 0.0042555053, -0.1234415621, -0.0298260506, -0.0470768735, -0.0265071020, -0.0535070598, 0.0330403671, -0.0217272509, 0.0600748137, -0.0874115527, -0.0122460704, -0.0070884479, 0.0452793986, 0.0201935396, -0.0245554317, 0.0641312376, -0.0075651701, -0.0393019654, 0.0821428895, -0.0409090556, 0.0161493029, -0.0641023293, 0.0135983815, -0.0271861404, -0.1461283267, -0.0857546628, -0.0765858293, 0.0626776516, -0.0193930902, 0.1091359630, -0.1375528723, -0.1535762846, 0.0959384218, -0.1913861334, -0.0345571972, -0.1266878396, 0.0085346494, -0.0529768951, -0.0338568725, -0.0894831046, 0.0411291979, -0.0433860905, 0.0119831404, -0.0958858654, -0.0044171666, -0.0015001447, 0.0624059476, -0.0413804874, 0.0404484645, -0.0819925368, -0.1011817828, -0.0205462128, -0.1992560327, 0.0009865996, -0.0135607151, 0.0543921143, -0.0018068752, 0.1267484426, 0.0287426654, 0.0417409986, 0.0183609258, -0.0525633357, -0.0108420271, -0.0303664766, 0.0600255504, -0.0816679448, -0.0092574004, 0.0264520124, -0.0222974755, -0.0436456390, 0.0743961930, 0.0250535291, 0.0404243656, 0.0021585932, -0.1052987725, -0.0207330659, 0.0102497824, -0.0401572585, -0.0571625195, 0.0366519578, -0.0208993983, -0.0590238795, -0.0818532035, 0.0622680895, 0.0057782731, 0.1195936203, 0.0051601296, 0.0672421381, -0.0262592621, 0.0458787419, -0.0163349081, 0.0338579938, -0.0229612868, 0.0664325729, -0.0201039277, 0.0600379929, -0.0103748096, 0.0630445853, 0.0158880018, 0.0287559368, 0.0129407663, -0.0432362072, -0.0142582403, -0.1480755061, -0.0017215487, 0.0146876769, -0.1051583588, 0.0043987017, -0.1297922879, 0.1297424436, -0.0745661557, -0.0512741208, 0.0340987556, -0.1701637805, -0.0335249491, -0.0812070966, -0.1078306362, -0.0661524907, -0.0257322472, -0.0446365662, -0.1110522971, -0.0589419343, -0.1259798557, -0.0341204219, -0.0345141478, 0.0314850248, -0.0626522824, -0.0177085865, -0.0692936778, 0.0575802475, -0.0305595919, -0.0859113187, -0.0049187532, 0.0646849424, 0.0614368729, -0.0702322125, -0.1400417089, 0.0568600558, -0.0484430678, 0.0831985027, -0.0681643635, 0.1495054066, -0.0205777120, -0.0175739117, 0.0766204223, -0.0380544737, 0.0167089365, -0.0005220540, 0.0156421419, -0.0148975877, 0.1289754063, -0.0312193278, 0.1093183979, -0.0635655075, 0.0022399286, 0.0945547000, 0.0459623225, -0.0466047339, 0.0853548124, -0.1079400927, -0.0269724019, 0.0706084147, 0.0208868850, -0.0672188252, 0.1350556612, 0.0926457345, 0.0202349238, 0.0259919781, 0.0804806873, -0.0362395905, -0.0627179667, 0.0049453257, -0.0246759113, 0.1065527201, 0.0760315806, -0.0085881874, 0.0817116201, 0.1515363753, -0.0503177643, -0.1188727915, -0.0168627761, -0.1001605839, 0.0216075387, 0.1972749084, 0.1813319325, -0.1187449023, -0.0500536412, 0.0255643781, -0.0088526746, -0.0864043683, 0.0726070628, 0.0726253539, -0.1241187379, 0.0919703841, -0.0940047652, 0.0959280953, 0.0647278130, 0.2073514909, 0.0484336615, 0.0840927511, 0.0694460571, 0.1048833355, 0.0689142048, -0.0219177119, 0.1641528010, 0.1289258748, -0.0496657640, -0.0340567529, -0.0553643443, 0.1076302677, 0.0655788928, 0.1863988638, 0.0101792198, 0.1048064306, -0.0460825115, -0.0237194914, 0.0324748941, 0.1213217005, -0.0520686135, 0.0059362575, 0.0682439506, 0.0902544856, 0.0523944423, 0.0814771354, 0.0250080545, 0.0863952637, 0.1637639254, -0.0262517035, 0.0074042338, 0.1035820469, 0.0303565972, -0.0190536808, 0.0861577839, -0.0451830104, -0.0723892227, 0.0417986587, 0.0631221160, 0.0501572005, 0.0979957208, 0.1270719022, 0.0300775729, -0.0388876870, 0.0692855939, 0.1051070914, -0.0445616432, 0.1048665941, -0.1060458273, 0.0040268744, -0.0550185777, -0.0522840172, 0.0011807693, 0.0095952293, 0.0239772461, -0.0992800519, -0.0547351167, 0.0107874107, -0.0213799439, 0.0443503559, 0.0121997995, -0.0190975722, 0.0879836082, 0.1119952276, 0.1299933344, 0.0638736486, 0.0159436669, 0.0577087030, 0.0006680887, -0.0765838102, -0.0239690356, -0.0628047585, -0.0715892166, 0.0330278352, -0.0387728885, -0.0000635047, -0.0391876064, 0.0012068860, 0.0302318092, -0.0505995825, 0.0389497839, -0.0302974172, 0.1361424923, 0.1209757403, -0.0700588003, -0.0833973140, 0.0465118513, -0.0653017536, 0.0898287296, 0.0775502250, 0.0310017001, -0.0234970376, -0.0214333236, -0.0816222057, 0.0126577159, -0.0996302739, 0.0138350986, 0.1337965131, -0.0873036385, -0.0287287310, 0.0860487893, -0.0492120981, -0.0441974029, 0.1977007389, 0.1242751256, 0.0002429110, -0.0041475021, -0.1097830832, -0.0502133071, -0.0610698834, -0.0040122210, -0.0106809679, -0.0139365178, 0.0341258496, 0.0374690555, 0.1296456307, -0.0225630701, 0.0239170771, 0.0258778799, -0.0247391760, -0.0212842207, 0.0018316197, -0.0210313033, -0.0426795110, -0.0613512993, -0.0331612974, -0.0312476177, 0.0849156827, -0.0096641025, -0.0808297172, 0.0050591319, -0.0321603902, -0.0194130018, -0.0345842503, 0.0509402975, -0.0389972217, -0.0828733370, -0.0457573496, -0.0117068952, -0.0409752317, 0.0852333456, 0.0418210700, 0.0287600420, 0.0086271744, 0.0500278473, -0.0242757909, -0.0030882834, -0.1083557680, 0.0098165590, 0.0305618048, -0.0449090973, -0.0377550162, -0.1001241431, 0.0698575750, 0.0009661563, -0.0878486261, 0.0971336514, 0.0136328721, -0.1002325714, -0.0899892226, 0.0679472163, -0.0499279201, -0.0351589695, -0.0188291688, -0.0434563830, -0.0714896098, 0.0945095271, 0.1552139968, -0.0819628388, 0.0225505996, 0.0692253560, -0.0449608676, 0.0324200727, 0.0264733788, 0.0100862309, 0.0297083501, 0.2060779780, -0.0707430020, 0.0267935414, -0.0395971909, -0.0829435065, -0.0173779819, 0.0472074673, 0.0073353602, 0.0718844458, -0.0172518045, -0.0255810078, 0.2246055752, 0.0831820667, -0.0043095010, 0.1026942208, -0.0713288113, -0.0186179224, 0.0129978778, -0.0443946756, -0.0842011869, -0.0057011694, 0.0380074307, -0.0896590799, 0.0070874947, 0.0752183720, 0.0664416179, -0.1335857809, -0.1170825288, 0.0056405407, -0.1098965406, 0.0642841309, -0.0418247357, 0.1310193390, -0.0505087413, -0.0513689816, 0.0421582907, 0.0344197713, -0.0208324622, 0.0544489399, -0.0716973320, -0.0535284430, 0.0683932453, -0.0245327223, 0.1186731681, -0.0454571284, -0.0171997175, -0.0660477504, 0.0268944018, -0.0526796244, 0.0163084622, 0.0287178960, -0.0218591727, -0.0282050613, 0.0079212012, -0.0460942350, -0.1173605919, 0.0702023059, 0.0520269051, -0.1310555339, 0.0212666113, 0.0310669541, 0.0821767449, -0.0669961944, -0.0790196508, 0.1082710922, 0.1298136562, 0.0037903425, -0.0677880347, 0.0260846838, -0.1140415967, -0.0913540050, -0.0935388431, 0.0263053309, -0.1277199835, -0.0972840190, -0.0101936711, -0.0144070694, 0.0292376075, 0.0771166906, -0.0227110572, 0.1487925202, 0.0318316370, -0.0178642161, 0.0101437736, 0.0423928984, -0.0037584179, -0.0158581696, -0.0597073920, -0.0046297726, 0.0450477786, 0.0269566681, -0.0620383583, 0.0853196830, 0.0813471153, 0.0576717667, -0.0095598856, 0.0105112689, 0.0932382718, 0.0049163797, 0.0554861240, -0.0129717663, 0.1503628343, -0.0811844617, -0.0237442255, -0.0664401278, 0.1196429208, 0.0240750145, 0.0023241965, -0.0070009539, -0.1015705019, -0.0486398824, 0.1387852430, -0.1261348724, -0.0629158989, 0.0051478655, -0.0115820803, -0.0353640392, -0.0150535265, -0.0456264876, 0.1481937766, 0.0384525843, 0.0235009026, -0.0953653157, 0.0989103466, 0.0685234815, -0.0788707882, -0.0208623577, -0.0438580140, -0.1092672125, 0.0101372991, 0.0504094400, 0.0093188332, 0.0338148437, -0.0801702365, -0.1021077633, 0.0304646958, -0.0108131217, 0.0346729644, 0.0007463377, 0.0519808047, -0.0528663248, 0.0070662247, -0.0245188288, 0.0401692651, 0.0678456053, 0.1065055281, 0.0476443097, -0.0233899094, 0.0891720653, 0.0811275691, -0.0046930136, -0.0007439771, -0.0405791290, 0.0663845465, -0.0138031384, 0.0441818535, -0.0227965768, 0.0515421256, 0.0390130430, 0.0651767552, -0.0610285290, 0.0831782669, -0.0407118388, -0.0060704439, 0.0484420173, 0.0649365708, 0.0874836445, 0.1032134145, 0.1352773905, -0.1130988747, 0.0250074174, 0.0235919543, 0.0444409363, 0.0691041574, -0.0762074813, 0.0787994340, -0.0481965654, -0.0978214219, -0.0393312834, 0.1310506016, -0.0999881551, -0.1165092140, 0.0205491651, 0.0633814707, -0.0626660064, 0.0601438135, -0.0644108877, 0.0357855596, 0.0115406131, -0.0756282583, 0.0730465800, -0.0768520087, 0.0163507704, -0.0322957709, 0.0520293675, -0.0793908760, 0.0405149981, 0.0588705204, 0.0196320768, 0.0411323905, 0.0158981718, -0.0265846811, -0.0321247801, 0.0779672489, -0.0361460224, 0.0241161231, -0.0908182189, -0.0949319527, -0.0098101851, 0.1044640690, -0.0069080135, -0.0250509717, 0.0645688400, -0.0538926013, -0.0271456446, -0.0764994845, -0.0689457133, 0.0592401922, -0.0448455662, 0.0448856242, 0.0321985483, 0.0479824543, -0.1737450361, -0.0252204984, -0.1359734982, 0.0399573259, -0.0449993722, -0.0452718958, 0.0404989906, -0.0908054709, -0.0379179120, 0.0043729409, 0.0315741822, 0.0692745969, -0.0266017336, -0.0957718045, 0.0060733994, -0.0102114882, -0.0299758967, 0.0260052942, 0.0370463058, 0.0057372795, -0.0839796886, -0.0840351880, 0.0232726168, 0.1029727012, 0.0166058801, 0.0902449712, 0.0046891738, -0.0125906179, -0.0068421070, 0.0573273525, 0.0449286401, 0.0289201066, 0.0809522420, -0.0914970264, 0.0176561531, -0.0345223881, -0.0527636036, 0.1166581213, -0.0281636324, -0.0493011251, 0.1225842685, 0.0023534070, 0.0817914009, -0.0712767169, -0.0952710956, -0.1191095933, 0.0157126579, 0.0669902414, 0.0127999438, -0.0441072732, 0.0255724732, -0.0599943064, 0.0091896355, -0.0292492248, -0.1228584796, -0.0538030975, -0.0564485528, -0.0870263427, 0.0913211703, -0.1474083215, -0.0234551392, -0.0959891975, 0.0076983245, -0.0798565522, -0.0185829345, -0.1089761406, -0.0081430515, -0.0888240412, 0.1011066660, 0.0009729806, 0.0395885706, 0.0699307472, -0.1075296998, 0.0324528664, -0.1148721129, -0.1881633997, -0.0259844158, -0.1349477619, 0.0196627676, 0.0646149069, -0.0508283116, 0.0186532084, 0.0866385773, 0.0557286255, -0.0059265345, -0.0564125068, 0.0042438642, -0.0098406393, -0.0579288043, -0.0606184676, -0.0210446883, -0.0170821976, -0.0519057177, 0.0057238177, 0.1136579141, -0.0833332092, 0.0977970734, -0.0129671358, -0.0210934095, -0.0436054915, -0.1055818126, -0.0603484921, -0.1190044582, -0.1648334414, -0.1000596061, -0.0725215003, 0.0414292291, 0.0804153979, -0.0476909429, 0.0033831734, 0.0792596042, -0.0855214372, 0.0664978698, -0.0571776517, -0.0979516059, 0.0250862185, -0.0610413924, 0.0571139157, 0.1133019924, -0.0882051289, -0.1041014194, 0.0316541791, 0.1077747494, 0.0280315951, -0.0367072895, 0.0553022251, 0.0258291308, -0.0638530105, 0.0059352582, 0.0968167186, -0.0165805370, -0.0350686163, -0.0802556798, -0.0623015091, 0.0390561558, -0.0831854716, 0.0411955193, -0.0102507267, -0.0201688856, 0.0433292091, -0.0330084562, -0.0136385951, 0.0386293493, 0.0661496222, 0.0178729352, -0.0363441370, 0.0330756828, -0.1232687682, 0.1343133748, 0.0014006573, -0.0276754834, 0.0717735067, 0.0265657641, 0.1195408180, 0.0964543894, 0.0904014558, -0.0131081892, 0.0464234352, 0.0361430533, 0.1562903523, 0.1107779220, 0.0254407823, 0.0062477053, 0.0986561179, 0.0154869743, 0.0674157217, -0.0017458267, -0.1173189804, 0.0506394543, -0.0779747441, 0.0198141411, -0.1330381036, 0.0278090686, 0.0686088428, -0.0343305133, -0.0297815520, -0.0098281195, -0.0384719111, 0.1122066900, 0.0232988372, 0.0161148291, 0.0346307158, 0.0537961274, -0.0674339309, 0.0680174381, 0.0693296120, 0.0054894844, 0.1959527433, 0.1054921299, 0.0742228553, 0.0316800252, 0.0929530561, 0.0108359596, 0.0062518581, 0.0680085421, -0.0922315940, 0.0954057649, 0.0332369097, 0.0462011807, -0.0952560827, -0.0553327985, 0.1244845837, 0.0375018083, -0.0054378118, 0.1129411235, -0.0163024589, 0.0426704958, -0.0726513267, -0.0447870418, -0.0035272762, 0.0565260611, 0.0185809508, 0.1068714708, -0.0672833249, -0.0477414951, 0.0495469496, 0.0135459676, 0.0069695096, -0.0151064545, 0.0514792725, -0.0322079360, 0.1288121194, 0.0368319079, 0.0136826960, 0.0250573531, -0.0116820717, 0.0022214367, 0.0291704480, -0.0604099482, 0.0069762315, 0.0839957446, 0.0709018856, -0.0628140122, 0.0482418835, -0.0145612713, 0.1336074471, 0.0851312652, -0.0743747428, -0.0823215991, 0.0768913403, -0.0607318878, -0.0303405076, 0.0765129179, 0.0135431457, -0.0569423512, 0.0766116679, -0.1312146187, -0.0016223964, 0.0308568850, -0.1285522431, -0.0523131341, -0.0419149585, -0.0196651835, -0.1310079396, 0.1297973841, -0.0411637351, -0.0461115018, 0.0402652472, -0.0515274480, 0.0419534594, -0.0951498449, 0.0215649642, 0.0356229432, 0.0137599641, -0.0866871774, -0.0281674117, -0.0037252491, -0.0122532723, -0.0119492961, 0.0825046599, -0.0266980566, -0.0497508161, 0.0253036153, -0.0670320243, 0.0106617343, 0.0230015311, -0.0950565711, -0.2142638415, 0.0094891014, -0.0062984014, -0.1201338693, -0.0148863336, 0.0149419801, 0.0148632796, 0.0961164907, 0.0078399619, 0.0088471537, -0.0307543874, 0.0181623977, 0.0576382987, -0.0018314139, -0.1196613312, 0.0951592550, -0.0961702690, 0.0479062982, 0.0858715624, -0.0183394793, -0.1149693727, -0.1275149137, 0.0111903502, 0.0338017903, 0.0528475754, -0.1408695430, -0.0420093313, 0.0385046005, -0.0111604892, 0.1155649573, -0.0604316965, -0.0348185562, 0.1482418776, 0.0713099763, -0.0140290987, 0.0264370348, -0.0386351496, -0.0947631449, -0.0060176835, -0.0644469261, 0.1011800990, 0.0942022577, 0.0075981966, 0.0326561816, -0.0104065137, -0.0145648001, 0.0904497281, 0.0016069119, 0.0739459172, -0.0405654684, 0.0591282584, -0.0060145655, 0.0785210133, 0.0013155249, 0.0235520415, 0.0331007726, -0.1357465535, 0.0597456619, -0.0636299923, 0.0305490196, 0.0079418439, 0.0513681732, -0.1167358086, -0.1020217538, -0.0528991260, -0.1367947459, 0.0020749385, -0.1089643762, -0.0234407689, -0.0395216234, 0.0777986050, -0.0537494682, 0.0709589049, -0.1118910387, -0.0448580310, -0.0570155233, -0.0276670046, 0.0649524555, 0.0093101356, 0.0671503916, -0.0081930039, -0.0899580121, -0.0384276137, 0.1162230670, 0.0126490295, 0.1362445801, 0.0466254838, -0.1121752337, -0.1071999073, 0.0152153894, -0.0223114844, 0.0646752492, -0.0127723683, 0.0067337453, -0.0013389851, -0.0292881932, -0.1004749388, 0.0680350140, -0.0129194390, 0.0558754951, -0.0099326307, -0.0045214086, -0.0278278235, 0.0067331679, 0.0558618233, -0.1758203804, 0.0255272165, 0.0335484855, -0.0201356672, 0.0441975966, 0.0430050008, 0.0369684771, -0.0262910128, 0.1242515817, -0.0075244736, 0.0412131324, -0.0372063853, -0.0825949684, 0.0083087683, 0.0410760082, -0.0335958563, 0.1109817401, -0.0660672560, -0.1002550349, -0.0293984879, 0.0582916439, 0.0300295018, 0.0412018932, 0.0310126003, 0.0171151571, -0.0818811730, -0.0925003663, 0.0372723192, -0.1080185547, -0.0600242689, 0.0325022601, -0.1939361840, 0.0609633178, -0.0217953529, 0.0578331128, -0.0316747539, -0.0067213476, 0.0800717026, 0.1592093557, -0.0203044601, -0.0719358250, -0.0438728854, 0.0465515107, 0.0291002244, -0.0824214593, 0.0298100449, 0.0538582504, -0.0199073628, -0.0267846510, -0.0485906787, 0.0042063463, 0.0761759952, 0.0032858064, 0.1033755913, -0.0618405938, -0.0163709279, -0.1416806430, -0.0046415748, -0.0227803923, 0.0138917696, -0.0360530913, -0.0588898659, -0.0090123434, 0.1384048909, -0.0140520409, -0.0301828478, 0.0153776268, -0.0084426785, -0.1357562691, 0.0630824938, 0.0071855043, -0.0013498350, -0.0745411813, 0.0534570813, 0.0930131152, 0.0886962861, -0.0060485592, -0.1182476580, 0.0335665978, 0.0782526955, 0.0701731294, -0.0483990461, 0.0530741289, 0.0198201258, -0.0436913706, -0.0715643018, -0.0437314585, -0.1091637537, 0.0454594679, -0.0334918201, -0.0953990743, 0.1204440966, -0.0906884670, -0.1503810883, 0.0183446072, -0.0875115991, -0.0224229507, 0.0966919437, 0.0684577152, -0.0202731155, 0.0721102506, -0.0142508810, -0.0445564203, -0.0377510898, -0.0284847412, 0.0172203984, 0.0083244182, 0.0325163491, 0.0036973918, -0.0487737618, -0.1190778539, 0.0255710594, -0.0930609554, -0.0061371359, -0.1426959038, 0.2041528523, 0.0302151293, 0.1162860394, 0.1107139066, 0.0228906684, -0.0060524615, 0.1214474589, -0.0327987187, 0.0194804221, 0.0367366225, 0.0646729842, -0.0252088234, -0.0678939521, -0.0762500092, -0.1196317002, 0.0539099537, 0.0671701431, 0.1175011024, 0.0246173702, 0.0856733546, -0.0095568942, 0.0300587490, -0.0749570504, 0.0569295362, -0.0021474336, -0.0309666637, 0.0002565280, -0.0605799295, 0.0820145383, 0.0685523748, 0.0533533581, -0.0876091272, 0.0173853282, -0.0473981723, -0.0210970473, 0.0295542851, -0.0354763195, -0.0883953273, 0.0069633601, 0.0026309234, 0.0023791287, 0.0845309272, -0.0742607564, -0.0998328775, 0.0240745805, 0.0369931646, -0.0306319986, -0.0399941355, 0.0996286348, 0.0301119853, 0.0508675352, -0.1251384914, -0.0109118558, 0.0522243232, -0.0080782762, 0.0107890973, 0.0090360017, 0.0450873896, 0.0016987969, 0.0275677964, -0.1215272322, -0.0046570143, 0.0550212860, 0.0965572819, -0.0198946055, -0.0183554851, 0.0132971155, -0.1288477033, 0.0709344521, 0.0640439540, -0.0166312866, -0.0716901645, -0.0523339920, 0.0542292073, 0.0274833720, 0.0116815399, 0.0283094980, -0.0435399972, 0.0420488678, 0.0399249494, -0.0478448197, -0.1287996769, 0.0606446937, 0.0149466833, 0.1199286804, 0.0186350290, -0.0309854839, -0.0198848452, -0.1129850075, 0.0266802870, 0.0139635066, 0.1621658057, 0.0731854066, 0.0728606805, 0.0062539219, 0.0009657645, 0.0749048069, -0.0100291176, 0.0990687236, 0.0791284069, -0.0462239496, 0.0879210383, 0.0240366235, -0.0156054106, -0.0310637075, 0.0346268453, -0.1046913117, 0.0791800171, -0.0315437131, 0.0283408258, 0.1337347925, 0.1216622815, 0.0693472624, 0.0567114279, 0.0212980621, -0.0099145276, 0.1628404558, -0.0267891213, 0.0031309491, 0.0237255543, -0.1713301092, -0.0031813909, 0.0529111028, 0.0211062878, -0.0512479432, -0.1172112525, -0.0588525385, -0.0476290919, -0.0977526233, -0.0403487273, -0.0187541805, 0.0642417222, -0.0608889237, -0.0637502670, -0.0092275655, 0.0543830357, 0.0382360257, -0.0097704949, 0.0351938382, 0.0505980961, -0.0370794833, -0.0243826695, -0.0347916149, -0.0014984455, -0.0511936694, 0.0672733635, 0.0179298874, -0.0147660300, -0.0577670075, 0.0151336575, -0.1154329032, -0.0336038433, -0.0153003745, 0.0567182153, -0.0530516952, 0.0520198569, -0.0652912036, -0.0176537428, -0.0323208794, -0.1062028632, -0.0109692728, -0.0052957679, -0.0861838311, -0.0787469670, -0.0183749944, -0.0304796249, -0.0399138704, 0.0308629349, -0.1298638433, -0.0002289487, 0.0614280850, -0.0134446267, -0.0006221458, -0.0209372994, -0.0843171030, 0.0332078710, 0.0916437507, 0.0851412192, 0.0204091873, -0.0121583808, -0.1083626151, -0.0461400598, 0.0340334289, -0.1474565268, -0.0327906460, -0.0477766059, -0.0187253170, -0.0144570488, 0.0469144359, -0.0419013910, -0.0871085376, 0.0201435685, -0.0116810612, 0.1401653588, 0.0363826975, 0.0281881783, -0.0278775450, -0.0209863111, -0.0179398488, 0.0371462516, 0.0755274370, 0.0116157243, -0.1755279154, -0.1636237055, 0.0500370041, -0.0594717897, 0.0195451584, 0.0688700527, 0.0956089497, -0.0468695872, -0.0964043662, 0.0612954758, -0.0359001346, 0.0168760549, 0.0875282288, 0.0126907751, 0.0315722972, 0.0134418840, 0.0496078320, -0.0951916054, -0.0655285344, 0.0179946218, -0.0048188348, 0.2374294549, -0.0376888886, -0.0848958045, -0.0458767861, -0.1168655679, 0.0181298461, 0.0160228033, -0.0799961314, 0.1405262053, 0.0888941512, -0.1109764352, -0.1151576117, 0.0126409801, 0.0696028396, 0.0711531863, 0.0705630556, 0.1123336181, 0.0330525897, 0.0463948622, 0.0875419304, 0.0258518029, -0.0539400503, 0.0450463519, 0.0602246709, -0.1016008109, -0.0813094005, -0.0235623196, 0.0157267246, -0.0551857315, 0.1011738628, 0.0800903812, -0.0496525131, 0.0713230669, -0.0132360877, -0.0880251676, -0.1446854621, -0.0506419502, -0.0254308619, 0.0668300614, -0.0480603352, 0.0355682075, 0.0149795767, -0.0495564453, 0.0735589862, 0.0722313672, 0.0044993418, -0.0297304466, -0.0916771144, 0.0310898945, -0.0447734706, 0.1007736251, 0.0583331138, -0.0322134607, -0.0286628399, -0.0864282027, 0.0595880263, 0.0971123427, -0.0372452140, 0.0160616226, -0.0439263359, 0.0354904905, 0.0236880668, 0.0147440797, -0.0262422096, -0.0365924276, -0.0117990244, 0.1043729261, 0.0787738115, -0.0411309265, 0.0093965931, -0.0556140952, -0.1042991504, -0.1036877856, 0.0415453650, -0.0197800305, 0.0879096538, 0.0184723381, -0.0187097788, 0.0289255567, -0.0467130169, 0.0562873743, -0.1161948442, -0.1271713972, 0.0797279105, 0.0206078589, 0.0048742970, -0.0985253975, -0.0279737897, -0.0326754265, -0.0671193153, -0.0927425474, 0.0092708198, -0.0487892851, 0.0104518309, 0.1137067676, 0.0163335633, 0.1042940170, 0.0275984462, -0.0443955734, 0.0159995425, 0.0737406090, 0.0929135010, 0.0362847149, 0.0838049948, -0.0061592241, -0.1291108876, -0.0697540641, 0.0493263304, 0.0282435007, -0.0942778140, 0.0099645546, 0.0345329009, -0.1633046865, 0.0216356125, 0.0986766443, 0.0878441334, 0.0223432351, -0.0693722665, -0.0092914691, 0.0138466544, 0.0052621416, -0.1223066449, -0.0740042254, 0.0923514068, 0.0176182035, -0.0845391154, -0.0723621696, 0.0684806630, 0.0160337817, -0.0371854044, -0.0335571989, -0.0566295385, 0.0387744084, 0.1021282673, -0.0325521603, 0.0336742513, 0.0571065471, 0.0244532488, 0.0467004627, 0.0716241300, 0.0442688577, -0.0312709548, -0.0329205431, -0.0126114711, 0.0189246330, -0.0774483681, 0.0212340020, 0.0490420684, 0.0183456913, -0.0551440008, 0.0062772892, 0.1020853817, 0.0078033209, -0.0381862819, -0.0411325097, -0.0034925845, 0.0749137178, 0.0461656787, 0.0047786706, -0.0741793364, 0.1111825481, -0.0798807964, 0.0278171599, -0.0419315398, -0.0104795191, -0.0503451787, -0.0029953774, 0.0203204006, -0.1950038075, -0.0844589472, -0.1077387184, 0.0608378984, 0.0703912750, -0.0035470123, -0.0448098481, -0.1080133542, 0.0508760326, 0.0448827706, -0.0197575502, -0.0632470176, -0.0081262244, -0.0206276625, -0.1293659657, 0.0387359671, -0.0349976756, 0.0268420652, -0.0061551156, -0.0357452035, 0.0183467120, 0.0515780970, -0.0118808299, 0.0571741313, -0.0367314145, -0.0069177058, 0.0247641020, 0.0073837466, -0.0988949835, 0.0109462244, 0.0670043677, 0.0625088587, -0.0503823385, 0.0416897833, -0.0217573121, 0.0563155971, -0.0459552482, 0.0382181741, 0.0611463748, -0.0499162450, 0.0360091999, -0.0192548633, 0.1227471307, 0.0663218573, -0.1104330420, -0.0852352604, 0.0849242806, 0.1182904318, -0.0265408866, -0.0882554129, 0.0320296586, -0.0957700610, -0.0096675418, -0.0068859328, 0.1400015503, -0.1631829888, -0.0871625766, 0.0176069457, -0.0182469878, -0.0188762490, 0.0345247127, 0.0630804375, 0.0570628271, 0.1819450557, 0.1168794781, -0.0110291280, 0.0692962781, 0.0295057762, 0.0796409175, 0.0682371482, -0.0414422303, 0.1284683645, 0.0387935303, -0.0116154654, -0.0952390209, 0.0210465696, -0.0739100575, 0.0458970815, 0.0276172012, -0.0249137245, 0.0260736737, -0.1219777465, 0.0692692250, 0.0723014921, -0.0866784975, 0.0505528599, -0.1097644940, 0.0693641230, 0.0333077051, 0.0976264477, 0.0865936354, -0.0437638462, 0.0966571867, 0.0062331217, 0.1302551180, -0.0835778341, 0.0696269870, 0.0188528076, -0.0507657342, 0.1155167744, 0.0702057183, 0.0821584463, 0.1285671890, -0.1468630284, 0.1177452579, -0.0266429055, -0.1053819433, 0.0128234681, -0.0905034393, 0.0692989901, -0.0956419632, 0.0249781702, 0.0719734281, 0.0213207919, -0.0225115642, -0.0386912748, -0.0070962752, 0.0303438324, 0.2024012059, 0.1419737041, 0.0155567508, 0.0555849373, 0.0265090875, 0.0065172785, 0.0074055856, 0.0399392731, 0.0160581954, -0.0153638376, 0.1647428125, -0.0902466103, -0.0897528455, -0.0091988901, 0.0586222820, -0.0811309144, 0.0744050667, -0.1040529385, 0.0602028109, -0.0845209286, 0.0285519976, 0.0038736309, 0.0524910949, 0.1501100212, 0.0519295856, 0.0503613502, 0.0349567644, -0.0721259415, 0.2189677507, 0.0771591812, -0.0571341775, -0.1146166548, -0.0450192913, 0.0537399910, -0.1017827466, 0.1162059456, -0.1289175600, -0.1213118881, 0.1666186005, -0.0679504350, 0.0723508894, -0.0900930688, -0.0910690874, -0.1480355561, 0.0044298717, 0.0191241167, -0.0043998770, -0.0428468809, 0.1109299064, 0.0761220381, -0.0269580688, 0.1552668810, 0.0734531805, 0.0030786572, -0.0345788710, -0.1077387258, 0.0906145647, 0.1017804146, 0.0140664857, 0.0907817855, -0.0154945944, 0.0205208156, -0.0900041163, 0.0344290435, 0.0294883084, -0.0463270582, 0.0336186066, 0.1175107509, -0.0896005854, -0.0569163412, -0.0888838768, 0.0852020979, -0.1883319020, -0.1397850513, -0.0621777922, 0.0350206979, -0.0489401482, -0.0161507092, -0.0033087484, 0.0262956154, 0.0507595837, -0.0137300035, 0.0228975527, 0.0606443994, -0.0777116269, 0.0197584834, 0.0505764075, 0.0491577722, 0.0945515782, -0.1253802627, 0.1037377864, -0.0295621064, 0.0548015833, 0.0269702859, 0.0808813721, -0.0448306389, -0.1241769120, -0.1039928570, 0.0394820645, 0.0697626621, 0.0414220765, 0.0012908760, -0.0522572175, -0.1071003675, 0.0846816897, 0.0702899620, -0.0287175104, -0.1293003410, 0.0032347790, -0.0783632994, 0.0552492365, 0.0397742651, -0.0055750278, -0.0000740316, 0.0423658416, 0.0398119874, -0.1417966187, -0.0399805829, -0.0856882185, 0.0409638397, 0.0530592911, 0.1521606147, -0.0159569234, 0.0470124893, -0.1077715755, -0.0090495478, -0.0062730685, 0.0197071303, 0.0218701009, -0.0997647569, 0.0521223955, -0.0514127687, 0.0557604432, 0.1372457743, 0.0958473608, -0.1444884688, 0.0151387304, 0.0141562168, 0.0765468478, 0.0906200930, -0.0388859622, -0.0287811961, -0.0475688167, 0.0218162201, -0.0041481089, 0.0503939092, -0.1466398984, 0.0663103163, -0.0819260702, 0.1380064338, -0.0339743793, 0.0732351094, -0.0644379482, 0.0274490118, 0.0320704021, -0.0428199172, -0.0189450383, 0.0586072691, -0.0576251671, -0.0529854260, 0.0599724650, 0.0714187548, -0.0778813362, 0.0074980524, 0.0876106471, -0.0538869947, 0.0110783800, 0.1051260680, -0.1036400348, 0.0347421132, 0.0631882250, -0.0037613004, 0.0149264866, 0.1181833893, -0.0130421957, 0.0864847451, 0.0452738404, 0.0632202998, -0.1118015125, -0.0970914662, -0.0805844888, 0.0622097515, -0.0113126859, 0.0599755049, 0.0734481737, -0.1391015649, -0.0512687080, 0.0134926289, 0.0719097555, 0.1402334720, 0.0804615915, 0.0139326639, 0.1323322952, -0.0019688169, 0.0416292734, 0.0958289281, 0.0219303258, 0.1205248088, -0.0535504036, -0.0134342862, -0.0478594750, 0.0078168400, 0.0100240847, 0.0593736805, -0.1400411576, 0.1147949621, -0.0665460676, -0.1268030256, -0.0752620250, -0.0803120658, 0.1163975298, -0.0731651261, 0.0044158832, 0.0514515303, 0.0435864106, -0.1018426940, -0.1211993843, -0.0083093056, 0.1261756420, 0.1650170088, -0.0619362146, -0.0145038581, -0.0871852264, 0.0909225047, -0.0266946480, -0.0541978665, -0.0102510229, -0.0219708402, -0.0248706434, 0.0119622005, -0.0128226839, -0.0256411303, 0.0687893778, -0.0662278906, 0.1365276873, -0.0385755934, -0.0205683727, -0.0840701908, -0.0261267200, -0.0662136748, 0.1404297650, 0.0599187091, -0.0994605497, -0.1784753054, 0.0427331328, -0.0042352695, -0.0623455271, 0.1673135310, 0.1599214524, 0.0062473449, -0.0913342759, -0.0191443060, 0.0764439180, 0.0046865083, -0.0365911424, -0.1647157669, 0.0227040499, 0.0775507241, 0.0440878645, 0.1244565398, -0.0325228833, 0.0205100849, -0.0804063007, -0.1181669086, 0.1127428636, 0.0929979458, 0.0410347916, 0.0592556596, 0.0073466757, 0.0311544202, 0.1277165860, 0.0610700585, 0.0715047941, 0.1280087978, 0.1756654680, 0.1195806637, -0.0773078576, 0.0716537014, 0.0875157714, -0.1754956245, 0.0484543741, 0.1530554146, 0.0580273196, -0.0013456129, 0.0862772465, -0.0067306091, -0.0502187014, 0.0002834452, -0.0103972722, -0.0076883812, -0.0306831915, 0.0184877515, 0.0218830984, -0.1170584932, 0.0178919788, -0.0185696520, 0.0600801520, -0.0436259694, -0.0110740904, -0.0091785016, -0.0639848113, 0.1026165336, 0.0277950522, 0.0217605028, 0.0082152225, -0.0175442807, -0.0058640228, -0.1207506582, 0.0335700028, 0.0310079549, 0.1060194969, 0.0863425136, 0.1196752042, -0.1176833063, 0.0233904403, -0.0205617361, -0.0012404964, -0.1416987032, 0.0303312521, 0.0081399782, -0.0758237541, 0.0509527028, 0.0481867567, -0.1075621992, 0.0045486651, -0.1513808370, -0.0170565955, 0.0013236102, 0.0257684775, 0.0256077927, -0.0529909730, 0.0044480069, 0.1500796676, -0.0550560765, -0.0505202301, 0.0909608305, 0.0686922520, 0.0362287350, -0.1135317385, 0.1364604384, 0.0388234667, 0.0202812161, 0.0709573925, -0.0329445750, 0.0635237098, 0.0470723733, 0.0445206091, -0.1225747913, -0.0050727855, 0.0363003388, -0.0425328165, 0.0996134505, -0.0041611521, -0.1788275838, 0.0767986551, -0.1918302327, 0.2101444304, 0.2016876191, 0.0329371430, -0.0336593837, 0.0781557783, -0.0309346262, -0.0748558342, -0.0992469788, 0.0133173373, 0.1261730939, -0.0340615399, 0.0072116591, 0.0175410472, 0.0581575222, -0.0236388706, -0.0709236637, 0.0483998582, -0.0833461881, 0.0007462114, 0.0364363268, -0.0834743157, -0.0624936409, 0.1370321959, 0.0175598413, 0.0817732066, -0.1123213246, 0.1292145997, -0.1101977229, 0.0357450098, 0.0248338114, -0.0171488021, 0.0075228270, -0.0082831644, -0.0174409170, 0.0243090820, 0.0549801849, 0.1329962313, -0.0286041759, -0.1269786954, 0.0830461532, 0.0300197005, -0.1238458231, -0.0706585646, 0.0731491372, -0.0791860446, 0.0016770302, 0.0833350718, 0.0573728159, -0.0197813883, 0.0301683582, -0.0204229131, 0.1137045994, 0.0939929187, -0.0283356458, -0.0419779494, 0.0493955500, 0.0733925551, -0.0812915340, 0.0616080835, 0.1003744826, 0.0519862585, -0.0013394637, 0.0230903812, -0.0265994743, -0.0006393016, -0.0286349859, -0.0658730417, -0.0465254821, -0.0337871946, 0.0029569471, -0.0387852006, -0.0672781765, 0.0070052701, 0.0032246115, -0.0495502688, 0.0227695666, 0.1020270512, -0.0122931674, -0.1241326109, 0.0477484725, 0.0714892671, 0.0140519384, -0.1083325744, -0.0205350854, -0.0390325263, 0.0261464491, -0.0372447781, 0.0613586754, -0.0304983798, 0.0549442992, 0.0784090310, -0.1335166246, 0.0284538530, 0.0171772018, 0.0334405527, 0.1439552605, -0.0235928074, 0.0882029012, 0.1206128076, -0.0117909815, -0.0078503992, 0.0385000110, 0.0227875262, 0.0622713454, -0.0290306080, -0.0806104392, 0.0957579836, 0.0181333888, -0.0747003630, 0.0338761471, 0.0617938749, 0.0559512898, -0.0812612101, 0.0153244287, -0.0528662279, -0.0190175753, 0.0368722640, 0.0248939544, -0.1524871290, 0.0432108790, 0.0312940069, 0.0310446359, -0.1153719351, -0.0164675675, -0.0394420028, 0.0206313357, -0.0352021530, -0.1336037368, -0.0670428053, -0.0476571843, -0.0148412343, 0.0899752453, 0.0448482148, 0.0142227998, -0.0192218013, 0.0229701400, -0.0383231305, 0.0489617176, -0.0126071274, -0.1021245345, 0.1295106560, -0.0732352138, 0.0031591363, -0.0427200645, 0.0034078127, 0.0923139080, -0.0540515371, 0.0704717860, 0.0090955542, 0.0718871653, 0.0000561800, -0.0170044042, -0.0332107022, -0.0158179887, -0.0514901727, 0.0276945904, 0.0245650150, 0.0165740512, 0.0486337766, 0.0136591373, 0.0145771150, 0.0270017795, 0.1187988669, 0.0928390995, 0.0433957800, 0.0603832342, -0.0653638318, -0.0634128228, 0.0571212135, 0.0299680717, -0.0064702411, -0.0509853624, -0.1653991640, 0.0964751467, 0.0770854279, -0.0329728723, 0.0418941118, 0.0442988165, 0.0757190958, -0.0098400703, -0.0119337719, 0.1057851538, -0.1093868166, -0.1654610187, -0.0523091890, 0.0219944213, 0.0222416222, 0.0724190548, -0.0725608394, -0.0616925992, 0.1635971516, -0.0997186676, -0.0183885526, 0.0576511472, 0.0616107844, 0.0007043055, -0.0740908235, 0.0259380173, 0.0494615287, 0.0359358452, -0.0106251761, 0.0672186241, -0.0561663955, 0.0749745741, -0.0278325137, -0.0282404851, -0.0158478767, -0.0175860040, -0.0998964757, -0.0485147610, 0.0907538459, 0.0366465077, 0.0394705161, -0.0577370226, -0.0839167237, 0.0276317056, -0.1045624018, 0.0632793531, -0.0087473923, 0.0485893227, 0.0657099560, -0.0840847343, 0.0112271030, 0.0366719216, 0.0121039273, 0.0123905754, -0.0219994988, -0.0506002828, -0.0184309427, 0.0480586775, 0.0225784183, -0.0303765759, -0.0034990690, 0.0589505583, -0.0494322181, 0.0242828038, 0.0094681168, -0.0245432444, -0.0027483434, 0.0016273457, -0.0430888571, -0.0341970325, 0.0424064249, 0.0312815383, -0.0782131553, 0.1145745814, 0.0308239944, 0.0598204695, 0.0611848459, -0.0282806549, 0.0302483384, 0.1129376665, -0.0596742481, 0.0036351187, 0.0211004354, -0.0284962617, -0.0661407560, 0.0288300421, 0.1011593565, 0.0313464254, -0.0756390020, 0.0219573546, -0.0836735964, 0.0375918411, 0.0154718868, 0.0809259191, 0.0546452664, -0.0152763641, 0.0243887566, 0.0448381528, -0.0546698086, 0.0558204353, 0.1216650680, -0.0655674115, -0.0709885135, -0.0246623624, -0.0736423507, 0.1275200695, -0.0106557682, -0.0841787010, 0.0165194999, -0.0054487516, -0.0181835238, -0.0461920165, -0.1152704582, 0.1002620235, 0.0629559159, -0.0708667710, 0.0267099086, 0.0078176828, -0.0559710264, -0.0680195466, -0.0733758733, -0.0818308294, -0.1153494120, -0.1458887011, -0.0346845388, -0.1251353770, -0.1201787218, -0.0716567189, -0.0612448528, -0.0076762587, -0.0619610101, 0.0141513078, 0.0575544275, -0.0261627361, -0.0785707384, 0.0971529782, -0.0634652376, 0.0771857724, -0.0292185731, 0.0695435032, 0.0494827107, 0.0705156699, 0.1033700183, -0.0527331717, -0.0735342503, 0.0016781585, 0.1528866142, 0.0785686672, -0.0550698489, 0.0125243524, -0.0637330785, 0.0677414984, 0.0356802195, 0.0479709320, -0.0495887436, 0.0603510626, -0.0763457417, 0.0920056626, 0.0095223086, 0.0589041673, -0.1144813001, -0.0814428702, 0.1386735439, 0.0465552695, -0.0049461676, -0.0049659051, 0.0372051038, 0.0105853025, -0.0617575459, -0.0236884486, -0.0710123032, 0.0218741931, -0.2061040998, -0.0404369570, 0.0728886575, 0.0482782759, -0.0849612057, 0.1253744960, 0.0135685671, 0.0086176936, 0.0754174367, 0.0248072110, -0.0086704129, 0.1278179586, 0.0441069007, 0.0559860654, -0.0071153366, 0.1042300835, -0.0226513203, 0.0415216237, -0.0345402434, 0.0443753712, -0.0339008383, -0.1234821826, -0.0616765507, -0.0804044753, 0.0289241653, 0.0044677891, 0.0270389207, 0.0559988879, 0.0558120981, -0.0470300876, 0.0876763761, -0.0108836880, 0.0019701393, -0.0568341948, 0.0922788382, 0.0789310113, -0.0436570384, 0.0343037061, 0.0739768371, 0.1093088612, 0.0639637634, -0.0098331319, -0.0339288227, 0.0486351140, -0.0883055031, 0.0035850047, 0.0159511976, -0.0255026054, 0.1425958723, 0.0023463406, 0.0926027894, -0.0874462053, 0.0380937643, 0.0524904542, 0.0486825891, -0.1088993922, 0.0021049452, 0.0650916100, 0.0375791490, -0.0753153190, -0.0841991305, 0.0134076560, -0.1032894701, 0.0724240243, -0.1233268008, 0.0456153229, 0.0142448172, -0.0023495296, 0.1390579939, -0.0274620932, 0.1130861640, -0.1251535118, -0.0207854528, 0.0322299004, 0.1047579497, -0.1113921478, -0.1382385641, 0.0661413223, 0.0063445019, 0.1149661466, -0.0088923341, 0.0812534019, 0.1447867155, -0.0720967427, 0.0225486681, 0.0825549439, 0.0935024694, 0.0851780027, 0.0433519036, -0.1112280488, -0.0855980664, 0.0288701896, -0.0714375228, 0.0130716423, 0.0076536196, 0.0158665664, 0.0676825866, 0.0830645114, 0.0740098283, 0.1141544282, -0.0480769202, 0.0571394823, 0.0212814827, -0.1253369898, -0.0014646173, 0.0569082424, 0.1579238772, -0.0302022435, -0.1098977104, 0.0373577736, -0.0384237170, -0.1112608910, 0.0636233687, 0.1119114980, 0.0384400897, 0.0084264921, 0.0236894712, 0.0406150073, -0.0355844423, -0.1071372107, 0.0220450647, 0.1121110246, 0.0240180660, -0.0756485984, 0.0001732587, -0.0326122679, 0.0231804550, 0.0916316062, 0.0581990555, -0.0866962671, 0.0121178841, -0.0902422890, -0.0122444397, 0.1469946951, 0.0420297161, -0.0182952397, 0.0862141624, -0.0111351321, 0.0584705696, 0.0652272403, 0.0679873675, 0.0814120471, 0.0763827562, 0.0307053328, -0.0669480264, 0.0198629629, 0.0060686874, 0.1046434268, 0.0229933467, 0.1167874187, -0.0311218556, -0.0189646017, -0.0138909668, -0.0860466957, -0.0304730199, -0.0632165521, 0.0160415918, -0.0742419064, 0.0036640714, 0.1030007675, -0.0573756993, -0.0341077968, 0.0705601797, 0.0357817933, -0.0298430156, -0.0587421395, -0.0788834989, 0.0472790413, -0.0748393089, 0.0028191716, -0.0205574017, 0.1098501533, -0.0412997790, -0.0367359892, 0.0151170017, 0.0599534288, 0.0122069828, 0.0420012027, 0.0811554715, 0.0653807372, -0.0611418411, 0.0313109010, 0.0048869504, 0.0376632363, -0.0770525634, -0.0420907624, -0.0188367162, 0.0517587960, -0.0019111530, 0.0090756901, 0.0638626367, 0.0463242941, -0.0577812530, 0.0493704677, -0.0883928686, 0.0977832526, 0.0246653389, 0.0798770413, -0.0175414309, 0.0160984639, 0.0271104332, 0.1199875996, -0.0138142947, 0.0519205257, -0.0743867010, 0.0683448836, -0.1219944730, -0.0984251574, 0.0014825849, -0.0263902601, -0.0352673233, 0.0603394322, -0.0591833256, -0.0333768539, -0.0967850611, 0.0513176620, 0.0601096377, 0.0559232458, 0.1079237983, -0.0366077051, 0.0534051843, -0.0114614628, -0.0308799520, -0.0895275176, -0.0493130125, -0.1105907187, -0.0306108799, 0.0978031754, 0.0769340545, -0.0708705112, 0.0285363905, -0.0048853545, 0.0229480434, 0.0525024123, -0.0084115956, 0.0615314581, 0.0070001325, -0.0091384165, -0.0108498819, 0.0138642611, 0.2109144777, -0.0365293697, 0.0214831438, -0.0657871962, -0.0328077599, -0.0015908049, 0.0705517903, -0.0293641407, -0.0206647832, -0.1004220471, 0.0755936131, 0.0423822142, 0.0915849209, 0.0641990080, 0.1203486770, 0.0169104170, 0.0614878312, -0.1435382217, -0.0902597457, 0.0764238909, -0.0154244564, 0.1168471202, 0.0894174427, -0.0163571388, -0.1282027960, -0.0012286922, -0.0645101443, 0.0788491070, -0.0851055607, 0.1250703186, 0.0455545746, -0.1572139710, 0.0023060814, 0.0559895933, -0.0572781861, 0.1023200154, 0.0795297027, -0.0395973027, 0.0472807921, 0.0314684063, -0.0609259680, 0.0693399906, 0.0711554140, -0.1148065925, -0.0128529891, 0.0241905283, -0.0363986902, -0.0194623061, -0.0019484124, -0.1053743884, 0.0345119573, -0.0136206374, 0.0940931663, -0.0189609844, -0.0114513822, -0.0557604730, 0.0553007238, -0.0737712458, 0.1571610421, 0.0171532668, -0.0182761494, 0.1510871500, -0.0074510337, 0.0209230818, 0.0807944834, -0.0516665801, -0.0946469456, 0.0951706395, -0.2069181353, 0.0081402482, -0.0810500979, -0.0074486048, 0.0072239698, 0.0016407486, -0.0394521467, 0.0955176279, 0.0344371498, -0.0321863815, 0.0012469509, -0.0411690623, -0.0202549212, 0.0693386868, -0.1192151383, 0.1608705074, 0.0751674920, 0.0635569170, 0.0602852926, 0.0105739534, -0.0797549784, -0.0021709837, 0.0558249615, 0.1668005735, -0.0723852590, 0.0573300309, -0.0630615056, -0.0099650798, 0.1622688025, 0.1361229122, -0.0945937261, 0.0494466536, 0.0369042866, -0.0751392245, -0.1461625099, -0.0718789324, -0.1318095326, 0.1075576842, -0.0207277536, 0.0279918723, -0.0613669232, -0.0435012951, 0.0654155537, -0.1288459599, -0.0224691816, -0.0233104192, -0.0954123139, 0.0191279594, -0.0349125080, 0.1244314089, -0.0709722415, 0.0443533771, -0.0977340490, -0.0054870923, -0.0573667549, 0.1609761715, -0.0834041610, -0.0039455150, -0.0119123580, -0.0164644383, 0.1338301301, 0.0978454798, -0.0755256787, 0.0574824661, 0.1048627421, -0.0879219845, 0.0237860195, -0.0053315884, 0.0153581006, 0.0190860033, 0.0889399871, -0.0122372070, -0.0653928518, -0.0369805656, -0.0355077609, 0.0228398629, 0.0324071087, 0.0801344067, -0.0216033440, 0.1027863175, -0.0528990328, -0.0347985476, 0.0145044979, -0.0391766690, 0.0202803295, -0.0424135439, -0.0708109215, 0.0049920157, 0.0072049946, 0.0684602410, -0.0740714148, 0.0305453483, -0.0984771103, 0.0270685181, -0.0226197261, 0.0396407209, 0.0905241817, 0.0356014818, -0.0513705872, 0.0929814130, 0.1209024340, -0.1591825336, 0.0791523159, -0.0448279493, -0.0832998306, 0.1645431966, -0.0013215638, 0.0955735296, 0.0598400235, -0.0182782561, -0.1065459326, -0.0098860431, 0.2384447306, -0.0460167155, 0.0425072052, 0.0297509693, 0.0776552856, 0.0321575664, -0.0242355112, 0.0729445964, 0.0010153295, -0.0454941690, -0.0333543532, -0.0104597937, -0.0378125459, 0.0492929481, -0.1082857028, 0.1152497828, -0.1236871779, -0.0417161733, -0.0411949567, -0.0898680165, -0.0363283157, 0.1597492248, 0.0099507589, -0.0760924593, -0.0103583978, -0.0679913685, 0.0215893891, -0.0222117770, -0.0353911966, -0.0608887449, 0.0719324648, 0.0115970988, -0.0234142356, -0.0833960623, -0.0864460096, -0.0297034867, 0.0610010847, -0.0011810417, 0.0933181867, 0.0800158456, -0.0584827513, 0.0363999382, -0.0058054831, 0.0442196317, -0.0511415377, -0.0034121163, 0.0805405900, 0.0705888197, 0.0573754795, 0.0939991996, -0.0589562319, -0.0684393346, -0.0021951543, 0.0795490146, 0.0034777974, 0.0558406524, -0.0544995777, 0.0726817548, -0.0651841462, 0.0152882244, -0.1170836911, -0.0110768573, 0.0402981788, 0.0218640324, -0.0361872502, 0.0587892346, -0.0315086357, 0.0617928877, 0.0720411837, -0.0563507378, 0.0904287696, -0.0544900671, -0.0309962519, 0.1069065705, 0.0887175649, 0.0090065589, 0.1203304455, -0.0524052307, 0.0039019661, -0.1178082451, 0.0752687454, -0.0434963703, -0.0664513931, 0.0900999978, 0.0510664694, -0.0084860232, -0.0293994490, 0.0495646410, -0.0541520379, -0.1301653683, -0.0438837223, 0.1151516736, 0.0125038493, 0.0416375101, 0.0210699346, -0.0316835642, -0.0545754246, -0.0656162500, 0.0823100060, -0.0272107311, -0.0086971167, -0.0586703084, -0.0903162137, -0.0300041474, -0.0080393786, 0.0605731122, 0.0120336562, 0.0050237989, 0.1494466215, -0.0641314089, -0.0121736359, -0.0027483320, -0.0092456890, 0.0172550809, 0.0818159431, -0.0078900754, -0.0019027292, -0.0642218143, -0.0722714514, -0.0888645127, 0.0715503693, 0.0659273565, 0.0588421598, 0.0602603033, 0.0199702680, -0.0638507083, 0.0283536352, -0.0308901034, 0.0237731710, 0.0255154166, -0.0157328248, -0.0954142362, -0.0901813433, -0.0694281757, 0.0408870243, 0.1645978093, 0.1460950524, -0.0385887474, 0.0188771430, -0.0454102941, -0.0246553048, 0.0904911757, 0.0561404526, 0.0841536820, -0.0039962865, 0.0024975305, -0.0177474562, 0.0317476802, 0.0672744513, -0.0575093031, 0.0056990404, -0.0730842873, -0.0037123349, -0.0541205481, -0.0179990400, 0.0170193296, -0.0048332950, -0.0168003477, -0.0002600291, -0.0474236719, 0.0327735655, 0.0670400858, -0.0003729846, -0.0087633468, 0.0740093887, -0.1167943105, -0.1795955598, -0.0331201926, -0.0391765013, 0.0203361642, 0.0391387455, -0.0457309410, -0.1337374002, 0.0205778144, 0.0585318543, 0.1519902349, -0.0541026331, 0.0054387767, 0.0403287113, -0.0495008528, -0.0485844165, 0.0147359325, -0.0337439589, -0.0277581178, -0.0713293701, -0.1099002436, -0.0492684990, 0.0804054439, 0.0833169594, 0.1422089189, 0.1130042523, -0.0388198756, -0.0956957042, 0.0924294516, 0.0928357318, -0.1362898201, 0.1182478592, 0.0936358944, -0.1147873476, -0.0644110069, 0.0478130355, 0.0887289122, -0.0573115237, 0.0317350961, -0.0971014872, 0.0513697565, -0.0066746110, -0.0748105347, 0.0172868837, 0.0109911263, 0.0184743945, -0.0478221849, 0.0311599467, 0.0141904438, 0.0018964154, -0.0914710313, 0.0803703144, 0.0277013164, 0.0602888912, -0.1571594328, 0.1624333858, -0.0538328290, -0.0526425131, 0.1024985239, 0.0217598621, -0.0075818310, -0.0019895213, 0.0853539854, -0.0324155316, 0.0597118214, 0.0571559109, -0.0644188672, -0.0396360196, 0.0586491115, 0.0078941146, 0.0056842505, -0.0134862140, 0.0122729782, -0.0360369086, 0.0501418486, 0.0793177933, 0.0042125341, -0.0711767673, -0.0774062201, -0.0599281825, 0.0567135364, -0.0347344056, -0.0977007821, 0.1216911599, -0.0429248363, 0.0768669769, 0.1036903039, 0.1057071015, -0.0172841921, -0.0515963249, 0.0127111999, -0.0061018616, -0.1058441252, -0.0770197213, 0.0759861916, -0.0519087277, -0.0322018377, -0.0211290084, -0.0162228961, 0.0143277226, 0.0445910543, -0.0707666129, 0.1028040573, 0.1119139865, 0.0698298588, 0.0592195615, -0.0132334996, 0.0456899218, 0.1350968480, 0.1182707697, -0.0822868794, -0.0079591377, 0.0194265209, -0.0463108532, -0.0001337163, 0.0375833586, 0.1179081798, -0.0143899396, -0.0813833177, 0.0573370159, -0.0034451343, -0.0429893695, -0.0430102125, 0.0425682366, -0.0894762948, -0.1438906789, 0.0006408435, 0.0142347189, -0.0033250065, -0.0495186858, -0.0955960900, 0.0101456326, 0.0247594714, -0.0161684249, -0.1259551346, -0.0816318914, 0.0312470719, -0.0335082486, -0.0029784851, 0.0216291863, 0.0208920576, 0.0113516031, -0.0547695793, 0.0531416424, -0.0673419833, 0.0803058073, 0.1431406140, 0.2550173104, 0.0186724253, -0.0121589629, -0.0334474631, 0.1226583272, -0.0227320138, 0.0220564734, -0.0506090224, -0.0390789472, 0.0742154047, 0.0259668529, 0.0881702229, -0.0326783173, 0.0475100167, 0.0041173906, -0.0314253904, -0.0286830943, -0.0420699678, 0.0825438499, -0.0104064234, 0.0497260727, -0.0137536675, 0.0502556935, 0.0568568893, -0.0751638710, 0.0944491327, 0.0299234856, 0.1556660384, 0.0470484346, 0.0578591861, 0.0668269768, 0.0324051082, 0.0067061251, 0.0344613232, -0.0330498554, -0.0003782198, -0.0585700236, 0.0448663644, -0.0163855832, -0.0135972416, -0.0081086140, -0.0875792205, -0.0256703440, 0.0067620487, 0.0606450811, 0.0812939703, -0.0723002106, -0.0656820163, 0.0562082455, 0.0445973314, -0.0195597224, 0.0902469680, -0.0819193721, 0.0490487851, 0.0094038807, -0.0830412656, 0.0220868569, 0.0322800092, -0.0798466802, -0.0153652374, 0.0846593082, -0.0768174380, 0.0017124872, 0.0529620349, -0.0114346324, -0.0306695122, 0.0651493222, 0.0122812735, 0.0200703386, -0.0227345508, -0.1219153851, -0.0067852717, -0.0263613630, -0.0893359035, -0.0580715798, 0.0353483818, 0.0932057947, -0.0099294866, -0.0808353350, -0.0636665598, 0.0531143770, -0.0010916243, 0.0592063479, 0.0422886126, 0.0838617235, 0.0905523226, -0.0480206944, -0.0421182327, -0.1195822954, -0.0058946968, 0.0325491391, -0.0454028733, 0.0269217920, 0.0449428596, -0.0693635792, -0.0577121899, -0.1434314251, -0.0354600661, -0.0039805504, -0.0010221378, 0.0201888680, 0.1182246730, 0.0661820546, 0.0069760685, -0.1313537061, -0.0592821836, 0.0201469939, -0.0427897051, 0.0692992136, 0.0848453194, 0.0294608902, 0.0291651934, 0.2145820558, -0.0189016294, -0.1057007760, 0.0685838312, -0.0226305146, 0.1221185923, -0.0181467589, -0.0206438769, -0.0351080559, -0.0112144127, -0.0611609258, -0.0033005809, -0.0461434685, 0.0259786230, -0.0398992337, 0.0001900263, -0.0363332741, 0.0784347877, -0.0187227856, 0.0702106357, 0.0261309929, 0.0025182897, -0.0681310520, -0.0656967387, -0.0211974867, -0.1056440026, 0.0037158562, 0.0928175896, 0.0559007190, 0.0120249288, -0.0646870062, 0.0355301835, -0.0118099079, -0.0873196498, -0.0207094252, 0.0923058465, 0.1221039593, 0.0455066264, 0.0297152586, 0.0025696608, -0.0829827487, -0.0554660074, 0.0616161264, -0.1100782752, 0.0610053465, 0.0300944932, -0.0710305050, 0.0253426638, -0.0908566862, -0.1265799105, 0.1517204791, 0.0343927704, 0.0927271172, 0.0280964710, -0.0826866776, 0.0019451394, 0.1145588905, -0.0168248657, 0.0065620258, 0.0449561849, -0.0659426823, -0.0426910184, 0.1312764734, -0.0491939336, 0.0748740509, 0.0083710235, 0.0164564252, -0.0811536610, 0.0378893539, -0.0254281182, -0.0593956970, 0.0896678120, 0.1263426244, -0.0265933368, 0.0055513862, -0.0628520921, 0.0649107024, -0.0787467659, -0.0275261644, 0.0439798348, -0.0998351574, 0.1333401352, -0.0119997095, 0.0243063029, 0.2023129165, 0.0696124136, -0.0022902365, 0.0474400520, -0.1015691161, 0.0678398907, -0.0433852971, -0.0846049711, 0.0466289856, -0.0368340202, -0.0966228768, -0.0104142446, 0.1186280251, 0.0721798688, -0.0108107496, -0.0582569130, 0.0238936003, 0.0681188703, -0.0232690498, 0.0287157297, 0.1461223811, -0.0837332383, -0.0132808471, 0.0217687190, 0.0693020076, -0.1534808874, 0.0804610625, 0.0717028007, 0.0617063381, -0.0476455018, -0.0472395383, 0.0934392288, 0.0963501036, 0.0158808846, 0.0904486179, -0.0075630927, -0.1105927154, 0.0366152413, 0.0067682378, -0.0533208884, 0.0450584851, 0.1240779310, 0.0971424654, 0.1281702965, -0.1298372149, 0.0222372506, -0.0543712899, 0.0065620518, -0.1324970126, 0.0446297377, 0.1035061628, -0.0722443759, -0.0740756914, 0.0928174257, -0.0931831375, -0.0330029204, -0.1424958706, -0.0453589633, 0.0176129024, -0.0277015250, 0.0051101539, -0.0570581406, -0.0734430850, -0.1212226450, 0.0230896082, -0.0435933545, -0.0481902435, -0.1103370786, 0.0465510637, 0.1228604317, -0.0740594789, 0.0428488925, 0.0562671013, 0.1109539047, 0.0318287089, 0.2216536701, -0.0358151346, -0.0069318227, 0.0100009115, 0.0652460679, 0.1140073612, 0.0980806425, 0.0208999459, 0.0618531257, -0.0019736132, 0.0426170528, 0.0552421249, 0.1134413108, 0.0891729444, -0.0102279298, 0.0288282447, -0.0057097534, 0.1316991150, -0.0915757194, -0.0656857342, 0.0766527131, 0.0202264972, -0.1423001289, 0.0115213776, -0.1248211563, 0.1029468179, 0.0082251737, 0.1260653287, 0.0678814203, -0.0303703286, 0.0632258952, 0.0335921012, -0.0403376892, -0.0998585671, 0.0268925931, -0.0079075526, -0.0140634906, 0.0337361619, -0.0733007342, -0.0725538731, -0.0607912727, -0.0435261093, 0.0072161122, -0.0694349706, 0.0729362071, 0.0447799601, -0.0214656014, -0.0312609635, -0.0223006885, 0.0624559000, -0.0104450621, -0.0300294328, 0.0060449643, -0.0868197083, -0.0221044291, -0.0835104659, 0.0503460467, 0.0165450107, 0.0687699169, -0.0279306415, 0.0485140160, 0.0904364213, 0.0632846951, -0.1025780514, 0.0684017539, -0.0245923158, 0.0058717895, -0.0392075330, 0.0713431612, -0.0516094714, -0.0351879597, 0.0845308080, -0.1382918507, 0.0082970327, 0.0434123203, 0.0376133844, 0.1563148350, -0.0284664314, -0.0500020050, 0.0184798539, -0.0601266474, 0.0974128768, 0.0286348015, 0.0214355346, 0.0208317339, -0.1096873134, 0.0893799886, -0.0177761465, 0.0720054731, 0.0478174314, 0.0280439500, -0.0445259288, 0.0312920325, 0.0632083789, -0.1450139135, 0.0804062411, -0.0427677222, -0.0056188786, -0.1232998744, -0.0935774371, -0.0277296230, -0.0554604679, 0.0019038086, -0.0093869325, -0.1582649946, -0.0062819170, -0.0743340924, -0.0566441156, 0.0136993844, 0.0105297649, 0.0655840188, -0.0293138996, -0.0144804539, 0.0498191193, -0.0961043313, 0.0032613336, 0.0698408484, -0.0616733469, 0.0081917979, 0.0336873159, 0.0985170677, 0.0708629861, -0.0153960241, -0.0430342369, 0.0688101575, 0.0139238825, 0.0700535476, 0.0209504645, -0.0185168181, 0.0992272124, -0.0804547668, -0.1255378574, -0.0379385650, 0.0242852289, 0.0300574079, 0.0199607257, 0.0564867705, 0.0723650008, -0.0132736014, 0.0283139665, 0.0417870320, -0.0507223904, 0.0319103748, 0.0261659492, -0.0183741078, -0.0090857996, -0.0549180619, -0.0188841429, -0.0548667051, 0.0567129776, -0.0260253828, -0.0539777838, -0.0232147314, 0.0535638817, 0.0060928031, 0.1095341593, -0.0662328973, -0.0371359847, -0.0834853724, 0.0607505366, 0.0571482033, -0.0471773483, -0.0622588992, -0.0216839947, -0.0940084830, 0.0562284477, 0.0297465678, 0.0352557674, 0.0394334979, 0.0447416827, -0.0255642682, -0.1291758716, -0.0060378299, -0.0391091518, -0.0528302193, 0.1156560183, 0.0730696693, 0.0886854380, -0.0536920913, -0.1253553927, -0.0200263970, 0.0481409431, -0.0064237956, 0.0177006628, -0.0612124279, 0.0101291612, 0.0375381708, 0.0411074795, 0.2551030517, 0.0393323302, -0.0490180217, 0.0387730189, -0.0712721720, -0.0144976201, -0.0143166780, 0.0483639203, 0.0626642331, 0.0941916406, 0.0772956759, 0.0337372497, 0.0396753177, 0.0300703514, 0.0536599718, -0.0555458590, 0.0472509004, -0.0444570035, -0.0827708244, 0.1193308681, -0.0238432568, -0.0076153171, 0.0028720770, 0.0842052177, 0.0278960783, -0.0349633880, 0.0662810132, -0.0679975152, -0.1185741872, 0.0553837940, -0.1403981894, -0.0911941901, -0.1324216425, 0.1613492221, 0.0494137406, -0.1369439662, 0.0824577883, -0.0598625019, -0.0722498298, 0.1181832999, -0.0691010654, 0.1037386730, -0.0109494310, -0.0237083603, 0.0318470486, 0.0682597980, 0.0636489987, 0.0777119175, 0.0119688967, 0.0402360782, -0.1302306205, 0.0011651719, -0.0374728926, -0.0373834148, 0.0282580573, -0.0924149379, 0.1512334198, -0.0295481756, -0.0430278033, -0.0314633437, 0.0167990122, 0.1273522824, 0.0960001871, 0.1569700539, -0.0651196018, -0.0570229739, -0.0073917182, -0.0784100816, 0.1086557060, -0.0268757809, 0.1053644940, 0.0759634599, 0.1026403233, 0.1439512670, 0.0166512989, 0.0230900515, 0.1145499945, -0.0314820521, 0.0541217774, -0.0763724297, 0.0759494826, 0.0151201254, 0.0401003622, 0.0017869379, 0.0126093943, -0.0122494819, -0.0626244694, 0.0350146368, 0.0107541755, -0.0442485921, 0.0009902080, 0.0598383285, -0.0002188078, -0.0073628454, -0.1102326587, -0.1293659359, 0.0069722873, -0.0301588513, -0.0622830093, -0.0827544481, 0.0427146517, 0.0340228751, -0.0021493675, -0.0303595904, -0.0883806720, -0.0245359354, -0.0312978216, 0.1067888960, 0.0563287362, -0.0683495104, -0.0218057372, 0.0122793224, -0.1835717112, 0.0767161474, 0.0524941348, 0.0201562680, -0.1081008017, 0.0773684904, 0.0233494099, -0.1245104894, 0.0757652894, 0.0525802970, 0.0201587770, 0.0014824560, -0.1452185959, -0.0252702888, -0.0438305847, 0.0232421421, -0.0751046464, 0.1088376790, -0.0840814859, 0.0147348028, 0.0978860632, 0.0269870628, -0.1369593740, 0.0874027610, -0.0556797720, -0.0690449551, -0.0287202094, -0.0736112446, 0.0744705424, -0.0911890417, -0.0711196959, 0.0853548273, -0.0786877647, 0.0924570933, 0.0763305873, -0.0557279252, 0.1181525365, -0.0678701550, -0.0408610925, 0.0732260644, -0.0196250081, -0.0836634710, -0.0158442166, 0.0228691250, 0.0917078406, 0.1002686694, -0.0107388310, -0.0641853437, -0.0228904430, 0.0371369086, -0.1365331709, -0.0114894174, -0.0353729837, 0.0027652232, -0.0409078933, -0.0260532741, 0.1125575751, 0.0114122089, -0.0173232425, 0.0049188058, 0.1149291098, -0.0456960537, -0.0590697862, 0.0829373747, 0.0414081812, 0.0949289426, -0.0259993933, -0.0044718436, 0.0155411977, -0.0888333842, -0.1280389130, 0.0824725181, 0.0495365225, -0.0090754507, 0.0062939585, -0.0307880212, 0.0422127619, 0.0248527266, 0.0722892731, 0.1043351963, -0.0469779707, -0.0749580711, 0.0905420780, -0.0416236073, 0.0072578918, -0.0283349641, 0.1205990016, -0.0553992800, 0.0128476275, 0.0410510041, 0.0363241471, 0.0242924485, -0.0589273944, -0.0409152135, -0.0768635496, 0.0706989318, -0.1048658043, 0.0430484451, 0.0368535146, 0.0790113136, 0.1090481058, -0.0122269141, -0.0640977025, -0.0164329186, 0.0500945076, 0.1007873863, -0.0047328365, -0.1006718427, -0.0717936009, -0.0131847467, -0.0333329812, 0.0102776522, 0.0152991284, 0.1163603738, -0.0123488139, -0.0777593255, 0.0287918746, 0.0272362158, -0.0432363600, 0.0379966274, 0.0697836354, -0.0459255725, -0.0117143849, -0.0856616646, -0.0033105388, -0.1298848391, 0.0618219934, -0.0135586429, 0.0212597568, 0.0172292944, -0.0349142067, 0.0212541278, 0.0778813511, -0.1072122306, -0.0820808858, -0.0047915629, 0.0520229265, 0.0195710119, -0.0124298688, 0.0849739835, 0.0424748249, 0.0338839442, -0.0600571111, 0.0764708221, 0.1081859246, -0.0442523398, -0.0749853849, 0.0820086300, -0.0279221106, -0.0128960833, -0.0124839377, 0.0283756368, -0.0755791962, -0.0594060086, 0.1684808135, 0.0535836779, 0.0163400117, -0.0531191453, -0.1131244525, 0.0855361372, 0.0302842632, 0.0347541198, 0.0298829265, 0.1765515804, -0.1124947593, 0.1209604368, 0.0344566703, -0.0408575423, 0.1213411614, 0.0758119598, 0.0176977478, 0.0231780596, 0.0068573472, 0.0070024338, 0.1592158824, 0.1018123627, -0.1261806041, 0.0606175959, -0.0338160358, 0.0035778417, -0.0053736721, 0.0626717582, -0.0618225820, 0.0438438691, 0.1324025989, 0.1515627950, 0.0288423933, -0.0057300767, -0.0304201096, -0.0086436076, -0.0139477830, 0.0321663506, -0.0802670047, -0.0624295361, -0.0464485772, 0.0641168132, 0.0449113511, 0.0853148177, 0.0242319591, 0.0309581533, -0.0449318290, -0.0403385535, 0.0713680759, 0.0542232729, 0.0130104190, 0.1044583619, -0.0364648774, -0.0083268732, -0.0305034146, 0.0388387516, 0.0551948212, -0.0917973816, 0.0680216849, 0.0346096493, 0.0940197706, 0.0732054785, 0.1435640901, 0.1214398220, -0.0065636304, 0.1050522104, -0.0176615696, 0.0735544488, 0.0074435994, -0.0054097152, -0.0007912939, 0.0079163127, -0.0656572506, 0.0257525928, 0.0548530258, 0.1623333693, 0.0310637522, 0.0023474016, 0.0418073758, 0.0763419047, -0.0401063263, -0.0713518783, -0.0433279164, 0.0544069149, 0.0603515916, 0.0424363278, 0.0171724129, 0.0185533389, 0.0553168543, 0.0286660753, -0.0699106976, -0.0308870506, -0.0233341549, -0.0201475359, -0.0668901801, 0.0630221516, -0.0957980677, 0.0573300906, -0.0732283071, -0.0475155711, 0.0962593108, -0.0581993088, -0.0999362916, 0.0430106819, 0.0469526984, -0.0550412945, -0.0056157508, 0.1525005102, 0.0142779713, -0.0975649133, -0.0363648795, -0.0077953143, 0.0843204781, -0.0689716861, 0.0386745222, 0.0827282369, -0.0711111724, -0.0718344599, 0.0220277328, -0.0809370279, -0.0658540055, -0.0054341382, 0.0513644777, 0.0650152788, 0.0591464154, -0.0219415259, 0.0436061807, 0.0670745000, -0.0060600610, 0.0758990571, 0.0363362879, 0.0374870896, 0.1376027465, 0.1083270013, -0.1543151140, -0.0887371451, -0.0072737555, 0.0070210178, 0.0672908649, 0.0086112255, 0.0599989481, -0.0351201929, 0.0563957281, 0.1419455409, 0.0844968781, -0.0568700135, -0.0260114446, -0.1670879573, -0.0171811134, -0.0079660052, 0.0465017259, -0.0125132976, 0.0047371765, -0.1004337370, -0.0936818942, 0.0173901729, 0.0447607972, 0.0192956254, 0.0132950917, 0.0185765643, 0.0189559180, -0.0179876257, 0.0015985935, -0.1020130441, -0.1142604649, -0.0002330053, 0.0019565788, 0.0986812413, 0.0337116346, -0.0267240684, -0.0440401994, 0.1663189530, -0.0214196555, -0.0711990371, 0.0198946428, 0.0678701997, -0.1461652517, 0.0087792920, -0.1162629873, 0.0972991437, 0.0750266686, 0.0027926038, -0.1141262427, -0.0152830631, 0.0936708897, -0.0005447015, 0.0405689925, 0.0309423562, -0.0366356708, -0.0573824048, 0.1012831554, 0.0592715591, -0.0799044594, 0.0918060690, -0.0527459346, -0.1126477122, 0.0095658069, 0.0881329179, 0.1290151328, 0.0588449612, -0.0060847146, -0.0034599586, 0.0568608306, -0.0318899527, -0.0603591762, 0.1323739141, 0.0942965522, 0.0782676861, -0.0846723914, 0.0974283516, 0.1346834004, 0.0120707080, 0.0148861213, 0.0216543078, 0.0439705849, -0.0293303560, 0.0398698710, -0.0075556794, 0.0123531735, 0.0979439840, 0.0055276458, 0.0122581301, -0.0662372261, 0.0993096307, 0.1079001576, 0.0953353047, -0.0469875783, -0.1340669543, -0.0241869334, -0.0863752142, -0.0032727376, 0.0679735392, -0.0383293852, 0.0091057103, -0.0251224637, -0.0703678951, -0.1064011827, -0.0529050417, 0.0119747389, -0.1004379690, 0.0191900991, -0.0604310669, -0.0343852416, 0.0574304312, 0.0502053499, -0.0324943177, 0.0406410173, 0.1242835447, 0.0234339144, 0.0171765331, -0.0544395782, -0.0053953002, 0.0470147654, 0.0302138403, 0.0725967810, -0.0031963419, -0.0622312576, 0.0188057069, -0.0505496040, 0.0530303121, 0.0788672715, -0.0416294485, 0.0221909918, -0.0064215977, 0.0916097984, 0.0870221928, 0.0691321939, 0.0515368171, 0.1090803221, -0.0276202559, 0.1469854712, 0.1085369810, 0.0076911268, -0.0568320453, 0.0104518263, 0.0918707699, -0.0482593775, 0.0488451272, 0.0976218581, 0.0042043226, 0.0709004998, 0.1365617216, -0.0649685860, 0.0393418185, 0.0935919583, -0.0691748485, 0.0552053824, 0.0094248476, 0.0398996174, -0.0012738003, -0.0064421273, -0.0673336089, 0.0195965078, -0.0155773843, 0.1050959304, 0.0788353086, -0.0737321079, -0.1201737225, -0.0389346890, -0.0300648659, 0.0489883758, -0.0140908379, 0.0024398139, -0.0256899465, -0.0352903120, 0.0093938671, 0.0873129293, 0.0227910131, 0.1470291167, 0.0863085091, -0.0766602680, 0.0197545234, -0.0768965781, -0.1244497672, -0.1199446544, 0.0002414275, 0.0421361737, -0.0495316014, 0.0702451989, -0.0178824384, 0.0411385931, 0.0246165283, -0.0159155801, -0.2221766561, 0.0217329487, 0.0916771516, 0.1733173281, 0.0417801589, -0.0261859372, -0.0189621318, 0.0081262887, -0.0848855004, -0.0447617210, -0.0376008078, -0.0842685401, -0.1305738837, 0.0497020185, 0.1208405420, 0.0129209803, 0.1017016619, -0.0176086668, -0.0034749722, -0.1583135128, -0.0735078901, 0.0301811490, -0.0055272812, 0.0736590177, 0.1213942617, 0.0139662372, 0.0368511565, 0.1211681366, 0.0060584070, -0.0173519216, -0.0685644448, 0.0355501920, 0.0822465271, 0.0040163305, 0.1505504698, 0.0165816452, 0.1147036254, 0.0345066227, -0.1273505092, -0.0027971009, 0.0814616680, 0.1753583401, 0.1700752228, -0.0824272707, 0.1063419506, -0.0393191986, -0.0212856177, -0.0156423692, -0.0348624848, 0.0885034874, 0.1035044789, 0.0581343770, 0.0948209986, -0.0401430763, 0.0284225252, -0.0117002092, 0.0959110633, -0.0698921159, 0.0327225886, 0.0159786958, -0.0842121542, -0.1266448498, -0.0189940594, 0.0754128546, -0.2041793764, 0.0470383093, 0.1053069383, -0.0153914411, 0.0587379076, 0.0391695909, -0.0771033838, 0.1434157640, -0.0606689788, -0.0013839530, -0.0596287139, -0.1624183506, 0.1075953767, 0.0792169496, 0.1503404677, 0.0307126455, -0.0070262877, 0.0023990523, -0.0595803335, 0.0699724630, -0.2945061326, 0.0131321149, 0.1161389649, 0.0748879239, 0.0022970024, -0.0032378735, -0.1053609326, 0.0766579434, -0.0219542049, -0.0164987259, -0.0621538945, 0.0790904015, 0.0765454844, 0.2116905749, 0.0728175789, -0.0062239068, -0.1109604686, 0.0846253783, 0.0309582762, -0.0774629638, 0.0369654037, -0.0753957033, 0.1435523629, 0.0108089382, 0.0142160431, -0.0610485002, 0.0314898603, -0.0409886204, 0.0882368088, -0.0518857278, -0.1328807175, -0.0308348201, 0.0584491715, 0.0018646002, 0.1439314783, 0.0457208268, -0.0224993378, 0.0097958511, -0.0513286442, 0.0662485287, 0.0469453074, 0.0958257839, 0.0828318447, 0.0807824582, 0.1273457855, 0.0460337438, -0.1200280264, 0.0900272354, 0.0290768631, 0.0090145692, 0.0044882032, -0.0569552667, -0.0474861637, -0.0514236130, -0.0803999603, -0.1191009730, 0.0851553455, -0.0033034675, 0.1538197845, 0.1406369209, -0.1460392177, -0.1105687693, -0.0381078012, -0.0318889916, 0.0607890785, 0.0708475485, 0.0674787536, -0.0042268476, 0.0730702206, 0.0839290321, 0.0853737369, 0.1040208638, 0.0996305272, 0.0280655622, 0.1532022208, -0.1044540778, 0.0486260355, 0.0282468945, 0.0563429222, -0.0225882120, 0.0471401140, 0.0453187115, -0.0359525867, -0.0434166789, -0.1270999312, 0.0867498666, -0.1230992600, 0.1231431887, 0.0530163907, -0.0486007519, -0.0262019485, -0.0398786850, 0.0092299758, 0.0985347405, 0.0253043808, 0.0246288441, -0.1208078861, -0.0873077214, 0.0986956656, -0.0355091095, 0.0019002105, 0.0765307397, -0.0070776246, 0.0794057846, 0.0346270651, -0.0124964053, 0.0539706424, -0.0208015367, -0.0162958112, 0.0349294320, -0.0243900418, 0.0647782460, 0.0765479356, 0.0097759403, -0.0542975850, 0.0357070006, -0.0623718724, -0.0292621087, 0.0633277968, 0.0085955197, -0.0762711614, 0.1132585928, -0.0537306964, -0.0560177937, -0.0251919907, -0.0362339616, -0.0391588397, -0.0203170851, 0.0366837457, 0.0360034816, 0.0457009263, -0.0892789662, -0.0671203732, -0.0402956605, -0.1253731251, -0.0600596108, -0.0124907074, 0.0432963297, -0.1188760325, 0.0605788752, -0.0587519705, 0.0490557328, 0.0006601669, 0.1251471341, -0.0985707492, 0.0604092441, -0.0193561465, 0.1158497185, -0.0360779092, 0.0016008910, -0.1061674505, 0.1046230942, 0.0115739470, 0.0026430455, 0.1137842089, -0.1182831451, 0.1675307304, -0.0618430525, 0.0850341767, 0.1461870819, 0.0030503096, 0.0648292005, 0.0233543143, 0.0129421251, 0.0639064983, -0.0755231231, -0.0159653425, -0.0387271680, 0.0787931606, -0.0008944640, 0.1089033335, 0.0245553087, 0.0522841588, 0.0386600010, 0.0221300852, 0.0942354277, 0.0528114922, 0.0773636103, -0.0775763988, 0.0195007604, 0.0717537031, -0.1152643338, -0.0270344075, -0.0197228398, 0.0483265184, 0.0394157618, -0.0173206497, 0.0322045349, 0.1259901822, -0.0772887766, -0.0659061596, -0.0001997746, 0.0404002666, -0.0566681474, 0.0566423573, 0.0281155836, -0.0538596064, -0.0051322500, -0.0784057081, 0.0748389661, -0.1448232830, 0.0451281071, -0.0032300057, 0.0750053301, 0.0315547436, 0.0371487141, 0.0042308676, -0.0520636216, 0.0999523699, -0.0371370204, -0.0419662111, -0.0910483226, 0.0467897728, 0.0562727191, 0.0277927089, 0.0498993397, -0.0537167862, 0.0311567541, 0.0862463862, 0.0262073763, -0.0907777697, 0.0385198966, 0.1037013531, -0.0486725233, -0.0352984443, 0.0225560348, -0.1273113638, 0.0911128074, -0.1533196121, -0.0784144402, -0.1443814188, 0.1210899130, 0.0813570097, 0.0618994720, 0.0872259662, -0.1259696931, 0.0397531912, 0.0399894863, 0.0697258934, 0.0499195941, 0.1308915913, -0.0129577713, -0.0242102332, -0.0755203962, -0.1207308471, -0.0209127422, 0.0521422885, -0.0075342166, -0.0797096342, 0.0042891549, -0.0571854413, -0.0224972311, -0.0217082258, 0.0122070108, -0.0214178022, -0.1240324154, -0.0122684427, -0.0106392261, -0.1346383095, -0.0382338241, 0.0744212270, -0.1007497013, -0.0087198531, -0.0409908891, 0.0413811468, 0.0445303582, -0.1104136035, -0.0200758521, 0.0006922446, -0.0234270971, 0.0625860840, 0.0251468122, 0.1481588185, -0.0352126285, 0.1511607915, 0.0529267974, 0.0933476910, -0.0851044953, -0.1095759794, 0.0438832827, 0.0006590694, -0.1109918952, -0.0818074495, 0.0695296377, -0.0201024543, -0.0510231853, 0.0531298108, -0.0953281969, -0.0620476007, 0.0811926797, 0.0105828913, -0.0298472475, 0.0266730692, 0.1200906932, -0.0535965525, 0.0468756407, 0.0259203371, -0.0046999231, -0.0598060451, 0.0529008247, 0.0159642063, 0.0354682505, 0.0449775867, 0.0654819757, -0.0455968045, 0.0925135687, 0.0046989014, 0.0247313082, -0.0512261726, -0.0591327883, -0.0501447506, 0.0129788062, -0.0852348804, -0.0828432664, -0.0068982071, 0.0569729172, 0.1110118404, 0.1205754131, -0.0120033165, -0.0919019356, -0.0082866307, 0.0496599153, 0.0726414323, -0.0061882124, 0.1093751341, -0.0627504364, 0.0007842340, 0.1242071465, 0.0681176484, 0.0196104832, 0.0078423265, 0.0447389036, -0.0971776322, -0.0641082078, 0.0162730701, 0.1411140263, -0.0852608681, -0.0780034959, -0.0323438980, 0.0435012616, -0.0754846483, -0.0123606231, -0.1111620218, 0.0202989131, 0.0739040151, -0.0194673687, 0.0036215740, -0.0086814230, 0.1555551887, -0.1485242099, 0.0430918783, -0.0127844317, -0.0810623392, 0.0327419378, 0.0132330405, 0.0425101854, -0.0680368915, 0.0384471714, -0.0593662411, -0.0147619015, -0.0216657333, -0.0134371025, -0.0125933886, -0.2139807194, 0.0689933151, 0.0139609752, 0.0408836640, -0.2175126225, 0.0272294097, 0.0082672108, 0.0192380231, 0.0410413742, 0.0513722301, -0.0587881580, -0.0226142444, 0.0677717254, 0.0533169657, 0.0498165265, 0.0338376425, -0.0679864362, 0.0732082352, -0.0742653012, -0.3889672160, 0.0878838748, -0.0931724831, 0.0814460218, 0.1172099188, 0.0366405584, 0.0778056383, -0.0451684855, 0.1039503068, -0.0071436791, 0.0029013928, 0.0670459270, -0.0431882925, -0.0457126983, 0.0314429589, -0.0059664478, -0.1499231607, 0.0296171028, -0.1417967528, 0.0204195827, -0.0460809991, -0.0706757456, 0.1683149934, 0.0234438851, 0.0198847689, -0.0535585210, 0.0904787779, 0.0763412938, -0.0366312265, -0.1550801247, 0.0029061516, 0.0694198906, 0.1167282462, 0.1302773207, 0.0145920292, -0.0292223115, -0.0113181211, -0.0186942592, 0.0048265285, 0.1169276908, 0.0390278585, -0.0857314542, 0.1025164276, 0.0782013535, 0.0394140966, 0.1209170222, 0.0655145273, -0.0890627801, -0.0323950872, 0.0306048319, 0.1822839528, 0.0689065233, 0.1076625586, 0.0013359326, 0.0258085653, -0.0144277951, -0.2806108892, -0.0083288411, -0.0697039738, 0.0419219956, 0.0043318635, -0.0208051018, -0.0321207680, 0.1606096774, -0.0725556239, -0.1145908460, 0.0616087914, -0.1673974246, 0.0030848321, -0.1266214699, -0.0724741444, 0.1265030950, 0.0351896957, 0.0251076296, 0.0307792798, 0.0040752790, 0.1863503754, -0.0243512969, 0.1093843281, 0.0529066548, 0.1087398455, 0.1333180964, 0.0838526785, -0.0579022355, 0.2185917646, 0.1081655324, -0.0507160202, 0.0104744183, 0.1785345376, 0.0182824992, -0.0949874967, -0.0877390653, -0.0936040729, 0.0519795194, -0.0396252647, 0.0221725870, -0.0202149637, -0.0256973207, -0.0692033321, 0.0322322585, -0.1348382086, 0.1456743330, 0.1396388113, -0.0706695244, 0.0195366666, -0.0416981168, 0.1110724285, 0.0371369757, -0.1140405759, -0.0733823255, 0.0429029241, -0.0446718447, -0.1580870748, 0.1094607264, 0.0679457411, -0.0510031879, -0.0359665975, -0.1055028662, -0.0279414020, -0.0080376882, -0.0515884273, -0.0518534631, 0.0588353351, 0.0239814986, 0.0543325320, -0.1775230765, 0.0755808577, -0.1438197047, -0.1090744734, 0.1322047114, 0.0264593158, 0.0323236287, -0.0676136166, -0.0119029302, 0.1710831374, 0.1257726252, 0.0910441056, 0.0210543666, 0.0450083725, 0.1060445011, -0.1512541473, 0.0998423398, -0.0065317741, 0.0048998999, -0.0640843511, -0.0306515619, -0.0855176970, -0.0349100791, -0.0895377547, 0.0214382019, -0.0092482679, -0.3066651821, -0.0257539768, 0.0483796000, 0.1448778212, -0.0513246059, 0.0837327987, -0.0896385908, -0.0098550543, -0.0078080809, 0.0294095241, -0.0322280265, -0.0016548998, 0.0056828558, 0.0100754788, 0.0437131897, -0.0216208454, -0.0551888309, -0.0126456879, 0.1384776980, 0.0799703151, 0.0176225398, 0.0909687281, 0.0285401139, -0.0509056784, -0.0302530508, -0.0979854688, 0.2102279663, 0.0329427868, -0.0213578716, 0.0809085295, 0.0299260952, 0.0079651931, -0.0393766612, -0.1016724557, -0.0276431832, 0.1259775907, -0.0464628190, 0.0454043001, -0.1082249358, -0.0465865806, -0.0685660616, -0.0647457391, 0.0693029463, 0.0164396819, -0.0043662298, -0.2460121661, -0.1004663855, 0.1177280098, 0.1369728595, 0.0306365080, 0.0310719386, -0.0605417676, -0.0799173489, -0.0213213023, 0.0575340055, -0.2293869257, -0.3123711348, -0.0325254910, 0.0533374138, 0.0057972283, 0.0192533415, 0.0551051013, -0.0508832298, 0.0440425724, 0.0480528399, 0.0073001860, 0.0223180465, -0.0117092952, -0.0344534852, 0.0077522960, 0.0076648891, -0.0605456829, 0.0959196389, 0.0160611421, -0.0238804873, 0.0569595397, 0.0273833014, 0.1965149194, -0.0679741800, -0.0972972438, 0.0135981888, -0.0156998038, 0.0003201177, 0.0819905400, -0.0481669344, 0.0020079217, 0.0540050454, -0.1179959625, 0.0349483825, -0.0460814312, -0.0110519975, -0.0411212966, 0.0889015421, 0.0353661776, -0.0597935244, -0.0612550452, 0.0714633688, 0.0268861223, -0.0456533358, 0.0495460518, 0.0386766791, 0.0867403373, -0.0292239059, -0.0539442040, 0.0929641575, -0.0396959111, 0.0567052774, 0.0137451850, -0.1015780121, 0.0103864754, -0.0779950991, 0.0848637223, -0.0279896967, -0.0357277058, 0.0479608551, -0.0599340871, -0.1294811666, -0.0602415353, -0.0187896304, 0.0656407177, -0.0003690878, -0.0041301888, 0.0002590309, 0.0120985266, 0.0544167757, -0.0911788270, 0.0378324017, 0.0396326296, 0.1412175894, -0.0001178844, 0.0300510600, 0.0169443712, 0.0669601411, 0.0109736174, 0.0220932346, 0.1180220544, 0.0912857726, 0.0443964787, 0.0473678410, -0.0631779209, 0.0084502986, -0.0799046159, 0.0051330328, 0.1223344356, -0.0197285339, 0.0490696728, 0.0625433549, 0.0052725561, -0.0153408293, -0.0435158685, 0.0486119539, -0.0920797884, 0.0461563990, 0.0320112705, 0.1583583653, 0.0021285410, 0.0107514523, 0.0134060858, -0.0127021093, 0.0248706806, 0.0049654348, -0.1047853827, 0.0518343113, -0.0664400384, 0.0083974954, 0.1049689054, 0.0427812971, -0.1564774215, -0.0163226947, -0.0560796782, -0.1022575647, -0.0639705881, 0.0209680870, 0.0844710618, 0.0274098311, -0.0827915519, 0.0403652489, 0.0284870341, 0.1206743568, 0.0500624105, 0.1310487539, 0.0455463715, -0.0158860218, 0.0824975744, 0.0479198657, -0.0007557498, -0.0645834133, 0.0121096736, -0.0337033905, 0.0548142418, 0.0272659920, -0.0278078504, -0.0263478886, -0.0720812976, -0.0135662062, 0.0136051327, 0.0471479632, -0.0083471788, 0.0558309406, 0.0035701632, -0.1251369268, -0.1195158288, -0.0307091624, 0.1295144856, -0.0477907546, 0.0198875666, 0.0739066005, -0.0459360741, 0.1547731161, 0.0210340433, 0.1012654230, 0.0022197259, -0.0342504792, 0.1253518164, -0.0440628640, 0.0665541589, 0.0008291251, 0.1232157946, 0.0343158580, 0.0660847053, -0.0735067576, -0.0099556921, 0.0695734993, -0.0390988328, -0.0245367568, -0.0262941066, -0.0120858056, 0.0164414961, 0.0923604891, 0.0334135070, 0.1080895215, 0.0448315255, -0.0347447358, -0.0254500136, 0.0917741582, -0.0651285127, -0.0195358954, 0.0779800490, -0.0013313526, -0.0276374836, 0.0430531427, 0.0128196254, 0.0515601449, 0.0016943195, -0.0782592893, -0.0926333368, -0.0064563397, -0.0883862972, 0.0945598781, -0.0561212711, 0.0150116403, 0.0461994484, -0.0475841463, -0.0911777839, -0.0122098047, 0.0493555814, 0.0042807744, 0.0354355611, -0.0200470053, -0.0653548911, -0.0017817658, 0.0480022356, 0.0373983718, 0.0967852771, -0.1325080991, -0.0131643005, 0.0768996179, 0.0408657603, 0.0577613078, 0.0445535704, 0.0264152121, -0.0798832178, 0.0742969885, -0.0287575051, 0.0055700387, -0.0189458039, -0.0738172159, 0.0461111255, 0.0593329296, -0.0947781876, 0.0209195726, -0.0090823565, 0.0331120379, 0.0195334349, 0.0671439692, 0.0251510236, 0.0570224039, 0.1469614506, 0.0319272690, -0.0488008447, 0.1142571270, 0.0706164986, -0.0716465339, 0.0604926422, -0.0446049795, 0.0256024487, 0.0800422132, -0.0508059300, 0.0027967561, 0.0104445033, 0.0867322981, -0.0813520327, -0.0930794030, -0.0738352016, 0.0116769690, -0.0400738902, 0.0291459486, 0.0621697828, 0.0173795782, -0.0187287908, -0.0024442703, 0.0003888723, 0.0185215008, 0.0171132442, 0.0494794920, -0.0839946195, 0.0909514055, -0.0367170982, -0.1299770772, 0.0088462643, 0.0807358995, 0.0253797695, 0.0480045564, 0.0176046342, 0.0299214348, 0.0387734286, -0.0111704478, -0.0439851470, -0.0251326319, 0.0614752658, -0.0228383634, 0.0477060899, -0.0308328401, 0.0471922122, 0.1377289891, 0.0425118282, -0.1174758375, 0.1116855145, 0.0058077355, 0.0257175211, -0.0509237573, 0.0590844154, -0.0923694149, 0.0207300540, 0.0604908131, -0.0513107367, 0.0975541919, -0.0347454548, 0.0334014706, -0.0117954500, -0.0060245302, 0.0187548939, 0.0128516685, 0.0097207818, 0.0902346149, -0.0931598991, 0.0086508673, 0.0662439317, -0.0103316195, -0.0491666794, 0.0441321395, -0.0047025345, -0.0355021022, 0.0523961112, 0.0125094177, -0.0387008563, 0.0983919725, -0.0111242738, -0.0304039158, 0.0897052810, -0.0369230434, -0.1401343644, -0.0527022965, -0.0442455038, -0.0313325413, -0.0716222748, -0.0521393679, -0.0428056084, -0.0148688788, 0.0259590019, -0.0743953064, -0.0518155657, -0.0039632549, -0.0778524131, -0.1049922705, 0.0548695177, -0.0688844696, -0.0569281802, -0.0649382174, 0.0477980971, 0.0726219714, -0.1321210563, 0.0748226047, -0.0480146781, -0.1236538813, 0.0308256168, -0.0472052582, 0.1014010459, -0.0817666203, -0.0705683082, 0.0274957214, 0.0263305437, -0.0028737532, -0.0121522713, 0.0378701761, 0.0159854293, -0.0697377250, -0.0156052765, 0.0511529446, 0.0389369428, -0.0079251397, 0.1006206721, 0.0294547714, -0.0133927548, -0.0491715446, 0.0290317647, 0.1021725088, -0.0147778736, 0.1402018964, -0.0446940586, -0.0180126987, -0.0153507330, -0.1413390785, -0.0381302759, 0.1090085283, 0.0721409321, 0.2033134550, -0.1165409312, 0.0480063446, 0.0464959405, 0.0412517972, -0.0376272723, 0.0701628402, 0.0757461563, 0.1425922215, 0.1130309403, 0.0142487083, 0.0661893189, 0.0336262807, 0.0137856016, 0.0712835342, -0.0250493232, 0.0987697020, 0.0450505428, -0.0667150915, -0.0706786513, 0.0477614477, 0.0576910898, 0.0271192752, -0.0101716211, 0.0200744905, 0.0463069677, -0.0412973501, 0.0507463254, -0.2161578983, 0.0270151775, -0.1011567488, -0.1726881266, 0.0407217890, -0.1283234358, -0.0379491784, -0.1034340858, -0.1795769334, -0.0451775901, 0.0377949439, -0.0797270685, -0.0925645977, 0.0193258673, -0.0528291017, -0.0322396941, 0.0891428888, -0.0325980857, 0.0638018548, -0.0153383333, -0.2356308103, -0.0010998017, -0.0104432115, -0.0163008533, 0.0135144191, -0.0443358459, -0.0983938351, 0.0301936548, -0.0381714776, -0.0910964534, -0.0999469161, 0.0113227405, 0.0119473366, 0.1044440642, -0.0294172149, 0.0167750586, 0.0302214921, -0.0969398469, -0.0150160789, 0.0160798468, 0.0120562259, -0.0072325133, 0.1149014384, 0.0177798588, -0.1016646996, -0.0976001322, 0.1279461980, 0.0297372416, 0.1417065859, 0.0548169464, -0.0139508536, 0.0207554456, -0.0079352604, 0.0833661109, 0.0165731199, -0.0087702461, 0.0034922739, 0.0416995957, 0.1372472048, 0.0187131017, -0.0366270840, 0.0990293100, -0.1084887087, -0.0459551997, 0.0453640744, 0.1070727855, -0.0397076458, 0.0532247834, -0.0924058631, -0.0584188141, -0.0467302166, 0.0290812124, 0.0662223771, -0.0707008839, 0.0307823494, -0.0474396162, 0.1845426559, 0.1406024843, -0.0085744904, -0.0250588898, -0.0886933655, 0.0123513415, 0.0719691217, -0.0767087489, -0.1599143445, 0.0199469123, -0.0167559944, 0.0261584781, 0.0375810005, -0.0451755822, 0.0393327363, -0.1388796568, -0.1120148599, 0.0086121224, -0.0591677018, 0.0955472514, -0.0240464266, -0.0882035196, 0.0023479534, -0.0538814589, -0.0572867803, -0.0161944740, -0.0742759481, 0.1204439923, -0.1855098903, -0.0996199474, -0.0430249907, 0.0248176977, 0.1163213626, -0.1325505525, -0.0767965615, 0.0676816627, -0.0136357769, -0.0192032736, -0.1296303272, -0.0653967187, -0.0271801483, -0.0763967633, 0.0167583115, -0.0272754189, 0.0234313011, 0.0114920717, -0.0010020550, 0.0216194671, 0.0248804856, 0.0538141690, 0.0837536305, -0.0685773715, -0.0378926545, -0.0771729350, -0.0188281573, 0.0428697318, 0.0277561452, 0.0067437054, -0.0373781770, 0.1541464329, -0.0053467206, 0.0807339251, 0.0762439072, 0.0890393406, -0.0672549754, 0.0380897410, -0.0774260536, -0.0083648013, 0.1161386073, -0.0660920218, -0.1119014993, 0.0948536620, -0.0191888716, -0.0815726817, 0.0235133544, 0.0354842879, 0.0715740845, -0.1041709036, 0.0584831163, 0.0794883743, 0.1051835418, 0.0608460270, 0.0742638409, -0.0834646821, 0.0594167970, 0.0484844632, -0.0593115427, -0.0526113063, -0.0761745647, -0.0237852391, 0.0625927150, -0.0562670156, 0.0956939310, -0.1427541822, -0.0199659020, 0.0619830824, 0.0774322376, -0.0407745950, -0.1084909067, 0.0294634607, -0.0090528885, -0.1595870405, 0.0760442391, -0.0094190780, 0.0841466933, -0.1011659577, 0.1398091316, 0.0102678509, -0.0416412614, -0.0196041819, 0.0744328797, 0.0791762769, -0.0398253165, 0.0214649048, 0.0027898918, 0.1124956533, 0.0864331648, -0.0142764701, -0.0762273744, 0.0107142385, -0.1266032904, -0.0564292930, 0.0638653189, -0.0722902790, -0.0832226127, -0.0278238319, 0.0429949835, 0.0199507214, 0.0349357016, -0.0145311616, 0.0550312400, -0.0344539061, 0.1089320779, -0.1510034204, 0.0992300585, 0.0113290725, -0.0303556211, 0.0165837221, 0.0599120371, -0.0212822296, 0.0110286176, -0.0294895265, 0.0731459409, 0.0429523885, 0.0373242646, 0.0601578541, -0.0552050099, 0.0218182579, 0.0391974375, -0.0072234427, 0.0597766750, -0.0040659821, -0.0593806915, 0.0129844947, 0.0292951521, -0.0032321755, -0.0540753193, -0.0994914100, 0.0366892256, -0.0181511231, -0.0727602616, -0.1034838781, -0.1692711115, -0.0992823690, -0.0811225250, -0.0314393118, -0.0603901483, -0.0325218327, 0.1254880130, -0.0854126438, -0.0594693236, 0.1578917801, 0.0314894542, 0.0190467462, -0.0503564589, 0.0699080154, 0.0784583688, 0.0468190536, -0.0054421728, -0.0959573984, -0.1131068543, 0.0201198533, 0.0000882022, -0.0965539068, -0.0896968395, -0.0023562447, -0.0204598121, -0.0015793152, -0.0553331897, -0.0783707201, -0.0265320055, 0.0470717363, -0.0314957201, 0.1175197735, -0.1119919941, -0.0536403917, -0.0498111621, -0.0755002722, -0.0427358150, 0.1491351873, -0.0762351751, -0.0148685705, -0.1293987334, 0.0213864259, 0.0275737345, -0.0337436199, 0.1195218340, 0.0612275973, -0.0964984596, 0.0836277083, 0.1472038180, -0.0502614044, 0.0430531725, 0.0289806519, 0.0976361409, -0.0759355202, -0.0351935811, -0.0791410133, -0.0009704746, 0.1182981357, -0.0480087809, -0.0472539291, -0.0920867696, -0.0647167787, 0.0772272348, -0.0778886676, -0.0461976826, 0.0048090392, -0.0315720327, 0.0181281362, 0.0292307287, 0.0167403501, 0.0307663865, 0.0111726150, -0.0559413806, -0.0389920846, 0.0279290900, -0.0177267883, -0.0076534427, -0.0124857919, -0.0637194887, -0.0270626210, -0.0907304510, 0.0114324326, -0.0575504526, -0.0589538217, -0.0816463903, -0.0550389811, -0.0526109152, -0.0022551308, -0.0167384166, 0.0630346909, 0.0901723281, 0.0037238530, 0.0554839373, -0.0480586700, 0.0252281949, -0.0606504269, -0.0184001252, -0.0668163672, -0.1284656525, -0.0128926821, -0.1149937287, 0.0121667460, 0.0705371201, -0.0366056375, 0.0406446829, 0.0119630080, 0.0567198768, -0.0245361254, 0.0820049047, -0.0480218418, 0.0083464002, 0.0049707252, -0.1438419968, 0.0857603326, -0.0669507831, 0.0868973583, 0.0298325345, 0.0578095950, -0.0343165100, -0.0419564247, -0.1170746610, -0.0125445640, -0.0484893881, 0.0856108963, 0.0667785034, -0.0543242358, -0.1094735265, 0.0487934388, -0.0446602628, -0.0586442463, 0.0225599147, -0.1114021540, -0.1287559122, -0.0520600490, 0.0908566192, -0.1147495732, 0.0566979311, 0.1294858754, 0.0776411816, 0.0643409565, 0.0133712366, 0.1256976277, -0.0627003312, 0.1176410988, 0.0864624903, -0.0080409367, 0.0078445869, -0.1599780023, 0.1714379489, -0.0267541986, 0.3029875457, -0.0223278049, -0.0050563561, 0.0628314838, -0.1017617881, -0.0696565881, 0.0801263675, -0.0442050658, 0.0192089621, 0.0195225272, 0.0255390573, 0.0820085704, 0.0263511706, -0.0454068258, -0.1218048260, -0.0006810734, -0.0121403821, -0.0151853338, -0.0129338838, 0.0430793539, -0.0566841029, 0.0363890715, -0.2051953673, -0.0852958634, -0.0930594951, 0.0683076084, 0.0244691651, -0.1281943321, -0.2481239885, -0.0138119534, 0.0049917651, -0.0956135467, 0.3785106838, 0.1301436722, 0.0366325453, -0.0367555469, -0.0323395878, 0.0858526304, -0.0887831375, -0.1172400340, -0.0634786040, -0.0770775601, 0.0268536918, -0.2637327015, 0.1329037100, 0.0209620502, -0.1420170069, -0.0850719288, -0.0814023241, 0.0432638153, 0.0074715610, 0.0949210599, 0.0759994686, 0.0552894250, -0.0506156348, -0.1458918601, -0.2016762346, 0.0438770987, 0.0293001756, -0.0263089389, 0.2975626290, -0.0139651075, 0.0875406638, 0.0926942378, -0.0865740031, -0.0021753558, -0.0418154001, -0.0071611302, 0.0133623714, -0.1830489039, -0.0076471069, -0.0710926056, 0.1632490605, -0.0402905643, 0.0331271626, -0.0808100179, 0.0567221232, -0.0035393110, -0.0421439596, -0.1503940970, 0.0451109819, -0.1350543201, -0.1197172105, -0.1409123093, -0.0090863118, -0.0955240205, -0.0297649503, -0.0165231340, 0.3972726166, 0.0055133021, -0.0543342121, 0.0201453194, -0.0163764078, -0.0915819257, 0.0395062268, 0.0348038152, 0.1609456092, 0.0050261607, -0.0756688416, -0.2278950214, 0.1469452828, 0.1622062325, 0.0421806797, -0.0797101334, -0.0534268022, -0.0762583688, 0.0370967463, -0.0445651487, 0.3610727787, 0.1263995171, -0.0100783128, -0.2005308568, 0.0648693070, -0.0008136127, 0.1496258974, 0.0021749649, 0.1027808115, 0.1143164709, 0.0562654287, -0.1216806695, 0.0432314575, 0.0119325574, -0.0467323251, -0.0275760628, 0.0689827576, -0.1082149893, 0.1194634289, 0.0111018782, 0.1134862974, -0.0430557728, 0.0586864762, 0.0972811878, -0.0700771436, -0.0663083345, 0.1609680355, -0.0200780556, 0.0674137771, 0.0751330703, -0.1422294378, -0.1266601086, 0.0212069079, -0.0527964085, 0.1645082682, 0.0800000206, 0.2290162146, -0.1530889869, -0.0475873314, 0.1105235890, 0.0463442281, 0.0426255837, 0.0334876776, -0.1696680188, -0.0195868015, 0.1055923402, 0.0217335448, -0.0611674152, -0.2036843598, -0.1104819477, -0.0520036332, 0.0142747723, 0.0558564179, -0.0566463247, -0.0227684677, -0.0054067234, 0.1549149752, -0.0298784524, -0.1023942903, -0.1086522937, -0.0094245430, -0.0266596097, 0.0571306162, -0.0992033258, 0.2125908285, 0.0566915199, 0.0356211886, -0.1091357395, 0.0071928478, -0.0923070982, -0.0362361632, -0.0211150572, -0.0298025012, -0.0165592283, 0.0300720222, 0.0068642730, -0.0241885614, -0.1085640267, -0.0341183953, 0.0425854027, 0.0547566414, -0.0984420553, -0.1153014302, 0.0497085825, 0.1807583719, 0.0913329720, -0.0538351499, -0.0196164586, 0.0263978224, 0.0443295911, 0.0352469273, 0.0239718016, 0.2842845917, 0.0656742081, 0.0548299588, 0.0843506157, -0.1013112143, -0.0188792665, 0.0100982469, -0.1220779121, -0.2095741332, 0.0273507107, -0.0986183435, -0.1635273695, -0.1129503399, -0.0379659571, -0.0299411863, 0.0602277629, -0.0827525333, 0.0172432289, -0.1001673043, 0.1222649589, -0.0044630147, 0.2440884560, -0.0883850306, 0.1041676551, -0.0480309948, -0.1191587076, 0.0411454104, -0.0810376182, -0.0927094892, 0.0906944498, -0.0364388973, 0.0124472082, -0.1551037431, -0.0886349976, 0.0109592238, -0.1214135587, 0.0521434620, 0.0399795845, -0.0275436677, -0.0590727739, 0.0346969627, 0.0434742831, 0.0620285608, 0.0152848000, 0.0076560420, 0.0708080605, -0.0016719871, -0.0773434713, -0.0205885135, 0.0420079716, -0.0109069506, -0.0854799524, -0.1173148081, 0.0486359447, -0.1467808932, -0.3105171621, 0.1022225097, 0.0183581449, 0.0353593603, -0.0867721513, -0.0291908495, 0.0367585309, -0.1860666275, 0.1349658072, -0.0935040340, 0.0496730283, -0.1019862667, -0.0432780311, -0.0059408867, -0.0012285955, 0.0332396328, -0.0003799983, -0.0842523053, -0.0987141505, -0.0507814363, 0.0394643620, 0.0936198533, 0.0587059632, 0.0085317027, 0.0025911310, 0.0274146181, 0.0500797480, 0.2614351213, 0.0254350882, 0.0757463276, 0.1512908041, -0.0384343825, -0.0200290922, 0.1074110791, 0.0695704147, 0.0451419801, -0.0122509440, 0.0175339524, -0.1750866622, 0.0669252127, -0.0846218765, 0.0633497238, -0.0617588125, -0.1440392286, -0.1124168485, 0.0284126289, 0.1270101517, -0.1425755024, 0.0236652773, 0.0101264389, 0.0163353682, 0.0007157671, -0.1499688327, 0.0394796059, -0.2280753106, 0.0411587767, -0.0004039980, 0.0307545904, -0.0990372375, 0.0304299146, 0.1085738093, 0.0284206737, -0.0959187746, -0.0197476484, -0.0239814371, 0.0169534367, 0.0596490577, 0.0186140928, -0.1329625845, -0.1138117462, -0.0576935112, 0.0440212451, 0.0620605573, 0.1191094369, 