//Numpy array shape [3, 3, 27, 27]
//Min -0.246842458844
//Max 0.284501880407
//Number of zeros 0

#ifndef W14_H_
#define W14_H_

#ifndef __SYNTHESIS__
conv2d_6_weight_t w14[6561];
#else
conv2d_6_weight_t w14[6561] = {0.0348222665, 0.0230594147, -0.0905508623, -0.0537274368, -0.1356694251, -0.0286146849, -0.0921361074, -0.0560162924, 0.0180052817, 0.0093896417, -0.0864534751, -0.0737790093, 0.0539790876, 0.0282177255, 0.0967306271, -0.0057803113, -0.0083382549, 0.0167780537, 0.0252506398, -0.0804813579, 0.0934531540, 0.1259159744, 0.0121583054, 0.1319858432, -0.0270421542, 0.0953438282, -0.0555855781, 0.2158874720, -0.0989817306, -0.0859164670, -0.0507685691, -0.0316402651, -0.1106764451, 0.0222514980, -0.0184237827, -0.0337409712, -0.0810617059, 0.0250289850, -0.0267430674, 0.1114608347, 0.0189049337, 0.0202527903, 0.0185251832, 0.0692293048, -0.0499923527, 0.0414327271, -0.0515717901, -0.0117937503, 0.0606882125, -0.0644714087, 0.0366554745, 0.0635863990, 0.0275262650, 0.0089181066, -0.0077191545, -0.0243800823, -0.0342357755, -0.0110043585, 0.0135772917, -0.1052372828, 0.0156985838, -0.0516439490, 0.0005492492, 0.0421160236, 0.0547101460, 0.0227713585, 0.1024783626, -0.0073629059, 0.0898538753, -0.0151794460, -0.0666549802, 0.0116671771, 0.0080615124, 0.0390352644, 0.1169787124, 0.0349070765, -0.0842605010, 0.1064041257, 0.0127723273, 0.0450704955, 0.0274891332, 0.0632138476, -0.0315948948, 0.0869255438, 0.0187717378, 0.1067847461, -0.0556662045, 0.0034666364, 0.0049475003, 0.1729433388, 0.0898290947, -0.1050694063, 0.0497069471, -0.0939998478, -0.0579006635, -0.0392979868, -0.1064330563, 0.0662189722, -0.0453619137, -0.0523756333, -0.0469935425, 0.0394032747, 0.0618086755, -0.0167442895, -0.0122071225, 0.1064367965, 0.0200996008, -0.0017549053, -0.1431434751, 0.0938574895, 0.0756013170, -0.0382193476, 0.0038416088, -0.0254383609, -0.0558967032, 0.1964299381, -0.2256388664, 0.0555670746, 0.1253138930, 0.1060053930, -0.1140115485, 0.1279485077, 0.0021350072, 0.0213054940, -0.0517203324, 0.1294314265, -0.0040235706, 0.0255761184, 0.0755552500, -0.0772476345, 0.0140763307, 0.0736066923, 0.2161873877, 0.0403191969, -0.0686611161, -0.0446896292, 0.0466864109, -0.0211725906, -0.0467055701, 0.1131460592, 0.1446740478, -0.1181469560, 0.0207819920, 0.0083221048, -0.1323470771, -0.0535354167, -0.0461419821, -0.0307109486, -0.0953296125, -0.0310158953, -0.0662195235, -0.0897324383, 0.0301425569, 0.0352004282, 0.0174924340, 0.0932528749, -0.0130879655, 0.0289299823, -0.1112458184, 0.0696600229, 0.0476737618, -0.0035452486, -0.1062366739, 0.0169476829, -0.0929915830, 0.0206568222, -0.0434294865, 0.1277625114, 0.0109235020, 0.0872935876, -0.1303704679, 0.0084492499, -0.0837869346, -0.0075848410, 0.0395705104, -0.0871026665, -0.0322438441, 0.0113409609, -0.0591641441, 0.0757915899, 0.0162132699, -0.0129399365, -0.1183563098, -0.0209819991, 0.0557502508, -0.0663678423, 0.0328712240, 0.0260409098, 0.0145554012, -0.1975085735, -0.0224828124, 0.1009173095, -0.0007751891, -0.0181135777, 0.0112322308, -0.0019982234, 0.1140412018, -0.1099127755, -0.1139001548, 0.0522215590, -0.0243439432, 0.0923269466, -0.0912358016, 0.0336099118, 0.0005355933, -0.0699683055, -0.0132544683, 0.0549606085, 0.0546132140, 0.0418343209, 0.0176869761, -0.0041372757, -0.0124360733, -0.0216571502, -0.1152836755, 0.0608058199, 0.0137475803, 0.0488020480, 0.0153359659, -0.0375255905, -0.0101746526, -0.0711420998, 0.1222920120, -0.0032612507, 0.0063767084, 0.0490989089, -0.0041743466, 0.0130007779, -0.0166254696, -0.0313336104, -0.0593883991, 0.0024346784, 0.0308917183, -0.0052020284, 0.0660761744, -0.0369460359, 0.0366844088, 0.0370224454, -0.1300521940, -0.0506547280, -0.0267786440, -0.0528469831, -0.0225944519, 0.0422950201, -0.0518282168, 0.1221440360, -0.0065878043, -0.0025363432, 0.0853452384, -0.0586156473, -0.0187943783, 0.0167171769, 0.0848988444, -0.0394395143, -0.0617168881, 0.0277886614, -0.1287285537, 0.0077116317, -0.0047577629, 0.0766044930, 0.0282646399, -0.0135275023, 0.0617649779, -0.0319267474, -0.0296475608, -0.1080228835, 0.0147207193, -0.0348007604, 0.0930811167, -0.0528860837, 0.2274830341, 0.0149502279, -0.1295729429, -0.0556240864, -0.0044211959, -0.0058000190, -0.0696749538, -0.0235302076, -0.0292112026, 0.0913758948, -0.0494262166, -0.0029653884, -0.1292653829, -0.0261099786, 0.0068786363, 0.0228767823, 0.0297500640, -0.0488919951, 0.0007287347, -0.0095908297, -0.0773587748, 0.1106303930, 0.0437184200, -0.0689100176, 0.0611189529, 0.1470898986, 0.0294194426, 0.0212053563, -0.0470971651, 0.0195880588, 0.0193084795, 0.0869632214, 0.0264002364, 0.1150621399, -0.0420386866, 0.0012205994, -0.0755651146, 0.0379363149, 0.0142454011, 0.0778967738, 0.0591024607, -0.0050806575, -0.0188783109, 0.0424241871, 0.0061760098, -0.1237729043, 0.0311395023, 0.0308246519, -0.0341157652, 0.0851611719, -0.0040630396, 0.0124340756, -0.0973596945, 0.0096269427, 0.0435770638, -0.0695025697, 0.0626282766, 0.0353200398, 0.0563962720, 0.1081056818, 0.0687652752, -0.0675409585, 0.1657133102, 0.0001314879, 0.0405296907, 0.0527755953, 0.0917801633, -0.0794835612, 0.0038223481, -0.1128582582, -0.0137901315, -0.0437625051, 0.0097465869, -0.0473319143, 0.0859794989, 0.0908181742, -0.0189093966, 0.0020621736, 0.1209981963, 0.0797302648, 0.0190425273, -0.1641740352, 0.0195455533, -0.0005984577, -0.0803702250, 0.0985319987, 0.0119234798, 0.0206657909, 0.1999064088, -0.2221433222, 0.0629310608, 0.0014150647, 0.1171826869, -0.0076712072, -0.1266798973, -0.0917414725, 0.0189422034, -0.1135064811, 0.1230010465, 0.0419168808, 0.0954835191, 0.0574179851, 0.0283589773, 0.0741381422, -0.0632450134, 0.2113728672, -0.0395192280, -0.0373153314, 0.0003087377, -0.0459127128, -0.0434844792, 0.1206220165, 0.0596492290, -0.0252344701, 0.0393967628, 0.0045699473, 0.0089229550, -0.0146683855, 0.0060680313, -0.0570980161, -0.0247990880, 0.1244034171, -0.0794695243, -0.0617032610, -0.0208679326, 0.0336594731, -0.0251739360, -0.0341224223, 0.0753679872, 0.0272287466, -0.0626283213, 0.0649635196, 0.0625215843, 0.0152064832, -0.0490787998, -0.0964868218, 0.0245766975, -0.0648406893, -0.0079768058, -0.0029042945, 0.0223686993, 0.0322604068, 0.1242342517, -0.1294721216, 0.0000767500, -0.0175748989, -0.0171609912, 0.0082870526, 0.0140991062, 0.0567972735, 0.0127303116, -0.0086785555, 0.0747542605, -0.0276848506, 0.1027949974, -0.0557945780, 0.0465110242, -0.0580023415, 0.0440687835, 0.0351717658, 0.0358174071, 0.0841318220, -0.1918677986, 0.1068638042, -0.0027336865, 0.0144831343, 0.1027001813, 0.0847007036, 0.0012698846, 0.1152835116, -0.1132884994, -0.0105375210, -0.1027538851, -0.0387038253, 0.1435422748, 0.1230892837, 0.0643803924, -0.0041557341, -0.0660489723, -0.0116932634, -0.0558075868, 0.0007995726, 0.1089899540, -0.1341089010, 0.0126945870, 0.0957517698, -0.0131474789, -0.0847995132, 0.0960776061, -0.0258568246, -0.1002898812, 0.0455511473, 0.0652232915, -0.0067222384, 0.1018498316, -0.0584805459, 0.0073704999, 0.0052352184, -0.0288213361, -0.1133266762, 0.0054342118, 0.0178544763, -0.0159704015, -0.0045587313, 0.0082954820, -0.0501254722, -0.0135092428, -0.0208856035, 0.0088795722, -0.0639693066, -0.1082680225, 0.0729507580, 0.0584194027, -0.0266328026, -0.0040135058, -0.0546723679, 0.0293943472, -0.0557957590, -0.0141091822, -0.1006520987, -0.0402250439, -0.0269052926, -0.1146133244, -0.0196518172, 0.0130515629, 0.0077109127, -0.0273936726, -0.0697307140, -0.0460915118, 0.0594395138, -0.0324235298, -0.0016310585, -0.0751691386, 0.0259516519, 0.0081527093, -0.0012203181, -0.0017741256, 0.0560334101, 0.0258008521, -0.0670015141, -0.0349305682, -0.0155810909, 0.1118695065, 0.1963625550, -0.0144521520, 0.0605647638, -0.0218275804, 0.0027945142, 0.0805685669, -0.0192401465, -0.0158091765, -0.0316724405, 0.0106638074, 0.0793194622, 0.0158089604, -0.1403499544, -0.0680102408, -0.0124998698, 0.0270909704, -0.0130703822, -0.0436392762, 0.0119963996, 0.0150230695, -0.0431582816, 0.0926214680, -0.0492374972, -0.0498136990, 0.0548770800, 0.0225868002, 0.0383781344, -0.0308958925, 0.1131795347, 0.0248274840, 0.0230380706, 0.0426679738, -0.0769602656, -0.0636530891, -0.0420069173, 0.0015800567, -0.1186280772, -0.0177298784, 0.0201674793, -0.0605210029, -0.0461833104, 0.0620182194, -0.0125054978, -0.0393912047, 0.0084417826, 0.0169125516, 0.0777350143, 0.0861350670, 0.0113879638, 0.0375370495, 0.0018184833, 0.0094853388, 0.0086121792, 0.0743541792, 0.0449264236, 0.0391292684, -0.0494648702, 0.0653121769, 0.1049543098, -0.1044350043, 0.0534376055, 0.0347321369, 0.1520747840, -0.0074280412, 0.0614581779, 0.0532489605, -0.0196912643, 0.0094073825, 0.0078143273, -0.1028055698, 0.0685947314, -0.0335687622, -0.0313638560, -0.0461305790, 0.1099057645, 0.0958563164, -0.0770267695, -0.1290266961, 0.1057221964, -0.0526709408, 0.0431134701, -0.1462893188, -0.0318345837, -0.0620244630, -0.0352594368, -0.1266190112, -0.0877141133, 0.0299228989, 0.1849029362, -0.2062817663, 0.0305905826, -0.0701036677, 0.0623225980, 0.0312997289, 0.1168536097, 0.0945015550, 0.0143891107, -0.0406089053, 0.1101313308, -0.0199195407, -0.0795394480, -0.1339763403, -0.0754060149, -0.0084880488, -0.0909797251, 0.1970648915, -0.0657882914, 0.0270761494, 0.0165813006, -0.0606315471, -0.1196052283, -0.0349821672, -0.0306180287, -0.0047121830, -0.0044339229, 0.0093728295, 0.0067554624, 0.0650150925, -0.0149541516, -0.0780789927, -0.0546741560, -0.0623116568, -0.1128990427, -0.0596793257, 0.0590220839, 0.0317789093, -0.0385755673, -0.0363923907, -0.0341617428, -0.0014664688, 0.0350091793, 0.0494882241, 0.0567611940, -0.1028019488, -0.0361488760, -0.0943531618, 0.0304939095, 0.0247873552, -0.0040608402, 0.0094854431, -0.0179611072, -0.0010959299, 0.0608564802, -0.1236096993, 0.0491645858, -0.0359270237, -0.0075026155, 0.0526289456, -0.0514883175, -0.0128578832, 0.0082449839, 0.0750620440, 0.0691978931, -0.0754724219, 0.0389300361, -0.0738954544, 0.0482160635, 0.0248264819, -0.0438376777, 0.0375170149, 0.0120711150, 0.0390335433, -0.1894841045, 0.0203572251, -0.0295636524, -0.0313403755, -0.0066462276, -0.0666263625, -0.0827191025, 0.1059992313, -0.1053479984, -0.0222660229, -0.0011023619, 0.0025768278, -0.0200611670, -0.0439349934, -0.0420811549, -0.0023102029, 0.0680874884, -0.0127861844, -0.0065095755, -0.0932353437, -0.0105867404, -0.0299088638, 0.0836979225, -0.1013131365, -0.0068289661, 0.0059145726, 0.0387276784, -0.0159506984, -0.0604809858, 0.0065063639, -0.0585784800, 0.0310030896, 0.0970850736, 0.1391249448, -0.0008200047, 0.0083613340, 0.0031387149, -0.0347621292, 0.0079727005, 0.0344133116, 0.0962181166, 0.0904283226, 0.0111676175, -0.0485999100, -0.0145643689, 0.0213287435, -0.0085007492, 0.0767456442, 0.0380065180, 0.0782054216, -0.0399013348, -0.0231365077, 0.0535738021, -0.0200104006, 0.0025091895, 0.0965293869, 0.0028155872, 0.0512443930, 0.0029889380, -0.0935566574, 0.0007085236, 0.0149072949, 0.0008702691, -0.0059111966, -0.0615943260, -0.0211385358, -0.0891967192, -0.1286165416, -0.0750384852, -0.0104641784, 0.0097584967, 0.0148050124, -0.0079239300, 0.0081330156, 0.0650552809, -0.1224500537, 0.0420608781, 0.0436217040, -0.0125368163, -0.0277622677, 0.1378407925, 0.1482700855, -0.0114548197, 0.0113070412, 0.0528955311, 0.0062658126, -0.0336588547, 0.0369334854, -0.1317072511, 0.0472349226, 0.0503753014, 0.0502491407, 0.1025802270, -0.0518417768, 0.0219798237, 0.0297100823, 0.0260232314, -0.1324886829, 0.0635161176, 0.0572460108, 0.0897465497, 0.0075703617, -0.0062784520, -0.0352203920, -0.0181813389, -0.0273637865, 0.0869457424, 0.1179615259, -0.0111372378, -0.0085469494, -0.0136758108, 0.0124766566, 0.0111859236, 0.0194344148, 0.0377038047, -0.0272168964, -0.0045236917, 0.0852925628, -0.0174114089, -0.0420369245, 0.0560177602, -0.0376523770, -0.0531043150, -0.0467059948, -0.1259388626, -0.0504261032, -0.0655563325, 0.0106057962, 0.0337335579, -0.1120253131, 0.0191151686, 0.1481609643, 0.0268015880, 0.0039890870, -0.0744001195, -0.0231716223, -0.0131718637, 0.0516029708, -0.0011470831, -0.1377027929, 0.0151957469, -0.0317942500, 0.0022940852, 0.0210496746, 0.0984515026, 0.1378301382, 0.0639054626, 0.0184248351, 0.0195412617, -0.1011554673, -0.0904645920, 0.0269979686, -0.0065259626, 0.0004003043, -0.1077318490, -0.0349870771, -0.1182424948, -0.0556786768, 0.0344915800, 0.0181002840, -0.0239214338, -0.0383054055, -0.1733604074, 0.1088823080, -0.0480447114, 0.0510003082, -0.0196253080, 0.0907942802, 0.0038809862, 0.0347476527, 0.0228609312, 0.0097274603, -0.0565780625, -0.1432734877, 0.0420374759, -0.0284672063, 0.0403353982, 0.0235056486, 0.0765579343, 0.1567151397, -0.0335795246, 0.0573150367, 0.0043083066, 0.0363417193, -0.1022692472, 0.0118615013, 0.1565965265, 0.1243747547, -0.0284585543, -0.0224375464, -0.0643070489, 0.0675741211, -0.0531062260, -0.0126026934, 0.0248821191, 0.0379163884, 0.0293272175, 0.0135565726, -0.0077236486, 0.0077810618, -0.0605585724, -0.0183938779, 0.1113698184, -0.1438461691, -0.1274007112, -0.0193200726, 0.0362216011, 0.0369381644, -0.0364234820, 0.0988245457, 0.0099913627, 0.0976152420, -0.0073147332, 0.0597713366, -0.0902349651, 0.0140305720, -0.0488470681, 0.0909150243, 0.0894264504, -0.0046286080, 0.1323074847, 0.0938557088, -0.1333788037, 0.0420968011, -0.1126561239, 0.0532657802, -0.0131001575, -0.0693493560, -0.0681145191, -0.0983157009, -0.0235412847, 0.0299836770, 0.0202028602, 0.0705119818, 0.1202304512, -0.0127959447, -0.0364256687, -0.0435030721, -0.0428882129, -0.0769875273, -0.0226879530, -0.1260668039, 0.0121447556, -0.1414345652, 0.0369855873, -0.0344466083, 0.0690817684, 0.0804835781, 0.0361803100, 0.0808416680, 0.1598526239, -0.1075041965, -0.0587452613, -0.0301621445, 0.0216894858, 0.0213739965, 0.0588459261, 0.0138499597, -0.0218470600, 0.0018563672, 0.0202359464, -0.1083050072, -0.0383726880, 0.0360282809, 0.0100682406, 0.1272626519, -0.1144728288, -0.0546469316, 0.0255493447, -0.0624148995, 0.0563705973, 0.0659768656, -0.0427978039, 0.0919048935, -0.0441731252, -0.0308351722, 0.0677266568, 0.0114918975, 0.0180618335, -0.0373009145, 0.0468538888, 0.0264093187, -0.0823991969, -0.0326920822, 0.0924583450, 0.0005548213, 0.0299791433, -0.0065975357, -0.0540409274, 0.0199736133, 0.0916313380, 0.0126273017, -0.1259371042, 0.0510115623, -0.0124944421, -0.0455946922, -0.0224553980, 0.0031454398, 0.0430483446, 0.0001341775, 0.0499768220, 0.0200301912, 0.0465950519, 0.0063900496, 0.0327402763, 0.0037723202, -0.0871534199, -0.0120493565, -0.0057457890, -0.0172863640, 0.0412845835, -0.0238625091, -0.0125021022, 0.1081149578, 0.0165486317, 0.0114146303, 0.0593778901, 0.0818764195, 0.0157190133, -0.0835667849, 0.0111520719, -0.0138181336, -0.0334690064, 0.0685016960, 0.1499660760, 0.0696642995, 0.0048512951, 0.0476136990, 0.0224640053, -0.0664051622, -0.0952378660, -0.1385098547, 0.0460781455, -0.0692520961, 0.0547933169, 0.1410206854, 0.0484445952, -0.0213695820, 0.0708552003, 0.0274626184, 0.0306008011, 0.0655266792, -0.0333949775, -0.0651248991, -0.0812989548, -0.0051242514, -0.0254257452, 0.0621015914, -0.0330724157, 0.0203243587, -0.0476251319, 0.0089370860, -0.0988188237, 0.0237058625, 0.1068276763, -0.0358419977, -0.0419258587, 0.1206304729, -0.0230726674, -0.0038581300, 0.0382981077, -0.0669598877, -0.0376646109, 0.0296808220, 0.0812814906, 0.0675637275, -0.0440771468, 0.0890002623, -0.0510598458, -0.1122375503, -0.0603958033, -0.0319419056, 0.0620719194, 0.0188253578, -0.0928304344, 0.0249970015, 0.0646075755, -0.0461820997, -0.0254469961, -0.0570116416, 0.0806636065, 0.0048042745, -0.0916074961, -0.0568984598, -0.0674089715, 0.0112740640, 0.0202787798, 0.1320466250, 0.0200989489, 0.0756682903, 0.0239022076, 0.0556211397, 0.0571510941, -0.0954216942, -0.0985732451, -0.0020079690, -0.0271186419, -0.0025905573, -0.0159672592, 0.0209503677, -0.0399399623, 0.0571334697, 0.0181170385, -0.0146784727, -0.0485606715, -0.1803047806, -0.0013249489, 0.0061771288, -0.0340024121, -0.0536329262, 0.0073343120, -0.1435618252, 0.0187252201, 0.0239913780, 0.0096170036, -0.0263220109, -0.1138446331, -0.0689983442, -0.0302430280, 0.0340592228, 0.0226946156, 0.0359295681, 0.1517637968, -0.0160392541, -0.0338752940, -0.0037646350, -0.0340661518, 0.0938632339, 0.0772984922, 0.1621265560, 0.0039457842, -0.0056562796, -0.0405085348, 0.0511753671, -0.0294445381, -0.0542962551, -0.1006287634, -0.0823571309, 0.0139458589, 0.0208012536, 0.0134216305, -0.0506548136, -0.0440460667, -0.0572960414, 0.0459042415, -0.0055703311, 0.1141312346, -0.1305729449, -0.0413255058, 0.0335444398, 0.0473669134, -0.0347450338, -0.0560658798, 0.1357548833, -0.0261039771, -0.1213531047, 0.0590826459, 0.0413756482, 0.0864057317, -0.0479357243, -0.0259418692, 0.0092681246, -0.0527585968, 0.0902926251, -0.1378669441, 0.0178378969, 0.0497274324, -0.1149373353, -0.0281273033, 0.0226242039, -0.0760090053, 0.1150933281, -0.0550558232, -0.0955252349, 0.0300934371, 0.0633855388, 0.0695032552, 0.0389188714, 0.1169147417, 0.0826947242, -0.0066096988, -0.0291704331, -0.0754478797, -0.0178268757, -0.0210445076, -0.0123875942, -0.1485330462, 0.0614335984, 0.0234697554, 0.0662988797, -0.1077910513, 0.1185824797, -0.0069817738, 0.1739830375, -0.1026466191, 0.0976185203, 0.0223449934, 0.0154239321, -0.0592693090, -0.0275234580, -0.0730147436, -0.0218620654, 0.1095790565, 0.0157169737, -0.0355878882, 0.0900538787, -0.0096932082, 0.0021469651, 0.0498696156, 0.0449785143, -0.0553914309, 0.1333389133, -0.0795488283, 0.0157522019, -0.1282252967, 0.0387907326, -0.0986222848, 0.0238539539, -0.0364318825, -0.0147965048, 0.0151342563, 0.0170425829, 0.0683830306, -0.0270282775, -0.0302972421, -0.1337634623, 0.0444539189, -0.0422035791, -0.0008343041, -0.0523548350, -0.0074492344, -0.0283792820, 0.0278247930, 0.1231229156, 0.1047361642, -0.0083077382, 0.0104601653, -0.0110383229, -0.1470907927, 0.0005754891, -0.0014966298, 0.0652654320, 0.1294389516, 0.0407802537, -0.0016471655, 0.0376877151, 0.0705857724, 0.0597946867, 0.0000962320, 0.0115087992, 0.0385484062, -0.0414322801, 0.0215321407, -0.0098115308, 0.0271653682, -0.0065532005, -0.1022170037, 0.0159418639, 0.0036684624, -0.1132641286, 0.0417124107, 0.0998529643, -0.0648929030, 0.0568115786, -0.0130410315, -0.0193495210, 0.0456260405, 0.1312871277, 0.0240579527, -0.0418090969, -0.0461943671, 0.1010375544, 0.0537818745, -0.0400886647, -0.1365094334, 0.0395562872, 0.0960912704, 0.0705692992, 0.0816903114, -0.0535098240, -0.0514152050, -0.0225640535, 0.0304476246, 0.0136683192, 0.0622052811, -0.0022609087, 0.0047656200, -0.0910644084, 0.0256629717, 0.0347633846, 0.0974652022, -0.0365339741, 0.1372365206, -0.0507678501, -0.0015686385, 0.0637415946, 0.0105778351, 0.0020342066, -0.0073542711, 0.0839260370, -0.1137356609, -0.0256710052, -0.0030884058, 0.1205184758, -0.0317450278, -0.0406420380, 0.0171965417, -0.0880833268, 0.0281211175, -0.0373600014, -0.1305388212, -0.0423872024, -0.0113537889, 0.1024500579, 0.0053133504, 0.0299627800, -0.0088024782, -0.0406096503, 0.0216289535, -0.0632372722, 0.0764223188, -0.0370217711, -0.0652784780, -0.0372841954, -0.0295855105, -0.0657232404, 0.0115614347, 0.0948521271, -0.0486905463, 0.0197817553, -0.0241037849, -0.0050413548, 0.0713965148, -0.0518823825, 0.0383945405, 0.0068095704, -0.0909305215, -0.0010433552, 0.0023660674, 0.0888062790, 0.0924672708, 0.0207835548, 0.0618825257, 0.0228887442, 0.0285022538, 0.0160308778, -0.0835660100, 0.0416790172, -0.1696331352, 0.0308984686, -0.0129518015, -0.0284661129, -0.0734023750, 0.0300773941, -0.0871165991, 0.0488460995, 0.0195989143, -0.0352186859, 0.0408082046, -0.1306821555, -0.0369795263, -0.1238249317, -0.1295382082, 0.0181836523, 0.0107447896, 0.1414691508, 0.0112174787, 0.0171425138, -0.0722881407, 0.0751129165, -0.0394898094, -0.0455123670, 0.1503607333, 0.1045238823, -0.0721192360, -0.0179487411, -0.0914371014, 0.1146278307, 0.0297429468, -0.1186734587, 0.0122057721, -0.0233471431, 0.0276747979, 0.0114362054, 0.0627474040, -0.0105664032, -0.0436529331, -0.0889882222, 0.0444366634, 0.0553189889, -0.1208806634, -0.0081800763, 0.0302732233, -0.0657727420, 0.1260810196, -0.0113410288, 0.0628878325, -0.0319803134, 0.0363593847, 0.0487069674, 0.0319861360, -0.0348421633, -0.0491321646, -0.0286517274, 0.0779973567, -0.1176928282, -0.0128257163, -0.0914594010, -0.1286481172, 0.0772510618, -0.1051663384, -0.0528576821, -0.0536965691, -0.0586811900, -0.0409560800, 0.0436929241, 0.0431562811, 0.0229944233, 0.0507547893, 0.0642333254, 0.0556696281, -0.0103748366, 0.0044286298, -0.0484984294, -0.0056083445, 0.0601043813, -0.0158757102, -0.0438021757, 0.0702574104, -0.1404313445, -0.0436328575, -0.1253535002, -0.0696931481, -0.0819140598, -0.0513183065, 0.1174396649, 0.1354053915, -0.0977205858, 0.0234860107, 0.0019873653, 0.0267847255, 0.0434104018, -0.0597812310, -0.0686913282, -0.0197584182, -0.0184978899, 0.0166416075, -0.0559193455, -0.0179490335, -0.0065769330, -0.0858456716, -0.0116565665, -0.0401117280, -0.0463017747, 0.0090822000, -0.0412426665, 0.0031442260, -0.0658989027, -0.0415973105, -0.0072047822, -0.0081998864, 0.0617327616, -0.0179386362, 0.0093718208, 0.0173765384, -0.0065789791, -0.0982135832, 0.0014334165, -0.0706906617, -0.1009512246, 0.0648467988, 0.0028978169, -0.1242675930, -0.0098739387, 0.0090232724, -0.0295097139, -0.0979729220, 0.0212922879, 0.0771741197, 0.1037301123, -0.0066861236, 0.0226081479, 0.0751045197, -0.0001699136, 0.0569667071, 0.0015993851, -0.0223224387, 0.0158110838, 0.1450024396, 0.0491896681, 0.0469009392, 0.0189497024, 0.0002827554, 0.0732528195, 0.0696027353, -0.0677989051, 0.0190891065, -0.0410261080, -0.0247690231, -0.0194153357, 0.0120438254, -0.1215909272, 0.0038669927, -0.0950229913, -0.0806143358, 0.0099905171, 0.0449173599, 0.0089432569, -0.0879678205, -0.0424357280, 0.0817071870, -0.0135327894, 0.0192036014, 0.0790117010, -0.0524888635, 0.0339049324, -0.0027486533, -0.2343347073, 0.1042620763, -0.0460888520, 0.0945800990, -0.0567672811, -0.0267564822, -0.0247437544, 0.1070586666, -0.0179881286, -0.0251534879, 0.1167334169, 0.1118015200, 0.1020663381, 0.0927335247, 0.0852447078, 0.0369938761, 0.1026655287, -0.0993364081, 0.0996487215, -0.0443079919, 0.0200797077, 0.0012956122, -0.1011286452, 0.0030729515, 0.0863477662, -0.0751670823, 0.0973307565, 0.0043319175, -0.0110971080, 0.0718993470, -0.0573689044, -0.0832942873, 0.0857687667, 0.1043489054, -0.0977238566, -0.0330666676, -0.1206115708, -0.0631502196, -0.0778823122, 0.0847604424, -0.0697979704, 0.0231591072, 0.0014737499, -0.0486723632, 0.0071235257, -0.0196584947, -0.0190314278, -0.0875199065, -0.0471244231, 0.0479923785, -0.1185804307, -0.0561845079, -0.0065141427, 0.0434910692, -0.0086112805, -0.0988359004, 0.0318016857, -0.0011004090, 0.0095316172, -0.1083169207, 0.0506734401, -0.0360696614, -0.0243266542, 0.0967252254, 0.0332427211, -0.0605458394, 0.0120619256, 0.1461936235, -0.0383606404, -0.0917716101, -0.0535077155, 0.0179135017, 0.0596815646, 0.0157828014, -0.1932315975, 0.0062466720, 0.0364897735, -0.0219682381, -0.0664187893, 0.0140845869, 0.0158737972, -0.0618995763, 0.2386485487, -0.0985677838, 0.0612773597, -0.1086893752, 0.0126992799, 0.0455605425, 0.1340403259, -0.1700843722, -0.1048450470, 0.0403320454, -0.0236482788, 0.0423040986, 0.0157740749, -0.0219743662, -0.0443078913, 0.0026000226, 0.0562795475, 0.0782032460, -0.1428211033, -0.1238283291, -0.0397371240, -0.0562066883, -0.0017135155, -0.0721027702, 0.0254554953, 0.0472879671, 0.0132412557, 0.0216926448, -0.0589665510, 0.0350056812, 0.0974247977, 0.0626250803, -0.1118885502, -0.0768020675, -0.0598729663, 0.0749928653, 0.1473000050, 0.1091942191, -0.0731769204, -0.0076174848, 0.1092931107, -0.0372626930, -0.0035193656, 0.0311059933, -0.0535182506, 0.0437630229, -0.0232987627, 0.0371919908, 0.0388700739, 0.0156518687, -0.0638864711, 0.0482649505, 0.0062043713, 0.1031828672, -0.0867308751, -0.0196590442, -0.0092237033, -0.0602157786, -0.0021719483, -0.0735476837, 0.0344676599, 0.0342823714, 0.0450070351, 0.0650599077, 0.1416971385, -0.0081399092, -0.0133653339, 0.0381522737, 0.0473816097, -0.0886441246, -0.0398090333, 0.0522160567, 0.0951844454, 0.0038081540, -0.0053615952, 0.0832629055, -0.1170293242, -0.0372855030, 0.0231954493, 0.0657170415, 0.1552431732, -0.0588527061, -0.0465697050, 0.1030890718, 0.0768893510, 0.0308367517, -0.0248033796, 0.0295033026, -0.0334308408, -0.0469064713, 0.0085964473, -0.0163131859, 0.0495453738, -0.0580569468, -0.0593872815, -0.0622470751, -0.1062481552, -0.1106513888, 0.0478074402, 0.0959291607, 0.1232151166, 0.0528940149, -0.0626427606, -0.0462738685, 0.0545103475, -0.0350226536, 0.0662303641, 0.0760082230, -0.0052567869, -0.0501401126, 0.0410006493, 0.0118852565, 0.0448384732, -0.0560066663, 0.0478856526, -0.0092483414, -0.0216250755, 0.0378840007, -0.0957355723, -0.0304544978, -0.0730565861, 0.0164942462, -0.0571061894, 0.0794128776, -0.0163656790, 0.0534604080, 0.0280166958, -0.0033960040, 0.1386905313, -0.0089309579, 0.0363299325, -0.0550296977, -0.0839606076, -0.0097477557, 0.0367140211, 0.0172346774, -0.1019314304, -0.0418211930, 0.0565466173, 0.0229505952, 0.0782227665, 0.0840507522, -0.0196495987, -0.0012989964, 0.0123088742, -0.0620142259, -0.0482130498, -0.0242463648, 0.0326153226, -0.0201142486, -0.0035558096, 0.0031957002, 0.0896375254, 0.0281367339, 0.0895631984, 0.0390803143, 0.0380596220, 0.0951644257, -0.0764260590, -0.0023164279, 0.0477850065, -0.2468424588, 0.1067755297, 0.0968871415, 0.0550008267, -0.0237407647, 0.0457386933, 0.0735324696, 0.1284853369, -0.0197178405, -0.0132046686, 0.1228553951, -0.1093007103, -0.0599773712, -0.0287620202, -0.1307264566, -0.0630992427, 0.0204238892, -0.0988780558, 0.0309554543, 0.0003609139, -0.0311308205, -0.1224016622, 0.0473283455, -0.0113975136, -0.0196447242, -0.1112961918, 0.0914812312, 0.0173384603, -0.0121590998, -0.0137253804, 0.0634763241, -0.0832348019, -0.0314110667, 0.0882888064, -0.0468660034, -0.0347788408, 0.0116516324, -0.0708881840, 0.0431882553, 0.0519659147, 0.0083426191, -0.0624810085, -0.0438016057, -0.0031645212, 0.0074473615, 0.1003601179, 0.0477554314, -0.0866962075, 0.0995840952, 0.0969385505, 0.1018991619, -0.0038534133, 0.0427171104, 0.0641097426, 0.0441111512, -0.0946496278, -0.0014453259, 0.0554899387, 0.0006947368, -0.0416606255, 0.0711407661, -0.0800468400, -0.0355321020, 0.0460509174, 0.0270567723, 0.1088690013, -0.0811548755, -0.0006555798, 0.0013052061, 0.0505571812, 0.0522827767, 0.0277518760, 0.0165777914, -0.0845072269, -0.2176492363, 0.0657216460, 0.0020250999, 0.0294359457, -0.0560691282, 0.1101410761, -0.0252299812, -0.0601389222, 0.2329346985, 0.1215999350, -0.0571253933, -0.1291609406, 0.0239769295, 0.1157986224, 0.0399412997, -0.1728967130, 0.0483755656, 0.0385766067, -0.0950302184, 0.0127075743, 0.0207821354, 0.0225240085, 0.0292318910, -0.0943312570, 0.0481311791, -0.0783165991, 0.0378636420, -0.0891529471, -0.0360677838, -0.0088575101, -0.1052005813, -0.1124632061, 0.0262654778, 0.0133610405, -0.0183779914, 0.0246624872, -0.1400994807, 0.0175618455, 0.1270023286, 0.0002673761, 0.0136510814, 0.0492526665, -0.0549730361, 0.0833877921, 0.1525822431, 0.0356911272, 0.1250698715, 0.0001371487, 0.1607082933, -0.0707837790, -0.0468426310, 0.0318512805, -0.0276620220, -0.0893220305, -0.0265613552, 0.0341038182, 0.0102455644, 0.0281025805, -0.0517899133, 0.0596437119, 0.1365211606, 0.0708444864, -0.0856729895, -0.0694919378, 0.0052242191, -0.0575645007, 0.0323875286, 0.0201282278, -0.0388407260, 0.0360617600, 0.0758106336, 0.0656135008, -0.0302597508, -0.0263464432, -0.0043433090, 0.0107114650, 0.0330676325, 0.0632483363, -0.0446086600, 0.0064088791, -0.0573404580, 0.0090600923, -0.0178670380, 0.0298612230, -0.0480276681, -0.0417777337, 0.1088249460, 0.0976919606, 0.1671973765, -0.0568826385, -0.0263729990, -0.0703235865, 0.1003838629, -0.1280076653, -0.0019049364, -0.0098597445, -0.0345863253, -0.0147228865, 0.0039766547, 0.0121358922, 0.0698198006, 0.0160784256, -0.0949832946, -0.0508072115, 0.0953055471, -0.1051409841, -0.0501530468, -0.0930934474, 0.0354987830, 0.0032595240, -0.0877662525, -0.0795826092, 0.0968032330, -0.0483363084, 0.0117830979, 0.0827235058, -0.0056998516, 0.0863707662, -0.0175512955, -0.0383069813, 0.0430022143, -0.0235786214, -0.0697254539, -0.0108716860, -0.0652658567, 0.0381973982, -0.0317683518, 0.0154707078, 0.0340275206, 0.0253056530, 0.0873456448, -0.0355695039, -0.0188613813, 0.0417425893, 0.0340923592, -0.0013624862, -0.0748776272, -0.0364770740, 0.0383339562, 0.0413793735, 0.0776283666, 0.0727336779, 0.0475882664, 0.0142336972, -0.0357177965, -0.0328350030, 0.0320329256, 0.0050001084, -0.0689912587, -0.0093068248, -0.0186393242, -0.0235466138, 0.0066672661, 0.0104194032, 0.0500428043, 0.1191798598, -0.0256638378, 0.0560780801, 0.1279018223, 0.0075341719, -0.0421725772, -0.0108530298, 0.0781798735, 0.0894780234, -0.0777671263, -0.0193206947, 0.0744150877, -0.1099124178, -0.0297615789, -0.2202587426, 0.0944696441, -0.0295451619, -0.0085764937, 0.0362857953, 0.0505190268, -0.0476114415, 0.0018449046, -0.0187824033, -0.0099703781, 0.1112059429, 0.0768365487, 0.1385105103, 0.0177643150, 0.0427957140, -0.0358353183, -0.0691087022, -0.0908761770, -0.0179538503, 0.0183182713, 0.0217661392, -0.0586643107, 0.0741124600, -0.0607450157, 0.0598896667, -0.1095088199, 0.1177436486, 0.0104792546, -0.0101924557, 0.0130067598, 0.0502877086, -0.0598775968, 0.1328998804, 0.0151744615, -0.0435766764, -0.0243605636, 0.0856301263, -0.0601463541, -0.0029702927, -0.0498684533, -0.0405052342, -0.0452038050, -0.0061464608, 0.0466874428, -0.0010725505, -0.0466107465, 0.0738276914, -0.0933718681, -0.0893267691, 0.0107145375, 0.0027478305, -0.0102027245, 0.0253842957, 0.0105795749, 0.0030375866, -0.0873643309, -0.0343075097, 0.0252876729, 0.0015787303, -0.0308372825, 0.0434194393, 0.0477595106, -0.0222615618, 0.0095296316, 0.0293677859, 0.0646075383, 0.0845555142, 0.0025832523, 0.0377702750, -0.0320809036, 0.0637860298, 0.0146444673, 0.0791896358, 0.0565453880, -0.1832793653, -0.0368146785, 0.0343478471, -0.0848677456, 0.0053818831, -0.0833150595, 0.0490707159, -0.0581610687, 0.2231433839, 0.0602409877, -0.0226746835, -0.1463859975, 0.0937019661, 0.0715332702, 0.0233624019, -0.1696633697, -0.1016786173, 0.0514126159, 0.0061218580, -0.0644846037, -0.0261766650, 0.0487997644, -0.0059414017, 0.0793264583, 0.0505872294, 0.0763801411, 0.0059751468, -0.0909061953, -0.0193834547, 0.0342919081, -0.0678986460, -0.0952470377, 0.0767295882, -0.0500688702, -0.0030295404, 0.0162622221, -0.0145099517, 0.0024093124, 0.0339996777, -0.0438701920, 0.0308730584, -0.0352191664, -0.0577174462, 0.0208010878, 0.1286801696, 0.0997819006, -0.0905918255, -0.0285819303, 0.1511691958, -0.0195859093, -0.0276595410, 0.0260160752, 0.0211869460, -0.0896543786, -0.0197874829, 0.1183848307, -0.1207568720, 0.0648932159, 0.1343651712, 0.1244685426, -0.0553750582, 0.0783928409, -0.0793239474, -0.0122425314, 0.0751137063, -0.0583124571, -0.0285672713, -0.1146724969, -0.0988785103, 0.0276597366, -0.0051320824, 0.0557907857, 0.0888237879, -0.0016834112, 0.0730090812, -0.1068490148, -0.0039373920, 0.0134382965, -0.0390896946, -0.0067714164, 0.0378137864, 0.0085872505, 0.0153960269, 0.0713894069, -0.0239011124, 0.0297387373, 0.0535178781, 0.0438872464, 0.1446458995, -0.0571296476, 0.0459345728, 0.0494249016, 0.0856733471, -0.0018824179, 0.1119112521, -0.0432820693, -0.0329899639, 0.0426295474, 0.0109485909, -0.0482388064, 0.0508825071, -0.1015176177, -0.0506750941, -0.0390850566, 0.0044590291, -0.1023347229, -0.0300329812, -0.0818281770, 0.0399128795, 0.0509792641, -0.0200360715, 0.0100525143, -0.1127615795, 0.0173019301, -0.0472733676, 0.0695848018, -0.0027712104, -0.0708573759, -0.0442849845, -0.0194431357, -0.0009531859, -0.0545307323, -0.0535006598, -0.0058702775, 0.0379098207, 0.0308981184, 0.0950015709, 0.0290834177, -0.0577835254, 0.0554943942, -0.0125072571, -0.0306175835, -0.0092205750, 0.0281373002, -0.0361782238, 0.0001469799, -0.0132884020, 0.0102314148, 0.0093774991, 0.0489298403, -0.0033417752, -0.1124299318, -0.0555144027, -0.0466534719, 0.1174677163, -0.0050586825, -0.0409009755, -0.1211516187, -0.0146403871, -0.0921175107, 0.0605099648, 0.0471359305, -0.0451683328, 0.0257600974, -0.0588461459, 0.0800238773, 0.0078888861, 0.0355858468, 0.1051907167, -0.0013651705, 0.0529247411, -0.0533682518, -0.0027254787, -0.0022740685, 0.0138253048, 0.0656175241, 0.0307306051, 0.0229577273, -0.0647470281, 0.0565526001, -0.0649087131, -0.0926388726, 0.0325214230, -0.0725376904, 0.0404254422, -0.0046532536, -0.0202310029, -0.0233004745, 0.0271987617, -0.0130638313, 0.0723444745, -0.0589172952, -0.0238945168, -0.1075189486, -0.0753176287, 0.0078778854, 0.0966485366, 0.0881887227, -0.0018935559, -0.0600532293, -0.0591543689, 0.0451550260, -0.0535364412, 0.0075174272, -0.0620463490, 0.0548819825, -0.0465137884, 0.0095755057, -0.0674063116, 0.0070789368, 0.0331083573, -0.0710318834, 0.0566968694, -0.0392682962, 0.0278049745, -0.0002925222, 0.0309877694, 0.0197150074, 0.0338607095, 0.1139334366, -0.0547742471, 0.1387620121, 0.0801881403, -0.0049495553, 0.0605622754, -0.0542288460, 0.0955416933, -0.0122995265, -0.0781798810, -0.0566455387, -0.0807764605, -0.0063393316, 0.0849409625, 0.0367224403, 0.1766141802, 0.0921263695, 0.0170533452, -0.0078084501, 0.0852844939, 0.0430654809, -0.0263041146, -0.0699290261, -0.0355243646, -0.0095218439, -0.0244555939, -0.0117944917, -0.0026065942, -0.0456426591, -0.0083038798, -0.0671492144, -0.0213304758, -0.0216975529, -0.0931493789, 0.1644322872, 0.0466635711, 0.1075401530, -0.0331738032, -0.1238804236, 0.1094170138, 0.0124416314, 0.1596431732, -0.1600272655, 0.0636277050, -0.0577144511, 0.1714785248, -0.0914561749, 0.0784185380, -0.0978609994, 0.0932936370, -0.0164086111, -0.0307255480, -0.0158262514, -0.0028215745, -0.0275037233, 0.0534259379, 0.0214492157, -0.1117132902, 0.0234974865, 0.0093471566, 0.0606564954, 0.0682635978, 0.0011288829, 0.0635410696, -0.0234328061, -0.0093007507, 0.1300034076, -0.0079546934, 0.0234330241, -0.0053359680, -0.0223670416, 0.0758743435, -0.0204262845, -0.0711609945, 0.0361741707, -0.0603809580, -0.0527937673, -0.0026560819, -0.0033121679, -0.0085066659, 0.0438723601, -0.0803584903, 0.0672942027, -0.0378159396, -0.1340214610, 0.0086415214, -0.0167357717, 0.0420889892, -0.0729679391, 0.0754061416, -0.0024111839, -0.0430712514, -0.0725379959, -0.0300888270, -0.0755586624, -0.0061555733, -0.0367647335, 0.0576528572, 0.1175879613, 0.0507801808, 0.0433049612, 0.0913019180, -0.0586538278, 0.0063230610, 0.0688146725, 0.0012599227, -0.0349538103, 0.0967602134, 0.0453061908, 0.1159950420, -0.0089925276, -0.0221376624, 0.0882114395, 0.0671773702, 0.0452396497, -0.1566941738, 0.0711510405, -0.0553006940, -0.0412716977, 0.0313116089, 0.0509225652, -0.0379194990, 0.0070554176, -0.1149747148, -0.0520423725, 0.1132208630, -0.0153251970, -0.0087544527, 0.0837040916, -0.1151349619, 0.0381664187, 0.0518452227, 0.0175666548, 0.1062157154, 0.1380549818, -0.0159054808, -0.0351844877, -0.0323814414, -0.0005239650, 0.0885298550, 0.0607459024, 0.0564673468, -0.0174470767, -0.0142605361, 0.0537274443, 0.0267659780, 0.0064249323, -0.0549619421, 0.0488612577, -0.0452956706, 0.0217702948, 0.1165968850, -0.0556229912, -0.0175147094, -0.0980236158, -0.0953648239, 0.0904903337, 0.0257943794, 0.0426783934, -0.0732976422, -0.0757156610, 0.0055594835, -0.0171394106, -0.1108103618, 0.0303425528, -0.0043612495, 0.0005412254, -0.0420772955, 0.1389156282, 0.0056835837, 0.0811931044, -0.0124513321, -0.0589670986, 0.1318019629, 0.0269861612, -0.0576610528, -0.0272544436, -0.0466099605, 0.0664273426, -0.1029868424, -0.0326640531, 0.0068997396, 0.1209737584, -0.0989982709, 0.0621020161, -0.0347912572, -0.0442995131, -0.0792626068, -0.0163425319, 0.0592579097, 0.0205972772, -0.0931489766, 0.0456613638, -0.0005941176, 0.0202374849, 0.0331352577, -0.0163394809, -0.1018492281, -0.0879525915, -0.0429112017, -0.0745491982, 0.0907447487, -0.0057986029, 0.0560163967, -0.0633327961, -0.0449421816, -0.0058053574, -0.0606142692, -0.0853470191, 0.0555824041, 0.0478142388, -0.0237401612, -0.0644029379, -0.0123003945, 0.1047754362, -0.1008901149, -0.0765526667, 0.0817541853, -0.0306844655, 0.1092117354, 0.0965430364, -0.0804178193, -0.0308245420, 0.0745889768, -0.0909857675, -0.0446588695, -0.0158405844, 0.0308588557, -0.0125299422, -0.0314877443, -0.0460863635, 0.0096756490, 0.0946980044, 0.0936482623, 0.0424261168, 0.0191539265, 0.1146860197, 0.0500025563, 0.0242858641, 0.0164737441, 0.0292657260, -0.0009278292, 0.0122850621, -0.0451990366, -0.1031204164, -0.0297788549, 0.0285522155, -0.0039057881, 0.0348340608, -0.0246692002, 0.0980076343, 0.0625582933, -0.0177176613, 0.0818111449, -0.0837675110, -0.0210398976, 0.0163724143, 0.0078892102, 0.1758095175, 0.0802938566, 0.0982140973, -0.0173316095, -0.0355072282, 0.0291824862, -0.1194007546, -0.0732711256, -0.0046100677, -0.0072173215, -0.0531554744, -0.0873585194, -0.0285158064, -0.0962883234, 0.0553711429, -0.0673288628, -0.0200068206, 0.1272280216, -0.0125020938, 0.1824177057, 0.0334541090, 0.1164898872, -0.0263112579, 0.0048592128, 0.0166127253, -0.0531407520, 0.1672619432, -0.1639490128, -0.0250979550, -0.0513888150, 0.1875288039, 0.0708078146, 0.0160324275, -0.0230990108, 0.1031110361, 0.0284408741, -0.0317520685, 0.0589183979, -0.0057827733, 0.0011955569, -0.0585700162, -0.0243634526, 0.1142533720, 0.0172684975, -0.0134890499, -0.0792320520, 0.0931949839, 0.0554745980, 0.0871694535, 0.0373724960, 0.0197352041, 0.0712038651, 0.0380297713, 0.0232792757, -0.0039729639, 0.0317580365, 0.0734919384, -0.0594550781, 0.0309305675, -0.0158242546, 0.0372707397, -0.0525421873, 0.0809133649, -0.0043748631, 0.0192221794, 0.1122821793, 0.0147893587, -0.0809482262, 0.1231820583, -0.0129070729, 0.0122321714, 0.0078325123, -0.0997675881, -0.0707115009, -0.0589354783, 0.0763021037, -0.0015434067, 0.0823405609, -0.0186257828, -0.0190489795, -0.0156892501, -0.0416525453, -0.1026736796, -0.0438313521, 0.0386889055, -0.0745968968, -0.1212270334, -0.0467003584, 0.0097664800, -0.0354925804, 0.0064274035, 0.0657692105, -0.0811005011, 0.1012088135, -0.0044820961, -0.0346277431, -0.0342500173, 0.0935489386, 0.0864710659, -0.1193841919, -0.1664790362, 0.0913837776, 0.0632846132, -0.0147015080, -0.0575887077, -0.0097442390, -0.0213382263, 0.0042831302, -0.1109743863, -0.0954325423, -0.0352528505, -0.0287606698, -0.0038021512, 0.0191471428, -0.0043063071, 0.0387982726, 0.0803972781, 0.0077290935, 0.0667605624, 0.0406634212, -0.0508839525, -0.0762639493, 0.1298981905, 0.0815751180, 0.0898540094, 0.0412904210, 0.0352760442, -0.0093038157, -0.0286928359, -0.0498891510, 0.0683264062, 0.0908624381, -0.0200768448, -0.0195480045, -0.0352443904, 0.0201052241, 0.1435431689, 0.0494981036, -0.0057372293, -0.0719441026, 0.0979420915, 0.1222531945, 0.0243037660, -0.0396053158, -0.0693563893, 0.0048217764, -0.0696593449, -0.0148394024, -0.0235801395, -0.0432486720, -0.0273736008, -0.0049259765, -0.0198568422, 0.0489357188, 0.0084646167, -0.0168016292, 0.0041429084, -0.0422466807, 0.0001248632, -0.0152553394, -0.0924712569, -0.0503419563, -0.0436652340, 0.0273427516, 0.0621021278, -0.0186151098, -0.0371888839, -0.1051043272, 0.0202241894, 0.0587213449, -0.0483989045, -0.0440276489, 0.0352927782, -0.0913285315, -0.0550235324, 0.0852990672, -0.1070464477, 0.0040634442, 0.0003960424, 0.0854393691, 0.0110987965, -0.0240080059, -0.0404435098, -0.1495544761, -0.0244832374, -0.0383875370, -0.0213429164, 0.0958263949, 0.0505937599, -0.0614589565, 0.0111086378, 0.0158112366, -0.0402266569, -0.0027260664, 0.0166760534, -0.1244499385, -0.0216515120, -0.0271491259, -0.0112743117, 0.0416219570, 0.1086756513, -0.0714553222, -0.0108377403, -0.0013753086, -0.0848654956, 0.0925774872, 0.1135655344, -0.0881122947, -0.0322281159, -0.0728869066, 0.0248329099, 0.0784956366, 0.0995177999, -0.1156136915, 0.1264618188, -0.0418009274, 0.0090803457, -0.0193598121, -0.0482617766, 0.0443202183, -0.0402881987, -0.0159465168, 0.0142640248, 0.0245556105, -0.0104262959, 0.0277822409, 0.0148948412, -0.0292478986, 0.0537494421, 0.0505131185, -0.0013585446, 0.0362019241, -0.0041270433, 0.0282224678, 0.0467548482, 0.0782000348, -0.0239238832, -0.0587947853, -0.0407166965, -0.1275188625, -0.0854904130, 0.0045345104, 0.0606925860, 0.1617464274, -0.0118212942, -0.0423137546, -0.0050214357, 0.0429285951, -0.0890234187, -0.0382095948, -0.0623181798, -0.0486285836, -0.0043155402, -0.0573164634, -0.0202623513, 0.0964742526, -0.0014204748, 0.0067280200, 0.0296731461, -0.0279294867, -0.0242074691, 0.0924045071, 0.1736512333, 0.1256195456, 0.1252523214, -0.1108582690, 0.0010885665, -0.0460123941, 0.0576150455, 0.1555674672, -0.1519386470, -0.0951886624, 0.0684314668, 0.1495348066, -0.0077191740, -0.0067382576, 0.0538570769, 0.0926862657, -0.0970683023, -0.0307020247, 0.0624076836, -0.0951184407, -0.0240452047, 0.0562163368, 0.1117581874, 0.0372119024, 0.0242820103, -0.0354250073, -0.0579183549, 0.0840032995, 0.0203272272, -0.1101551130, -0.1050989106, 0.0564408526, 0.0805283412, -0.0184717681, 0.0319104642, -0.0032882520, 0.0460527353, -0.0788034797, -0.0684284866, -0.1095170379, 0.0514733195, 0.0519859940, -0.0504406691, -0.0512961969, -0.0037943367, -0.0654658303, 0.1166473627, 0.1017596796, -0.0501728915, 0.0093574924, -0.1001472473, 0.0132557098, -0.0505864918, 0.0734589472, -0.0660811886, 0.0512548611, 0.0207756590, 0.0205851179, 0.0378394164, 0.0879798383, 0.0291671492, -0.0226198975, -0.0400488041, -0.0477511436, 0.0247703753, 0.0410997160, 0.0384108610, -0.0267745443, -0.1075514555, 0.0105162794, -0.0076568471, 0.0049586641, 0.0805647001, -0.0144664971, 0.0510571152, 0.0807020515, 0.0910518318, -0.0209914465, 0.0883255824, -0.0507755540, -0.0101261996, -0.1594098806, 0.0235003624, 0.0791510046, -0.1037318334, 0.0415768921, 0.0266381372, -0.0534836538, 0.0025878702, -0.1001939848, -0.0359293222, -0.0574788600, -0.0221250821, -0.0301032793, -0.1293386668, 0.0198967028, 0.0349667482, 0.0758120641, 0.0065756692, -0.0042589661, -0.0851219743, 0.0400106870, -0.0432603694, -0.0386282690, -0.1077765375, 0.0795797408, 0.1042646691, 0.0494973809, -0.0053238086, -0.0156982839, 0.1201600879, 0.0395131744, 0.0273000728, -0.0612777881, -0.0082169082, -0.0350596383, 0.0204214957, 0.0965332016, -0.0464908555, -0.0062463153, 0.0067339935, 0.0428486615, 0.1203316674, 0.0219558328, 0.0388100296, -0.0621185340, 0.0631872267, -0.0911621600, -0.0926160291, -0.0394226648, -0.0510123260, -0.0077154273, -0.0038798577, 0.0767352805, -0.0577465259, 0.0032878041, -0.0151945250, -0.0039307503, -0.0178467520, 0.0080513638, -0.1136766747, 0.0170626100, -0.0182332844, -0.0172448233, -0.0617789999, 0.0175535381, -0.0495375805, 0.0477316640, 0.0455761254, 0.0645779818, 0.0363781787, -0.0631253496, -0.0339602344, -0.0640671477, -0.0286358967, -0.0520046018, 0.0825925097, -0.0422216840, -0.0279293582, 0.0133910384, -0.0378871337, -0.0869078562, -0.0375404917, -0.0857258588, 0.0163013376, 0.0122375544, -0.1162735447, 0.0340051465, 0.0012921662, 0.0344718099, -0.0398060940, 0.0381181426, 0.0437861979, 0.0441952050, -0.0663226098, 0.0422465578, 0.1049127728, -0.0208211765, -0.0001662855, 0.0206375699, 0.1395915747, -0.0713395625, -0.0330021530, -0.0006056819, 0.0227775984, 0.0446663126, 0.0286097974, 0.0104350941, 0.0067051360, -0.0309667792, -0.1374639273, 0.0754526332, 0.0061374614, 0.0800049156, -0.0150795821, 0.0152722290, -0.0358062573, 0.0068099094, -0.0161324795, 0.0210955832, 0.0217518155, 0.0169396102, -0.0742462724, -0.0398879945, 0.0229607802, -0.0878619254, 0.0293597765, 0.0883198306, -0.0971993506, 0.1370891482, 0.0039741569, -0.0707299411, 0.0160706807, 0.0029617506, 0.0884393603, -0.0517970435, -0.0176185332, -0.0739695057, -0.1004219726, 0.0224719923, 0.0619660839, 0.0575185232, -0.0582234450, 0.0286982339, 0.0174465962, 0.0119435759, -0.0083054053, 0.0878587514, 0.0742451772, -0.0787746683, -0.0051653995, -0.0544751883, 0.0994239897, 0.0298140272, 0.0847252831, 0.0514527857, 0.0165547151, 0.0247267149, -0.0618649982, -0.0172282066, -0.0698706135, 0.0659184232, 0.1061725989, 0.0940131992, -0.0433351956, 0.1284812987, 0.0748452768, -0.0861460865, -0.0741020069, -0.0628942922, -0.0386574231, 0.1013114452, 0.1057755947, 0.0924305767, 0.0185484178, -0.0322124511, -0.1238137633, 0.1070729271, 0.1040725112, -0.0145131899, 0.0836748332, 0.0110657420, -0.0137057872, 0.0035266713, 0.0548021682, -0.0340157300, -0.0791621655, -0.0524987988, -0.0095357690, 0.0374109931, 0.0480758660, 0.0123391161, 0.0054926993, -0.0169241689, -0.0203230921, 0.0467653424, 0.0136424396, 0.0425861739, -0.0064104926, -0.0958867893, -0.0397722237, -0.1000882611, 0.0168152004, 0.0550749302, 0.1211526021, -0.1097580045, 0.0634014532, -0.0756741017, -0.0111260032, -0.0103019653, 0.0819673017, -0.0366210900, 0.0027591928, -0.0160847642, -0.0172516052, 0.0495413132, 0.0189421307, -0.0275468100, -0.0242832862, 0.0191188268, -0.0137431072, 0.0511932150, -0.0771920756, 0.0700531676, 0.0040420559, -0.0589692146, 0.0325086974, 0.1225545108, -0.0415234827, 0.0268299580, -0.1125390902, -0.0047095278, 0.0094350809, 0.0117823454, 0.0205660090, -0.0923271924, 0.0868693963, -0.0921846405, 0.0446057618, 0.0070263082, 0.0454255827, 0.0106427893, -0.0165861063, 0.0219845511, -0.1235554740, -0.0064519509, 0.1214206070, -0.1354045123, -0.0054280953, 0.0524111837, 0.0340444259, 0.0095568039, -0.0646829531, -0.0513436422, -0.0400022641, -0.0170543864, 0.0561602637, -0.0536323488, -0.1391848624, 0.0368489623, 0.0774072409, 0.0165423825, -0.0324669294, -0.0561226644, 0.0014604792, -0.0324534737, -0.0771537870, -0.0498246253, 0.0458616540, -0.1299447417, -0.0212523136, 0.0192370284, -0.0326496847, -0.0523899756, -0.1008790731, -0.0059309625, 0.0489250645, 0.0777788609, -0.0408129729, 0.0384240597, -0.0144491009, -0.0438545607, 0.0004076049, -0.0872410163, 0.1359449476, 0.0037640100, 0.0102177160, -0.0102956621, -0.0528857186, -0.0619275458, -0.1192066893, 0.0230594147, 0.0504529513, 0.0433661081, -0.0209617596, 0.0261028577, 0.0423978306, 0.0194753166, 0.0042322106, 0.0852231309, 0.0731052309, 0.0514255464, -0.0996228084, 0.0145639069, 0.0770530775, -0.0135187823, -0.0178060941, 0.0452882238, 0.0494172424, -0.0531967841, -0.0313496739, 0.0615715906, -0.0620497502, 0.0359834433, -0.0890538767, -0.0345809944, 0.1334609389, 0.0733762234, -0.0150458841, 0.0923323631, -0.0965131000, -0.0785985067, 0.0134177897, 0.0418829396, 0.1096673682, -0.0409717038, -0.0574357100, -0.0305506624, -0.0105207535, -0.0440152623, -0.1049099565, 0.0640177578, 0.0249705259, -0.0401895791, 0.0448890105, 0.0116886394, 0.0652994663, -0.1127149314, -0.0674295798, -0.0273936670, -0.0213329419, -0.0430837385, 0.0222668480, -0.0570630804, 0.0023593474, -0.0971658975, -0.0806882828, 0.0425686724, -0.0242005698, 0.0277973041, 0.0112487329, 0.0132037485, -0.0367463492, -0.0308871288, 0.0771052390, -0.0837751031, -0.1299379617, 0.0720037296, -0.0012764073, -0.0319419354, 0.0063147261, -0.0401546210, 0.1074636728, 0.0278237704, -0.0178199094, 0.0771744624, 0.0619953051, 0.0233422760, 0.0136468103, 0.0291575603, 0.0988837853, 0.0179091003, 0.0516341142, -0.0431327112, -0.0943660364, -0.0312736966, 0.0047672745, -0.0622599944, 0.0101540918, -0.0163002517, -0.0492837876, 0.0705386028, 0.0479455777, -0.1256989092, -0.0830125585, 0.0517203324, 0.0455954187, 0.0178710278, 0.0774432346, -0.1109006852, 0.0808809176, -0.0223997030, 0.0253924150, 0.0671604723, -0.0527275316, -0.0859260112, 0.0276437048, 0.0263258740, -0.0068579670, 0.0753614753, 0.0160904098, 0.1326184124, -0.0370777585, -0.0694437101, -0.0241141375, 0.0102720261, 0.0946493819, -0.0086495392, 0.0445519090, -0.0527042970, 0.0186466798, -0.0678941011, 0.0361388251, -0.0319480784, 0.0992461666, 0.0330749601, 0.0053371438, -0.0113950428, 0.1008760706, 0.0853809938, 0.0646136627, 0.1049311087, -0.0916652903, 0.0837238654, -0.0024578974, -0.0842570588, -0.0815246254, -0.0562149994, 0.1166976318, -0.0540789478, -0.0532416739, 0.0603611358, -0.0005713249, 0.0888550356, 0.0805869550, 0.0493598729, 0.0037875168, -0.0146117359, -0.1090363041, -0.0011170862, 0.0286144465, -0.0060721613, 0.0786537752, 0.0813143626, -0.1225776374, -0.0797388926, -0.0282922555, 0.0884549618, -0.1109308377, 0.1081002206, -0.0768997520, 0.0430251732, 0.0335008949, -0.0180567335, -0.0093754353, 0.0683898777, 0.0922330767, -0.0174315237, -0.1038267910, 0.0029147472, -0.0293660071, 0.0549939871, -0.0402792841, 0.0664646700, 0.1406002790, 0.0299492739, 0.0159721766, -0.0065546264, -0.0587226897, 0.0509355776, -0.0874730051, -0.0455277637, 0.0479781516, 0.0825727209, -0.0582691468, 0.0090726484, 0.0458465889, 0.0199369900, 0.0257855039, 0.0337795988, 0.0449784882, 0.0270057060, -0.0387270898, 0.0726689473, 0.0098394752, -0.0389967933, 0.0719855726, -0.1311213970, -0.0588416122, -0.0666208640, 0.0131855831, -0.0348604098, -0.1082097962, 0.0557085164, 0.0081564421, -0.0633583143, 0.0214297697, 0.1345875114, -0.0242408477, 0.0770120621, -0.0498371534, 0.0772778541, 0.0356731117, 0.0060364604, 0.0153395673, -0.0054065101, -0.0449986905, -0.0509468764, 0.1078856215, -0.0381372757, -0.0806340277, 0.0463360921, 0.0960723013, 0.0263779350, -0.0153602455, -0.0364890471, 0.0211581774, -0.0044480264, 0.0383361690, 0.0300968494, -0.0025828625, -0.0306869149, 0.0372749195, 0.0340481065, 0.0494740903, 0.0275776070, -0.0501409099, 0.1492232233, -0.0051905480, 0.0099689998, 0.0114259645, -0.0513593256, -0.0050862674, 0.0306155998, -0.0633387566, -0.0501744002, 0.0042162770, 0.0026967397, 0.0232924893, 0.0039962060, -0.0596941225, 0.0004919814, -0.1132621467, 0.0291541032, -0.1327963918, -0.1349148750, -0.0999352261, -0.0158508159, -0.0158875678, -0.0171957891, -0.1017894447, 0.0989778861, -0.0368073359, 0.0849198401, -0.0470638089, 0.0543922037, 0.0354156345, -0.0279781651, -0.0335539207, 0.0351090021, -0.0396922417, -0.0599994101, 0.0278064925, -0.0556668378, -0.0206259228, 0.0119252428, -0.0634495318, -0.0962378606, -0.0350079425, 0.0004423710, -0.0433472022, -0.0301812645, 0.1360808164, -0.0529416725, -0.0627271011, 0.0251412466, -0.0359818153, -0.0957945287, -0.0656777024, 0.0584083647, -0.0226477459, 0.0302355811, -0.0244298168, -0.0208561942, -0.1062171757, 0.0218187813, 0.0103772692, -0.0652687028, -0.0589423850, 0.0861842558, -0.0383702256, 0.0253223963, 0.0268138591, -0.0732572973, -0.0893566534, -0.0134256938, 0.0756535009, 0.0458907560, 0.0346417166, 0.0075035673, 0.0489527658, -0.0451023802, -0.0344078429, 0.0056354068, 0.0895034596, -0.0257705245, 0.0265122335, 0.0822106749, -0.0468051992, -0.0100839706, 0.0223956853, -0.0781286582, 0.0252542812, 0.0304451864, -0.0150148813, 0.0020536443, -0.0465522557, 0.1287254244, -0.0034097836, 0.0039841146, -0.0377760679, 0.0293640830, -0.0153993480, 0.0175919328, 0.0168272760, 0.0630757436, -0.0759250000, 0.1200532168, -0.0956684425, 0.0772845149, 0.0184212830, -0.0197669212, -0.1484044939, 0.0603226423, -0.0051478771, -0.0045206365, 0.0181349032, -0.0496870764, 0.0060073021, 0.0261273365, 0.0071882675, -0.0182406195, -0.0569989197, -0.0555084422, 0.0150316041, 0.0454734974, -0.0628944486, -0.0221588351, 0.0279813651, 0.0850751624, 0.0739236027, -0.0749992654, 0.0290225223, 0.0582133308, -0.0014253017, -0.0900238454, -0.0327788219, 0.0898999274, -0.0845893398, 0.0281645767, -0.0237792339, -0.0532322899, 0.1043845266, 0.0185821336, 0.0971011743, -0.0236607827, 0.0796174034, -0.0575567447, 0.0269862264, -0.0289223865, 0.0613956489, -0.0180416573, -0.0807980523, -0.0519683473, 0.1261821240, 0.0549830832, 0.0438552275, 0.0457370915, -0.1029141992, -0.0532894433, 0.1186037064, 0.0395243205, -0.0566880740, 0.0332441404, -0.0062806723, -0.0186683722, 0.0259114653, -0.1052162722, -0.0014002430, 0.1228523254, -0.0967192873, -0.1003039479, 0.0546721071, -0.0690794811, -0.0006685558, -0.0352539569, 0.0820164010, -0.0503687449, 0.1200899631, 0.0684354007, -0.0145354560, -0.0996797904, -0.0370663740, -0.0257852003, 0.0395235196, 0.0380585976, -0.0242005736, 0.0510057956, 0.0118556730, 0.0929650813, -0.0348629765, -0.0530354716, 0.0969800577, 0.0442872271, -0.0387775190, 0.0699841827, -0.0129915075, 0.1313056201, 0.0082879793, 0.0477694198, 0.0188299529, 0.0940708220, 0.0312239956, 0.0558912046, 0.0566029400, -0.0762583837, -0.0879708454, 0.0087090405, -0.0320119411, -0.0133211771, -0.1186730564, -0.0460510850, -0.0060772630, -0.0562580265, -0.0180383250, -0.0496056303, -0.0605226979, 0.0089278044, -0.0610132627, -0.0230779946, 0.1096750423, -0.0238627270, -0.1261985600, 0.0008635494, -0.0116335405, 0.0330233797, 0.0996871963, 0.0150597217, -0.1381174922, -0.0630947128, 0.0242713057, 0.0552267246, -0.0105338562, -0.0093593067, 0.0424058437, -0.0298234113, 0.0480040982, 0.0130728036, 0.0543211177, 0.0950453281, -0.0694406480, -0.0111387223, -0.0473103747, -0.0046127429, -0.0322977193, 0.0364372879, 0.0642668381, 0.0827323869, 0.0189121533, -0.0989021510, -0.1013813987, -0.0811977163, 0.0087566106, 0.0601447448, -0.0484069958, -0.0775885209, -0.0327615477, 0.0035260036, -0.1041401029, -0.0478798673, 0.0609274581, 0.0223328061, -0.0190504417, 0.0518265516, 0.0040505882, -0.1325635910, 0.0058594402, -0.0735474676, 0.0287719388, 0.0826408789, 0.0662517846, -0.0262570456, 0.0089131100, 0.0581038035, -0.0230763294, 0.0349501595, 0.0198758058, -0.1236210912, 0.0639368519, 0.0132383974, 0.0250399150, -0.0232694913, -0.1009320021, 0.0516395159, -0.1371969432, 0.0962755904, 0.0159123968, 0.0063097212, 0.0213680938, -0.0498819314, -0.0787217170, -0.0030195713, -0.0932326019, 0.0153248580, 0.0561902970, 0.0869262367, -0.0645940080, 0.0085814297, -0.0082836682, 0.0030274328, 0.1062229201, 0.0152260438, 0.0216445550, -0.0790781826, 0.0484238975, -0.0208781268, -0.0130590089, -0.0441925749, 0.0396230929, 0.0231748633, -0.0611063540, -0.0864563212, 0.0847666189, -0.0605253801, -0.0703411996, -0.0384486616, -0.0503934324, -0.0147461528, -0.0657026544, 0.0479619764, -0.0800378174, -0.0278663356, -0.0862029567, 0.0132175488, -0.0418219343, 0.0086580375, -0.0098858783, -0.0744524747, 0.0810790882, -0.0559135638, -0.0140677774, -0.1072933599, 0.0048451060, -0.0013405670, 0.0100892829, 0.0211427156, -0.1240657717, 0.0316480920, -0.1095113605, 0.1351137906, -0.0069392789, -0.0519961156, 0.0086186985, -0.0270869024, -0.0014815552, -0.0709676445, 0.0315593071, -0.1358278394, 0.0131431734, 0.0441247150, -0.0908975080, -0.0555909500, 0.1204339862, -0.0911300182, -0.0097596953, -0.0453960411, 0.0521717072, -0.0417278670, -0.0005619386, -0.0133832199, -0.0010237903, 0.0048260959, 0.0388781875, 0.0133055598, -0.0257323831, -0.1002335325, 0.0094498768, -0.0786149576, 0.0894037932, -0.0335883386, 0.0494213291, -0.0054791644, -0.0621935390, -0.0109327314, -0.0341153778, -0.0730554834, -0.0361813456, -0.0606352240, 0.0746743232, -0.1838334650, 0.2845018804, -0.0376649015, -0.0981913880, -0.1507258415, -0.0048262253, 0.0062771151, 0.0942019597, -0.1364501119, 0.0441522636, 0.0611535944, -0.0908472836, 0.1213175878, 0.0818211734, 0.0559648722, 0.0533153750, 0.0080952821, -0.1278198063, -0.0762491226, 0.0186658427, 0.0060124132, 0.0080703665, 0.0587874278, 0.0013246386, 0.0023661046, 0.0173581243, -0.0768843964, 0.0155126275, 0.0241133887, -0.0664093494, 0.0161660649, 0.0280419718, -0.0557367131, 0.0606041998, 0.1044086367, 0.0154061355, 0.0447220095, -0.0300630797, 0.0729067102, 0.1227147728, -0.0596774630, -0.0132109718, 0.0797282383, 0.0378282107, -0.1012401357, 0.0561646447, -0.0239985101, 0.0026011097, -0.0206755176, -0.0533643253, -0.0130164260, -0.0292652100, -0.0181288160, 0.0823180377, 0.0192884579, -0.0585276410, -0.0139843756, -0.0031840561, -0.0660859346, 0.0561128855, 0.0652977154, 0.0272269845, 0.0244332664, -0.0179286487, 0.0339915603, 0.1069607064, 0.0357373022, -0.0339896046, 0.0038010611, 0.0527800024, -0.0066534732, -0.0231031012, -0.0941023678, -0.0854468867, 0.0555513166, -0.1074480638, -0.0032858788, 0.1001026928, -0.1105622500, -0.0108132605, -0.0469077975, 0.0034425925, 0.0254787877, -0.0628525093, -0.0248368625, 0.0485831313, 0.0494891480, -0.0139273321, -0.0014146867, 0.0020394090, 0.0465427227, -0.0359728336, -0.0724334493, 0.0490042530, -0.0362826921, -0.0433795527, -0.0909602121, 0.0549639650, -0.0382226445, 0.1351247132, 0.0332290977, -0.0648912340, 0.0292058997, 0.0708452314, 0.0149582662, 0.0167428739, 0.0792077556, -0.0073440387, 0.0120945070, 0.0047187512, 0.0226269681, -0.0271246340, 0.0442301966, 0.0398816802, -0.0403670929, -0.0914252624, 0.0110977571, 0.1040638238, 0.0224290621, -0.0262762960, 0.0094162012, 0.0310091693, -0.0672623068, 0.0818395391, -0.0626987070, 0.0397033431, -0.1445917934, 0.0729345381, 0.0041463911, 0.0094361845, -0.0515230745, -0.0239299312, 0.0123300413, 0.0302320719, -0.0080848318, -0.0157783665, 0.0078709517, 0.0844007358, -0.0239273924, 0.0084836865, 0.0412316509, 0.0911209956, 0.0940134376, 0.0119171813, 0.0867765546, -0.0239576939, -0.0093319528, -0.0064036190, 0.1046371013, 0.0805293992, 0.0770217180, 0.0522880480, 0.0225385167, -0.0006266317, 0.0335009992, -0.0090716695, -0.0308937542, -0.0281937607, -0.0067754011, 0.0347584672, 0.0686196983, -0.0158748738, -0.0221496187, 0.0003994479, -0.0502229854, 0.0191967916, -0.0063569709, -0.1055630371, -0.0079375356, -0.0572708398, -0.0101681724, 0.0950224325, 0.0349507891, 0.0788464248, -0.1189928055, -0.0506146178, 0.0718327239, -0.1153875515, -0.0833285451, -0.0357483402, -0.0559863262, 0.0721814409, -0.0279573705, -0.0407327637, -0.0274310596, -0.0031343512, 0.1192025095, -0.1084196195, 0.1166669428, 0.0181529801, -0.0094071478, 0.0430978239, -0.1434347332, -0.0435718670, 0.0088040372, 0.0355776027, 0.0064200573, -0.0037624903, -0.0118467156, 0.0239282046, -0.1369146705, -0.0143540185, 0.0147778038, 0.0291189943, 0.0518798828, -0.0403973535, 0.0088904342, -0.0006984469, -0.0024825507, -0.0660300925, 0.0104955770, 0.0366471000, 0.0088913599, 0.0709951296, -0.0623878688, 0.0399622321, 0.1108911335, -0.0882817581, -0.0774807632, -0.0256559607, 0.0697909892, -0.0716037750, -0.0404588096, -0.0237097424, -0.0008914059, 0.1148216650, 0.0354680493, 0.0811474472, 0.0889902115, 0.0783434659, -0.0656539500, -0.1218406633, -0.0984239131, -0.0336253792, 0.0240658522, 0.0590203069, -0.0686688870, 0.0036935697, 0.0698859170, -0.0887505189, 0.0463216268, 0.0346785299, -0.0109131932, -0.1615784317, 0.2816193104, -0.0065952484, -0.0596245080, -0.1494389325, 0.0587460920, -0.0547326729, 0.0573239140, -0.1348898262, 0.0575905442, 0.0622943640, 0.0303310324, -0.0422044955, 0.0025416452, 0.0506755002, -0.0184258055, -0.0063536661, -0.1321479976, -0.0801503882, -0.0846965685, -0.0602020398, -0.0156251173, -0.0253927168, 0.0023240026, 0.0133769810, -0.0455445237, 0.0137230586, -0.0040799584, 0.0237354953, -0.0582889989, 0.1049753800, 0.0254322775, 0.0925511122, -0.0744807050, 0.0018988346, 0.0114025380, 0.0243797339, -0.0288603399, -0.0311617889, -0.1008846387, -0.0843234062, 0.0936360881, 0.0475903563, -0.0014437765, -0.0983859971, -0.1006155610, -0.0726015568, -0.0064938036, -0.0527248234, 0.1091606393, -0.0146442195, 0.0787731633, -0.0061355764, -0.0319111161, 0.0122098867, -0.0582139418, 0.0499521382, 0.0349140242, -0.0652403384, 0.1412267685, 0.0484139025, -0.0861017033, 0.0215601213, -0.0137177510, 0.0335004330, -0.0920633003, -0.0045401780, 0.0794243068, -0.0553214811, 0.0116792945, 0.0849212110, -0.0257616267, 0.0345684774, -0.0890050307, 0.0521682613, -0.1307734400, -0.0768232793, 0.0129112899, -0.0770790651, 0.1237783283, 0.0552315116, -0.0026220072, 0.0272762589, -0.1030134261, -0.1080764085, 0.0608697087, -0.0462226197, -0.0598763674, 0.0564669557, 0.0020118975, -0.0243538488, -0.0382171124, 0.0262660831, -0.0242206473, 0.0874560699, 0.0631870925, -0.0100547969, 0.1153500080, -0.0407538265, 0.0108599635, 0.0212768521, 0.0289404821, -0.1174690649, -0.0204375014, -0.0435135104, -0.0890869722, 0.0392213389, 0.0287846103, 0.0212846845, 0.0065483423, 0.0936291814, -0.0450576469, 0.0391598642, -0.0564535931, -0.0275403969, 0.0208599605, 0.0093764188, -0.1034738645, 0.0268241055, 0.0558738373, -0.0465687215, -0.0342512839, -0.0841829404, 0.0451379940, 0.0266142841, 0.0377287939, -0.0383668430, -0.0322329253, 0.0030320666, -0.1305474788, -0.0155283725, 0.0206160881, 0.0527279302, -0.0365234613, 0.1362924576, -0.0254422519, 0.0069948924, 0.1260862797, -0.0118831070, 0.0070392783, -0.0316398069, -0.0514867045, 0.0351046249, 0.0047782576, 0.0851648152, -0.0151427388, 0.0044685071, 0.0512809269, -0.0416955054, -0.0380789936, 0.0083113192, 0.0339895859, 0.0162489284, 0.0637129173, 0.0665608943, -0.0001426827, -0.0645788014, -0.0155375777, 0.0261277948, 0.0436555035, 0.0743232071, -0.0850313529, -0.0184082519, -0.0017838149, 0.0057765446, 0.0094498973, 0.0476326793, -0.0655586794, -0.0283774082, -0.0318155512, 0.0007379918, -0.0396980979, 0.0251127854, -0.0636968762, 0.0713523254, -0.0336594768, 0.1480034888, -0.0094472384, -0.0404249243, -0.0297880098, -0.0479212776, -0.0217980333, -0.0354278274, -0.0059842481, 0.0761018097, 0.0305031314, 0.0059579471, -0.0451233387, 0.0421117097, 0.0030940382, -0.0082427273, 0.0726053119, -0.0729956701, -0.0478434004, 0.0895557180, -0.0311476775, 0.0064342692, -0.0065772305, -0.0101100039, 0.0206811242, -0.0042411396, -0.0365615003, -0.0318674929, -0.0130936960, 0.0210160371, -0.1119093075, 0.0109860627, 0.0288904868, 0.0370242000, -0.0664161593, -0.1258369386, -0.0675370470, 0.0588654876, -0.0106838522, 0.1014331728, -0.0543168150, 0.0966489315, -0.0835081264, 0.0875563473, -0.0271892287, 0.0703767687, 0.0729438514, -0.0011836045, -0.0711059868, -0.0002796054, -0.0326587334, 0.0332968384, -0.0641974136, 0.0745970011, -0.0386726186, -0.0466540419, 0.0164702162, -0.0006889086, -0.0201036502, 0.0343906693, 0.0642537102, -0.0655752346, 0.0163257476, 0.0520524345, 0.0776941180, -0.1119342595, -0.1105861962, 0.0586260147, -0.1490438432, 0.2710240781, 0.0464390889, 0.0797628760, -0.1838529855, 0.0964093357, -0.1045369506, -0.0479611419, -0.1188193858, -0.0057499078, 0.0545110106, 0.0086424528, -0.0689089000, 0.0586972535, 0.0588708855, -0.0764589161, 0.0162604153, -0.1404884607, -0.0658594072, -0.0693631470, -0.0106597524, 0.0774923116, 0.0137148267, 0.0234733131, 0.0442800932, -0.0354220234, 0.1112141833, 0.0163445584, 0.0167103931, 0.0254996046, -0.0633767769, 0.0226537567, -0.0389000475, -0.0134187387, 0.0455870740, 0.0010198349, -0.0278458949, -0.0181650463, -0.0101462770, -0.0505838320, 0.0655121878, -0.0358235464, -0.0098530035, -0.0543024391, -0.0873129740, -0.0387321152, -0.0993261263, 0.0002506842, 0.0288907960, 0.0719383955, -0.1037478819, -0.1244023368, 0.1078187376, 0.0008020894, 0.0297331475, -0.0509896837, 0.0425363407, 0.0320223346, -0.0726108775, 0.0860971957, -0.0375940986, -0.0679684281, 0.0163850691, -0.0111053614, 0.0294839721, -0.0774079934, -0.0106424429, 0.0334531814, -0.0441610813, -0.0320643447, 0.1075065657, -0.0274449065, -0.0432066992, 0.0031830105, 0.0506480560, -0.0817608386, 0.0317132659, -0.0116583714, -0.0018312965, 0.1184515655, -0.0254972167, -0.0037191310, 0.0200829133, -0.0552730151, -0.0391891859, 0.0363581292, 0.0211463626, -0.0389195830, -0.0659976527, 0.0001505665, 0.1277364194, -0.0278881937, 0.0647414103, -0.0644765869, 0.0251679998, 0.1091314256, 0.0019931037, -0.0579459108, -0.0332438238, -0.0476497449, -0.1250801384, 0.0197324920, 0.0204086266, 0.0493991822, -0.0329829268, 0.0649337620, -0.0128551116, -0.1212554201, 0.0102224853, 0.0084730303, -0.0408209525, -0.0866732821, 0.0316751562, -0.0081655523, 0.0670463964, 0.0594907850, 0.0095426729, 0.0367863141, 0.0192813557, -0.0088495268, -0.0155489184, 0.0055358484, -0.0838737115, 0.0244097300, 0.0652152523, 0.0310788266, 0.0381903015, -0.0304136071, -0.0417886749, -0.0820700079, -0.0076421597, 0.0857108161, -0.0210268572, 0.0645877197, -0.0287603233, -0.0192380995, -0.0335115828, -0.0060772514, -0.0343019888, 0.0039346674, -0.0544848107, 0.0411635451, -0.1047596782, 0.0363501720, 0.0076024090, -0.0506726764, 0.0610825904, 0.0345657282, -0.0581902750, 0.0023883679, 0.0663412288, -0.1156223491, 0.0203170571, 0.0277471039, -0.0195962209, -0.2122267783, -0.0147338584, -0.0395817459, -0.0862342864, 0.1068897992, -0.0726684704, 0.0060533844, 0.1044657677, -0.0476430990, 0.0608208254, 0.0804101452, -0.0683944449, 0.0265489686, 0.1025377214, 0.1357684880, -0.0248046964, 0.0704285204, -0.0083941715, -0.0351798683, -0.0364179462, 0.1067334041, -0.0687267929, -0.0318944864, -0.0696926340, 0.0833915770, -0.0474076048, -0.0485873073, -0.0727725998, -0.0235080030, -0.0983789489, -0.0194525421, 0.0369393565, 0.0710728914, 0.1076086909, -0.0144712776, 0.0098201670, -0.0755974650, 0.0408740416, 0.0306486171, 0.0061135022, 0.0690688938, 0.0042820452, 0.0284590311, -0.0331897512, 0.0283196475, -0.1062103510, 0.0845992491, 0.0147945462, 0.0895754546, -0.0050227833, 0.1196049899, -0.0135337003, -0.0272452459, 0.0905911252, 0.0853853375, -0.0978911594, -0.0465086065, 0.0353013054, -0.0294591114, -0.0951368287, 0.1158484668, -0.0889541954, -0.0017610090, 0.0665797442, -0.0072577740, -0.1314876527, 0.0789832175, -0.0100582372, -0.0393818766, 0.0829090253, 0.0694780648, -0.0240344666, 0.0228052344, 0.0367776118, 0.0428931527, 0.1135496646, -0.0435219258, -0.0066212215, -0.0667445958, -0.0150385657, -0.0217086934, 0.2320384085, 0.0372935049, -0.0481382571, -0.1351453215, 0.0281845685, -0.0073833163, -0.0037708543, 0.1676354855, -0.2029364109, 0.0858692080, 0.0201933961, 0.1729518473, 0.0570515245, -0.0867013484, 0.0256666876, 0.1364256591, -0.0698077306, -0.1813722998, 0.0097579882, 0.0769762546, 0.0201515742, -0.0664055422, -0.0709824041, -0.0926955715, -0.0407069176, -0.0080246916, -0.0711307153, 0.0917824805, 0.0203802492, 0.1262422204, -0.0937435776, -0.0788898692, -0.0910394639, -0.0975928381, -0.0185606331, 0.0039277351, -0.1275570095, -0.0193418972, 0.0102077005, 0.1010146216, 0.1226534471, -0.1029740497, 0.0105834156, 0.0935410559, -0.0241643973, 0.1497280002, 0.0036784664, -0.0056145862, -0.0331469700, -0.0674217865, 0.0073591475, -0.0058115898, 0.0004764338, -0.0889104083, 0.0503322296, 0.0872022137, 0.0707450286, 0.0511875451, 0.0341408253, 0.0253260210, 0.0366989076, -0.0576671734, 0.1595471203, -0.1035505906, -0.0077979299, 0.0999991968, -0.0576526113, -0.0487547033, 0.0912732482, 0.0021472883, -0.0762751475, -0.0894676968, -0.0193797108, -0.0711113885, -0.0119384099, -0.0579816997, 0.0276004504, 0.0366035365, 0.0511701256, 0.0491054654, -0.0392526388, 0.0807310194, -0.0064800796, 0.1481117010, 0.0768382251, 0.0494247265, -0.0028336141, -0.1189940572, -0.1383581311, -0.0640401766, 0.0334226675, -0.0078154858, 0.0174177177, 0.0321710557, 0.1132434234, -0.0208311938, 0.1042592153, 0.0129305562, 0.0668747276, 0.1219731495, -0.0049527823, -0.0933750793, -0.0490221344, -0.0058750184, -0.0661473647, 0.1037556604, 0.0508939587, 0.0183119606, -0.0170678552, 0.1463527679, -0.0425866209, 0.0937125832, -0.0027676558, 0.0459762216, 0.0607980862, -0.0787727758, 0.0195463933, 0.1411917806, -0.0099924831, -0.0285897832, 0.0624139979, 0.0417085215, 0.0691964552, -0.0032313110, -0.0438667983, -0.0863640681, -0.1065134704, 0.0586266704, -0.0022602170, 0.0160790477, 0.0284270607, 0.0620729178, -0.0024159397, -0.0323910676, -0.1095707044, -0.0378803201, -0.0377716422, 0.0702441931, 0.0023820829, 0.0156894438, -0.0157898404, -0.0772670358, -0.0569946691, -0.0370400213, 0.0909793451, 0.0063880486, 0.0121742385, -0.0236358810, 0.0241123214, 0.0143374298, 0.0355165266, 0.1154930815, -0.0457510687, 0.0726341605, -0.0362951197, -0.0237337258, 0.0059334151, -0.1070717648, -0.0431022570, 0.0170780681, -0.0548167489, 0.0243613794, -0.2265060842, -0.0998219624, 0.0086715985, -0.0432099253, 0.0350643545, -0.0661387593, 0.0278243180, 0.1156322658, -0.0489280410, -0.0720492229, -0.0247190818, -0.0459380187, 0.1050146669, 0.0093891174, 0.0055455999, -0.0209213048, 0.0640938878, -0.0102903247, 0.0495321192, -0.0135915913, 0.0232701227, -0.0416681804, 0.0256552547, 0.0164680202, 0.0893115774, 0.0152822016, 0.0698497817, -0.0107231205, 0.0509847663, 0.0948605239, 0.0713319629, 0.0607170239, -0.0558142401, -0.0728506744, -0.0123734670, 0.0121736620, -0.1082536057, 0.1018050686, 0.0247741807, -0.0614377633, -0.0231003650, -0.0448069498, 0.0279423650, 0.0832749009, 0.0312466361, 0.0890236646, 0.0065171607, 0.1255678982, -0.0065458189, 0.1379479766, 0.0017258703, -0.0142542068, -0.0944367573, -0.1454420090, 0.0814607143, -0.0388920344, -0.0378245153, -0.0542056412, 0.0675655007, 0.1257163286, 0.0300754830, -0.0488289781, -0.0113517325, 0.0097016161, 0.0167778246, -0.1015895233, 0.0107875858, -0.1063409150, -0.1356641054, 0.0995204151, 0.0399633609, -0.0310243536, -0.1088648736, -0.1088274643, -0.1326558739, 0.0952556804, 0.0848586410, -0.1368664205, -0.0576768592, -0.0225269143, 0.0226080492, 0.2541810870, -0.0702510551, 0.0133630997, 0.0136487139, -0.0101199886, -0.0093057081, 0.0093334569, 0.1733536869, -0.1938289106, -0.0582274459, -0.0324703008, 0.1842848510, 0.0278466754, -0.0123523688, -0.0151657881, 0.1200604066, -0.0193073135, -0.1883130819, 0.1034470871, 0.0185643621, 0.0296900328, -0.0004947184, -0.0274069160, 0.1271486878, -0.0338499546, -0.0340280198, 0.0075003211, 0.0698562711, 0.0038662767, 0.0498010106, -0.0214661397, -0.0169901662, 0.0421711691, 0.1236998439, -0.0170803796, 0.0011058704, -0.0188131928, 0.0614356585, -0.0077400696, 0.0002389702, 0.0067620995, -0.0217139125, 0.0051008645, 0.0135242529, -0.0217572730, 0.0359218791, 0.0785971954, -0.0677066967, 0.0424519144, -0.0488472134, 0.0322942622, -0.0117419856, 0.0442391001, -0.0669239610, 0.0600415654, 0.0812090486, -0.0292097647, 0.0489730984, 0.0582504272, 0.0291279573, 0.0082834596, -0.1070462093, 0.1699768603, 0.0191473272, 0.1100321412, 0.0968717635, -0.1418326199, 0.0845322087, -0.1061327010, 0.0008726984, -0.0920256078, -0.0934120789, -0.0598336384, -0.0141561581, -0.0606488176, -0.0893769488, 0.0063125421, 0.0102392826, 0.0432257205, 0.0783631057, 0.0622492023, 0.0728832558, 0.0413048007, -0.0981481597, 0.0987167060, 0.0230461657, 0.0896508768, -0.0497338399, -0.1485039741, -0.0722619668, -0.0600160994, 0.0074158916, -0.0101383608, -0.0162145011, -0.0678940117, 0.0332494713, 0.0968356356, 0.0433828719, 0.0834423751, 0.0793132186, -0.0156246349, -0.0740679875, -0.0275538061, 0.0910264105, -0.1095604673, 0.1020403132, -0.0705861449, -0.1393213421, 0.0544666201, -0.0316866636, -0.0603943616, 0.0678137541, 0.0698064491, 0.0176870618, 0.0657956973, -0.0685270578, 0.0210365895, -0.0342531241, 0.0895874277, -0.0607177839, -0.0048298137, -0.0688682050, 0.0458583049, 0.0083221728, -0.0743723512, -0.0972934067, -0.0792154968, 0.0068075960, 0.0277851634, -0.1276172101, 0.0704292357, -0.0176777411, -0.0005068338, -0.0700962692, -0.0988644436, -0.0318704844, 0.0539109744, -0.0698735043, -0.0038699491, -0.0867901593, 0.0253409594, 0.0126303900, -0.0254279636, -0.0292860270, 0.0525377914, -0.0603382811, 0.0181896519, -0.0163499955, 0.0033653374, -0.0080342889, 0.0297630150, -0.0072226468, -0.0440757833, 0.0984996855, -0.0316945463, 0.0229881965, -0.0038537222, -0.0407449417, -0.0904406905, 0.0184606072, -0.1394375712, -0.0694783777, -0.2092237324, 0.0069970004, -0.1497990340, -0.0301567595, 0.0000503468, -0.0780954361, 0.0025897189, 0.1076858565, -0.0467816442, -0.0705732703, 0.1175964698, -0.0467439890, 0.0458741523, 0.0257176850, -0.0035041727, -0.0160773359, 0.0614443980, -0.0050876336, -0.0942676961, 0.0817208290, -0.0821067840, -0.0516384877, -0.0467929170, -0.0052879779, 0.0787570849, 0.0077216974, 0.0873832032, -0.1012346074, 0.0198294297, -0.0141331749, 0.0843127891, 0.0813310146, -0.0587019920, -0.0567471944, -0.0147214383, 0.0098401280, 0.0761336759, -0.0115403449, 0.0393706784, 0.1074124947, -0.0272945762, 0.0025881783, 0.0245565809, -0.0249778852, 0.0262379684, -0.0810542181, 0.0475566164, 0.0271616336, -0.0748260990, -0.0542126782, 0.0170981772, -0.0077695292, -0.0640870035, 0.0944432989, 0.0729191378, 0.0588064454, 0.0017760911, 0.1511044353, -0.0414931737, 0.0431085266, -0.0944378749, -0.0895652547, -0.0094690295, -0.0371476673, -0.0668811128, -0.1106830165, 0.0229435395, -0.0777091309, -0.0024103131, 0.0811713338, 0.0350556523, -0.0223876536, 0.0377199836, -0.0340857543, -0.0608004294, 0.1083138138, -0.0422704443, -0.0488295108, -0.0579956770, -0.0429848954, 0.0794109851, 0.2366816550, -0.0129705435, -0.0351497456, -0.0994294882, -0.0632197186, 0.0008841432, 0.0862903297, 0.1526596397, -0.1860593557, 0.0752006993, -0.0380341038, 0.1699520648, -0.1015720367, 0.1248276159, -0.0474620424, 0.1324244738, -0.0546076186, -0.1860141456, 0.0292716995, -0.1077835634, 0.0605752282, 0.0096942680, -0.0197141394, -0.1235039979, -0.0333288237, -0.1130386814, -0.1220462918, 0.0480956957, -0.0053580245, 0.0924984142, -0.0024090232, -0.0586950444, 0.0173155088, -0.0716445073, -0.0059412112, 0.0046349554, -0.0083298739, 0.0121607305, -0.0072520701, 0.1006126031, 0.0374620780, 0.0980790481, -0.0000675697, -0.0359635912, -0.0189535432, -0.0161282942, -0.0099229924, 0.0038576860, 0.0483850352, 0.0115264608, 0.0458820276, 0.0008198133, -0.0657290295, -0.0131159350, 0.0462401137, -0.0412504002, -0.1027403027, 0.0061291019, -0.0258728769, 0.0327428579, 0.1270230860, -0.1089949384, 0.1482989043, 0.0106856124, 0.0481154099, 0.0925719664, -0.1267924458, 0.0846259445, 0.0145193934, 0.0062161330, -0.1246038303, -0.0820594132, 0.0230672657, -0.0219328254, 0.0572519638, 0.0640352815, 0.0226564631, -0.0259757433, 0.0476562195, -0.1006187424, -0.1121408865, 0.0471619703, 0.0156142479, -0.1365888566, 0.0853566378, -0.0023032813, -0.0435537323, -0.0325385779, -0.1213037372, -0.0556901544, -0.0702151358, -0.0193085149, 0.0136474799, -0.0743505806, -0.0621426031, 0.1172162741, 0.0941732153, -0.0530654043, 0.0587686189, -0.1024484858, -0.0490442254, 0.0683296174, 0.0687545761, 0.0242220126, 0.0206923913, 0.0914386511, 0.0796970204, 0.0086867977, 0.0268715657, 0.0003450043, 0.0511169694, 0.0085169561, 0.0183598362, -0.0128842955, -0.0277991407, -0.0679891482, 0.0177888218, -0.0754860416, -0.0635526776, -0.0544210896, -0.0472705252, -0.0104479752, -0.1418252885, -0.0034904149, 0.0266209021, -0.0759299919, 0.0105505632, -0.0110220676, -0.0595917329, -0.0611683168, 0.0708790049, -0.0528612733, -0.0073177260, 0.1264980286, -0.0799301863, -0.0184609778, -0.0238846540, -0.1209600866, -0.0353117064, -0.1491753757, 0.0977555141, -0.0621567369, 0.0061083916, -0.0069684540, -0.0374306999, 0.0818738043, -0.0193649866, -0.0379400775, -0.1227672175, -0.1438455582, 0.0147058843, -0.0036030540, -0.0246228259, -0.0759090260, -0.0640301779, -0.0615005568, -0.0186023191, 0.0507873520, -0.0614072531, 0.0158863664, -0.0816384777, -0.0205065273, -0.1881629974, 0.0356794707, 0.0479667485, -0.0620916747, -0.0606742539, -0.0238293111, -0.0599724725, 0.1413645297, -0.0335632414, -0.0910625532, -0.0416617244, 0.0205995664, 0.0413789153, -0.0418931358, 0.0518553369, -0.0342490226, -0.0840370804, -0.0035639619, -0.0651143640, 0.0427331552, 0.0016917347, 0.0116866473, 0.0145323845, -0.0829377174, 0.0419644453, 0.0756864175, 0.0900702253, -0.0083668279, -0.1027082875, 0.0076945396, -0.0379342735, 0.0066341083, 0.0175908450, -0.0131772757, -0.0079778153, 0.0078189168, -0.1210818216, -0.1086172611, 0.0639320537, 0.0297088586, 0.0496403724, 0.0450604595, 0.0431590267, 0.0104455836, 0.0462751240, -0.0034948587, -0.0464773886, 0.0481420271, 0.0416366383, -0.0392285362, 0.0233999547, -0.0220163371, 0.0457388498, 0.0163982604, -0.0351488777, 0.0048651323, 0.0641163662, -0.0460955612, -0.0017861857, 0.0442886278, 0.0979158953, -0.0151594467, -0.0972560942, 0.0539355539, -0.1265162975, 0.0167443920, 0.0554611310, 0.0465830676, 0.0711338818, 0.0675791427, -0.0208113063, -0.0013761026, 0.0676072389, -0.0297738817, 0.0759546161, -0.0216539968, -0.0757224783, 0.0182681028, -0.0586432740, -0.0110027008, -0.0971521586, 0.1260803491, 0.0834635794, 0.0298016500, 0.1423515528, -0.0509724878, 0.0503850840, -0.0105024045, -0.0485549793, -0.0115503874, -0.1255244911, -0.1379569471, 0.1181790456, 0.0316593796, 0.0073662275, -0.0502318963, 0.1456356347, -0.0926446095, -0.0261375289, -0.0471466891, 0.1142991632, 0.0838553980, 0.0510091335, -0.0419400856, -0.0448122323, -0.1506814808, 0.0035842203, -0.0233435091, 0.0404460356, 0.0142698009, -0.0668077022, 0.0131607512, 0.0094554331, 0.0395414494, 0.0729262829, -0.0124416091, 0.0016276104, -0.0152743198, 0.0747707039, -0.0733433887, -0.0434374698, 0.0353371911, -0.0729452074, -0.0243210122, 0.0058987155, -0.1413355768, 0.0228496250, -0.0530521162, -0.0083703399, -0.0080252169, 0.0572583638, 0.0273255967, -0.0318773985, -0.1181458682, 0.0255517084, 0.0586818270, 0.0080311187, 0.0804948956, 0.0474723540, 0.0711992830, -0.0031709243, 0.0728847235, -0.0642749667, 0.0662960112, -0.0768299624, 0.0201749969, 0.0229252037, 0.0739138275, -0.0520896316, 0.0498757064, -0.0099474555, 0.0018885327, -0.0364431553, -0.1071083695, -0.0409564935, 0.0480775163, 0.0169786476, 0.1130996719, -0.0450948365, -0.0500766560, -0.0825554132, 0.0548856817, 0.1002434492, 0.0595385991, -0.0146911405, 0.0959501714, -0.0641811714, 0.0126661258, -0.0549977347, -0.1810107827, 0.0647194609, -0.0298092254, 0.0030377242, -0.0927444845, 0.0479312576, 0.0748286694, -0.0371992551, 0.1262745261, -0.0356582999, 0.0457404926, -0.0170884505, 0.0373646133, -0.1384489834, 0.1058321446, 0.0305605233, 0.1094733849, 0.0660656318, 0.0840516090, 0.1047931015, -0.0587832928, -0.0417999662, -0.0350468270, 0.0217534378, -0.0531030856, -0.0268529598, -0.0064037014, -0.0730192512, 0.0359283984, -0.0143623119, 0.1183303669, -0.0303906519, 0.0883206278, -0.0260807425, -0.0301727913, -0.0302745868, 0.0516469702, -0.0625651926, 0.0747462660, 0.0446607880, -0.0344256125, -0.0302375015, -0.0627699792, 0.0810837895, 0.0191037692, -0.0594962947, -0.1372043639, -0.0276676081, 0.0708551258, 0.0198599286, 0.0028790897, 0.0559278354, 0.0589816459, 0.1131210029, -0.0130245220, -0.0075979279, 0.0379857868, -0.0886038467, -0.0480899364, 0.1278928071, -0.0317085236, -0.0053221150, 0.0139292842, -0.1400796026, -0.0261508487, 0.0470618494, -0.1144316271, 0.0888238326, 0.1342789382, 0.0978256539, -0.0174163207, 0.0181112662, -0.0290805958, -0.1330314875, -0.2076358944, 0.1394588053, -0.1245892495, -0.1383007467, -0.0045112404, -0.0370197557, 0.0497571342, 0.1480822861, -0.0324565247, -0.1035109833, -0.0758640766, 0.0042705438, -0.0400782377, 0.0172531307, -0.0679780766, -0.0347777791, 0.0577311888, -0.0002887650, -0.0627409890, 0.0188799985, -0.0331847072, -0.0062727574, 0.0207963306, 0.0564958602, 0.0441665426, -0.0351382494, -0.0179969892, -0.0653356612, -0.0846070424, -0.0811010003, 0.0235831998, -0.0765069872, 0.0229941066, -0.0513130128, -0.0094336476, 0.0068373401, 0.0235764775, 0.1104947701, 0.0523678325, 0.0862062946, 0.0796429887, -0.0823075846, 0.0406832248, 0.0516454503, 0.0459038876, -0.0214287080, 0.0267557260, 0.0184305198, 0.0652389228, 0.0087087480, 0.0442043729, -0.0182474274, -0.0181807671, -0.0392382033, -0.0252679512, -0.0306491703, 0.1309156418, 0.0722783729, 0.0526830703, -0.0074260468, 0.1085429490, -0.0333255678, -0.1010303348, 0.0245541111, -0.0561642610, 0.0011814802, -0.0810326636, 0.0408182926, 0.0197687466, 0.0735185146, 0.0580611266, -0.0025501973, -0.0146070477, -0.0066736150, 0.0824978873, -0.0505772978, -0.0162011646, -0.0774006173, -0.0581502393, -0.0048299935, 0.0793669820, 0.1391590238, -0.0015480050, -0.0881654620, 0.0077802148, -0.0004946119, -0.1066759303, 0.0010723351, -0.0387301445, -0.0132909175, -0.0068769334, -0.0093067251, 0.1386977285, 0.0227312408, 0.0832639262, -0.0957529768, 0.1471899599, -0.1038703620, -0.0295567159, -0.0030975414, 0.0621602386, 0.1323023885, -0.1232000887, 0.0605023131, 0.0683014244, -0.1500288546, 0.0547606498, 0.0194208864, 0.0236072186, 0.1133435741, -0.0361714810, -0.0366927050, -0.0037362375, -0.0428819023, 0.0577114038, -0.0084031895, 0.0014967392, 0.1298168749, 0.0542874075, -0.0792900100, 0.0080682356, -0.0347197391, 0.0466689505, -0.0224976689, -0.0351354294, -0.1384387761, -0.0239371248, 0.1108250022, -0.0811919719, -0.0549837723, 0.0500850976, -0.0134152900, -0.0328012817, -0.0160445869, 0.0858170986, 0.0630789846, -0.0077211983, 0.0341270417, 0.0318805687, 0.0032996675, 0.0274659656, -0.0068576820, -0.0154180797, 0.0682909042, -0.0347444192, -0.0555107780, 0.0310121439, -0.0407353640, 0.0821703523, 0.0405858159, -0.0082504107, 0.1037927940, -0.0375887193, 0.0208988115, -0.0814616904, -0.0443662852, 0.0341131985, -0.0288384538, 0.0983875841, -0.0523066111, -0.0364953242, -0.0237683356, 0.0901961699, 0.0806305334, -0.0018234751, -0.0952845961, -0.0009091882, 0.0893390477, -0.0051005622, -0.1941835880, 0.0632853657, -0.0426860116, 0.0813470930, -0.1192281172, -0.0035065953, -0.0092686759, -0.0131823327, 0.1260969192, -0.0295440834, 0.0460737273, 0.0734954476, 0.0751275197, -0.1235276312, 0.1132197753, -0.0740463063, -0.0322358981, 0.0606254153, 0.0478458032, 0.0202516839, -0.0068531176, 0.0014838089, -0.0624097586, 0.1326618642, 0.0200255271, 0.0028468424, -0.0209740829, -0.0754517987, 0.0351682417, -0.0024232694, -0.0081245089, 0.0069296616, -0.0720834360, -0.0493222401, 0.0348478891, -0.0301908702, 0.0298508368, -0.0587650500, -0.1079179794, -0.0652832091, -0.0545790866, 0.0162468962, -0.0234168358, 0.0829930380, 0.0174318738, -0.0652593747, 0.0043258476, -0.0200042818, -0.0605525933, 0.1135650575, 0.1169462055, 0.0712014660, -0.0042531821, 0.0022725831, 0.0105752079, -0.0063816430, 0.0669460371, 0.0144735128, -0.0614177398, -0.0341346748, 0.0614152886, 0.0066505857, 0.0105646532, 0.0098339133, -0.0166694988, -0.0501588993, 0.0304257888, -0.1129426360, 0.0320928879, 0.0085710380, -0.0705952570, 0.0114319324, -0.0747542754, 0.0393540300, -0.1859319359, 0.0570111126, -0.0134671601, 0.0285237450, -0.0307487249, -0.0514740013, 0.0286056772, 0.1171083897, -0.0278743654, -0.0576764531, 0.1327376068, 0.0051079593, 0.0137475673, 0.0467467979, -0.0133958245, -0.0275966674, -0.1012574509, -0.0059613553, -0.0172669869, -0.1317576468, 0.0804161578, 0.1028748974, 0.1086184308, 0.0551033914, 0.0462778658, -0.0371048637, -0.0053028637, -0.0253765285, 0.0527083948, -0.0096847769, -0.0337412842, -0.0602912083, 0.0620336048, 0.0623653904, -0.0144875450, 0.0061677638, 0.0947377235, 0.1118843704, 0.0545255393, -0.0156150786, -0.0185643937, 0.0440957882, 0.0312330611, 0.0916180536, 0.0398265384, -0.0314045772, -0.0394231379, -0.0664845929, 0.0092216078, 0.0639095679, 0.0225496590, -0.0137589723, -0.0465183295, 0.0314644687, -0.0297430679, -0.0466347076, 0.0535101779, 0.0013755957, 0.0874407589, -0.0418825634, -0.0709418431, -0.0388038158, -0.0920908526, 0.0262676775, -0.0526800565, 0.0240574852, -0.0629538149, 0.0829389021, 0.0059645548, 0.0623466671, -0.0142322909, -0.0087118950, -0.0304851234, -0.0211490300, 0.0161593389, -0.0330857895, 0.1013568863, 0.0130278682, -0.0412682109, -0.0730236545, 0.0168309975, 0.1316798627, -0.0788999870, -0.0289234854, 0.0125915939, 0.0822235122, 0.0106208446, 0.0318634622, -0.0197564326, -0.0093349544, -0.0551633723, 0.0033765249, 0.1043508425, -0.0155453179, 0.0146086328, 0.0003280567, 0.1440422088, -0.0115467124, -0.0296487194, 0.0902338475, -0.0295328181, -0.0724056214, -0.0391610637, 0.0440866314, 0.0853782371, -0.1562654227, -0.1276724637, 0.0378000662, -0.0030517683, 0.0778232291, -0.1003734767, -0.0283676088, 0.0314665809, 0.0522046238, 0.0137664424, 0.0042013861, 0.0012618470, 0.0505796671, -0.0241479743, -0.0624126457, -0.0712680668, -0.0980890095, 0.0537462309, -0.0216006022, -0.0717383027, -0.1231064722, -0.0146194203, 0.0640447810, 0.0236667078, -0.0520090610, -0.0490836464, 0.0170355905, -0.0215696879, -0.0117191570, -0.1228313372, 0.0600240789, 0.0828202292, 0.1329954714, -0.0696350858, 0.1297534257, -0.0506474786, 0.0006338995, -0.0113877803, 0.0644175187, -0.0967734531, 0.0343285650, 0.0042486903, -0.0668833330, 0.0570502281, 0.0261915214, -0.0060551087, -0.0997708291, -0.0359597467, -0.0210456345, -0.0430256948, 0.1002877578, -0.0347490050, 0.0875452086, 0.0550619401, -0.0497870892, 0.0218532924, 0.1002854407, 0.0717446506, -0.0908400640, -0.0586797036, -0.0220596623, -0.1106804982, 0.1283946037, -0.0631728545, -0.1897874624, 0.0563508607, -0.0006082443, 0.0710071400, -0.0407001451, -0.0466875024, 0.0364304781, -0.1142149344, 0.1131140590, 0.0401371270, 0.0451495200, 0.0869048536, 0.0343005806, 0.0599854328, -0.1269689500, 0.1313341558, -0.0770442933, 0.0611577444, 0.0545123518, -0.0403550789, 0.0715782642, -0.0611232817, 0.0667203590, -0.0675423816, -0.1108235642, 0.0058657406, -0.0729985386, -0.0690853968, 0.0333332345, -0.0021105469, 0.0280477479, 0.0279250424, -0.0429347828, 0.0852104872, 0.0282797869, -0.0274135936, -0.0147610642, -0.0582212284, -0.0692909732, -0.0255959313, 0.0223453064, -0.0152073568, 0.1171866655, 0.0537618808, 0.0086133908, 0.0607660636, -0.0382745452, -0.0220696982, -0.0755112171, 0.1369687766, 0.1328255683, -0.0223942474, -0.1130649671, 0.0727374256, -0.0127195874, 0.0087848296, 0.0218145624, -0.0905366987, -0.0113593545, 0.0227044448, 0.0353226550, 0.0887554809, -0.0029419868, 0.0102306530, -0.0047468729, -0.0053009633, -0.1081963629, 0.0653716102, -0.0222901274, 0.0201951507, 0.0090674432, 0.0135814426, -0.0204704870, -0.0343595706, -0.1106570065, -0.0359563455, -0.1003741175, 0.0333630741, -0.0041757617, -0.0628376454, -0.0109489178, 0.1355893612, 0.0000836049, 0.0283118915, 0.0726525784, 0.0329639018, 0.1148914471, -0.1408071369, 0.1265055835, -0.0164940953, 0.0757079273, 0.0033767414, -0.0630104020, -0.0191703867, 0.0806720257, 0.0365442075, 0.0155803263, -0.0158860553, -0.0016543006, 0.0181765035, -0.0930914655, 0.0000304470, -0.0476545021, 0.0246610343, -0.1362407058, 0.0589882806, 0.0492531620, -0.0032789016, 0.0371343307, -0.0044168797, -0.0712166801, -0.0327453166, 0.0008484625, 0.0776709914, -0.0056786812, -0.0571502857, 0.0226324294, 0.0574677847, 0.0456287600, -0.0308365170, 0.0348796323, -0.0460808091, -0.0355634615, -0.0153625468, 0.0584383570, -0.0185730644, -0.0630971938, 0.0024747120, -0.0655888245, -0.0332881324, -0.0647411868, 0.0283204634, -0.0546599962, -0.0778797194, -0.0442209728, 0.0610484481, -0.1403309554, 0.0230856631, -0.0905255228, 0.0504207350, -0.0407584347, -0.1359450519, -0.0410320535, 0.0711792856, 0.0305348821, -0.0004378009, 0.0146804340, -0.0398858897, -0.0520577133, 0.0924004316, 0.0174764525, -0.0684697703, -0.0016511701, 0.0613334626, -0.0464022048, -0.0666070580, -0.0992841870, 0.1115175933, 0.0224704500, 0.0599030480, 0.0948134288, 0.0639002100, -0.1769747436, 0.1116221473, 0.0656712279, 0.0862126797, -0.1011415422, 0.0040633851, -0.0172871891, -0.1059996709, -0.0314954221, -0.0133686773, 0.0170957558, -0.0117810331, -0.0486053862, 0.0629168004, 0.0021888921, 0.0430870838, -0.0566054769, -0.2306751609, -0.0076378919, 0.0480868146, -0.0303604938, 0.0206010696, 0.0224809628, 0.0328808315, -0.0802928135, 0.0151301809, -0.0262775738, -0.0115970569, 0.0266826898, 0.0882846415, 0.0819598287, -0.0425208174, 0.0291004069, -0.0109137427, 0.0046699205, 0.0811657906, 0.0373320617, -0.1521074921, -0.0091938013, 0.0307713728, -0.0480487868, -0.0720681772, -0.0061463355, -0.1180658638, -0.1174513549, -0.0533522032, 0.0943406001, 0.0561926067, 0.0048596566, 0.0575224087, -0.0468841344, 0.0235502105, -0.1107070446, -0.0261878204, -0.0379060619, -0.0004978570, -0.0407878608, -0.0354188308, -0.0340802819, -0.0280531775, -0.0973281488, 0.0862616301, 0.0258539524, 0.0141614666, 0.0144149717, 0.0557014719, 0.0356623456, -0.0540911257, -0.0321154259, 0.1304848194, 0.0263746418, -0.0799720138, -0.0363684297, -0.0395058282, 0.2399832606, 0.0667782649, 0.0883437321, 0.1088197082, 0.0014868387, -0.1009583920, -0.0760840774, -0.2441910356, 0.2278910726, 0.1249144375, -0.0187309217, 0.0157313887, -0.0032737567, 0.0359338857, -0.0435153432, 0.0299487412, 0.0629282519, -0.0676680282, 0.0939794257, 0.0167957190, -0.0533036590, 0.0009382740, 0.0545878932, 0.0049923435, -0.0352897234, -0.0909905434, 0.0550223812, -0.0118449945, 0.0319776796, 0.0909179226, 0.0079165185, -0.0846822411, -0.0940078720, 0.0462452359, -0.0453578942, 0.0106227454, 0.0839859918, -0.1167399213, 0.1159568280, -0.0453667976, -0.0433566719, -0.0827726126, 0.0126972646, -0.0812856704, 0.0477985106, -0.0872468129, 0.0036428466, 0.0294814855, -0.0808470026, 0.0018746776, -0.0398407653, 0.0230565947, -0.0573422685, -0.0049448581, -0.0221081134, -0.0605150163, -0.0176649522, -0.0128054982, -0.0256960094, 0.0261509847, -0.0145982634, -0.0184139404, 0.0071066217, 0.0756578147, 0.0487645566, -0.0469681844, 0.0120405983, 0.0205141641, -0.0491540134, -0.0049579525, -0.0030308107, -0.0019434267, -0.0236834902, -0.0605409369, -0.0085863965, -0.0127260434, 0.0793872699, 0.0260446984, 0.0103849685, -0.0714263469, 0.0564372763, -0.1246760935, -0.0630035028, -0.1396878362, -0.0150171528, 0.0218046084, 0.0924577415, 0.0906907693, 0.1425821334, -0.0026148453, -0.0773358196, 0.0742519721, 0.0766052529, -0.0409910306, -0.0658023283, 0.0206434671, -0.0115423743, -0.0690472201, -0.0038564284, 0.0452208705, -0.0180538706, 0.0202465039, -0.0727192163, 0.0666162223, -0.0486215167, 0.0041088485, -0.0033806206, -0.0471444950, 0.0135954227, 0.0628849044, 0.0919627547, 0.0251306873, -0.0019148933, 0.0080890507, 0.0016789151, 0.0351290926, -0.0030966778, 0.0980759710, -0.0464715697, 0.0002146086, -0.0477861464, 0.0349326357, 0.0947760791, 0.0152203580, 0.0596412681, 0.0483613499, 0.0079835886, 0.0421624891, -0.1521071345, 0.0980750993, 0.1002905667, -0.0531867184, -0.0116102509, 0.0441475138, -0.1061901599, -0.0675824583, -0.1048059762, 0.0438159965, -0.0327338800, -0.0566750355, -0.0883003846, -0.0145854950, 0.0595609844, -0.1473311633, 0.0484523140, 0.0162069611, 0.0657655671, 0.0115863495, -0.0989814922, 0.0195907876, 0.0797106773, 0.0893684700, -0.0010635308, 0.0297320336, -0.0018002377, 0.0579989031, -0.0769926235, -0.0326428190, -0.0111339297, -0.0010910111, -0.0280040298, 0.0572300144, -0.0649313554, -0.0225320011, 0.1133082733, -0.1265945435, -0.0649663806, -0.0430530310, 0.0521942712, -0.1808665693, 0.1169859990, -0.0408994593, -0.0977794603, -0.1177308336, 0.0043748650, 0.1023837179, 0.0050743660, -0.0285352431, 0.0581509769, 0.0043486073, 0.0007285122, 0.0053115762, 0.0110952202, 0.0360562764, 0.0593281314, -0.0122307641, -0.2269597054, -0.0070807482, 0.1168709397, -0.0493100695, 0.0090216398, 0.1386265904, 0.0078526530, -0.0125362938, -0.0436897501, -0.1115847975, -0.0043408186, 0.0245955326, -0.0571094155, -0.0873611122, -0.0660418496, 0.0575199053, 0.0140328966, 0.1056749374, 0.0748509616, -0.0260727759, -0.1426408589, 0.0441218279, 0.0808918476, -0.0359915532, -0.0623601116, -0.0063378974, -0.0110321585, -0.1194082797, -0.0317934342, -0.1228439361, 0.0566055328, 0.0892408639, 0.0195256602, 0.0472586825, -0.0104967663, -0.0098180352, -0.0293698199, -0.0377325974, 0.0040389206, 0.0005001058, 0.0979871750, -0.0387427583, 0.0413269736, -0.0279875789, 0.0828135908, 0.0241659693, -0.0447041802, 0.0061167958, 0.0333537832, -0.0291691925, 0.0061632274, -0.0486959144, 0.1360311657, -0.0718516633, -0.0831271783, 0.0289098062, -0.0268007070, 0.2376299649, -0.1324634105, 0.0176306143, 0.0492438115, -0.0655235425, 0.0447599329, -0.0396574773, -0.2329435050, 0.2261967659, -0.1020292193, 0.0433994755, 0.0403379984, -0.0286020823, 0.0044094753, -0.1093060896, 0.0276852213, 0.0157549940, -0.0560930595, -0.0231564492, -0.0408978537, -0.0216668919, 0.0066575208, -0.0074456413, -0.0296289232, -0.0498760752, 0.0026031346, -0.0114172539, -0.0525043309, -0.0160185900, 0.0513462126, 0.0717433020, -0.0510433726, -0.1222729683, -0.0626365989, -0.0595040806, 0.0098890048, 0.0171342026, 0.0738229603, 0.0935971886, 0.0262000281, -0.1174472272, 0.0060380618, 0.0145694194, -0.0380046293, 0.0503535382, -0.0648519993, -0.0590691864, 0.0144550093, 0.1117031127, -0.0218175501, 0.0576606840, 0.0231661275, -0.0252394415, 0.0551879220, -0.0209619123, 0.0010564841, -0.0403701365, -0.0542958528, 0.0395512767, -0.0006728235, 0.0122567154, -0.0100733135, 0.0096989488, 0.0074833906, 0.0394973867, -0.0223413687, 0.0248489454, 0.0616689213, 0.0620907620, -0.0059795147, -0.0041910149, -0.0098492503, 0.0683264211, 0.0191251040, 0.0454421826, -0.0821965188, -0.0463122651, -0.0064825322, 0.0174362771, -0.0758019686, 0.0010115601, -0.1028493568, -0.0287194178, 0.0468884334, -0.0821957812, 0.1308211386, -0.1154931039, 0.0084209982, 0.1209662333, -0.0013012768, 0.0718007907, -0.0070150341, 0.0194499791, -0.0795684382, -0.0604765713, -0.0235355180, -0.0220353790, -0.0790655315, 0.0017596656, -0.0235580876, -0.0852725208, -0.0670350790, 0.0283667780, -0.0075756097, 0.0060021360, -0.0005630656, -0.1142977104, -0.1287694871, 0.0670768544, 0.0266035739, -0.0533185154, 0.0341566429, 0.1504586488, 0.0039478042, 0.0925156698, 0.0240378883, -0.0032432522, 0.0139541132, -0.0954606533, -0.0079904217, 0.0549231693, -0.0941683426, 0.1100484356, 0.0208521299, 0.0793335214, 0.0475281999, -0.0726774856, -0.0118138483, -0.0046080691, -0.0872883201, -0.0385677442, 0.0085903099, -0.0129285539, 0.0304984357, -0.1040725932, -0.0589244775, -0.0708886012, 0.0119186463, 0.0780443996, -0.0220879540, -0.0565460213, 0.0800518692, 0.0211212169, -0.1326370090, -0.0197448041, 0.0314207710, 0.0365459509, 0.0255872700, 0.0484911054, -0.0189118385, 0.0716036037, 0.1209902912, -0.0004363858, 0.0418353006, -0.1194845438, -0.0498243980, -0.0072734309, -0.0092854612, 0.0326313227, -0.0064155436, -0.0322076529, -0.0481003821, -0.0534983836, 0.1095056161, 0.0356722809, 0.0617850088, 0.0057711899, -0.0457445644, 0.0687086359, -0.1639855653, 0.1067440286, 0.1036543921, -0.0154358782, -0.0997717381, -0.0209394190, -0.0996956453, 0.0492168106, -0.0237677265, -0.0566824637, 0.0079469513, -0.0489803962, -0.0207388271, 0.0557736307, -0.0343822576, -0.0073051490, -0.0581883155, -0.2019213885, 0.0798516646, 0.0354204960, -0.0993263647, 0.0778286755, -0.0243546627, 0.0319185108, -0.0169158056, -0.0448905937, 0.0014064611, 0.0009148503, 0.0235029925, 0.0274680909, -0.1041290686, -0.0306921881, -0.0628528744, 0.0510081910, -0.1014986560, 0.0716767088, 0.0326016694, -0.1406719238, -0.0547760315, 0.0616451614, 0.0184244532, 0.0834742934, -0.0454727262, 0.0773163810, -0.1124143675, 0.1301113814, 0.0197950136, 0.0464510284, 0.0579665378, -0.1393518150, 0.0235694703, 0.0479434840, 0.0500091277, -0.0673773587, -0.0534820966, 0.0041988329, 0.0566747263, 0.1045568138, -0.0226018894, -0.0047605205, -0.0101557523, -0.0404801108, 0.0227720272, 0.0861780494, 0.0072570867, -0.0836683959, 0.0571625456, 0.0127256978, 0.0976225585, 0.1344428658, -0.1036439985, -0.0760655180, -0.0398318693, -0.0113922069, 0.2181292325, 0.0381301753, 0.0396749191, -0.0909133330, 0.1133123189, 0.0634727255, -0.0933710337, -0.2271087021, 0.2109096348, 0.0433585793, -0.0007568863, 0.0169719346, -0.0465151593, -0.0067166411, 0.0702916905, 0.0309523586, 0.0338424928, -0.0521778502, -0.0423625149, 0.0797687024, 0.0433231555, 0.0887977555, -0.0770742148, -0.0150649501, -0.0532021746, -0.0023206244, 0.0280775018, 0.0682754964, 0.0200213958, -0.0801850110, -0.0767119303, 0.0847536474, 0.1296053380, 0.1091259569, -0.0554531217, 0.0067356746, -0.0021298714, -0.0566999391, 0.1119538024, 0.0068762754, 0.0635333210, -0.0141307367, 0.0053310483, 0.0865795463, 0.0475252904, 0.0218781382, -0.1111724898, 0.0273764543, 0.0235277712, -0.0463707075, -0.0440317728, 0.0248376671, 0.1375895888, 0.0023492421};
#endif

#endif
