//Numpy array shape [3, 3, 28, 28]
//Min -0.299406319857
//Max 0.275984197855
//Number of zeros 0

#ifndef W4_H_
#define W4_H_

#ifndef __SYNTHESIS__
conv2d_1_weight_t w4[7056];
#else
conv2d_1_weight_t w4[7056] = {0.0101509681, 0.0569245741, -0.0648701265, -0.0541102663, -0.0021346763, 0.0924841017, 0.0776945502, 0.0159952343, -0.0335382596, 0.0743147060, 0.0071092439, 0.0375820771, 0.0129186809, -0.0821043700, -0.1022852510, -0.0105811609, -0.0392948464, -0.0880480632, -0.0021946426, 0.0667974055, -0.0982576236, 0.0309529137, -0.0659929588, -0.1082416624, 0.0507596955, 0.0349088609, 0.1023176238, -0.0078841597, -0.0242014974, 0.0020683985, 0.0793541819, 0.0215115994, -0.1055099294, -0.0361985676, -0.0353328064, -0.0437418595, -0.0592127144, 0.0025154273, 0.0582286455, 0.0523418076, 0.1045597494, 0.0359835327, 0.0120227002, 0.0860270113, -0.0277037807, -0.1127664074, 0.0101904841, 0.0049750539, 0.0048489487, -0.0355040506, -0.0534108169, 0.1239202097, 0.0629039034, -0.1154914498, 0.0302276965, -0.0014450450, -0.0703868791, -0.0427949876, 0.0560275093, 0.0279400758, -0.0137957986, 0.0185641069, 0.0280663874, 0.0123881754, 0.0821609646, -0.0334044173, -0.1191524640, 0.0014167309, -0.1139605269, 0.0010838417, 0.0980705917, -0.0645865127, -0.0392983742, -0.0257066637, -0.0968452767, 0.0828593597, 0.0038169853, 0.0134004857, -0.0174309462, -0.0677173212, 0.1146534830, 0.0272990596, 0.0092316680, 0.1277307570, -0.1346460432, -0.0109915445, 0.0755758807, -0.0783615708, 0.0475918725, -0.0999716222, 0.0618318841, -0.0233140122, -0.0696388930, 0.0094549432, 0.0162511133, 0.1060993299, 0.1164136082, 0.0191749614, 0.0782445818, 0.0449177176, -0.0041965465, 0.0452386588, 0.0168920383, -0.1125915274, 0.1257055700, -0.0848668218, 0.0275506377, 0.0642763749, 0.0214386284, -0.0892392173, -0.0338341855, -0.0307031497, -0.0884091705, 0.0426475890, 0.0203464050, -0.0255311057, 0.0428686850, 0.0477839932, -0.0129294759, 0.0909013525, -0.0064618117, -0.1577744633, 0.1357634962, 0.1034452468, 0.0549792983, 0.0234088413, -0.0743301064, 0.0178679898, 0.0460887104, 0.1200737730, 0.0755756199, -0.1225557178, 0.0587174296, -0.0286302697, -0.0800443962, -0.1405716687, -0.0530822799, -0.0296371393, 0.0864998698, -0.1380210370, 0.0310082901, -0.0499470606, 0.1132154763, -0.0665251836, 0.1054126173, 0.0867577642, 0.0001776576, 0.0083090970, 0.0204328988, -0.1425350457, -0.0500051752, 0.0408518426, 0.0856235698, -0.0772497728, -0.0053039538, -0.0731262043, 0.0563741811, -0.0020557579, 0.0324292444, -0.0327754505, 0.0547531843, -0.0584473200, 0.0507677235, 0.0469859242, -0.0072712675, -0.0548080318, 0.0263192058, 0.0809518397, 0.1010853574, 0.0356464088, -0.0760746300, -0.0971648991, 0.0532313325, -0.0866941065, 0.0597887672, -0.0537420474, -0.0335938148, 0.0773755312, -0.0560619757, -0.0643837899, -0.0403243825, -0.0624275692, -0.0017353930, 0.0380888060, 0.0917408690, -0.1961111873, -0.0236320645, 0.0255062338, -0.0109650232, -0.0142879495, 0.0616675466, 0.0614716858, 0.1384351850, 0.0956026614, 0.0227512065, 0.0058527710, -0.0138400150, -0.0411619954, -0.1649425328, 0.0809819847, -0.0885720253, -0.0279053636, 0.0916383415, 0.0103229219, 0.0400149301, -0.0668587014, -0.1119036525, -0.1032956541, -0.0109028667, -0.0213511270, 0.1007649228, 0.0333376378, -0.0463522226, 0.1798220724, 0.0063708303, 0.0624121726, -0.0724641830, 0.1302460730, -0.0018103435, 0.0104327593, 0.1336700320, 0.0520632342, 0.0946877003, 0.0422039777, 0.0545176081, 0.0359194614, -0.0799730420, 0.0889931768, 0.0311494581, -0.1521185488, -0.0576463230, -0.0686679929, 0.0425476916, 0.0241567791, 0.0789415240, -0.0100052627, 0.0732261240, 0.1366656125, -0.0638495609, -0.0413929224, -0.0617141984, 0.0266050622, -0.0404448733, 0.0641282573, -0.0177674592, -0.0480833240, 0.0371650048, 0.0577809736, 0.0437138937, 0.0023320911, 0.1619604230, -0.0382355228, -0.0230355971, -0.0482655391, 0.0295853224, 0.0112055074, 0.0708336085, 0.0592781603, 0.0031133278, -0.0555102602, 0.0101441378, 0.1131995693, 0.0129218977, 0.0779866800, -0.0218944885, 0.0924485028, 0.0381547809, -0.0247402508, -0.0822757334, 0.1981986165, 0.1010182723, -0.1013665870, -0.0011315399, 0.0665809065, -0.0396923758, 0.0720280558, 0.0532187894, 0.0153681077, -0.0182783958, 0.0371047854, -0.0368871093, -0.0026616238, 0.0127285365, 0.1189946756, -0.0169477575, -0.0953591466, 0.0719799325, 0.0424963534, -0.1298872083, 0.0653576031, -0.0579059795, 0.0236256663, -0.1344670355, -0.0577465519, -0.0921972394, 0.0518098772, 0.0017050684, 0.0414719433, 0.0627167150, 0.0872192383, -0.0752269402, -0.1057823822, -0.0639784485, 0.1211042777, -0.0393191501, 0.0240403507, -0.0532837547, 0.0898477286, 0.0425882116, 0.0060959868, 0.1415468156, -0.0482114814, -0.0882847384, -0.0050851693, -0.0750712678, -0.0375432037, 0.0258397628, 0.0115293525, 0.1036772653, 0.0260469913, 0.0174624994, 0.0319847018, 0.0082137724, -0.0490983240, 0.0254700258, 0.0119027002, -0.0505393669, 0.0682491437, 0.0567057356, 0.0080103436, 0.0312798209, 0.1342400610, -0.0487763844, -0.0173853897, 0.0400185548, -0.0428113937, 0.0227015764, -0.0217967499, 0.0956014693, -0.0868467465, 0.0286912620, -0.0307844486, -0.0213471800, 0.0943577737, -0.0401243791, -0.1005342230, 0.0299194697, 0.0476922542, -0.0027818752, 0.0221403446, 0.1171480939, 0.0098139476, 0.0513853729, 0.0257043876, 0.0623635910, 0.0276285727, -0.0523706898, 0.0227288287, 0.0770760998, -0.0291249566, -0.0588912107, -0.0927832052, -0.1691422313, -0.0160581358, 0.0382092744, 0.0281362478, -0.1401834041, 0.0334217139, -0.0289436895, 0.0732017681, -0.0308500789, 0.0664437488, -0.0142966183, -0.0543333255, -0.0272212420, 0.0799934343, 0.0466871634, -0.1158569083, 0.1285378635, 0.0243185256, -0.0070309527, 0.0483081378, 0.1462181658, -0.0050541232, 0.0759780630, 0.1072337776, -0.0161068346, 0.0491320565, -0.1347835213, 0.0550891683, -0.1434629112, 0.0612800345, -0.0239490140, 0.0084040361, -0.0461216420, -0.0501809120, -0.0621990710, 0.0183409266, -0.0021543209, -0.0140138585, 0.0243822914, 0.0255854782, 0.0381801650, 0.0911273286, 0.1354826242, -0.0069869501, -0.0573630854, -0.1154944301, -0.0735755414, 0.0215803832, 0.0263443664, 0.0410272889, 0.0894787461, -0.0329453200, 0.0160523634, 0.1041838825, 0.0126130749, -0.0321146622, -0.1528660804, -0.0044368096, -0.0290955529, -0.0117652565, 0.0084360521, -0.0605942458, 0.0214796141, -0.1164455339, -0.0615190677, 0.0097116884, 0.0027089866, 0.0113834171, -0.0862941444, 0.0721519589, -0.1008742973, 0.1374050528, 0.0012500999, 0.0511265323, -0.0342301242, 0.0208456591, -0.0022871282, 0.1023692712, 0.0029954321, -0.0696711019, -0.0216559488, 0.1635040790, -0.0207503475, -0.0230928324, -0.1350966692, 0.0027312837, 0.0615272895, 0.0531414449, -0.0585951172, -0.0414921343, -0.0141973058, -0.0492408425, -0.0811416283, -0.0256078746, -0.0977941975, 0.0830805302, 0.0495250970, -0.0044033141, 0.0452871844, -0.0077994606, -0.0053133150, -0.0153044350, 0.0674359426, 0.0411684401, -0.1302175075, 0.0460673086, -0.0312719569, 0.0145200966, 0.0497775711, -0.0323740654, 0.0656324551, -0.1383574307, 0.0561487488, -0.0838990286, -0.0116532659, 0.0518195927, 0.0864464045, -0.0420541465, 0.0448766761, -0.0065654647, 0.0763708130, -0.0124113271, 0.0159676634, -0.0615249202, -0.0792013928, -0.0541394874, -0.0034187774, -0.0784765333, -0.0555751398, -0.0785772726, 0.1117430106, 0.0399450399, 0.0194804631, -0.1216779649, -0.0474212952, 0.0874432623, 0.0633758157, 0.0542832054, 0.0258025043, -0.0063090995, -0.0145976320, 0.0409323126, -0.0798088238, -0.0529747903, 0.0731220767, -0.0114957476, 0.1035147086, -0.1569626033, 0.0035157287, -0.0821362808, 0.0135708051, -0.0493530296, -0.0722111836, -0.1151853502, 0.1531185359, 0.1842252463, 0.0532477126, 0.0980119482, 0.0318004042, 0.1404772550, -0.0818077996, -0.0749557242, -0.0431275405, -0.0296206921, 0.0814259872, 0.1237972081, 0.0409020670, -0.1312655658, 0.0424982496, -0.0419446267, 0.0017849726, 0.0638434216, 0.1131696776, 0.0002305786, 0.1559916586, -0.0330848619, -0.0439503938, -0.0607485548, 0.0348495319, -0.1910741031, -0.1136587188, -0.0464864485, -0.0131307812, 0.1190710738, 0.0125184543, -0.0448781736, -0.0025466112, 0.0735978782, 0.0931984112, -0.0833249241, 0.0770578459, -0.0738386735, -0.0319619067, -0.0076823412, 0.0349594913, -0.1097089201, 0.1621132344, 0.1402583420, 0.0261583608, -0.0275746472, 0.0572233349, -0.1518438458, -0.0380861200, 0.0305229370, -0.0932146609, 0.0283144061, 0.0600930452, -0.0818728656, -0.0385931693, 0.0889037177, -0.0238811504, 0.1400351524, -0.0305131376, -0.0040739174, 0.0096091265, 0.1589129269, -0.0488257706, -0.0910515934, 0.0440298915, 0.0142361084, 0.0779217333, 0.1230507940, 0.1567702144, 0.0548846647, -0.0151108438, -0.0441114120, 0.0288483799, -0.0580627099, -0.0236979201, 0.1039493382, -0.0070602815, -0.0222449172, -0.0138584021, -0.1286589056, -0.0444884039, -0.0042067533, -0.0278997980, 0.0658687651, -0.0786790475, -0.0180692989, 0.0542951040, 0.0572539680, -0.1066925451, -0.0884373561, 0.0580726415, 0.0030342026, 0.0620009117, -0.1044209525, 0.1415788978, 0.1140141711, 0.0550179780, 0.0516119301, 0.0411723182, -0.0884493068, 0.0536202528, 0.0981054083, -0.1096554473, 0.0202502348, -0.0013053771, -0.0691109374, -0.0763668790, -0.1142283529, 0.0330177844, -0.0205709599, -0.0610689260, -0.0284471903, -0.1744751632, 0.1950465888, 0.0300198644, 0.0474198051, -0.0820989534, 0.0412245095, 0.0868320540, 0.1378926486, -0.0709396526, -0.1273794174, 0.0300983209, -0.0514497682, 0.0269750077, 0.1832465082, 0.0709431022, 0.0632796288, 0.0990590900, 0.1234341636, 0.1032906249, -0.0014946039, -0.0451714732, -0.1938580275, 0.0361370221, -0.0736374930, -0.0586116612, -0.1035156325, 0.0053581148, -0.0959522724, -0.0180661008, 0.0848435909, -0.0822240114, 0.0489880554, -0.0559830032, 0.0687442198, -0.0734948441, 0.0306092091, 0.0192715935, -0.0664071962, 0.0274971500, 0.0331306532, 0.0084736589, -0.1070908681, 0.1595792472, -0.0707220733, 0.0067381975, 0.1475264877, 0.1793976277, -0.0044090827, -0.0793825239, 0.1826314926, -0.0471584983, 0.0921478346, -0.0854022577, 0.1187038049, -0.0568207428, 0.0478696451, 0.1449828595, -0.0113675445, -0.1198384315, 0.1052419022, -0.0350291617, -0.0612338446, -0.0090796361, -0.0586440526, 0.0842282698, 0.1039944142, -0.0071500470, -0.0684197247, -0.0145573886, -0.0487053916, -0.0184963755, -0.0967633575, 0.0463048927, -0.1256351024, -0.0315059610, -0.1130125523, 0.0787628964, -0.0000696963, 0.0244273487, 0.1033057347, -0.1826150864, -0.0348323658, 0.0452978052, 0.0652970523, 0.0289053153, -0.1737968326, -0.1429500580, 0.0607190244, 0.0862697586, -0.0065575982, -0.0144932354, -0.0527884550, 0.0027026243, 0.0581773520, 0.0184915010, 0.0129758613, -0.0687292591, -0.0740887895, -0.2502948344, 0.0292402413, -0.0525116548, 0.0654084384, 0.0695783123, -0.0603839047, -0.0173593313, 0.0415620133, 0.0654513687, -0.0886702165, 0.1432093233, 0.0014332595, -0.0786132962, -0.0727299899, 0.0668918639, -0.1716203094, -0.0170314945, 0.0622656643, -0.0154514499, -0.1246810034, 0.0836633369, -0.0699650049, -0.0995964706, -0.0662393048, 0.0554868355, 0.0830328614, -0.0752765238, 0.0254933238, -0.1311972737, 0.0202152636, 0.0300030112, 0.0370229110, -0.0656122118, 0.1142210886, -0.0493329167, 0.0268336888, -0.1230350509, 0.0440905355, 0.0453377888, -0.0838224217, -0.0729482621, -0.1159712374, -0.0664708763, -0.0066787205, -0.0405475609, 0.0383005925, -0.0098947166, 0.1225822344, 0.0138677983, -0.0522389673, 0.0710794404, -0.0343299992, 0.0284728128, 0.0495500825, -0.0059245089, -0.0500809848, 0.0694606602, -0.0756682083, -0.1257099956, -0.0832995549, -0.0495205559, 0.0527970642, 0.0546708107, -0.0733232349, 0.0303696506, -0.0206231661, 0.0956750736, 0.0455630831, 0.0321850292, 0.0476199798, -0.0505273864, 0.0715651363, 0.1210645512, -0.0708763674, -0.0875782147, 0.0369756483, -0.0914304778, -0.0595056079, -0.0461511314, -0.1004603654, -0.0071210493, 0.0374233611, 0.0135680949, 0.0434863679, -0.0314914137, 0.0371894799, -0.0717758983, 0.0744249970, -0.0468465686, -0.0575912781, -0.0220893957, -0.0662421808, -0.0054970351, 0.0470225960, -0.0670567006, 0.1406747401, -0.0090899346, 0.0289980993, -0.1418844461, 0.1144288406, -0.0574576072, -0.1178372204, 0.0443579033, -0.0283359997, -0.0986218750, -0.0627313256, 0.0367698334, 0.0301983710, 0.0018891901, -0.1451891959, -0.0337490067, -0.0749490187, -0.0391132608, 0.0671828538, 0.0061022877, -0.0571094602, -0.0780726671, -0.0060202647, -0.0509384312, 0.0860007256, 0.1112239733, -0.0143135898, 0.1673357338, -0.0479536280, 0.0207650270, 0.0314294361, -0.0392960459, 0.0154000875, 0.0990894586, -0.1290111542, 0.0425012782, 0.0647729412, -0.0055961516, -0.0340248048, 0.0743068829, 0.0535537899, -0.0797757953, 0.0651658177, 0.0025238432, 0.0525257550, 0.0634230748, -0.0000092508, 0.0246069301, 0.0345227346, 0.0770857707, -0.0199378058, -0.0865864530, 0.0152472835, 0.0067179822, -0.0244025104, -0.0981014296, 0.1176035479, 0.0332732275, -0.0026965169, -0.0044035586, -0.0465340428, -0.0239137914, 0.0661338791, -0.1110186279, -0.0115255471, -0.1064763442, -0.0620172247, 0.0230575148, -0.1144905314, -0.1044587642, 0.1222015172, -0.0881513879, -0.0073172050, -0.0761972740, 0.1207614541, 0.0400864854, 0.0051875426, -0.0663765892, 0.0427121222, 0.0530852415, -0.0241100602, 0.0430199318, 0.1638281345, -0.0255275238, -0.1311282068, 0.0913018286, 0.0296722408, -0.0072339522, -0.0996934548, -0.0382034145, -0.0779263005, 0.0865637511, 0.0374836661, -0.0051825326, -0.0231576301, 0.0454151742, 0.1200290397, 0.0733788386, 0.0760557875, 0.1476251334, -0.0600704625, 0.0667789951, 0.0266190562, -0.0209512059, 0.1498738378, 0.0456619337, 0.1061107293, 0.0151850078, 0.0395892933, 0.0207781047, 0.0711646527, -0.0288681425, -0.0259471070, 0.0654728189, -0.0420455597, -0.0301744565, 0.0015394847, 0.1114571840, 0.1117697507, -0.0710557327, -0.0446440652, -0.0121122450, 0.0183935426, -0.0914397314, 0.0128164096, -0.1139331684, 0.1566500664, -0.0506661721, 0.0382342637, 0.0481026098, -0.0690875575, 0.1375228316, 0.0573080294, 0.0166268684, -0.0188359153, 0.0544556789, 0.0092884544, -0.1155241504, 0.0346389972, 0.0208876878, -0.0722739100, -0.0030454712, 0.1064791456, 0.1097526625, -0.0716331825, 0.0019666657, 0.0023412765, 0.0260888115, 0.0259205233, -0.0156738777, -0.0386530496, -0.0296172053, 0.0956125483, 0.0607842058, -0.0586639382, -0.0433800966, 0.0776729062, 0.0483666621, 0.0709120929, 0.0606193878, -0.0352260321, -0.1305261999, 0.0572021008, -0.0194332451, -0.0774426311, -0.0121150529, 0.0085264510, 0.0907639787, 0.0565749221, 0.0430474728, 0.0087802019, -0.0209846180, 0.0716914162, 0.0104337884, 0.0408249125, 0.0357793383, -0.0161479730, 0.0793982744, -0.0811684728, -0.0431428850, -0.0869697332, 0.0473945290, -0.0373479687, -0.0395623222, 0.0465079099, 0.0253867637, 0.0716678798, 0.0438253954, 0.0416611359, -0.1041020527, 0.0036897003, 0.0094534596, -0.0152533930, -0.0374395326, -0.0121774236, -0.0831528455, 0.0402238518, 0.0236429311, 0.0312308706, 0.0373179428, -0.0872699544, -0.0341128632, 0.0494487360, 0.0869080052, 0.0030416464, -0.0350791961, -0.0733052641, -0.0511976816, -0.0609820746, -0.1384765804, 0.0914335400, 0.0385047570, -0.0375100188, 0.0982103646, 0.0213993900, 0.0430683680, -0.0356600694, -0.0172097087, -0.1760815829, -0.0073366161, -0.0366768278, 0.0264899451, -0.0724258348, -0.0360552818, -0.1478924155, -0.1253707707, -0.0801784098, 0.0231343731, 0.0535181500, -0.0697854236, 0.0380285382, -0.0256901532, -0.0260368008, -0.0222388059, -0.0049751000, -0.0218831897, 0.0057379566, 0.0913719237, -0.0061213411, 0.0597610511, 0.0432918034, -0.0041808099, -0.0698441565, -0.0063124495, 0.1353274882, -0.0460989252, -0.1079626977, 0.0314999036, -0.1262029409, -0.0513554327, -0.0785553232, 0.0447197519, 0.1713968366, -0.0242034886, -0.0000370875, 0.0446365103, 0.0132783763, 0.0858354270, 0.1022989005, 0.0022683025, 0.0160915963, 0.0729414746, 0.0293422434, 0.0510996953, -0.1166407615, 0.0359068960, 0.0612183288, 0.1008917913, -0.0303981118, -0.0763426870, 0.0483205914, -0.0589102991, 0.0062154075, -0.0230595376, 0.0273102447, 0.0287664421, -0.0643227920, -0.0063688643, -0.0451546982, 0.0797650889, 0.0790157169, 0.0132283438, -0.0866339952, -0.1220255494, 0.0652419776, -0.0305922516, -0.0236305669, 0.0895873457, 0.1312206984, 0.0569431558, 0.1029844657, 0.0068742805, 0.0919316337, -0.0046861251, 0.0851910412, -0.0614774898, 0.1343551427, -0.0209036041, 0.0867967084, -0.0399246812, 0.0632772520, 0.1355531067, 0.1392607540, 0.0191889014, -0.0313383527, 0.0635790676, 0.0255762804, -0.0417824872, 0.0972332731, 0.0003644082, 0.0112321451, 0.0821565092, 0.1048015505, -0.0214854442, -0.1232805327, 0.0108492151, 0.0348032452, -0.0488736518, 0.0681114122, -0.1257680953, -0.0215223413, 0.0384611301, 0.0690929815, -0.0134300077, 0.0989101678, 0.0539133884, 0.1286516190, -0.0657304674, 0.0271142293, 0.0519388169, 0.1471616924, -0.0414195731, 0.0251397714, -0.0574919246, -0.1082670838, -0.0187530201, 0.1861341745, -0.0200074371, -0.0981143638, -0.0365406275, -0.0393435918, 0.0260021258, 0.0581056923, -0.0042039873, -0.0133287460, 0.0991056189, -0.0198371373, 0.0449386202, 0.0382818654, -0.0752318799, -0.1089114100, -0.0644595921, -0.1173438653, -0.0979066119, 0.1075892970, 0.0028965236, -0.0857204348, 0.0463212915, 0.0295880418, 0.0040209498, 0.0344377346, 0.0841203332, -0.0046206368, -0.1012832150, -0.0595146641, -0.0375622474, -0.0364313349, 0.0568451844, 0.0063457289, 0.0001315991, -0.0470651910, 0.0335587598, -0.0277730823, 0.0473067649, -0.1196535155, 0.0056110523, -0.0666786656, 0.0149609707, -0.0019853027, 0.0484078191, 0.0449414104, 0.1363800019, -0.1165976971, 0.0209901463, 0.0483866669, 0.1334913522, -0.0258508958, 0.1447177827, 0.0518980809, 0.0005493948, 0.0343119279, -0.0125550181, 0.0929631069, -0.0339234956, -0.0445468836, 0.0505510718, -0.0586034954, -0.0708203539, 0.0089024492, -0.1349462867, -0.0241122302, 0.0396141484, 0.0694563016, -0.1003341749, -0.0533866100, -0.0683433264, -0.0625122041, -0.0666197389, -0.0021685646, 0.0277682897, -0.0366689339, -0.0934940800, -0.0318032727, 0.0196769405, -0.2049951404, 0.0092816027, -0.0105482377, 0.1079198942, 0.0186640844, 0.0391634740, -0.0489467457, 0.1256023198, -0.0415531471, 0.0759554580, -0.1077091321, 0.0456803478, 0.1325454861, -0.0638413578, 0.0393489189, 0.0334543139, 0.1262636930, -0.1163362414, -0.0095576206, 0.0669754967, -0.1239295378, -0.0100160576, -0.0919385329, -0.0512358211, 0.0352372266, 0.0508807749, 0.0083241751, 0.0403715260, 0.0775928572, 0.0185149703, 0.0119328573, -0.0392802730, -0.1101738662, -0.0603157841, 0.0759345293, -0.0425309800, -0.0819342434, -0.0182440132, 0.0053646420, -0.0655273274, -0.0558069162, -0.1242081746, 0.0353476256, -0.0287045017, -0.0663299561, -0.0231721364, -0.1278097034, 0.0442470871, 0.1707795858, 0.0064023733, 0.0553056858, 0.0844850838, 0.1114468351, 0.1340465546, -0.0624414161, 0.0561859459, 0.0503681302, -0.0366979837, 0.0339464583, 0.0026287334, -0.0333672129, -0.0225598123, -0.0424269363, 0.1027465537, -0.0688042566, -0.0512390472, -0.0458269343, -0.0140176546, 0.0212161485, -0.1372764111, -0.0720981807, 0.0185713843, -0.1648888141, -0.0706234351, 0.0221495889, 0.0356273875, -0.0549149141, -0.0607317984, -0.0119256163, 0.0716147125, -0.0330339335, 0.0562376864, -0.0459573977, -0.0800655261, -0.0429713540, -0.0793192461, 0.1444375515, 0.0757557973, -0.0040661464, 0.0268170349, 0.0774882063, -0.0376977660, 0.0460048616, -0.0410845876, 0.0628213882, -0.0169967562, 0.0523431674, -0.0027781534, -0.0115395756, 0.0767124593, 0.0067770197, -0.0177512579, 0.0363114439, -0.1717207730, -0.1178795174, -0.0797053650, 0.0562573932, -0.0793531910, 0.0949730501, -0.0439135283, -0.0039782785, 0.0392821133, -0.0341755636, -0.0128565263, 0.1477464139, 0.0497946367, -0.0471813269, -0.0986868441, 0.0089817494, -0.0982987583, -0.0046280827, -0.0078467187, -0.0412403308, -0.0714803487, 0.0705182701, 0.0561526455, -0.0072347438, 0.0037362874, -0.0080708386, 0.0373779535, -0.0209762156, -0.0231816843, -0.0099093560, -0.0196103752, -0.0615432300, 0.0303401947, 0.0052743806, -0.0500667691, -0.0308922343, 0.1000149176, -0.0107839806, 0.0306230672, -0.0151923997, -0.0494527258, 0.0140827643, 0.0181152672, -0.0031440970, 0.0783373043, -0.1120467857, -0.0125773177, -0.0076246480, 0.0635081306, 0.0381181538, 0.0001590888, -0.0717601255, -0.0595556945, -0.0572280586, 0.1408505142, 0.0267592110, -0.0155090541, -0.1242637932, -0.0210923515, -0.0430334397, -0.0561265014, -0.1249868870, -0.0299020093, 0.0481100380, 0.0343653150, -0.0143232886, 0.0688781589, 0.0412895195, -0.0308597777, 0.0892527401, -0.0013928654, -0.1439484656, 0.0752150863, 0.0837181136, 0.0021050191, -0.0891589299, -0.0417543538, 0.1598274708, -0.0495147258, -0.0187515263, 0.0597985163, -0.1660000831, 0.0812486410, 0.1084144190, -0.0327671953, -0.1870388985, 0.0882870108, -0.0620406494, 0.0108645763, 0.0615994222, 0.0286762435, -0.0587627403, -0.0471715033, 0.0270512216, 0.0209383760, -0.0984737277, -0.0322875679, 0.0567614883, -0.0603051782, -0.0235275254, 0.0572931767, 0.0530185066, -0.0417899489, 0.0147446906, -0.0369426087, -0.0107074324, 0.1125452146, -0.0474039763, 0.0437539034, 0.0290239900, -0.0119928792, -0.0899607837, -0.0323394239, -0.0686579198, 0.0504122637, 0.0870747492, -0.1010818183, -0.0114724990, -0.0110764978, 0.1305792630, 0.0152268494, 0.0453545935, -0.0595927760, -0.1139196679, -0.0882202834, 0.0457629077, 0.1401505172, 0.0880796537, -0.0927125663, 0.0480077639, 0.0951718539, -0.0592873767, 0.1503764391, 0.0971605554, 0.0274115782, 0.0265446920, 0.0208770446, 0.0165946204, -0.0325059630, 0.0436298549, -0.0041249176, -0.0220005363, -0.0868485942, -0.0181087200, -0.0068162419, 0.0428265333, -0.0423703231, -0.1310859472, -0.1480531842, 0.0064593009, 0.0891297087, 0.0694025010, 0.0818798468, 0.0000616175, -0.0449480005, -0.0535961390, -0.0314249806, 0.0469855182, -0.0497282147, 0.1035201848, 0.0598406866, 0.1632330865, 0.0367437415, -0.1643711030, -0.0445050448, -0.0734761953, 0.1013503522, 0.0810385793, 0.0343603455, -0.0154247787, 0.0527241267, -0.0021293762, 0.0572730079, -0.0261964854, 0.0784623176, -0.0728714243, 0.0037019434, 0.0375002772, -0.0819067359, 0.0005710923, 0.0301888604, -0.0299912747, -0.0737352520, 0.0751272365, -0.0475931987, 0.0210640281, 0.0701917708, -0.0221951716, -0.0677245185, -0.0603513233, 0.0121977404, 0.0203507766, 0.0393612981, -0.0060938941, 0.0395966358, -0.0280359834, 0.0338370800, 0.1748488098, 0.0159234889, 0.0468228348, 0.0028959906, -0.0135613000, -0.0003901882, 0.0856768414, -0.0642248765, 0.1222069785, 0.0580305271, 0.0959309787, -0.0244633649, -0.0109094223, -0.0375613943, 0.1018581614, 0.0266100336, -0.0298967343, 0.0289420392, 0.0556793921, 0.0220203474, -0.0253799614, -0.0731943473, 0.1333345920, 0.0392810255, 0.0260250047, -0.0284983870, 0.0431790166, -0.1297376156, 0.1517573893, -0.0956094265, 0.0242167208, 0.0541190207, 0.0425813235, 0.0506138578, -0.0992754102, 0.0036445032, -0.0832391903, -0.0025932146, 0.0048845909, 0.1481285840, 0.1658135056, 0.0511278883, -0.1404209286, 0.0008816069, 0.0847874209, 0.0312367771, -0.0651065111, -0.1173409596, -0.0090273079, 0.0382293910, -0.1017370000, -0.0344168022, -0.0176323857, 0.0087122200, 0.0842527524, -0.0364446789, 0.2111914456, 0.0088749761, -0.1139609665, -0.0116466815, 0.0237793047, -0.0499962121, -0.0433759615, -0.0160465334, -0.1100446880, -0.0210377444, -0.0140680708, 0.0017174921, -0.0361223891, -0.0508625396, -0.0158229936, 0.0370341912, -0.0269107427, -0.0020182764, -0.0604472719, 0.0675449222, -0.0459727831, 0.1138097867, -0.0622827932, -0.0387058891, -0.1180559248, 0.1035510153, 0.0843301639, -0.0492970385, 0.0088329753, -0.0926918536, 0.0402733162, 0.0204296578, -0.1025949344, 0.1155569330, -0.0156911891, -0.0987393036, -0.0070170327, 0.0595290400, 0.0162783321, -0.0896033347, -0.0993081927, -0.0653667301, -0.0376139991, -0.1006468162, 0.0440837070, -0.1275551468, 0.0062020258, -0.0048407624, -0.0059114611, 0.0267369505, -0.0579011068, -0.0301005300, -0.0119708516, -0.0107157193, 0.0429314487, -0.1055226922, 0.0435840152, 0.0013929507, 0.0811119080, -0.1267426163, 0.0553238839, 0.0420449041, 0.0336275995, 0.0765545219, 0.0750983059, -0.0732437894, -0.0373716503, -0.0707597956, 0.0302464049, -0.0047082198, -0.0165236834, 0.0374971069, 0.1093565524, 0.1370848864, 0.0742883533, -0.1469813585, -0.1652340740, -0.1360458434, -0.0595377199, -0.1338665783, 0.0412650034, -0.0131031787, 0.0318615399, 0.1322386265, -0.0121148098, 0.1100074127, 0.0570866652, -0.0036084694, 0.0099992864, 0.0645441636, 0.0856509507, -0.0365971625, 0.0317331478, 0.0416670293, 0.0157456584, 0.0282338858, 0.0573535450, 0.0846019760, -0.0273489282, 0.0223328639, 0.0559653565, -0.0134193664, -0.0612538643, -0.0005636106, 0.0070487419, -0.0498927943, 0.0294434521, 0.0884477422, 0.0044878800, 0.0509359427, -0.1166950986, 0.0164385643, 0.0199968535, 0.0638188124, 0.0605971292, 0.0172297023, 0.0794943720, 0.1099471897, -0.0431192480, 0.0698558986, -0.0238879994, -0.0505481251, -0.0346234478, -0.0065012365, -0.0463622399, 0.0103144851, 0.0208289102, 0.1388336867, 0.0729537904, 0.0558675155, -0.0017240094, 0.0044099693, -0.0867098868, 0.1449537873, 0.0130724031, 0.1014230326, -0.0150623536, -0.0670973212, 0.1443936676, -0.0081058862, 0.0771294460, 0.0466109887, 0.0880762115, 0.0576397553, 0.0092572765, -0.0266430378, -0.0322054066, 0.0943514556, -0.0146549456, -0.0388226062, 0.0698987767, -0.0008013282, 0.0472740494, -0.1031169146, 0.0611329824, -0.0294734072, -0.0433889665, 0.1101896092, -0.0985682756, -0.1457495540, -0.0634717867, 0.0150330421, 0.0751291662, 0.0285374187, 0.0666943789, 0.0165432040, 0.1140149236, 0.0716470852, 0.0449090078, 0.0411146581, -0.0102624111, -0.0485244654, -0.0085564610, 0.0864645913, -0.2238041461, 0.1502308995, -0.0228319503, -0.0369825400, -0.0820708051, -0.0314512625, -0.0359002016, -0.0214773640, 0.0618210137, 0.0243245754, -0.0421677381, -0.0145434178, -0.0427598543, 0.0153420968, -0.0425393991, 0.0964119807, 0.0248722471, 0.0255959108, 0.0431225672, -0.0314323194, -0.0398963355, 0.1820994467, -0.2811220884, 0.0212192051, -0.1106682643, 0.0317393169, 0.0289534908, -0.0716312900, 0.1686623544, -0.0875143856, 0.1521762460, 0.0370761529, 0.0029085050, -0.0992712602, 0.1144084036, 0.1871767193, 0.2406578958, 0.1503170878, -0.0423016772, 0.0123755634, 0.1100979820, 0.0375674441, -0.0066292523, 0.0332091227, -0.0615523681, 0.0664092451, -0.0759531483, 0.0629155412, -0.0120587368, 0.0474375598, -0.0376266614, -0.0328990743, -0.0448255315, 0.0786131620, 0.0393196568, 0.0505555160, -0.1077324077, 0.1014072448, -0.0431975983, 0.0430037491, -0.0234136451, 0.1471487284, 0.0459489934, -0.0671168342, 0.0730528384, -0.0521546490, -0.0775082558, -0.0286743119, -0.0217366554, -0.0400045812, 0.1743810475, -0.0382938646, -0.0430747718, 0.0405068286, -0.0140277343, -0.0667252094, -0.0737495348, -0.0283311028, 0.0754676312, -0.0232347753, 0.0653061494, -0.0155919781, -0.0650291070, 0.0159885269, 0.0290493462, 0.0709973201, -0.0384201966, 0.0014636840, -0.1016683877, 0.1115441248, -0.0555245578, -0.0972502679, 0.0763708279, 0.0620244853, 0.0332801938, -0.0166233853, -0.0508421175, -0.0528882258, 0.1125443876, -0.0498921126, -0.0184349250, 0.0257957019, -0.0347899944, 0.0323790200, -0.1378943026, -0.0081968959, -0.0866602957, 0.0792832077, -0.0510712564, -0.0185355451, -0.0175667610, -0.0745236054, 0.1568881273, -0.0669555739, -0.0825192407, 0.0991430804, -0.0080042435, 0.0485639162, -0.0640029013, 0.0076232785, -0.0950544477, -0.0556616709, -0.0094704060, -0.0184761155, 0.0186936408, -0.0424049497, 0.1602800936, 0.1354568303, -0.0550460443, 0.0744786933, -0.0190802887, 0.0384499431, 0.0337486640, -0.1548967510, -0.1525599062, 0.0701179355, -0.0278560724, 0.1369843930, -0.0094500501, -0.0666665435, 0.0831914768, 0.0789735615, -0.0108583178, -0.0673868880, 0.0401578508, -0.0514324866, 0.0423192978, 0.0511139669, 0.0989695117, 0.1391907930, 0.0129054608, -0.0377497599, 0.0503709875, 0.0356796682, 0.0062844236, -0.0841218159, 0.0080916435, -0.0029323201, 0.0417071581, -0.0376687981, -0.0327926166, -0.0321886539, -0.0588511564, -0.0218852274, 0.0557623729, 0.1878482252, 0.1147984862, 0.0099584181, 0.0065888674, 0.0037845322, -0.0701209158, 0.0055672382, 0.0054831319, -0.0325022787, -0.0043346453, 0.1879883260, 0.1461589038, -0.0165839866, -0.0307929795, 0.0452355184, -0.0374984071, 0.0164905526, -0.0370920673, 0.0489660166, 0.1448216140, -0.0303265806, 0.0787606686, -0.0882607400, -0.0107842237, -0.0052096690, -0.0750532374, -0.0307775047, 0.1167213842, -0.0316093452, 0.0398589857, 0.0352329053, -0.0167556573, -0.1411296874, 0.0415376648, 0.0265126601, 0.0792209581, 0.0089756018, -0.0494756997, -0.0416403078, -0.0183565393, -0.0199769307, 0.1290125549, -0.0270034615, -0.0204037856, 0.0630126372, 0.1198065206, 0.0659457520, -0.0339008234, -0.0230456311, 0.0184993707, -0.1041952595, -0.1547460854, 0.1226550788, -0.0015359629, 0.0213409401, 0.1312339157, 0.0911774337, -0.0565933660, -0.0083643217, 0.0183007549, -0.0243752412, -0.0481838509, -0.0558580495, -0.0715141520, -0.1196327433, -0.1106178090, -0.0390630402, 0.0288363844, 0.1332111210, 0.0276435614, -0.0639368445, 0.0775013566, -0.0228315815, 0.1042649075, 0.0475116782, 0.1041998789, 0.0073935171, 0.0588687100, 0.0393515341, -0.0058881738, -0.0471463129, -0.0146357249, -0.0009288809, 0.0372963287, 0.2682236731, -0.0662112236, -0.0018849219, 0.0636856034, -0.0820630342, 0.1373069435, -0.0467795543, 0.0067215776, 0.0788593590, 0.0803020075, 0.0082369316, 0.0882927850, 0.0064143874, -0.0490195639, -0.0073347585, -0.0682616532, 0.0239297617, 0.0770263150, -0.0296396762, -0.0570048131, 0.1031955779, 0.1099414378, 0.0355435945, -0.0111146336, -0.0205181502, -0.1759036332, 0.0227425396, 0.0553479008, -0.0652082264, 0.0015718816, 0.0278004315, -0.0733837783, -0.0428748578, -0.0390549079, -0.0788816363, -0.0449764729, 0.0587134138, 0.0518204048, 0.0507228039, 0.2163454890, -0.1219054088, 0.0378048457, 0.0219238661, 0.0152438888, 0.0510061048, 0.0693746209, -0.0730930567, -0.2012946159, -0.0073911282, 0.0859447196, 0.0782521442, -0.1435204446, 0.1293340325, 0.0526808798, 0.1256078035, 0.0654495731, -0.0272768866, 0.0162020288, -0.0472378470, 0.0378579870, -0.0377082787, 0.0150282774, -0.0557681434, 0.1082402319, -0.0528241061, -0.0350382738, 0.0580750518, 0.0786521956, 0.0590904653, 0.0397795849, -0.0449877344, -0.1429029256, -0.0028160671, 0.0333313867, -0.0618424937, -0.0552975908, -0.0583984777, 0.1093030348, 0.0675701723, 0.1551440805, -0.0222305115, -0.1341647059, -0.1099187434, 0.0004013578, -0.0459540747, -0.1420129389, 0.0065426668, 0.0101113347, 0.0662140101, -0.1589947939, -0.0637080744, 0.1241225302, -0.0316867642, 0.0806719884, 0.1028013974, 0.0264620855, -0.0949521884, 0.0764026567, -0.0551082976, -0.1165240407, 0.0927099884, -0.1117765605, -0.0665182546, 0.1447458863, 0.0446898043, 0.0327161737, -0.0102824457, -0.0042564222, -0.0527583770, -0.0084978836, -0.0610695891, -0.0523299351, -0.0035558825, 0.1037032306, -0.0290987417, 0.0450780466, -0.0402617380, 0.1300417781, 0.0244161393, 0.1530948281, 0.0319565833, -0.0201296806, -0.1271208525, 0.0653430074, -0.0107146017, 0.0242692828, 0.0737751573, 0.0081265150, -0.0303110126, -0.0916857719, -0.0202723630, 0.1545552462, -0.0231679510, 0.0179654565, 0.0646715015, -0.0619744509, -0.0288132913, 0.2418163419, -0.2221752703, -0.1595272720, 0.0079389019, -0.0413002521, 0.0453722104, -0.1012241691, -0.0032463970, -0.0461981259, 0.0428171903, -0.0086917449, -0.0365787111, -0.0218940862, -0.0898668990, -0.0017948262, 0.0624014251, -0.0291204490, -0.0179455001, 0.0126905739, -0.0508674867, 0.0515043586, -0.0308135785, -0.0047594742, -0.0587386303, 0.0864463151, 0.0352199189, 0.0748985782, 0.0870751813, 0.1434551328, 0.0994731039, -0.0158463363, -0.0261138361, 0.0755104944, -0.0070303371, -0.0955132544, 0.0225305799, 0.0671846047, 0.0311698392, -0.0174792577, -0.0047856672, -0.0701706707, 0.0086252252, 0.1449969262, -0.0157641470, -0.1015144512, -0.1455156207, 0.0337932520, -0.0762008429, 0.0115295472, -0.0192285981, 0.0904365182, 0.0258437917, -0.0287622418, -0.0263868701, -0.0434790105, 0.0666118115, 0.0629674420, -0.0198815279, 0.0414230898, -0.0495237261, -0.0162975844, -0.0009292777, -0.0071287025, 0.0746933147, 0.0805133805, 0.0494729429, 0.0931497216, 0.0684713349, -0.0549031645, 0.0430227704, 0.0979120582, -0.0038271057, -0.1519811451, -0.0131241856, 0.0140185412, -0.0217521079, -0.0276493132, 0.0532457307, -0.0341290124, 0.0772847906, 0.1159932017, 0.1075696573, 0.0366337039, -0.0593435280, -0.0742408633, 0.0012037017, -0.0065322346, -0.0973870754, -0.0295834448, 0.0119140660, 0.0338593125, 0.0672024935, 0.0070905201, 0.0885673612, 0.0580131747, -0.0796206817, -0.0752435923, 0.0515816063, -0.0281630978, -0.0009797332, -0.0272841360, -0.0457613356, 0.0241445135, 0.0530685298, 0.0813505724, 0.0985497609, -0.1007665321, -0.0851793215, 0.0422948524, 0.1284573972, -0.1692806780, 0.1678863913, 0.1109629571, 0.0148653835, 0.0068852133, -0.0070587611, -0.0573521852, 0.0192575380, -0.0368027054, -0.0589212067, 0.0705608502, -0.0785290822, 0.0596673228, 0.0254619177, -0.0216697659, -0.0445596837, 0.0443852507, -0.0998787284, 0.1020030752, -0.0261612460, 0.0731095001, -0.1415023506, 0.0148890214, 0.0139685953, -0.0247146413, 0.0435401462, -0.0579153299, -0.1466252357, -0.0223551374, -0.0434075706, -0.1438223124, 0.0531408228, -0.1123884469, 0.0384013988, -0.0444442146, -0.0996529832, -0.0078245848, 0.0901467428, 0.0173002966, -0.1325862408, -0.1167188808, -0.0389635228, -0.1293401569, 0.0363225155, 0.0309274886, -0.0704376549, -0.0773296505, 0.1438352317, 0.0632247925, -0.0463848896, -0.0075965109, 0.0391744971, -0.0027165939, 0.0075511290, 0.0750809386, 0.0013684261, -0.0102452254, 0.0787210241, 0.1088646650, 0.0862724334, 0.0254848171, 0.1137656197, 0.0405307561, 0.0825341120, 0.0336169787, 0.0136860861, -0.0019071652, -0.0239458270, 0.1294161975, 0.0617894344, -0.0839119181, -0.0257459395, -0.0938597471, -0.0381620228, -0.1176786274, 0.0494675860, 0.0032512045, 0.0969673172, -0.0076953718, -0.0246102214, 0.0050622988, -0.0660463348, 0.0384787619, -0.1018551067, -0.0498989485, -0.1125313193, -0.1380485892, -0.0697448850, 0.0298034344, 0.0663366318, 0.0141948285, -0.0308599137, -0.0463579632, 0.0171145648, -0.1646378785, 0.0353465043, 0.0136063192, -0.1596578062, 0.0201425720, 0.0473269261, 0.0385149904, 0.0774971247, 0.0160029586, -0.0526482612, 0.0953718349, 0.0546302013, -0.0281567220, -0.0359744132, 0.0833324566, -0.0203648973, -0.0183499791, 0.0342952907, 0.0792548433, -0.0616439879, -0.0100290291, -0.0187762771, -0.0054990416, 0.0202909373, -0.0707810596, -0.0181281101, -0.0472114198, 0.0739893243, -0.0387895703, -0.0755184591, -0.0267996453, -0.0434890389, 0.0031094826, -0.0133170858, -0.0280600823, -0.0667719692, -0.0547735058, -0.0365376212, 0.1151709259, 0.0492836162, 0.1258350462, 0.0220176466, 0.0612050220, 0.0354750231, -0.0548742637, -0.0320852771, -0.0535357110, 0.0043365154, 0.1205330119, 0.0114781419, -0.0417993255, -0.0248198379, -0.0298669226, 0.0604230948, -0.0230651721, -0.0193252843, -0.0798861086, 0.1250058711, -0.1483078450, -0.0184936263, 0.0637841672, 0.1600860804, 0.0205576643, 0.0051731733, -0.0672468618, 0.0976495147, -0.0690106750, -0.0183460563, 0.0409323759, 0.0483856760, 0.0948161185, -0.0891207457, -0.0385709479, 0.1501251757, 0.1531869918, 0.0013398753, -0.1158649176, 0.0559585653, -0.0450483076, -0.0123712597, -0.0376326554, 0.0369676314, 0.0214821920, 0.0697113723, -0.0226764511, -0.0100488579, -0.0577100255, -0.0247970596, 0.1371558160, 0.0188758317, 0.0846060887, -0.0601681359, -0.0641940162, 0.1488736123, 0.1002150998, -0.0169013515, -0.0535960011, -0.0929847807, -0.0215394516, 0.0546981953, -0.0863011107, -0.0233788434, 0.0845370591, 0.0791949853, -0.0417429358, -0.0818796605, 0.0639252812, 0.1563043445, 0.0407121591, 0.0206810068, -0.0314001068, 0.0442706160, 0.1660707295, -0.0489284806, 0.0407467373, 0.0686332807, -0.0115610147, 0.0474366881, 0.1495318711, 0.0557445884, -0.0477809049, 0.1155794635, 0.0120369578, 0.0920305029, -0.0871901885, 0.0205712728, -0.1262808740, -0.0205009822, 0.0601399764, 0.0462841727, 0.0021193188, 0.0016170114, 0.0310362466, 0.0417002738, 0.1896866411, -0.0395173319, -0.1088157594, 0.0626479983, -0.0354308784, 0.0157015566, -0.0290829763, 0.0795157775, -0.0277032647, -0.0116966451, 0.1064089090, 0.0325535052, -0.0323965326, -0.0424577706, 0.0511146262, 0.1323810071, -0.1303901374, -0.0150519656, -0.0538959317, -0.0629987940, -0.0047693774, 0.0187721588, 0.0470530614, 0.0261946041, -0.0873416364, 0.0522729121, 0.2682433724, -0.0127960369, 0.0172741003, 0.0740960017, -0.1079361290, -0.0609780438, 0.0654145032, -0.0404236689, 0.1069059819, 0.1032782197, 0.0205898639, 0.0378692448, 0.1696670502, -0.0611093901, 0.0665038899, -0.1200107038, -0.0548019223, -0.0839068815, 0.0490980186, -0.0034537464, 0.0470144525, -0.0863200799, -0.0733420625, -0.1083813608, -0.1083978415, 0.0279057827, -0.0031159283, -0.0260747764, 0.1077728868, -0.0201815180, 0.0917248130, -0.0380379893, -0.0647201091, 0.0123245176, -0.2362219691, 0.1231740862, 0.0267749559, -0.0725218803, -0.0032126079, 0.0700870380, -0.0220030341, 0.0328478627, -0.0277345777, -0.0115614627, 0.0317227133, -0.0075586173, 0.0868004188, 0.0565267578, 0.0039789388, 0.0218562577, -0.0817791447, 0.0149098216, 0.0490683764, -0.0326446407, -0.0710674375, 0.1538203061, 0.0643733963, 0.0024182808, -0.1060799435, 0.1315501779, -0.0297141336, 0.0560196191, 0.1554415524, -0.0098384274, 0.0577351227, 0.0189551171, 0.0966263786, -0.0848292634, -0.0570222922, 0.0950270221, 0.1434839368, 0.0394379012, 0.0815543756, -0.0159149989, -0.0630766749, 0.0008233203, 0.0805042163, 0.0492584184, 0.1022394076, 0.0070995209, -0.0782523155, -0.0669347271, 0.0823968425, 0.1130239740, 0.0064635412, -0.0229707062, 0.0214176662, -0.0045288950, 0.0346112326, -0.0220865011, -0.0780805498, -0.0666417852, -0.0085658506, 0.0240995847, -0.0454945117, -0.0099195661, -0.0112422742, 0.0387725867, 0.1405642927, -0.0864382684, -0.0305234008, -0.0339245200, -0.0507595167, 0.0856765732, -0.0428551137, 0.1390428841, 0.0400890559, 0.0295497384, 0.0494414307, 0.0802955553, 0.0241113640, -0.0777417645, 0.0873999074, -0.0036397350, -0.0650016665, 0.0301145185, -0.0666261688, 0.0699042380, -0.0944945440, 0.0236327052, -0.0578302965, 0.0347051434, 0.0093887160, -0.0324297100, 0.0979670137, -0.0473030396, -0.0050420281, 0.0502403900, 0.0535081029, -0.1228196174, 0.0190810487, 0.0003375419, -0.0850833133, 0.0888708532, -0.0307236835, -0.0885667428, -0.0697069541, 0.0423066877, -0.0520815775, -0.0434372760, 0.1978962570, 0.1024647057, -0.0588105693, -0.0385133587, 0.0330598131, -0.0235105678, 0.1166880056, -0.1129249856, 0.0213352032, -0.0275239255, 0.0656190291, -0.0174571685, 0.0141534563, -0.0880466700, -0.0255058743, -0.0553285256, 0.1563344002, -0.0225686841, 0.0000157490, 0.0656087846, 0.0737846866, -0.1195721924, -0.0800945610, -0.0323916934, 0.0507793985, -0.0992571190, -0.0354535170, -0.1107098758, 0.0406033099, -0.0599302761, -0.0541480631, -0.0027991510, 0.1149564981, -0.0153507683, 0.0394161232, -0.0580726266, -0.0457289964, 0.0381151810, 0.1288364530, -0.0301950201, 0.0733284354, 0.0067158984, -0.0542058982, -0.0308873411, 0.0580098443, -0.0309078414, 0.1567534208, -0.0215469729, -0.0474567562, -0.0336388834, -0.0754183605, 0.0823746100, -0.0279630646, 0.0014032777, -0.0397712700, 0.0574496761, 0.0843109637, 0.0320325419, -0.1040291637, 0.0763174966, 0.0060550584, 0.1044955179, 0.1037774384, 0.1192073375, -0.0295754094, -0.0563492775, -0.0847869515, -0.0552361421, 0.1334409267, 0.1021339670, -0.0920743346, -0.1280022860, -0.0387358777, -0.0590144135, -0.0292466078, 0.0063087353, -0.0119371479, 0.0268527661, 0.1169576421, 0.0286721978, 0.0304027740, 0.0624904484, -0.0324270949, 0.0839726254, -0.0364240073, -0.0468990877, -0.1521959454, -0.1141520739, -0.0104071358, -0.0764656290, -0.0327643044, -0.0746370181, -0.0399226174, 0.0277695879, 0.1738247871, 0.0369750597, -0.0629560277, 0.0208750274, 0.0697049499, 0.0557205044, 0.0020859493, -0.0354571007, -0.0581195652, 0.0779046044, 0.1465296894, -0.0701762661, 0.1309889853, 0.1088125035, -0.0754640549, 0.1490225792, -0.0027629228, -0.0481125154, 0.0267464202, -0.0862268284, 0.0413277708, -0.1242135838, -0.0501984432, 0.0531166010, -0.0155889429, -0.0221110769, -0.0397086628, 0.1249567792, 0.0026578163, 0.0534067713, -0.0056654229, 0.0207915008, -0.0278303064, -0.0537037961, -0.0964864418, 0.0879251659, 0.0146558592, -0.0264161155, -0.0069686645, -0.0439189784, 0.0694824532, 0.0559080839, 0.0358805284, 0.0067635332, -0.0280230436, -0.1205987111, -0.0950944498, 0.0796745270, -0.0773791894, -0.0116173821, 0.0604493208, 0.0223349240, 0.0568971597, 0.1270770133, 0.1661750674, -0.0747290924, -0.0002634543, 0.0868474394, 0.0009303386, 0.0416619778, 0.0669902712, 0.0313373581, -0.0098479204, 0.0020478484, -0.0175503679, 0.0643066913, -0.0516196117, -0.0619647205, 0.0410441458, -0.0408974551, 0.0004491882, 0.0213586651, 0.0375375189, 0.0661833286, 0.1844910234, -0.0717179552, 0.0189990420, 0.0257549267, -0.0308373775, 0.0181610323, -0.0098134158, -0.1465633512, -0.0157621168, 0.0489742607, 0.0839568004, 0.0723181069, 0.0790037736, 0.0564619489, -0.0337495394, -0.0540645495, 0.0642643720, -0.0557231754, 0.0716922879, 0.0405355468, 0.0565681458, -0.0782357082, -0.0941023380, -0.0569364540, 0.0338080712, 0.0073249508, 0.0255728867, 0.0574628003, -0.2224533111, -0.0627637357, -0.0394704640, 0.1498823464, 0.1073511839, 0.0076567926, -0.0017304511, 0.0699481443, 0.0655933395, -0.0824028850, 0.0175047982, 0.0541347750, 0.0170630272, 0.0090839677, 0.0109753255, -0.0000058445, 0.0604607575, 0.0763108283, -0.0872850567, 0.0482747816, -0.1507477611, 0.1027862132, 0.0419762172, -0.0014467586, 0.0426077768, 0.0759551525, 0.0890562460, -0.0965802372, 0.0575374737, 0.0151980007, 0.0939796641, -0.0026210982, -0.0776692107, 0.0588794127, 0.0914010629, 0.0340999998, 0.0203725453, 0.0795995295, -0.0699499026, -0.0350345671, 0.0463134944, 0.0572176054, 0.0619486645, -0.1071923897, 0.0544738173, 0.0975698829, -0.1147050783, 0.0236855671, -0.0550236069, 0.0525321402, 0.0072874916, 0.0508584268, -0.0308123864, -0.0074412068, 0.0090947775, -0.0482604988, 0.0968728736, -0.0503105856, -0.2011806816, 0.0088869659, -0.0060208216, -0.0068468009, -0.0509896576, -0.0357131399, 0.1417014152, 0.0536339581, -0.0599217638, -0.0168210734, -0.0554905720, -0.0528030843, 0.0383113325, 0.1236548126, -0.0432933308, 0.0061997594, 0.0460558683, -0.0429107510, 0.1108351201, -0.1200232506, -0.0019062342, 0.0465057530, 0.0552824959, 0.0509327203, 0.0336385109, -0.1121254563, -0.2552223206, 0.0265391376, -0.1218638569, 0.0662600547, -0.0264176317, -0.1152102128, 0.0082458090, -0.0990385935, -0.0389817357, -0.0007034451, -0.0495060049, -0.0739864334, 0.0118298065, -0.0345185660, -0.1144617647, -0.0112208417, -0.1173034832, 0.0614345409, 0.0633707792, -0.0790004432, -0.1102772430, -0.1048997492, -0.0021876148, 0.0568024740, -0.0458921008, -0.0503983833, -0.1020516083, -0.0597743802, 0.0528580844, -0.0274280999, -0.0559515841, -0.0792343169, 0.0070801368, 0.0274305698, -0.0366088822, -0.0789414346, 0.0195019208, -0.0462564304, -0.1390250176, 0.0719866604, -0.0708141997, -0.0906950533, 0.0186896659, -0.0534119420, -0.0892534330, 0.0321322009, 0.0348087624, -0.1070717424, 0.0985743180, 0.0896525308, -0.0647467449, -0.0301236492, -0.0557884984, 0.0639427379, -0.0374448635, -0.0786018893, -0.0101707354, -0.1531433612, -0.0557520650, -0.0688667968, 0.0743285194, 0.0710390210, -0.0984294862, 0.0345811024, 0.0497083664, -0.0795798153, 0.0109685650, -0.0107428776, -0.0264587440, -0.1334353387, -0.0453320183, 0.0684199482, 0.0048073586, -0.0727416277, 0.0145465452, 0.0352487192, -0.0517082587, 0.0911044478, -0.1027792767, -0.1257126629, -0.0439522341, -0.0768894255, 0.0471016131, 0.1031409428, -0.0677140206, -0.1080624387, 0.0749706253, -0.0858104452, -0.0132004749, 0.0309987403, 0.0279667489, 0.0486481711, 0.0422074609, 0.0642736629, -0.0357359909, -0.0541408956, 0.0008252600, -0.0122925006, 0.0392808169, -0.0002675308, -0.0048249136, 0.0162506867, 0.0493833758, 0.0247124638, -0.0743500739, 0.0018301458, 0.0373445675, 0.0085788779, 0.0036286293, -0.0299983136, -0.0043758908, -0.0362347960, 0.2640959024, -0.0889360011, -0.0061469749, 0.0095805628, -0.0031406162, 0.0688588247, 0.1192123741, 0.0941104516, -0.0621438138, 0.0256136749, -0.0021236974, 0.0370135531, -0.0007125114, 0.0457303189, -0.1061285436, 0.0313569456, 0.0281975474, -0.1286026388, 0.0459427983, -0.0332125723, 0.0062775370, 0.0268129613, 0.1534956098, 0.0541767552, -0.0323843658, 0.0700870678, -0.0436061360, 0.0135416100, 0.0827782974, 0.1249016672, -0.0465388000, -0.0172841400, 0.0538830608, -0.0142809469, 0.0562770404, 0.0574274324, -0.1401412934, 0.1277427971, -0.0564892925, -0.1108360663, 0.0958339348, -0.0530332997, -0.0761223212, -0.0027923919, -0.1020921469, -0.0249222945, -0.0258868374, 0.0017678022, -0.0127494968, -0.0206345934, 0.1525094211, 0.0460819453, -0.1241526529, 0.0123679228, -0.0420048460, -0.0991363227, 0.2097536772, -0.0792914629, 0.0394554660, 0.0656303540, 0.0435863286, 0.1351207793, -0.0082709556, -0.0483259633, 0.1557927132, 0.0219826084, 0.0874688998, -0.0031282920, 0.0048485314, 0.0970324501, 0.0387650616, -0.0418618470, 0.0175897405, -0.0374614522, 0.0466584824, 0.0715450868, 0.0141014215, 0.0769764408, 0.0839676633, -0.0350716636, 0.0679249242, -0.0031563297, -0.0530533157, -0.0339658670, 0.2759841979, 0.0114371357, 0.0243943240, 0.0200050995, 0.1418296993, 0.0095107751, 0.0069817314, 0.0858599022, 0.1658348739, 0.0333407260, -0.1021558866, 0.0148581946, 0.1250787228, -0.0176984649, 0.1549701989, -0.0292586144, -0.0282528270, -0.2140790969, -0.0770292506, 0.1421757191, 0.1591651291, -0.0248420835, 0.0851613507, 0.0041773869, -0.0069610197, 0.0752688199, 0.0235055275, 0.0618602112, -0.1464442760, -0.0864933729, -0.1086930037, -0.0451145098, -0.0183156841, 0.1145500988, -0.0992347598, 0.0426493697, -0.0958191901, 0.0178079978, -0.0111640794, 0.0514471680, -0.0015325093, -0.0658526793, -0.0793330967, -0.0251369346, -0.0405242182, -0.1890406013, 0.1075640917, -0.0188123547, 0.1262035221, 0.0197578613, 0.1049136445, -0.0317210592, -0.0449430197, 0.0457128249, -0.1223618612, -0.1016733646, -0.0540004112, 0.0588497147, 0.0320320316, 0.0330979638, -0.0861400068, -0.1111467108, -0.0205367096, 0.1682401299, 0.0267873034, 0.0065387064, 0.0047100401, 0.0216767136, 0.0213866271, -0.0368993022, 0.0505010858, -0.0075249639, -0.1165386289, 0.0149301654, -0.0140680233, -0.0157289170, -0.0972133875, -0.0639103800, -0.0346426331, 0.0939638466, -0.0535070710, -0.0413216539, 0.0159836579, -0.0147404009, -0.0461839177, -0.0882698074, -0.0857215524, -0.1314946711, -0.0159656405, -0.0061918856, 0.0251128059, 0.1030712798, -0.1332995594, 0.0204367507, 0.0126555152, 0.0007494222, -0.0439685546, 0.0124603817, 0.1082369313, 0.0120670581, 0.0329168923, -0.0885023847, -0.0547091514, 0.0846404880, 0.0226167869, 0.0256751683, 0.0891648680, 0.0960755348, -0.0534240603, 0.1042047814, 0.0362204313, -0.0524157248, -0.1555301249, -0.0549670011, 0.0451166891, -0.0991081968, -0.1048182771, 0.0000919558, -0.0609907359, -0.0582884848, -0.0589825287, 0.0447190441, 0.0191767756, 0.0830152258, 0.0278570354, -0.1242300123, 0.0019495325, 0.0623193793, -0.0676143244, -0.2738916278, -0.0127248513, -0.0715328529, 0.0561120994, -0.0931117013, 0.0425073355, 0.1126598418, 0.0251692645, -0.0323738754, 0.0130521869, 0.0130174803, 0.1157991290, -0.0829573125, -0.1373069137, -0.0818290785, -0.0349259637, 0.0617264099, 0.1091711968, -0.1689077020, -0.0850720629, -0.0556957908, 0.0254698787, -0.1204946861, -0.0392064862, 0.0293017849, 0.0158638917, 0.0256572384, -0.0001929888, 0.1077077687, -0.0115087181, -0.0137163000, -0.0574186929, 0.0138750309, -0.0549089275, -0.0075850757, -0.0641274452, -0.0815800801, 0.0566754155, -0.0683845878, 0.0397514924, -0.1040598601, -0.0287572201, -0.0730430558, 0.0459288731, 0.0884030238, 0.1217225716, 0.0872061625, -0.0576324761, -0.0133288056, 0.0018975260, -0.0159867574, 0.0828253031, 0.0101705091, 0.0388898924, -0.0489289835, 0.1273056865, 0.0001618599, -0.0808123723, 0.0009805433, 0.1386474967, -0.0566142574, -0.0115245096, -0.0788626298, -0.0167961754, -0.0650003552, -0.0892215148, -0.0228475388, -0.0779929012, 0.0836396739, -0.0080481041, -0.0052368832, -0.1251566708, 0.0928646550, -0.0349457525, 0.0782912821, -0.0533336326, -0.0063585751, -0.0809152946, 0.0207659714, 0.0519895032, -0.1063831076, -0.0087708961, -0.0235246923, 0.0216050521, 0.0505042113, -0.0337014422, -0.0308728646, -0.1543257535, 0.0947724059, -0.1055999473, -0.1052767932, -0.0997040495, 0.0423776433, -0.0707255155, -0.0016681274, -0.0614957996, 0.0480727367, 0.0096242251, -0.0688228309, -0.0087233782, -0.0945276096, -0.0362644270, -0.2003934085, -0.0125772767, -0.0410826281, -0.0583313815, -0.0208456460, -0.1462541223, -0.0223189127, -0.0444831327, 0.0291564502, 0.0056681838, -0.0804927796, -0.0425283350, -0.0076535214, -0.1133623049, -0.0128176240, 0.0069610057, 0.0269824155, 0.0566996597, -0.0063229613, 0.0533633828, -0.0038686809, 0.1346066594, -0.1275752336, -0.0080822865, 0.0352364294, -0.0048954836, 0.0325808078, -0.0058320616, -0.0560153350, -0.0346753970, -0.0029301941, 0.0636013374, -0.0042137988, 0.0191000178, -0.1369765103, 0.1338356435, -0.0270281918, 0.0164365321, -0.0660992637, -0.0006239315, -0.0224438179, 0.0503272563, 0.0228930414, 0.0127032027, 0.0897124186, -0.0298446063, -0.0256381761, -0.0510251485, -0.1025225967, 0.0473656096, -0.0235283710, 0.0734100714, 0.0164051466, -0.0002733018, -0.0337891839, 0.0688642263, 0.1047867537, -0.0216615181, 0.0066538411, -0.0834165961, -0.0651359186, -0.0864793286, -0.0416001938, -0.1563626826, 0.0681043491, 0.0642425865, 0.1732191592, 0.0413662046, -0.0893157050, -0.1991527528, -0.0051054684, -0.1868293583, -0.0119965719, 0.0376380570, -0.1086844727, 0.0196217000, -0.0193970408, 0.0506338030, -0.1074360758, 0.0486649349, 0.0256229136, -0.1092855036, 0.1036838740, -0.0762282461, -0.0520960428, 0.1517563164, 0.0056699612, -0.1048187688, 0.1209552661, 0.0667668805, -0.0348995812, 0.0278737675, -0.0891701430, -0.0216310229, -0.0512690209, -0.0430235676, -0.0751718953, -0.1849310994, -0.0018668772, -0.0371950679, 0.1108982414, 0.0884412751, 0.0379166789, 0.0221343916, -0.0214607362, -0.0165121965, -0.0131259654, -0.0458337888, -0.1415618211, -0.0735258386, 0.0123802088, -0.1306124181, -0.0802427977, 0.0462616794, 0.0729011074, -0.0107311476, 0.0252796747, 0.0061490727, 0.0348855704, 0.0878073052, 0.0359440595, 0.0505493544, -0.0399906114, 0.0006489326, 0.1212077364, -0.0564326979, -0.0705035180, -0.0600103103, -0.0126244323, 0.0179172345, 0.0053155734, -0.0103300335, -0.0008628736, -0.1298582107, -0.0799418017, 0.1076519638, -0.1382837147, 0.0261916798, 0.0277169123, 0.0935290903, -0.1302043498, -0.1294210851, -0.0285204537, -0.0736334696, -0.0613932163, -0.0023968739, 0.0656419396, -0.1421868950, 0.0074872910, -0.0402770340, 0.0638724193, -0.0441859178, 0.0156379957, -0.0853793770, 0.0215353929, -0.0538256615, -0.0151975723, -0.0187964793, -0.0882474259, -0.0053574182, -0.0169895329, -0.1556085497, -0.0744813532, 0.0255831797, 0.0887675583, 0.0269894768, -0.0150028365, -0.0582319833, 0.0516270958, 0.0318378843, -0.1384943575, 0.0833340213, -0.0348177366, 0.0483850688, 0.0848219991, -0.0270065051, -0.0309530329, -0.0337837078, -0.0935822651, 0.1420617551, -0.0085389372, 0.0374523588, 0.0847877488, -0.0421664827, 0.1022439972, -0.0054022754, 0.0503163487, -0.0476512425, -0.0612122379, 0.1534797847, 0.0248703342, -0.0754908472, 0.1168669686, 0.1362865567, 0.0477843881, 0.0383405499, 0.0166102573, -0.1250377297, -0.0502010323, -0.0002616713, -0.0714627430, -0.0766090229, -0.0936521813, 0.0300833508, 0.1360244453, 0.0422080047, 0.0947516486, 0.0395115726, 0.0047017145, 0.0160575416, -0.0766996667, 0.0147734797, 0.0774459690, -0.0937173814, 0.0185227301, 0.0276635364, 0.0060537634, -0.1393433809, -0.0240594056, 0.0387361906, 0.0522254482, -0.0594211966, -0.0360453576, -0.0634595603, 0.1075651646, 0.1168313697, 0.0455936790, 0.0737410188, 0.0700676665, -0.0703820214, 0.0604006387, 0.1200962588, 0.1171819121, -0.0051422124, 0.1324742138, 0.0701300353, -0.0173660163, -0.0515450910, 0.0279405955, 0.0346249714, 0.0496378131, 0.1065842062, 0.0105040269, 0.0173911490, 0.0230644178, 0.1084078327, -0.0568098649, 0.0504934043, 0.0503235385, 0.0547492579, 0.0786479935, 0.0256200191, 0.0820923969, 0.1429358721, 0.0475320630, -0.0381018147, -0.0425632074, -0.0134301120, 0.0951450244, 0.0058544767, -0.0197060741, -0.0272480920, 0.0447349511, 0.0378753133, -0.0551453158, -0.0677873418, -0.1147568747, -0.0189718511, -0.0555233508, 0.1474157274, -0.0284644812, -0.1226393580, 0.0288017076, 0.0794692263, 0.0073769139, 0.0274042189, -0.0489804633, -0.0055262456, -0.0254663806, -0.0010438699, -0.0214382987, -0.0902902409, 0.0478197522, 0.0899406970, 0.0517402552, -0.0315492526, -0.0825466737, -0.1158115119, -0.0122993384, -0.0714746118, -0.1032840982, 0.0701402128, -0.0412822627, 0.0660241917, -0.0177881420, -0.0631324947, 0.0776836202, -0.0343155526, 0.0501284115, -0.0738338158, -0.1581494063, -0.0426309295, 0.0450362377, -0.1015289128, -0.0683529004, -0.0192073062, 0.0047510983, 0.0277625099, 0.0174802635, -0.0203677285, 0.0304675046, -0.1070093587, -0.0416543484, -0.0137651684, 0.0135149108, -0.0184186306, 0.0201688111, 0.0763173178, 0.1358241886, -0.0168395061, 0.0220365208, 0.0401097313, 0.0794628188, 0.0307449661, -0.0314321667, 0.0181523208, 0.0164429396, 0.0782981217, -0.1038090959, 0.0192226861, -0.0048968066, 0.0229994673, -0.0444060490, -0.0135949478, 0.0056532281, -0.0665985346, 0.0163789503, -0.0008103535, 0.0459030196, -0.0442371257, 0.0260043461, 0.0097834244, -0.0756566599, 0.0000117164, 0.0005990315, -0.0597561002, -0.1367386132, 0.0515022576, -0.0187434349, 0.0432090275, -0.1155077964, 0.0552063622, -0.0759824440, -0.0063697356, 0.0652827546, -0.0855352953, -0.1081523374, -0.0960432813, -0.0154222744, -0.0363604017, 0.1058376953, -0.1083127186, -0.0593013577, 0.0483120456, -0.0342850350, 0.0403534025, -0.0906292945, 0.0319489539, 0.0045396602, 0.0522728972, 0.0776828676, 0.0073945504, 0.0837948918, -0.0573903769, -0.0343933180, -0.0427490436, -0.0072653699, 0.1576399505, 0.0284807775, 0.0551620685, -0.0378076211, -0.1001285985, 0.0912961364, 0.0969338492, 0.0747059882, -0.0355981253, 0.0111728692, 0.0343372673, -0.0522597544, -0.1131578237, 0.0303379446, 0.0084264120, -0.0429888330, 0.0497123636, 0.0636574849, -0.0440492667, 0.0292596892, 0.0083712125, -0.0039059964, -0.0693341643, 0.0418768749, -0.0103910640, 0.0470721461, 0.0127806235, 0.1247314885, 0.0983380079, 0.0666745305, 0.0965561792, 0.1195278391, 0.0669180751, -0.0787899345, -0.0459610112, 0.1313859969, -0.0096780928, -0.0469560362, 0.0366908722, 0.1762211174, 0.0279525239, -0.0531053431, -0.0809009448, 0.0840552077, -0.1085770577, -0.0469370857, 0.0884515420, 0.0900126398, 0.0752545148, -0.0469525158, -0.1300203949, -0.0390031300, -0.0918536782, 0.0116407666, -0.0207104199, 0.0172977895, 0.0813582167, 0.0536725298, -0.0419319272, -0.0100773526, -0.0502239391, -0.0651659220, 0.0961464867, -0.0844425187, -0.1220191717, 0.0640684068, -0.1284614801, -0.0110172350, -0.0308501218, 0.0495928749, -0.0161712747, 0.0129788928, -0.0112684658, 0.0262697637, 0.0243251529, 0.0598503202, -0.0124553582, -0.0397938155, -0.0144077772, -0.0342554040, -0.0390901379, -0.0838074535, 0.0569383167, -0.0412507094, -0.0973203927, -0.0770730227, -0.1362871975, 0.1313045025, -0.1232500449, 0.0586812906, -0.0574137717, -0.0913135335, 0.0367873758, -0.0047657946, -0.0792876408, -0.1614955962, -0.0379708298, 0.0338889472, -0.1142839789, 0.0086691361, 0.0341677815, 0.0364226177, 0.0378953144, 0.1107547358, 0.0321279354, 0.0496813394, -0.0157097243, -0.0311120972, -0.0368735865, 0.1075805277, -0.1471819431, 0.0315930173, -0.0024323687, 0.0877377167, -0.1273664683, 0.0214139689, -0.0134842638, 0.0440846942, 0.0157564860, 0.0487752259, -0.1131006479, -0.1229118705, 0.0960448533, -0.0716848746, 0.0391340815, 0.0366253741, -0.0461837165, 0.0865887329, 0.0945855975, -0.0396389216, -0.0270741209, 0.0956219807, -0.0370493196, 0.0301293116, 0.1067998111, 0.1628538221, 0.0513479635, -0.2106943876, 0.0526789501, 0.0056523769, 0.1225466281, 0.0122239338, 0.1253271997, -0.0840623081, 0.0292178299, -0.0479706191, -0.0100525413, 0.0278134532, -0.1067730635, -0.0033475526, 0.0887013450, 0.1593807042, 0.0373032168, 0.0616232231, 0.0736717805, 0.1187098995, -0.0354283899, 0.0780142397, -0.0073217186, 0.0127252713, 0.0603434145, -0.0101523744, 0.0338996165, -0.0234562382, -0.0082627228, 0.0585929826, 0.0096413251, 0.0025937369, -0.0338446386, 0.0397956185, -0.1374673396, 0.0984943286, 0.0041448921, 0.0063945716, -0.1125694886, 0.0234661475, 0.1262743771, 0.0894965455, 0.0231876932, 0.1156648025, -0.0787005499, -0.0154397339, 0.0543554313, -0.0592864603, 0.2264733166, -0.1137521565, 0.0127432924, -0.0339020565, 0.0386810564, -0.1184264868, 0.0082167806, -0.0614852086, -0.0099693825, -0.0768291578, -0.0035785255, 0.1039739698, 0.0139898360, -0.1317638606, 0.1004946008, -0.0882694125, -0.0494226739, -0.0030276948, 0.0502954684, -0.0868479908, 0.0263056550, 0.0485040806, 0.0632573739, 0.0786573887, -0.0188576840, -0.0491314344, -0.0056769247, -0.0026703207, -0.0151499398, 0.0009321257, 0.0224516038, 0.0601353794, -0.1051204503, -0.0517469160, -0.1249192581, 0.0124587175, -0.1354042292, -0.0328916833, -0.1055247709, -0.0306453388, 0.0039595431, 0.0419446006, 0.0259813759, 0.0068998779, 0.0096629364, 0.0460373648, -0.0157061256, -0.0008472279, -0.1289406270, -0.0684752986, -0.0931772739, 0.0301032588, 0.0742902979, 0.0432589874, -0.0063691577, 0.0888112038, 0.0990724862, 0.0552216731, 0.1030223593, 0.0145016918, -0.0074231215, 0.0758409202, -0.0497987531, 0.1049423441, -0.1255815327, -0.0478603914, -0.0235195085, -0.0334644355, 0.0491523072, -0.0154875061, -0.1564732790, -0.0014391864, -0.0467916653, 0.1277475804, -0.0645263344, -0.0749054402, -0.0318420492, -0.0856107548, -0.0242525972, 0.0190650020, -0.0239578411, -0.0246133786, -0.1021523401, -0.0048946622, -0.0368342139, -0.0778914765, -0.0139380023, -0.0216160566, -0.0199991539, 0.0239184182, -0.0456030257, -0.0082017984, -0.0158602018, -0.0102211516, 0.0500464030, 0.0922774300, 0.0965700746, 0.0021613287, 0.0871909559, -0.0034362799, 0.1357866973, 0.1374180615, 0.1086915433, 0.0505306460, 0.0839356631, 0.0187262595, 0.0760826692, 0.0288160816, -0.0652104169, -0.1108356789, 0.0522483401, 0.1825469434, -0.1105341241, 0.0585603341, -0.0706196874, 0.0151890805, 0.0042086947, 0.0182148609, -0.0808562264, 0.0014528924, -0.0311367009, 0.0110506322, 0.1399987787, -0.0615724027, 0.0053303856, 0.0736403912, -0.0873396173, 0.0098912613, 0.0841788873, 0.1013480797, -0.0092879999, -0.0272542760, 0.0568488017, -0.0808229297, 0.0366207324, 0.0584447235, -0.0454666056, -0.0191735830, -0.1159116179, -0.0257180780, 0.1311151534, -0.0072894376, -0.0622950867, -0.0289649293, -0.0243313387, -0.0497608818, -0.0829246417, 0.0173154753, 0.0000520096, 0.0087644914, 0.1235716939, 0.0723905191, 0.0223985482, -0.0041240822, 0.0934242234, 0.0028064486, -0.0838176310, 0.0203281362, -0.0139268693, -0.0481730923, 0.1456486434, -0.0222287457, -0.0574189126, -0.0309706889, -0.0062158820, -0.0912046209, -0.0049098185, -0.0106646065, 0.1153522134, 0.0252640918, -0.0975072756, 0.0111240456, -0.0469732843, 0.0172393881, -0.0537608564, 0.0354110003, -0.0465458520, 0.0354250260, 0.0595189855, -0.0563457869, 0.0738916621, -0.0811073035, 0.0165880453, 0.0259045660, 0.1100174487, -0.0346317813, -0.0090691885, -0.0877693221, 0.1085308343, -0.0761031210, 0.0214898475, 0.0927808210, -0.0016469590, 0.0554177873, 0.1147065014, 0.0706104040, 0.0888582319, 0.0289120860, -0.0803533196, 0.0605018400, -0.0159031563, 0.0614874959, 0.0163755734, 0.0292481314, 0.0470030904, 0.0553306974, 0.0099648936, -0.0215558764, -0.0561089180, 0.0407774784, -0.0726829767, -0.1036735252, 0.0472545363, 0.0267249756, -0.0502052940, -0.0653306693, -0.0900768787, 0.0499562547, -0.0077478145, 0.0600356720, 0.1150535420, -0.0717411414, -0.1143307611, -0.0520471148, 0.1188480258, -0.0252910499, -0.0607364960, 0.0910366252, 0.0847987607, -0.0855092630, 0.0474780165, -0.0304050129, -0.0537368208, 0.0587494671, 0.0472062752, -0.0711671710, -0.0533972569, -0.0207566656, 0.0143462252, 0.0157871265, 0.1267604381, 0.0828703120, 0.0212727915, -0.0016972623, -0.0593894310, 0.0010335164, 0.0134594478, 0.0394873135, -0.0516297556, -0.0593396127, -0.1353861690, -0.0982003212, 0.0324709043, -0.0173909776, -0.1603568643, 0.0563830398, -0.0258597173, -0.0371048152, 0.1282655001, 0.0654764920, -0.0648852512, 0.0174118578, 0.0521568283, -0.0174860843, -0.0258710664, -0.0165722892, 0.0671944469, 0.0579486340, 0.0780076161, 0.0657904819, -0.1269961894, 0.0194651615, 0.0604207590, -0.0156998783, 0.0203160718, 0.0073751640, 0.0203268118, -0.0132552627, -0.0467856862, 0.0381857231, -0.0250988584, 0.0621269755, 0.1247552112, 0.0443290211, -0.0228794161, -0.0606636293, 0.0418989025, 0.0309993755, -0.0046300711, -0.0439135022, 0.0480345152, -0.0483721048, 0.0646683872, -0.0439379215, -0.1097525135, -0.0435003266, 0.0178235229, 0.0049865902, -0.0058603883, -0.0578032099, 0.0178150274, 0.0880450234, -0.0943143964, -0.0214343797, -0.0536638089, 0.0088432357, -0.0826633126, 0.0876027867, 0.0034111950, -0.0558945984, -0.0155782038, -0.0072752405, 0.0763714164, -0.0719411150, -0.0142962188, -0.0075661247, -0.1228537932, -0.1298603117, -0.1028447151, 0.0129816737, 0.0061352993, -0.0304327942, -0.0781523287, -0.0110140657, -0.0074903504, 0.0697942376, -0.0474551246, 0.1133223400, 0.1142734215, -0.1570149660, 0.0247263350, 0.0824945942, -0.0560221039, 0.0598320924, 0.0795240775, 0.0162500069, -0.0638321340, 0.0382729396, -0.0616600290, -0.0221932605, 0.1055689454, -0.0041552200, 0.0611643195, 0.0389284343, -0.0796239451, 0.0763787031, -0.0208120365, -0.0718452334, -0.0266053807, -0.0772127286, -0.0885996819, -0.0763060451, 0.0885906890, -0.0281967651, -0.1268400103, -0.0675172880, -0.0147011476, -0.0419547446, -0.0192383267, -0.0165506471, -0.1217017621, -0.0493218191, 0.0053669391, 0.0505491011, -0.0662406683, -0.0706942752, 0.0554500632, 0.0380219705, 0.0228338838, 0.0258241016, 0.0804980174, 0.0594105572, 0.1164673418, 0.0391088538, 0.0693627596, -0.0321938954, -0.0142385392, 0.0504358895, 0.0279770959, 0.0364948623, 0.1254249513, 0.0641018376, -0.0646513253, 0.0992490277, -0.0536087304, 0.0442302600, 0.0316418707, -0.0594708398, 0.0385942236, 0.0464312322, 0.0995271131, -0.0610259995, 0.0301931500, -0.0479101576, -0.0076940795, -0.0338162445, 0.0717033073, -0.1055343077, 0.0702182129, -0.0069789118, 0.0606727749, -0.1722628623, -0.0630582497, 0.0420474894, 0.0758000091, -0.0335112661, -0.0441375859, 0.0764729455, 0.0434325300, -0.0177868139, 0.0764566958, -0.0487266779, 0.1436105967, -0.0336239859, 0.1240519136, 0.1091139093, -0.0100630680, 0.0240285788, 0.0278144795, -0.1089644209, -0.0256197006, -0.0434482284, -0.0347578079, 0.0369485393, -0.1305726320, -0.0776603967, 0.1590196639, -0.0198968258, -0.0284430142, 0.0687272921, 0.0619117878, -0.0467234105, 0.0490041226, 0.1219140962, 0.0381523930, 0.0784116238, 0.1070406064, -0.0772782043, -0.0456063859, -0.1838319153, 0.0338465720, -0.0456227213, 0.0457942188, -0.1276170611, -0.0763463154, 0.0722879842, 0.0794718415, -0.1139962897, 0.1749739796, -0.0022169729, 0.1411796361, -0.0440881550, 0.0049520885, 0.0366580375, 0.0474373177, -0.0354961269, -0.0317074880, -0.0362829156, 0.0291050412, -0.1013240218, -0.0757488757, -0.0354275480, -0.0158595238, -0.0676147491, -0.0296637956, -0.0149636287, -0.0660535768, -0.1311775148, 0.0567583553, -0.0450479425, -0.1426718235, -0.1100411192, 0.0991272181, -0.0526339188, 0.0219900794, 0.1130757257, -0.2073510885, -0.0221103653, 0.0026201950, 0.1439760923, 0.0369235203, -0.0136845289, -0.0666992366, -0.0101071531, 0.0335880741, 0.0535242334, 0.0771498829, 0.0174532607, 0.0372801013, 0.0656525195, -0.0193668995, -0.0622428991, 0.0210999958, 0.0088548483, -0.0473644100, 0.1036130637, -0.1826893687, 0.1050297469, -0.0794382170, -0.1360260695, -0.0077752601, -0.0489507690, 0.0221092179, 0.0762142465, -0.0075790137, 0.0219765436, 0.0629216284, -0.0042562350, 0.0502734557, 0.1347010732, -0.0175382830, -0.0377684459, 0.0797335282, 0.0103264954, 0.0453633815, -0.1004155278, -0.0040723667, -0.0074213706, -0.0237502344, -0.0397150330, -0.0768460780, -0.0017468185, 0.0167617798, 0.0782113150, 0.1074792519, 0.0133151775, -0.0098094195, 0.0193017572, 0.0871505141, 0.0190089699, -0.0389165208, -0.0703745335, -0.0304568410, 0.0146935908, -0.0875772387, -0.0641761273, 0.0473174080, 0.0256701745, 0.0349155553, -0.0897951722, 0.0900826827, -0.0634267554, 0.0133131193, -0.0123820296, -0.1013833359, 0.0704136491, 0.0119397836, 0.0066040335, 0.1652443111, 0.0064754272, 0.0873033404, 0.0519424789, 0.1712321341, -0.0774398372, -0.0051275925, 0.0416673943, 0.0826769993, -0.0294180065, -0.0237995870, -0.0469911657, 0.0119565418, 0.0127333067, -0.0534548461, 0.0012594865, -0.0828955173, 0.0180295371, 0.0371224284, -0.0482333414, -0.0189142041, -0.0226902664, -0.0769803226, 0.0605722293, 0.0964626595, -0.0112364898, -0.1071981043, -0.1147548035, 0.0022159868, 0.0799627602, -0.0141041027, 0.0202269051, -0.0225705672, 0.0289031211, 0.1371543109, 0.0501276888, -0.0098859789, 0.1070161760, -0.0598244965, 0.0021560688, -0.0543275662, -0.0150193684, -0.1588034928, -0.0314024873, 0.0437688641, -0.0381683446, 0.0074701644, 0.0292012580, -0.0613320172, -0.0203811657, 0.0583394654, -0.0396860242, 0.1855965853, 0.0554852523, -0.0846004486, 0.0482671633, 0.0323618501, 0.0422164723, 0.0669992268, -0.0884721354, -0.1649375409, 0.1470315009, -0.0096858684, 0.1339891404, -0.0725646168, -0.0823364258, -0.0379404463, 0.1873752475, -0.0403395817, -0.0883671641, -0.0436341763, 0.0055689830, 0.0680940598, -0.0259391256, -0.1462049931, 0.0010943130, 0.1133047640, -0.0089453980, 0.0238634124, 0.0698704049, -0.0065027527, 0.1380052119, -0.0221212152, -0.0194045622, 0.0250894930, -0.0287759434, 0.0425153673, 0.2314505279, -0.0205460992, 0.0087889573, -0.1065046638, -0.1010046229, 0.0147273457, 0.0152386427, 0.1044083461, -0.0878675207, 0.0761719793, 0.0959868506, 0.1147151664, -0.0515794232, 0.0117059313, 0.1473980993, 0.0717057809, 0.0571372360, -0.1168414727, 0.0105256550, -0.0116298525, -0.1237893552, -0.0071338867, -0.0162819438, -0.0650820807, 0.0154720536, 0.0588635541, -0.0269697718, 0.0709238425, -0.0762781948, 0.0684607476, 0.0348434635, -0.0274072066, 0.1200454682, 0.0033705086, -0.0472672619, 0.0019237165, 0.0766821355, -0.0174368862, -0.0137822842, 0.0340082049, 0.0890766084, 0.1268723160, -0.0154160885, -0.0875958800, -0.0125486413, -0.0418858342, 0.0705639198, 0.0433989279, 0.0368478596, 0.0087369401, 0.0557162017, -0.0110105332, -0.0648104176, 0.0536947474, -0.0618522167, 0.0714250654, 0.0037665954, -0.0341839977, 0.0147425849, 0.0778477266, -0.0700314343, -0.0094247041, 0.0800769404, 0.0149207646, 0.1475645304, 0.1302592009, -0.0977504179, 0.0533078425, -0.0815721154, 0.0244689174, -0.1671429574, 0.0583386570, 0.1094633490, -0.0528454036, -0.0186560806, 0.0658242404, -0.1079585180, 0.1075915769, 0.0027342425, -0.0030720229, -0.0273788664, -0.0924383476, 0.0403451324, -0.1553037018, -0.0705004185, -0.0006821702, 0.0946472660, -0.1551797241, -0.0136112999, -0.0170791335, 0.0052253613, 0.0196518619, -0.0216694400, -0.1781572998, -0.0667766258, 0.1198254302, 0.0532222465, 0.0847957730, -0.0711464062, -0.1080069244, -0.0810649768, 0.0845984668, 0.0226223711, 0.0673150197, 0.0337523930, 0.1007663161, -0.0548910685, 0.1251353025, -0.0204804409, -0.1383491009, 0.1163220182, 0.1083198637, -0.1026265025, -0.2472249120, 0.0410059839, -0.0526667051, 0.0656600073, -0.0228067022, 0.0621025823, -0.0494893566, -0.0433281362, 0.1227380559, 0.0031110074, 0.1158339679, -0.0783268511, 0.0330493636, 0.0031250981, -0.0587196946, 0.0395467728, 0.0320027657, -0.0750146955, 0.0100903958, -0.0345176309, -0.0238013808, 0.0284165386, 0.1290864944, 0.1010705754, -0.0774362162, -0.0878800154, 0.0076842657, 0.1159886196, 0.1367648393, -0.0729387030, -0.0022062105, -0.0480838902, 0.1107563153, 0.0110145360, 0.1405941397, 0.0141930813, -0.0873839110, 0.0529683679, -0.0421014912, 0.0868230537, 0.0731470436, 0.0989115536, 0.0588725246, -0.0976708457, 0.0755357444, 0.1453172863, 0.0044048582, -0.0770478025, -0.0037870589, -0.0740271062, -0.0075219120, -0.0292812567, 0.0629736632, -0.0107920822, 0.0555196516, -0.0197958928, 0.0089972084, -0.0817414597, -0.1573849916, 0.0513315015, 0.0386767499, 0.0540232658, 0.0378523879, -0.1824470311, 0.1327669621, -0.0608708076, -0.0367657132, 0.0344280899, 0.0842670947, -0.1077832207, 0.0478776246, 0.1916513145, -0.0000511583, -0.1429598778, -0.0443089381, 0.0935132056, 0.0034996998, -0.0622249991, -0.0453810990, -0.0300718974, -0.1042101085, 0.0887173936, -0.1724351496, -0.0132410936, 0.0329850540, 0.0473737828, 0.0338825993, -0.0987492129, 0.1183123216, -0.0273622070, 0.0481671318, -0.0570436642, -0.0664591640, 0.0038641766, 0.0275719445, 0.0009234376, 0.0256313141, 0.1034775525, -0.0375081487, 0.0263556391, -0.0185547285, 0.0414039530, 0.0155859869, -0.1183184683, 0.0306335166, 0.0384639204, 0.0609191991, 0.0248697307, -0.0592126213, -0.0682094619, 0.0049349889, -0.0409861170, -0.0167897344, 0.0320029519, -0.0211947151, 0.0199414752, -0.1350311190, -0.0116921486, 0.1936384737, 0.0323917568, -0.0302342847, 0.1908083409, 0.1321447194, 0.0486831702, 0.0130934762, -0.0329160318, -0.0541527048, -0.0359024517, -0.0668746606, 0.1646703333, 0.0898041576, -0.0618239231, 0.0415614583, -0.1038352177, 0.1191800088, 0.0403857566, -0.0291578863, -0.0640746653, 0.0282202475, -0.0777820423, -0.0939066038, -0.1402414590, -0.1060902774, 0.0489207841, 0.0039570914, 0.0556303896, 0.0313126966, -0.0150847789, -0.0404024012, 0.0408377014, 0.1028018519, 0.1030386388, 0.0536881872, -0.0684118047, -0.0500934161, 0.0354945734, -0.1145057008, 0.0304200053, 0.0336673446, -0.0041653523, -0.0127930073, -0.0149313584, 0.0510111563, -0.0054934886, 0.0065026898, 0.1041806191, 0.1350760162, 0.1242807657, -0.0491767488, 0.0447716005, 0.0342278183, -0.0477605164, -0.0646455884, 0.0390241742, -0.0078787804, 0.0023973840, 0.0115205236, 0.1360059083, 0.0638533905, -0.0349897780, -0.0766276419, -0.0630960613, 0.0932897180, -0.0174107272, -0.0168504808, -0.0212398823, 0.0929881334, -0.0474014618, -0.0116580445, -0.0467262566, 0.0078675533, 0.1311164498, -0.0938271582, 0.0268466063, 0.0486529768, -0.0453403965, -0.0212575551, 0.0239747949, 0.0354697071, 0.1305432916, -0.0168644898, -0.1146880910, 0.0228888523, 0.0092191426, 0.0219617579, -0.0781576335, -0.1144895256, 0.0601392314, -0.1365378499, 0.0194379203, -0.0754106864, -0.0627631173, 0.0071519897, 0.1275476813, -0.0455464460, 0.0298768692, 0.0007882608, -0.0944827497, 0.1036737636, -0.1142244339, 0.0029989905, 0.0021319031, -0.0244968720, 0.0780579746, -0.0574697070, -0.0550688766, 0.2200547159, 0.0817635730, -0.0480304286, 0.1033584476, 0.0640570223, 0.0150843160, 0.1081881970, -0.0749999210, -0.0347933024, 0.0167818107, -0.0628460273, -0.0011490439, 0.1664173752, 0.0502822474, -0.0027136821, -0.0256046187, -0.0203659013, -0.0616388321, 0.0791908279, 0.0062321597, -0.0097609209, -0.0099604763, -0.1037365273, 0.0716064572, -0.1584008187, 0.1110834032, 0.0440657809, 0.0079253064, 0.0777556524, 0.0800658464, 0.0432506837, 0.0975742340, 0.0076131639, -0.0988134146, 0.0070307073, 0.0428367071, -0.0146266827, -0.0024774657, -0.0548774339, 0.0407217741, 0.0319593064, 0.0448707528, 0.0035203425, -0.0103699360, 0.0248447340, 0.0714632943, 0.1625628024, -0.0560746491, -0.0358471572, -0.0776045397, -0.0756920874, 0.0713596269, 0.0699447095, -0.1507513970, -0.2994063199, 0.0572913028, 0.0092796208, 0.1979908496, -0.0002057013, 0.0354301222, -0.0401644371, -0.0365496911, -0.1493683308, 0.0092451870, -0.0488170162, -0.0440918729, 0.0207121912, -0.0163515043, -0.0182565376, -0.0578559823, 0.0270592682, -0.0101676425, -0.0427664258, -0.0434246175, -0.0821636841, 0.0414917991, 0.0017693667, 0.0412662290, -0.0349964127, 0.0566152558, 0.0105005968, 0.1106057614, 0.0878249630, 0.0072793672, 0.0364558473, 0.0521869138, 0.0056621055, -0.1387432218, 0.0388736054, 0.1411310136, -0.1573995352, 0.0733886212, -0.0328334644, 0.0129322754, 0.0233032741, 0.0542379320, 0.0106478697, -0.0046565351, 0.0707571730, 0.0160329379, -0.0036988980, 0.0656991675, -0.0424207076, -0.0507668927, -0.0326333456, 0.0593575723, 0.1122283116, -0.0273524076, 0.0166207515, -0.0815442204, 0.0309569687, -0.1369693279, -0.0447615907, -0.1343071014, 0.0970049798, -0.0653053224, 0.0201634839, -0.0776274800, 0.0703178272, -0.1293705404, 0.0307087097, -0.1213023737, -0.0214373786, -0.0645678490, 0.0678979158, 0.0465013273, 0.0827843472, 0.0235091504, 0.0738635063, -0.0039138417, -0.0059328801, -0.0508530885, 0.0451454595, -0.0085122734, -0.0782984570, -0.0363054797, -0.1515246779, 0.0197257884, 0.0568452701, -0.0030495878, -0.0197197981, -0.1231701151, -0.0174848307, 0.0028508478, 0.0271556955, -0.0681890547, 0.1308552325, 0.0937865153, 0.0857818201, -0.0241004471, -0.0591514893, -0.0183094852, 0.0421259999, 0.0055910815, -0.0048558488, 0.0273959506, 0.0514002331, -0.0160269495, 0.0342905149, -0.0916519910, 0.0005632284, -0.0145839145, 0.0297552329, -0.0415087342, 0.0921207070, -0.0558197945, 0.1148217544, -0.0562755540, 0.0375161842, -0.0242269430, 0.0020914103, -0.0156306233, -0.0431859232, 0.1364637315, -0.0619374737, -0.1916652918, -0.0461553298, -0.0852565393, -0.0254551936, 0.0457626246, 0.0014605930, -0.0923370495, -0.0235123169, -0.1977772117, -0.0415688865, 0.0318164863, -0.0970975608, -0.1343359053, -0.0295410007, -0.0760461241, -0.0030257658, 0.1303265989, -0.0168754961, 0.0217392016, -0.0465945825, 0.1613446325, 0.0728910714, 0.0076909531, 0.0614101104, -0.0368928500, -0.0292265080, 0.0197055209, -0.0195101518, 0.0368299559, 0.0287021399, -0.0175728910, 0.0205718763, 0.0144783873, 0.1027817950, 0.0368964225, -0.0342902392, -0.0560637452, 0.0457543172, 0.0418676920, 0.1207830235, -0.0634730235, -0.0048024803, 0.0251807682, 0.1122086346, 0.1096911132, 0.1198281869, -0.0707548112, -0.1611350775, 0.0975859985, -0.0084776273, 0.1228184775, -0.0029544989, -0.1028342322, -0.0716003701, 0.0160822012, -0.0117619494, 0.0561410263, -0.0529320091, -0.1067886353, 0.0813491642, -0.0343915075, 0.0189260151, 0.0687927008, -0.0021239214, 0.0693297237, 0.0047028605, -0.0879648477, 0.0176917296, -0.0089233425, 0.0639337525, -0.0105190296, 0.0559296012, -0.1197722107, -0.0099166334, -0.0120318532, 0.1849208474, 0.0204770919, -0.0368023030, -0.0068813646, -0.0674765334, -0.0248748772, -0.0519082099, 0.1121086925, 0.1650303900, -0.1120929793, -0.1112026051, 0.0430848747, 0.1256087124, -0.0813798532, -0.0071253767, 0.1336580813, -0.0239039157, -0.0426629856, 0.0100792525, -0.0688512102, 0.0708787292, -0.1083720177, 0.0020785762, 0.0680889785, 0.0558808483, -0.1161193401, -0.1227026358, 0.0756913349, -0.0983925611, -0.1503559351, -0.0355465896, -0.0425782911, 0.0072924732, -0.0198164005, 0.0916781500, 0.0262706950, -0.0655150115, -0.0254789889, 0.0606832877, -0.0418579169, -0.0505848192, -0.0192074869, 0.1609355658, 0.0157085527, 0.0232899524, -0.0178172477, 0.0924184173, 0.0239367429, -0.0142360134, 0.1262687445, -0.0052576335, 0.0312742963, -0.0041611614, 0.0442950092, 0.0014339042, 0.0019672506, 0.1403396726, 0.1038844287, 0.0119822994, 0.0372370668, -0.0353700444, 0.0471022166, 0.0266393442, -0.0070754760, -0.0265478287, -0.1123134196, 0.0711055025, -0.0668641850, 0.1406752318, -0.0592166409, -0.0061626327, -0.0179601312, 0.0351990126, 0.0112258615, -0.0266443342, -0.0360095687, -0.0995767862, -0.0650425032, 0.0185569394, 0.0402083248, -0.0340382047, 0.0736398473, -0.0040636752, -0.0856284276, 0.0956171602, -0.0391545631, -0.1004843637, -0.0410392694, -0.0596788824, -0.0005356359, 0.0493277013, 0.0169222262, 0.0520369075, -0.1211566627, -0.0813640133, 0.1504796296, -0.0286117084, 0.0593884178, -0.0440857336, -0.1230478659, 0.0529437512, -0.0251605306, -0.0307377577, -0.0497344434, -0.0055978894, -0.0368624404, 0.0657696947, -0.0202441439, 0.0791064724, -0.0867245123, 0.0326945968, 0.0018048856, -0.1635769308, -0.0537057780, 0.0459631979, 0.0675319284, 0.0251000132, 0.0003032211, 0.1253579259, -0.0338959023, 0.2071392685, 0.1210135818, -0.0468673781, -0.0959230736, 0.0386311337, 0.0488273092, -0.0532920547, 0.0977106839, 0.0197322350, -0.1037442386, -0.0381150357, -0.0196111146, 0.2129523009, -0.1307764947, -0.0272074249, 0.0795590058, -0.0509426482, 0.0551604182, 0.0192352477, 0.0144657753, 0.1967119575, 0.0756570771, 0.0542282872, 0.0107475463, 0.0223217271, -0.0028081730, 0.1774525493, 0.0204609782, -0.0263999775, 0.0380440690, 0.0280941762, 0.0191680472, 0.0138050700, -0.0358515531, 0.0302535202, -0.0504303761, -0.0983692333, 0.0114059346, 0.0914534628, -0.0973980129, 0.0482215919, 0.0070351814, -0.0454462767, 0.0834493041, -0.0399846248, 0.1232494339, -0.0257780273, -0.1843226403, 0.1333536059, -0.0439642668, 0.0311256889, -0.0154572697, -0.0779200867, -0.0510034338, -0.0502600223, 0.0441993251, 0.0062826765, 0.0027203250, -0.0743237138, 0.0817601755, -0.1000394523, 0.0508808047, -0.1829856485, -0.0315437056, 0.0629707351, -0.0007553270, 0.0439960212, 0.0097914916, 0.0841616243, 0.1001639292, -0.0517727248, -0.1240229905, 0.0418030620, -0.0260588117, -0.0954740122, -0.0251434743, 0.2552009225, 0.1346706301, -0.0323050693, 0.0121346535, -0.0029378545, -0.1020498797, 0.0431840345, -0.0502239168, -0.0342848748, -0.0524406433, -0.0078185415, -0.0298537947, -0.0104630589, 0.0715408996, 0.0869071707, 0.0428766459, -0.0148397312, -0.0934373662, -0.0856615081, 0.0026483189, 0.0675404891, -0.0023549588, -0.1185888574, 0.0204732791, -0.0518979616, 0.0375137851, -0.0848386660, 0.0999099910, -0.0386711285, -0.0487821735, -0.0308375489, 0.1156533360, -0.0450629480, -0.0284824595, 0.0937857479, -0.1067295745, 0.0427959897, 0.0548955575, -0.0154852644, 0.0728306100, -0.0561799817, -0.0539066382, 0.0178014170, 0.0789887831, 0.0041982085, 0.0064352253, 0.0003275964, -0.0881122723, -0.0141002312, -0.0491898507, -0.0694168806, 0.0281891543, 0.0685154647, 0.0741106942, -0.0253402628, 0.0310512371, -0.0586092658, -0.0287410747, -0.0426276103, -0.0154751176, 0.0016389454, 0.0520651676, 0.0215549096, -0.0257996004, 0.1353835464, -0.0347184464, -0.0026416534, -0.0617379509, -0.0219553038, 0.0000315523, 0.2029526383, 0.0164714083, 0.0980607942, 0.1474280506, -0.0288395099, 0.0304799955, 0.0460138172, 0.0545153059, -0.0480319001, 0.0394237265, -0.0161505062, 0.0949692875, -0.0167471431, 0.0027361258, 0.0606231242, -0.0171208158, 0.0465846434, -0.0283012725, -0.0178116914, 0.1068065464, -0.1207721829, -0.0149610788, -0.0595178790, 0.1233261004, -0.0896115899, 0.0241513979, -0.0198691953, -0.1108872667, 0.0297926944, -0.0521832965, -0.0296909586, -0.0289360173, -0.0213491842, -0.1272932738, 0.0422359630, -0.0291679800, -0.0543126352, 0.0443899818, -0.0634702221, 0.0301212240, -0.1032127663, -0.0353720188, -0.0290606637, -0.0365367942, -0.0567050315, -0.0722686946, -0.1227006093, 0.0331507027, 0.0116882604, 0.0183863621, -0.0917518958, -0.0209865086, 0.0299046095, 0.0481350012, 0.0090917554, -0.0599429347, -0.0082204621, -0.0057436479, 0.0550680123, -0.0066215075, -0.0656633228, 0.0164226107, 0.0862376392, -0.0640675575, 0.0097872373, -0.1051038951, -0.0197379999, -0.0635691136, -0.1516190171, 0.0299632810, 0.0563021637, 0.0910674110, 0.0051532583, 0.0032516888, -0.0368570723, -0.0304575767, 0.0051352279, 0.0408151709, -0.0169582292, -0.0244165491, 0.0701128691, 0.0747738108, 0.0088576144, 0.0064492151, 0.0912155434, -0.0517866910, -0.0033646382, 0.0646331906, -0.0084777446, 0.0003282682, 0.0713795349, -0.0251568463, 0.0592353158, -0.0459903069, 0.0317358859, 0.1246136725, -0.0285149645, 0.0040169554, 0.0555687249, -0.1583496779, -0.0191903524, -0.0603830591, 0.0500667058, -0.0771063119, 0.0024576336, 0.0612830222, -0.0309184510, 0.0609441064, -0.0081015555, 0.0700842664, -0.0174636152, -0.0037714886, -0.0198632758, -0.0592800044, 0.0130107971, -0.0467687137, 0.0143613983, -0.0250446498, 0.0348598845, -0.0391758382, 0.0174173415, 0.0701178089, 0.0240299460, -0.0246886145, -0.0662237704, 0.1579431444, 0.0367968678, -0.1135998815, -0.0433685444, -0.0928197131, 0.0186000746, -0.1079096720, 0.0527869761, -0.0934645534, 0.0626122952, 0.0941259265, -0.0681197122, 0.0103780124, 0.0147122722, -0.0274705347, -0.0145554002, -0.0570399575, -0.0232828464, 0.0663640574, 0.0316958390, 0.0374461189, 0.0315745026, 0.0396651998, 0.0763976499, 0.0920419991, -0.0530387908, -0.0149419364, -0.0449209325, -0.1242972687, 0.1924794018, -0.0162113011, -0.0615539588, 0.0716285780, 0.0159891993, -0.0008529742, 0.0563955866, -0.1101368070, 0.0161972102, 0.0460973345, 0.0090254908, 0.0793971568, 0.0268371832, 0.0957450941, -0.0373334624, -0.0768230110, -0.0418331139, 0.0359930880, 0.0148160895, -0.0026491007, 0.0057969671, -0.0470231101, -0.0041240393, -0.0392173380, 0.0263575949, 0.0155312466, -0.0243113711, -0.1448275894, -0.0085911611, -0.0233632457, -0.0008547738, 0.0454258211, -0.0175509304, 0.0079092225, -0.0585072041, -0.0819553882, -0.0863209218, 0.0933291242, -0.0056865546, 0.0647913739, 0.0697700903, -0.1149965674, 0.0602514707, 0.0243193842, 0.0492499247, -0.0728578940, -0.0079336688, 0.0636628121, 0.1972141415, 0.0180600975, 0.0254717153, -0.0298158880, -0.0208114535, 0.0390526727, 0.0105952043, 0.0075132507, 0.0422204845, -0.0238391105, -0.1698908657, 0.1099576131, 0.0167075582, 0.0250330400, 0.0418655016, -0.0170820728, -0.0854860097, -0.0289567336, -0.0283994116, 0.0419367589, -0.0342447162, 0.1142202169, 0.1250159442, 0.0159862321, -0.0463790186, 0.0063358336, 0.0640389174, 0.0616557114, 0.0326045491, 0.1271811873, 0.0212044697, 0.0970403478, 0.1401760578, -0.0061099101, 0.1096129194, 0.0115016196, -0.0189264007, -0.0457995310, 0.0316978022, 0.1561596096, -0.0174858887, -0.1168981493, 0.1509882063, -0.0727734417, -0.0124142123, -0.0639547557, -0.0140128192, -0.1113406122, 0.0020282622, -0.0668138936, -0.0215360206, 0.0807465240, 0.0547436140, -0.0923078880, 0.0061625363, -0.0025813153, -0.0312336013, -0.0019402495, 0.0430346765, 0.0415920727, 0.0011438912, -0.0949563310, -0.0196200758, -0.0310754403, -0.1273236275, -0.0142794419, -0.0963358134, -0.0911679938, 0.0329672880, -0.1055665836, -0.1401723176, 0.0837807581, -0.0661569908, -0.0275679696, 0.0163706206, 0.0270560626, -0.0229741763, 0.0144831147, 0.0139403967, -0.1063888445, 0.0210678168, 0.0215648301, -0.1174320728, -0.0382761881, 0.1756351739, -0.0958027914, -0.0824283734, -0.0232404172, -0.0880644619, 0.0236303527, -0.0503766499, -0.0455771796, 0.1610732526, 0.0800492391, -0.1031657085, -0.2301989198, -0.0897521228, -0.0878314599, 0.0123797571, -0.0531834103, 0.0207482707, 0.0923301280, 0.1016077101, -0.0299975164, 0.0923720524, 0.0688510761, 0.0598246306, 0.0456786267, -0.0368352085, -0.0490202531, 0.0567117929, -0.0458078980, -0.1129607111, 0.0903589949, -0.0357905552, -0.0703572854, 0.0008789231, -0.0747018829, -0.0694765821, 0.0072220191, -0.0726858079, -0.0106648160, -0.0280093979, -0.0100182230, -0.0048930263, 0.0261816606, -0.0439949967, -0.1010905281, 0.0376864560, 0.0585817657, -0.0782831833, 0.0650131330, 0.1108052507, -0.0182516128, 0.1165086776, -0.0744327307, 0.0896692574, -0.0591528118, 0.0470259562, -0.0091616977, -0.0562761240, 0.0408570096, 0.1053372398, 0.0158600323, -0.0209722333, -0.1175483242, 0.0363359749, 0.1322928071, 0.0422932282, -0.0373606272, 0.0046929638, -0.0309510715, -0.0204230901, 0.0292341914, 0.0303881019, 0.0183172133, 0.0559791028, 0.0247876700, -0.1233556122, -0.0530771539, -0.0045224042, 0.0966060162, 0.2164446563, -0.0263947435, 0.0640495047, 0.0194973852, 0.0228752512, 0.0225000698, 0.0907006934, -0.0215695854, -0.0186577626, 0.0020198056, 0.0726211444, 0.0279770829, 0.0539602712, 0.0270505212, 0.1589671075, -0.0861849040, -0.0181529392, -0.1905734688, 0.0765899047, 0.0217614099, -0.1732035577, 0.0285327882, 0.0394064263, -0.0741338804, -0.1563371867, 0.0387487076, 0.0582945794, 0.0402215943, -0.1082611606, 0.0120341592, 0.0165453386, 0.0263707321, 0.1051619649, -0.0310940985, -0.0824479684, -0.0668683797, 0.0282982308, -0.0102611845, -0.1187559739, -0.0899508148, -0.0891945139, 0.1256091595, -0.0037183061, 0.0589089245, -0.0401201881, 0.0381964110, -0.1007931679, 0.0885044709, 0.1117709205, -0.0338496901, 0.0145851783, -0.0253344495, 0.0090019163, 0.0934533700, 0.0443938449, -0.0274553560, 0.0231582802, 0.1158843786, -0.0426455103, -0.1701490879, 0.0370441787, 0.0364601351, 0.0019844405, -0.0523796082, -0.0665131658, 0.0879127383, -0.0673192367, -0.0069773290, 0.0531295873, -0.0639909059, 0.0653404370, -0.0301714111, -0.0240091104, 0.1793139577, -0.0967885628, -0.0473129079, -0.0294096190, -0.0152915008, -0.0916638076, -0.0885001570, -0.0843860954, -0.0478501581, -0.0391419977, -0.0325427540, -0.1648283750, 0.0262024552, -0.1350687146, 0.0527541116, -0.0228687059, -0.0220276583, 0.0337344073, 0.1152822748, -0.0843539238, 0.0279146153, -0.0643159822, -0.0091387704, 0.0773997009, -0.0956661999, -0.0735585913, -0.1050409302, 0.0177845955, -0.0585388616, -0.1327734888, -0.0666755959, 0.1173325554, 0.1405166239, 0.1337731034, 0.1265176535, 0.1136315987, 0.0167185627, 0.0032456720, -0.0319587216, -0.0800679997, 0.0856958330, -0.0102101238, -0.0698242784, 0.0616844594, -0.0054959175, -0.1029580906, -0.1318860501, -0.0198598430, -0.0293103345, 0.0593945421, -0.0163124911, -0.0545210727, 0.0282882079, 0.0913884416, -0.0529608205, 0.0172919407, 0.0980174690, -0.0464196093, -0.0751593187, -0.1105049402, -0.0582293421, -0.0552937090, -0.0181095917, -0.0920944065, -0.0853638574, 0.0957269743, -0.0872130170, -0.0329319760, 0.0453628749, -0.0746909901, -0.0532079600, 0.0223138258, -0.0027929088, 0.1382462978, -0.0580503270, -0.0607803129, 0.0099050552, 0.0435167998, -0.0217976850, 0.1378376484, 0.0065783644, 0.0836431608, -0.0319736302, 0.1713635474, 0.0546169877, 0.0393787734, 0.0433154553, -0.1179545373, -0.0587894730, 0.1915501058, 0.0204147082, -0.0238648131, 0.0373276509, -0.1115675047, -0.1305533946, -0.0245384332, -0.0337193124, -0.1145149022, 0.0636646599, -0.1072800532, 0.0794646144, -0.0568937398, -0.1362446398, 0.1751533449, -0.1277981699, 0.0241809227, 0.0571270324, -0.0471902639, 0.1339637935, 0.0684262216, 0.0207970273, 0.1031073183, 0.0816569477, -0.0290433224, 0.0369777419, 0.1188826412, 0.2019761950, 0.0801215023, -0.0169187542, -0.0024891882, -0.0370354876, -0.0985123441, -0.0036731267, -0.0049471497, 0.0796006918, 0.0964517593, -0.0938185751, -0.0000082142, 0.0670784116, 0.0667443573, -0.0973677933, 0.0651450232, 0.0765974745, 0.0655903816, 0.0461624712, -0.1265370548, -0.0405680574, 0.0748609528, -0.0993308276, -0.0254640747, 0.0224703550, -0.0067806742, 0.0992541984, 0.0289679896, 0.0763859451, 0.1418689489, 0.0631703213, 0.0839676484, 0.0385668762, 0.0173760150, -0.0363336802, -0.0088090990, -0.0192558169, -0.0592018776, -0.0084517328, -0.0851263180, -0.0140167400, 0.0498078503, 0.0555814207, -0.0403906032, 0.1185394898, 0.0191730410, 0.0716079175, -0.1041912660, 0.0557516068, 0.2273090631, 0.0766845196, 0.0876432732, 0.1534131020, 0.0638608858, -0.0283825751, 0.0996188372, 0.1194521561, 0.1544192880, 0.0272494238, 0.0905695930, -0.0332070105, -0.0123623833, 0.0414426960, 0.0038618348, 0.0757403001, -0.0795698985, 0.0806293413, 0.0103892582, 0.0478819236, 0.0422690511, -0.1495478749, 0.0440937020, 0.0161190461, -0.0828067213, 0.0224954598, -0.0497792922, -0.0018007355, 0.0142804990, 0.0221208874, -0.0306700077, 0.1034141108, -0.0042298143, 0.0066885827, -0.0350729786, -0.1859030873, -0.0396150872, -0.0740623251, -0.0726340637, -0.0366833620, -0.1290150434, -0.0254653674, -0.0738898367, -0.0028129946, 0.1089064181, -0.0247109160, 0.0257011037, 0.0437116511, 0.0888863578, -0.0213413443, -0.0160452817, 0.0275861230, 0.0433384813, -0.0796755329, 0.0045656906, -0.0697468892, -0.0211620592, 0.0191512574, 0.1016303226, -0.0374579690, -0.0395656638, -0.0999527052, -0.1168846637, -0.0044323313, 0.1000784487, -0.0598557666, -0.0398489535, 0.0196170676, -0.0087056914, -0.0803427920, -0.0657895878, 0.0264313146, -0.0924433991, 0.0208194796, 0.0398383513, -0.0724651888, 0.1122382954, -0.0755888969, -0.1595014781, 0.0081550386, 0.0583489649, -0.0677654743, 0.0058681322, 0.0336701944, 0.0433278009, 0.0084341234, 0.0520782061, 0.0522485226, 0.1015616134, 0.0150656328, -0.0496751331, -0.0302321296, -0.0777120963, 0.0533561707, 0.0293806717, -0.0525797047, -0.0437805504, 0.0538563766, 0.0139509160, 0.0432199091, 0.0351639129, 0.0064837146, -0.0650499165, -0.0582172163, 0.1748816222, 0.0899718627, -0.0047033010, 0.0098636029, -0.0642025694, 0.0122263255, -0.0655957013, -0.1213875189, -0.0277909134, 0.0969871655, -0.0147036528, 0.0746210665, -0.0710095987, 0.0736425221, -0.0138057107, -0.0349347219, -0.1118962467, 0.1143479869, -0.0864278376, -0.0632285029, 0.0161406379, -0.0809116289, -0.0407200158, -0.0270247310, -0.0270281322, -0.0860844329, -0.0677406713, 0.0367991626, -0.0291376803, -0.0224098079, -0.1186838746, 0.0139004141, -0.0152364131, -0.0725893453, 0.1100021973, 0.0322610736, 0.0026752297, -0.0456544384, -0.0380543843, 0.0015936417, 0.0532992445, -0.0367013030, -0.0818062946, -0.0449532829, 0.0217233151, 0.0418826006, -0.0160854161, 0.1092774197, 0.0233044121, -0.0036880421, 0.0268464852, 0.0472477116, -0.0097971940, -0.0368072763, -0.0103225466, 0.0264945738, 0.1478702724, -0.0882332101, -0.0473046079, -0.0001314089, -0.0662846640, 0.0922826007, -0.0480597503, -0.0626649410, 0.0846986324, -0.0916460827, 0.0173306353, 0.1113805473, -0.1128565744, -0.0739584491, -0.0647814721, 0.0649091303, 0.0720695108, -0.0237074308, -0.1044385806, -0.0494836867, 0.0545708910, -0.0238882005, -0.0181692820, 0.0196830649, 0.0511638410, 0.0772327110, 0.0422617197, 0.0650645047, 0.1222908199, 0.0534048676, 0.0588605963, -0.1493526399, 0.0474539176, -0.0720276535, -0.0514350869, -0.0628314167, 0.0332594998, -0.0164348502, 0.0399951003, -0.0517775714, 0.0532035530, 0.0348498970, -0.0739060938, 0.0548572391, -0.0966178030, -0.0075809318, -0.1120534390, 0.0381885804, 0.0651303455, 0.0014370544, 0.0241172705, 0.0268050022, 0.0288814213, -0.0346035212, 0.0331537165, -0.1031286344, 0.0147902397, 0.0130210305, 0.0739776269, -0.0061653047, 0.0202474482, 0.1088464409, -0.1144696027, 0.0439592153, 0.1709318310, 0.0316120014, -0.0434446931, -0.1529523432, 0.0670475513, -0.0512799323, -0.0443981700, -0.0208477248, -0.0005767354, -0.0551601350, -0.1366653889, 0.0744506866, -0.1073573306, -0.0238923617, -0.1098792404, 0.0565091968, -0.0202840678, -0.2148429304, -0.0461580753, -0.0355047807, 0.0705512762, -0.0398265570, -0.2418964654, -0.0970611647, -0.0914491639, 0.0837219059, 0.0868172497, -0.0575498417, 0.0842513219, -0.1476751119, -0.1446451992, -0.0622141287, 0.0313904062, 0.0345055088, 0.0356685109, 0.0556233600, -0.0062776338, 0.0996170864, -0.0520850755, -0.0977968797, 0.0256815813, -0.0600038581, -0.0131702023, 0.0193207804, -0.0108776754, -0.0382259376, -0.0503055342, -0.0371132195, 0.0378330015, 0.0178263318, 0.0268903840, -0.0100844381, 0.0210291799, 0.0715038925, -0.0151843429, 0.0679617822, -0.0647662580, 0.1143529937, -0.0264996383, -0.1096173227, -0.0865857601, 0.0469614603, 0.0387911201, -0.0953388289, -0.0695019141, -0.0166758597, -0.0064695869, -0.0246098544, -0.0467212126, 0.0905318707, 0.0436365977, -0.0076251379, -0.0199096501, 0.0934796780, 0.0591271073, 0.0270761233, 0.0072573638, -0.0000539265, -0.0348104276, -0.0430425517, 0.0567985289, -0.0491747521, 0.0726365373, -0.0587437116, -0.0616982132, -0.0857194811, -0.0230948888, 0.0032086244, -0.0892785713, -0.0529343449, -0.0578713343, -0.0584907457, -0.0049121054, 0.0468512736, -0.1259656698, -0.0489652418, 0.0039806454, -0.0584441759, -0.0373572744, -0.0556468628, 0.0089852400, 0.1060155630, -0.0713623986, -0.0317294598, -0.1868153661, -0.0024084351, -0.0067549222, -0.0494083911, 0.0043464857, -0.0724789947, -0.0643280670, -0.0523653030, 0.0919685513, 0.0047008842, -0.0708876699, -0.0601037294, -0.0833833814, 0.0490388200, 0.0222712420, 0.0262936149, 0.0487517677, 0.0182232931, 0.0926905572, -0.0081337858, 0.0329618901, -0.0964827016, 0.0752091631, -0.0409676805, -0.0428713486, -0.0824369937, -0.0534478091, 0.0863292515, -0.0540373214, -0.0851474330, 0.0431998260, 0.0157230292, -0.1052205935, -0.0114252800, -0.0431500636, 0.0139743872, -0.0210468639, -0.0288824104, -0.1323793381, 0.0280083753, -0.0356810428, -0.0609656237, 0.0054999911, 0.1768582761, -0.1305443197, -0.0916691720, 0.0596709177, 0.0423993133, 0.0313337184, -0.0524680391, -0.0268690288, -0.0389239639, -0.0395323709, -0.0860889331, 0.1370103359, -0.0081611220, -0.1048472151, -0.0794592872, 0.1080227718, -0.0868332982, -0.0151140718, 0.0106114168, -0.0150599312, 0.0131467981, -0.1176863760, 0.0042444998, 0.0165134687, 0.0583970733, -0.0674756691, -0.0748512447, 0.0709299743, 0.0738806427, 0.1104468480, 0.0880946070, 0.1018961594, -0.0093623465, -0.0786292404, -0.0001056886, 0.1481178701, 0.0232548900, -0.0008702341, 0.0888888985, 0.0440587774, -0.1202336624, -0.0842033625, 0.0436781384, -0.0613849722, 0.0902304202, 0.2030375302, -0.0686934292, 0.1010779291, 0.1168578714, -0.1237591133, -0.0835023969, 0.0805467665, -0.0277929790, 0.0341316201, 0.0486096293, -0.0199177172, -0.0113074807, 0.0397841111, -0.0494654253, 0.0066520590, -0.0470425859, -0.1269091070, -0.0797832906, -0.0490888320, -0.0873813555, -0.0139603112, -0.0105625074, -0.0249644853, 0.0014381475, -0.0574949495, -0.0027470682, 0.0990406349, -0.0024015312, -0.0264822934, 0.0909979716, 0.0711195394, 0.1230460554, -0.0027203050, -0.0941968560, 0.0195058491, -0.0954741091, 0.0266665872, 0.0158333518, 0.1076471880, -0.0564246438, 0.0452840179, -0.0020371708, 0.0176651850, -0.0244078506, 0.0921909288, -0.1223829836, 0.0698491335, 0.1347149611, 0.1279052943, 0.0507727191, 0.0313073024, 0.0778436065, 0.0280111749, 0.0082061086, -0.0025689797, 0.0292007159, -0.0295474455, 0.0071131894, -0.1158596724, 0.1195487231, 0.1237705275, 0.0082392124, 0.1663886607, -0.0306990799, 0.1495320797, -0.0657793730, -0.0138688516, 0.0454901010, -0.0482538790, -0.0054964167, 0.0443503112, 0.1013353318, -0.1121056750, -0.0620983988, 0.0167989805, 0.0573564768, 0.0658599585, 0.0372313783, -0.0050878022, -0.0881873518, 0.0903169066, -0.0997913778, -0.1040470153, 0.0404140539, -0.0800880194, 0.0828722641, 0.1390179694, -0.0312127136, -0.0390097462, -0.0076139271, 0.0215219837, 0.2134277821, -0.0156777930, 0.0678793564, 0.1097523123, 0.0155438539, -0.0316139571, -0.0536745153, 0.0254278407, -0.0028622611, 0.0149485879, 0.0866361782, 0.0164836477, -0.0017976327, 0.0059279753, -0.0571558028, 0.0162880663, -0.0158708803, -0.0236139856, -0.0952566639, 0.0849625021, -0.0519058183, 0.0795915723, -0.0492128469, 0.1518718749, 0.0468268767, 0.0849828944, -0.0252491031, 0.0460931957, -0.1130081639, 0.0679554567, 0.0498668179, 0.0398554988, 0.0450690426, -0.0878365040, 0.0086173108, -0.0153944781, 0.0660162047, -0.0039065373, -0.1137783155, -0.0242306218, 0.0230530649, -0.0688585192, 0.0397602580, 0.0878272429, 0.0309063699, 0.1696910262, 0.0603775494, -0.0990268365, 0.0227694251, -0.0196277536, -0.0073735593, -0.0258918218, -0.0215610545, -0.0435653143, -0.1051017791, -0.1213483959, -0.0295245517, -0.0618976690, -0.0565881766, 0.0506685451, 0.0524741299, -0.1489930302, 0.0266999956, -0.1282962561, -0.0626530275, 0.0098800203, 0.0094242543, -0.1284580380, 0.0284589808, 0.0856438726, 0.0338893086, -0.0555298962, 0.0270049591, -0.1261951178, 0.0335217044, -0.0399845019, -0.0559401587, 0.0461016074, -0.0388245918, -0.0060686148, 0.0916289017, 0.0736088902, 0.1261121184, -0.0220712628, -0.0608970001, -0.0222286526, 0.0676032379, 0.1072358787, -0.1385652721, 0.0533857755, -0.0534237660, 0.0728527755, 0.0680692196, -0.0488043316, 0.0534010194, -0.0589020103, -0.0289823283, 0.0142037682, -0.0022761212, -0.0153928064, 0.0438073799, -0.0895857587, -0.0905405283, -0.0233499911, 0.0162871741, 0.0063042692, 0.0167461727, -0.0721159130, -0.0208087638, -0.0521212891, -0.0775756240, 0.0097758071, -0.1358860582, 0.0331223644, 0.0379164033, -0.0729980245, 0.0796205029, 0.0004806845, 0.0627586097, -0.1134957746, 0.0514195077, -0.0112124747, -0.0013106952, 0.0254825652, -0.0372940339, 0.0124019366, -0.1214909703, 0.0459997058, 0.0212222598, 0.1060776114, 0.0463407226, -0.0564508550, -0.0650720298, 0.0187604669, -0.0643040314, 0.1000482291, -0.0653833151, -0.0726293102, 0.0166598987, -0.0273059662, 0.0562333465, -0.0108520398, 0.1192510203, 0.1630703807, 0.0811188966, 0.1206964478, -0.0607747100, 0.0298793092, -0.0277967658, -0.0119348289, -0.0906378850, 0.1169010624, 0.1195722595, 0.1268020272, -0.0451090559, -0.0060496246, 0.0624135286, -0.0319354460, 0.0757149607, -0.0742311552, -0.0278148670, -0.0503243655, -0.0440761894, -0.0541832708, 0.0858544335, 0.1852685660, 0.0240380783, -0.0441803299, 0.0607223660, 0.0176814515, -0.1055513918, -0.0427590646, 0.0699079782, -0.0244287308, -0.0185395163, -0.0614625886, -0.1168184653, 0.0632214770, 0.0379212648, 0.0342112221, 0.0161770787, 0.0384505726, -0.0638737977, 0.1109704152, 0.0001270797, 0.0384790748, -0.0326925628, 0.0261985268, 0.0949172452, -0.0522464365, 0.0625227168, 0.0101007419, 0.0327348150, -0.0049270093, 0.0765498579, -0.0246150736, 0.0729356930, -0.0859159380, 0.0438755602, 0.1158384904, 0.1446606070, -0.0571633764, 0.0126501238, 0.0277602728, -0.1283244342, 0.0899596959, -0.0810445026, 0.0376054719, 0.0639805347, -0.0668203458, -0.1075991467, 0.0204395335, 0.0273965616, 0.0149529809, -0.0558279380, -0.0334322117, -0.0792261064, -0.0124606695, -0.0276058204, -0.0478981882, -0.0123207429, 0.0014931099, 0.0338394530, 0.0317312814, 0.1416231841, 0.0665622503, 0.0949604586, 0.0243832357, 0.1717144102, -0.0730637386, -0.0480750352, 0.0771978423, -0.0821700096, -0.0520322770, 0.0054382971, 0.0475605503, 0.0433746688, 0.0588421077, 0.0132856965, 0.0500489101, -0.0601409413, 0.0099887475, -0.0580196343, 0.1587961018, 0.0495540053, 0.0096480576, -0.0472070612, 0.0054453178, -0.0791147426, -0.0508755110, -0.0241361447, 0.0215745363, 0.0267924536, 0.0390687436, -0.0604627021, -0.1281709373, -0.0030592070, 0.0366139077, -0.0042898618, 0.0825379342, -0.0572262257, -0.0825252384, -0.0953559875, -0.0121070473, 0.0225734115, -0.0791084617, -0.0632552579, 0.0161151532, 0.0193639509, -0.0149910040, 0.1057839245, -0.0896101743, -0.1101880297, 0.0485143252, -0.0188118704, 0.1073955745, 0.0715857297, -0.1579070091, -0.0454922020, 0.0875364691, 0.0405677967, 0.0261897668, 0.0307496898, -0.0313153639, -0.0560933538, -0.0239746980, 0.0004328783, -0.0018064083, -0.0404158719, -0.0028941741, -0.0147218984, 0.0508601405, -0.0704420134, 0.0291854963, -0.0835935175, 0.0111005269, 0.0153850438, 0.1516444385, 0.0602878369, -0.0541227944, -0.1017040387, 0.0887106657, -0.0369230770, -0.0163577590, 0.0368797407, -0.0400983840, 0.1393911541, 0.1542113423, 0.1454551369, 0.0897533372, 0.0348350815, -0.0633981079, 0.0103127258, 0.1381903887, 0.0978650153, -0.1061922088, 0.0182421822, 0.0770800039, 0.0587035604, 0.0624636561, -0.0346528292, 0.0407693088, -0.0099456627, -0.1615438461, -0.0215547252, 0.0920222327, -0.0815458000, 0.0361641794, 0.0224288367, -0.0979903117, 0.0342413783, -0.0214380436, 0.0419726819, 0.0740520135, 0.1106321961, 0.0691651404, 0.2081197053, -0.0459450297, 0.0271455832, -0.0282322839, -0.0044650151, -0.1268682480, -0.0621684678, -0.0442136452, 0.1132673994, -0.1027808115, -0.0460107885, -0.0635244027, 0.0855956897, 0.0330655538, -0.0308867674, -0.0021608912, -0.0361904502, 0.0825634673, 0.0046241367, -0.0374206640, -0.0847225487, -0.0239472240, 0.0403321125, 0.0614098199, 