//Numpy array shape [3, 3, 28, 28]
//Min -0.350722581148
//Max 0.351385593414
//Number of zeros 0

#ifndef W8_H_
#define W8_H_

#ifndef __SYNTHESIS__
static conv2d_3_weight_t w8[7056];
#else
static conv2d_3_weight_t w8[7056] = {0.0008482909, -0.1286979765, -0.0358603820, 0.0157923196, 0.0713371113, 0.1070964038, -0.0316040963, 0.0243637078, -0.0552313924, -0.0851934254, 0.0567537211, 0.0135303680, -0.0118763587, 0.0490432009, -0.0564173460, -0.0150841782, -0.0649807528, -0.0636754408, 0.0860136375, -0.1069568396, -0.1111180261, -0.1187004000, 0.0125267990, 0.0698266923, 0.0860073194, 0.1244743168, 0.0225310009, -0.1560870558, -0.0505162030, 0.0217967574, 0.0806712210, 0.0150081376, -0.0515761711, 0.0034784183, -0.1838348508, 0.0844627768, 0.0149735957, 0.0647002012, 0.0509156398, 0.1266092807, -0.0044751591, -0.0680814534, 0.0543030873, 0.0273186862, 0.0090074306, 0.0669091493, -0.0329208337, -0.0452379286, 0.0115657942, 0.0817697719, 0.0036911422, 0.0388357081, -0.0682943761, 0.0989030972, 0.0265104845, -0.0945694000, -0.0843434110, -0.0837028474, 0.0504969992, 0.0513673387, 0.0048241536, 0.0225786548, 0.0190728921, 0.0314865671, -0.0591206923, -0.0447797067, 0.1126658395, 0.0572468601, 0.0162849780, -0.0116080390, -0.0529049896, -0.0230264571, 0.0314858742, -0.0462166667, -0.0964983255, -0.0030818493, 0.0890258253, 0.0104806814, -0.0442413688, -0.0457221381, -0.0716045871, -0.0541564487, -0.0263071638, 0.1010738462, -0.0936827809, 0.0134415627, -0.0390417427, 0.0620678887, 0.0755711570, -0.0133990571, -0.0138614206, 0.0077622635, 0.0555203259, -0.1038346589, -0.0265166406, -0.0356491618, -0.1018124744, -0.0426820852, 0.0482839532, 0.0506425090, -0.0172105338, -0.0427485220, -0.0691545308, -0.0058521116, -0.0399943441, -0.1041861475, -0.0559085160, -0.1172763109, 0.0208079964, 0.1275706291, 0.0177847110, 0.0575450175, 0.0834424943, -0.0450435057, 0.0163101926, -0.0237580240, -0.0350543223, -0.0176213272, 0.0329207629, 0.0432087518, -0.0157933701, 0.0085911583, 0.0847307667, -0.0112387827, 0.0725689754, -0.0254812147, 0.0025490934, -0.0359794088, 0.0191909317, -0.0877896026, -0.0900911689, 0.0062351320, 0.0217868369, 0.0231888462, 0.0294187106, 0.0282625016, 0.1079793423, -0.0680578053, 0.0392530486, 0.1116241217, -0.0167470891, 0.0370356888, -0.0260700956, 0.0655619428, -0.0073015122, -0.0029281620, -0.1724648774, 0.0668864846, 0.0274621993, 0.1188220084, 0.0594568178, 0.0001782824, 0.0220889095, 0.0358139090, 0.0286689438, -0.0510630235, 0.0684332699, 0.0568302125, -0.0018340595, 0.0169902407, 0.0580805503, 0.0800267532, -0.0751066729, -0.0169834103, -0.0457552932, 0.1003364101, -0.0652398020, 0.1941586137, 0.1105807051, -0.0267715883, -0.0323953070, -0.0111490712, -0.0541840158, 0.1096726358, 0.1514775157, -0.0623832904, -0.0915378556, -0.0886241347, -0.0263540018, 0.0350454636, 0.1685273796, 0.0631765649, -0.0152904568, 0.0522349030, 0.0186499767, 0.0406404324, 0.0170744341, -0.0180664808, -0.0771816000, 0.0022897434, -0.0894531533, -0.0219894741, -0.1073688939, -0.1187104806, 0.0111189364, 0.1452893168, -0.0042287200, 0.0393813923, -0.0166762061, 0.0146467425, 0.1126660109, -0.0063896347, 0.0249088425, -0.0172917210, -0.1232749000, -0.0532862023, -0.0736252815, -0.0092942659, 0.0918043554, -0.0492675304, -0.0022911117, -0.1329442561, -0.0665188953, -0.0198714603, -0.0343476906, -0.0997969732, -0.1034978181, -0.0299390908, -0.0260983519, -0.0204048660, 0.0485892296, 0.0084569175, 0.0435387008, 0.0050594220, 0.0085697407, 0.0618695468, -0.0480076522, -0.1558894217, 0.0175045114, -0.0001072256, -0.0012081800, 0.0691898316, -0.0314609222, 0.0180424694, -0.0153343491, -0.1066715792, 0.0387818851, 0.0222099070, 0.0435749479, -0.0500083156, 0.0019033956, 0.0027409568, 0.0816719085, -0.0362779349, -0.0331923179, 0.0489914343, 0.0095859049, -0.0504618138, 0.0357486717, 0.1150111407, -0.0373198763, -0.0393455140, -0.0039520250, 0.0142214000, -0.0358194560, -0.0179887116, -0.0359336659, 0.1027047113, -0.0922627747, -0.0294207893, 0.0010998535, -0.0238835532, 0.0071303463, -0.0621693283, 0.0225532688, -0.0569849946, 0.0625256673, -0.0330658257, 0.0945940539, 0.1026554555, 0.0507036969, -0.1146833673, 0.0313494839, 0.0275892429, -0.0820350796, 0.0092678629, 0.0209557544, 0.0015257935, -0.0991218314, -0.0092780693, -0.0065437746, -0.0655564219, 0.0136715546, -0.0488187671, -0.0129476665, -0.0493277349, 0.1456504166, 0.1232197434, 0.0561859906, 0.1106498614, 0.1077873185, 0.0268110055, -0.0510482378, 0.0984763652, -0.0660511404, 0.0437883139, 0.0352612324, 0.0432034805, -0.1495992094, 0.0514767058, 0.0524936654, 0.0511658341, -0.0207343325, 0.0011189557, 0.1068164036, 0.0973010063, 0.0441077873, -0.0078585483, 0.0755394697, 0.0014128173, 0.0205132663, 0.0158014391, 0.0684623718, 0.0600324944, 0.0504477471, -0.1193555743, 0.0671770796, -0.0773581564, -0.0277744550, -0.0507320203, 0.0785660818, 0.0226065516, 0.0093103023, 0.0392951295, 0.1353598535, 0.0357242078, 0.0300420225, -0.0401495397, 0.0734712854, -0.0743086860, 0.0126663586, -0.0012637966, -0.0479542948, -0.0620535947, -0.0427122675, 0.0100889001, -0.0049448959, -0.1174399182, 0.0163307227, -0.0360703692, -0.0371110626, -0.0445239060, 0.0050810599, -0.0700143874, 0.0028301303, 0.1049752235, -0.0845978335, 0.0378101245, -0.0564536527, 0.1271817088, -0.0695057735, 0.0196038913, -0.0942811444, 0.0174640045, -0.0106635122, -0.0607387349, 0.0522835590, -0.0052596391, 0.0416469462, -0.1110748053, 0.0828357786, 0.0511570685, -0.0831595808, -0.0347727463, 0.0850287527, -0.0369213596, -0.0020463332, -0.0633193851, -0.0116612585, 0.0986949354, 0.0511816852, -0.0488162190, -0.0740523562, 0.0456574932, 0.1020127237, -0.1024138927, -0.0407405496, 0.1601600498, 0.0209646784, 0.0144385938, 0.0743149742, -0.0853005126, 0.0243406612, -0.1186579689, -0.0386034586, 0.0898922384, -0.1418406069, 0.0296728108, -0.0051945564, -0.0113217607, 0.1413981915, 0.1563416123, -0.0917352140, -0.0821733847, 0.0750323385, -0.0379525833, 0.0401837863, 0.0472150296, 0.1115400270, -0.0389462262, -0.1378263831, 0.0892117396, 0.0218048673, -0.0595724508, -0.0198700037, -0.0034311356, 0.0424700491, 0.0995159075, -0.0958302096, -0.0217610449, -0.0040801745, 0.0704050660, 0.0798995569, 0.0054962449, -0.0794499144, 0.1091288626, 0.0353301205, 0.0433513522, 0.1002954170, 0.1343711764, -0.0715713575, -0.0849533603, -0.0585000068, 0.0540515855, 0.0395296291, -0.1436667889, -0.0580159165, -0.0785223395, -0.0616732314, 0.0541692004, -0.0631815195, 0.0855388194, -0.0754382387, -0.1089907959, -0.1089383513, -0.0367262028, 0.0530138575, -0.0212011226, -0.0136296898, -0.0590464510, -0.0019992145, -0.0392659865, -0.0857653245, 0.0010617499, 0.0440049954, 0.0176080037, -0.0381190106, 0.1296671927, -0.1183254272, -0.0647599101, 0.0023793457, 0.0148273967, 0.1006370634, -0.0156775042, 0.0237067956, 0.0374238864, 0.0389101319, 0.1534686089, -0.0606927648, -0.0067529455, 0.1259641200, 0.0851032585, 0.0440525822, 0.0770228803, -0.0339706764, 0.0482435785, 0.0674993023, 0.0418524370, -0.0963904187, -0.0631119162, -0.0318492912, -0.0219679326, -0.0684678778, 0.0143933725, 0.0174351875, -0.1297352463, 0.0267940946, -0.0402521715, -0.0471069366, 0.0281595867, 0.1155317277, 0.0782285482, -0.0050763800, 0.0281206779, 0.1204278991, 0.1185810566, 0.0862439796, 0.0088096140, -0.0415386558, -0.0241802130, 0.0492459498, 0.0582649410, -0.0611222237, -0.0122113405, 0.0927366912, 0.0049562296, -0.0176298488, 0.0158264544, -0.0681745335, 0.0252761859, 0.0632517189, -0.0242016520, -0.0084857177, -0.0284048077, 0.0265158731, -0.0739955232, -0.0037422145, -0.0499545187, -0.0194074027, 0.0641883388, -0.0067942552, 0.0316975825, -0.0337778218, 0.0622688644, 0.0756302848, 0.0621264726, -0.0478216298, 0.0028772615, 0.0416747779, 0.0438193940, -0.0260871779, 0.0010980569, 0.0165099185, 0.0919009745, -0.0420821086, -0.0230127368, 0.0768749863, 0.0754851326, 0.1343620569, 0.0358678587, 0.0679162666, -0.0329699144, -0.1451063156, -0.0902946070, -0.0767495930, -0.0313474946, -0.0031380963, -0.0955533832, 0.0350695290, 0.1231612414, 0.0196609143, 0.0087058628, 0.0602307767, -0.0477076843, -0.0116002662, -0.0697071180, -0.0336692296, -0.0120581323, -0.0380893685, -0.0746231228, 0.0197210945, 0.0923896283, 0.1124467626, -0.0571196117, 0.0403816476, -0.0342255197, 0.0976262093, 0.0420586057, 0.0189027693, 0.0104185659, -0.0785365850, -0.0835001096, 0.1140589043, -0.1052034274, 0.0119789075, 0.1523423195, 0.0415710099, -0.0153067093, -0.0450476184, 0.0853087157, 0.0342703909, -0.0411837026, -0.0273408536, -0.0509964451, 0.0216085296, 0.0649427325, 0.0763404071, 0.0016683155, -0.0730173960, 0.0883604214, -0.0386659838, 0.0780538991, -0.0599467792, 0.0206722207, 0.0145136397, -0.0006445951, 0.0788554251, -0.0128361192, -0.0021467898, -0.0853691325, 0.0677004158, -0.0044524432, -0.0305576567, 0.1040787250, 0.0358152986, -0.1048411280, -0.0588271394, -0.0590183102, 0.1668595970, -0.0602465793, 0.0448667072, 0.0047012311, 0.1074565575, -0.0361737050, 0.1207735091, -0.0050795982, 0.0269124173, -0.0306652505, 0.0037787878, 0.0687723383, -0.0572373196, 0.0353725515, 0.0349148288, 0.1408730447, -0.0670859665, 0.0254661199, 0.0133867348, -0.0515390225, 0.0311207008, -0.0111384913, -0.0141623961, -0.0872327983, 0.0542316027, 0.0209242105, 0.1167616546, 0.0021064966, 0.0033292100, -0.0428705886, -0.0650648624, -0.1301366836, 0.0098357648, -0.0697077438, 0.0003940313, -0.0579575673, 0.0714073256, -0.0479027927, 0.0867903978, 0.0005452480, 0.0542655736, 0.0169190485, 0.1079121977, 0.0657526106, 0.0422559939, -0.0547983013, -0.0061880802, 0.0235519744, 0.0559536889, 0.0366820432, -0.0076891147, 0.0597628765, -0.0947217569, -0.0787984505, 0.0070107807, -0.0646549836, 0.0658512637, 0.0484388582, -0.1165108010, -0.1603502482, 0.1005543396, -0.0535252728, 0.0472376794, -0.0808625594, 0.0650174469, 0.0418064110, -0.0405074842, -0.1271125078, 0.0409794152, 0.0760312453, 0.0155691737, 0.0160443392, -0.0342447944, 0.1479654461, -0.0221217927, 0.0408492610, 0.0354106613, -0.0811556503, 0.0082835592, 0.0892112553, 0.0778274760, 0.0023542547, 0.0111492369, 0.0062684687, -0.0005565215, 0.0476389378, -0.0573155954, -0.0254198518, -0.0562124625, -0.0074634082, 0.0253336243, -0.0144014163, -0.0127391992, 0.0467772111, 0.0854748487, -0.1066076830, 0.0060982793, 0.0240874849, 0.0580793098, -0.0088869995, -0.0605784468, -0.0298052561, -0.0751290694, 0.0980917364, 0.0310209915, 0.0424448662, -0.0499990508, 0.1426856816, 0.0786107779, -0.0672907159, -0.0636608526, -0.0574104898, 0.0672132820, -0.0001339637, 0.0324666947, 0.0415103324, 0.0315419845, -0.0349339694, 0.0551411361, 0.0689956546, 0.0317132920, 0.1121756956, -0.0753865018, -0.0020629785, 0.0911947563, -0.0603519864, 0.0431291573, 0.0993120968, -0.0031895265, 0.1100135073, -0.1181968376, -0.0998735800, 0.0743909180, -0.0131847402, -0.0678442121, 0.1075359508, -0.0182206556, -0.0491811931, -0.0478751473, -0.1206233799, 0.0046144635, 0.0597546957, 0.0379010141, -0.0255854167, -0.0683252737, 0.0398966298, -0.0391700864, 0.0520853624, -0.0100165615, 0.1138062775, 0.0836923271, -0.0324428827, 0.0136353979, -0.0483274162, 0.0884698555, 0.1066074148, 0.0238444135, 0.1716588289, -0.0414506197, 0.0294199623, -0.0535003170, -0.0730640963, 0.0576226152, -0.0882138684, -0.1252442151, 0.0255216844, -0.0511826314, -0.2133719325, -0.1690371335, -0.0431567766, 0.0900552496, -0.0451711304, 0.0355030484, -0.1480090916, -0.0093435952, -0.1474055648, 0.0955600291, -0.1281524748, -0.0042542983, -0.0983776376, -0.2326580882, 0.0530178733, -0.0071504992, -0.0035600730, -0.1070062518, 0.2628170550, -0.0332580544, 0.0187273212, -0.1054390445, 0.0834038854, 0.0099518383, 0.0724754333, 0.1767161191, 0.0373172052, -0.0393750556, 0.1367395222, 0.0537763983, -0.0567727312, 0.2130921930, -0.1005214602, -0.0205600169, -0.0546750911, 0.0210287888, -0.1075861752, 0.0512564592, 0.1883841455, -0.0756182745, 0.0259762704, -0.0585619435, -0.0252663177, 0.0644169152, 0.0747587457, 0.1007251516, -0.1055569276, -0.0110991104, -0.0587691441, 0.0778740719, -0.1099530458, -0.0524309874, -0.0227221847, -0.1002721712, -0.0138315242, 0.1347646564, 0.0391116440, -0.0494980328, -0.0492225625, -0.0022574931, -0.1107072085, 0.0075748265, -0.0513220578, 0.0604868233, 0.0654459298, 0.0786192864, 0.2602721155, -0.0213151071, -0.0416180976, 0.1350476593, -0.0626195595, 0.0094308183, 0.1263987571, -0.0520000719, 0.0566790849, 0.0091044260, 0.0700784773, -0.0582520179, -0.0435153544, -0.0920736417, -0.0099087637, -0.0434892401, 0.0819210261, 0.0928226560, 0.0530082434, -0.0367780924, -0.1228305921, 0.0731086209, 0.0298855286, -0.1179102808, -0.0040654009, 0.1214656383, 0.0951245129, 0.1089615822, 0.1576890200, -0.0353835821, -0.0299104694, -0.0353250392, 0.0567857660, -0.1439143121, 0.0636509359, -0.0155752534, 0.0854757652, 0.0143279042, 0.0734692141, -0.0443649329, -0.0067850472, -0.0426152609, -0.0157068800, 0.1244140491, -0.0179832354, -0.0355175920, 0.0255426522, -0.0192038212, 0.0541559197, 0.0427486897, -0.0000353035, -0.0327672660, 0.0636080205, 0.0071827127, 0.0865846202, -0.1302801967, -0.0228662305, -0.0489015989, 0.0015814188, 0.0827659220, -0.0011047249, 0.0401336439, -0.0445131138, 0.0183407124, -0.1873460412, 0.0736378580, -0.0448836870, 0.0116218878, -0.1366641223, 0.0109428708, 0.0537085533, -0.0083922204, -0.0173039064, 0.0969672501, -0.0637749881, 0.0160688534, 0.0091257775, 0.0472722016, -0.0400720872, 0.0628242716, -0.1361079067, 0.1162779853, -0.0709770992, 0.0956253037, 0.1309590191, -0.0122420099, 0.0351222605, -0.0269644782, -0.0110566150, -0.0167078897, 0.0210101232, 0.0183543842, 0.0690111145, 0.1394864619, -0.0084301932, -0.0246447306, -0.0192693379, -0.0548910424, -0.0603453591, 0.0140074538, -0.0476417020, -0.1905028671, 0.1208491400, 0.1657393575, -0.1305380315, 0.1071799546, 0.0034294308, -0.1212217137, 0.0744650140, -0.0229574088, -0.1081970632, 0.0058745509, -0.1461323798, 0.0233458206, -0.0011369999, -0.0554799102, 0.0205498431, -0.0705825016, -0.0349784121, -0.0422974564, -0.2921279073, 0.0301795658, 0.0070615252, 0.0153387152, -0.1400831342, 0.0094641820, 0.0288648102, -0.0519574024, 0.0517413169, 0.0108564561, 0.0238115806, 0.0467337035, -0.1308414340, 0.0837877095, 0.0140123712, -0.0564875491, -0.0341886729, 0.0347019583, -0.0231751166, 0.1683741212, 0.0623723231, -0.0322729945, 0.0456413776, -0.0685343370, -0.0614027828, 0.1745073795, 0.0502866283, 0.1160207018, -0.1437899619, -0.0450407639, -0.0132289072, 0.0571400151, -0.1638609618, 0.0075982814, 0.0735418499, -0.0587002300, -0.1226321161, -0.0779134855, -0.0804348737, -0.0477329232, 0.0598705709, 0.0639586225, -0.0457831696, 0.0237333253, 0.0104038185, -0.0916359946, -0.0395540930, -0.0797116756, 0.1339284033, -0.0302388072, 0.0342566669, 0.0145701384, 0.0017607384, -0.0678592473, 0.0156921018, -0.0962573662, 0.0778699368, 0.1149608418, -0.1047360003, -0.0860836953, -0.1342498809, 0.0220659096, -0.0059929532, -0.1152344048, -0.1228878051, -0.0289732032, 0.0005016195, -0.0473805070, -0.0822215304, -0.0608606823, 0.0356267542, -0.0618750639, -0.0462534428, -0.0476547480, 0.0325683206, -0.1242011636, -0.0927566737, -0.0569427498, 0.0921701938, 0.1163197756, 0.0175716709, 0.0201148577, -0.0000780626, -0.0430251174, 0.0112214005, -0.0249911230, 0.0151520222, -0.0581480302, -0.0020615736, 0.1199957579, 0.0214328878, 0.0202460904, 0.0119460821, 0.0610919371, 0.0853488222, -0.1028064489, -0.0581464767, 0.0490234606, 0.0424220636, 0.1199721843, -0.0307819154, 0.0441437103, 0.0134138335, 0.1089596003, 0.0206126440, 0.0413120128, 0.0638718382, -0.2674363554, -0.0712243393, -0.1871620715, 0.0829845592, 0.0948555321, 0.1274097413, -0.0902805179, 0.0771504194, 0.0546403825, 0.0569333695, 0.0004588877, -0.0360309482, -0.0683813319, -0.0490241833, 0.0379176587, -0.0220742803, 0.0001289411, 0.0471201874, 0.1132515892, -0.0687733814, 0.1007449403, -0.1427954584, 0.1030819267, 0.0377166122, -0.0174149107, -0.1155186892, -0.0499899834, -0.0529563800, -0.0915639773, 0.0421194099, 0.1787895262, -0.0223296043, -0.0813020021, 0.0254086256, 0.0328666531, -0.0156908259, -0.0545332469, -0.1329825968, 0.0437725149, 0.0430837534, -0.0364241712, 0.0312570259, -0.0934522822, -0.1807710081, -0.0262801908, -0.0136333043, -0.0515600108, 0.0059532891, 0.0722904578, -0.0925769433, -0.0065999646, 0.0547824576, 0.0661471859, -0.0230567642, -0.1442166418, 0.0610662773, -0.1224099547, 0.1299991608, -0.0566632710, 0.0731227174, 0.1187784597, 0.0849573314, -0.0809519514, -0.0474704802, 0.0134440819, -0.0098726638, 0.0083584124, -0.0920195505, 0.1151280999, 0.0292653926, 0.2122097760, 0.0022867001, -0.0340467244, -0.0039690724, 0.1388012767, 0.0392816961, 0.0193383973, 0.0513130873, -0.0952611193, 0.0681836158, 0.0697535351, 0.1155476272, 0.0783807486, -0.0326199457, -0.1352356225, 0.0851690173, -0.2095815837, 0.0031217001, 0.0771907419, -0.2830620706, -0.0296784528, -0.0070270831, -0.0225415006, 0.0899193585, 0.0473695397, 0.0499628484, -0.0297949333, -0.0821259320, 0.1306762248, 0.0324902087, -0.1245459318, 0.0931296349, 0.0237163287, -0.0343941748, -0.0706694201, 0.0086462190, -0.0131164864, 0.0938832313, -0.1276619881, 0.0697209015, -0.0712185130, -0.0686049312, 0.0336321555, -0.0399321914, -0.0302846413, 0.0220287032, 0.0366035253, 0.1178864017, -0.0431199856, 0.0394584537, -0.0490683541, -0.0337884873, -0.0845475271, -0.1271726787, -0.1356847882, 0.0090821609, 0.2184642851, 0.1683334857, -0.0686570480, 0.0630940646, 0.0726104006, 0.0571393669, 0.0591816939, 0.0083651161, 0.0272128284, -0.0043433332, 0.0230455380, -0.0357008427, -0.0383371785, 0.1220900565, 0.1037871540, 0.0782594830, -0.0190810021, 0.0015019648, 0.0017761176, 0.0949830785, 0.0388098098, -0.0821175575, -0.1125150993, -0.0337369107, 0.0433584265, -0.0655565932, -0.0021286614, -0.0246698111, -0.1818620414, 0.0831655189, 0.0605831482, -0.0274965446, -0.0031381578, 0.0646210834, -0.0451719686, 0.0209626872, 0.0944096819, 0.0310334060, -0.0009944085, -0.0222919695, 0.1088782325, -0.0309477914, -0.1658961177, 0.0663399324, -0.2099219114, -0.0419682786, -0.0924976096, -0.0978635922, -0.0265048929, -0.0421972759, 0.0553628579, -0.0012406395, -0.0788935050, 0.0100704990, 0.0760413483, -0.0683630183, 0.0425048396, 0.1617427766, -0.0366883986, 0.0254899748, 0.0811716318, 0.0739999041, -0.0110315485, 0.0170667730, -0.0585986376, -0.0196070038, 0.1355260611, -0.0019424880, -0.0127532622, -0.0351740383, 0.0100749712, -0.0027706120, 0.1715265512, -0.0743033960, -0.0641757026, -0.1025132164, -0.1454174668, 0.0669765845, -0.0448021181, -0.1110051200, -0.0589757934, 0.0072351974, 0.0411442704, -0.0929084197, 0.0978684500, 0.0733537525, 0.1147181466, 0.0041261888, 0.1271905452, 0.0166317597, 0.0688814819, 0.0550721362, -0.1290807575, -0.0314223059, 0.0687638819, -0.0727518797, -0.0263494030, 0.0462743044, 0.0398811065, -0.0900574923, -0.1561381072, 0.0302428193, -0.0360989943, 0.0724330768, 0.0888921171, 0.0788119733, -0.0346497558, -0.0202968996, -0.1196828187, 0.0074040187, 0.1132004336, 0.0414886102, 0.1990258247, 0.1074070781, -0.0316055827, -0.0066014836, 0.0489011891, 0.0499725081, -0.0868366435, 0.0160134789, -0.1107188016, 0.0657765269, -0.0796402469, -0.0184258912, 0.1279589981, -0.0868853703, 0.0290452242, -0.0017141706, -0.1623496562, -0.0180314779, 0.0277553275, -0.0170968939, 0.0257752091, 0.1015150845, 0.0280297957, -0.0324467756, -0.0218489189, -0.0529309176, 0.1165372059, 0.0720922425, 0.1884669811, 0.1406053305, 0.0367966630, -0.0936952457, -0.0345653221, -0.0874852538, 0.0101103000, 0.0463616736, -0.1125942618, 0.0451248959, -0.1080710664, -0.1037258431, 0.0365924761, -0.0113112610, 0.0619903877, 0.0360246412, -0.0541926175, -0.0987431183, -0.0110422503, -0.0512992442, -0.0936370865, 0.0530500226, -0.0587796941, -0.0142797939, 0.0734170750, -0.0476848744, -0.1154122651, -0.0674500540, -0.1733671874, -0.1221874058, 0.0542154722, -0.0585643873, 0.1457436532, -0.0407548547, 0.0319513790, 0.0388198383, 0.0684432611, 0.0101339370, -0.0070755146, 0.0353085510, -0.0497371480, 0.0114066973, -0.1474234760, 0.0377437733, -0.0052760732, 0.0237947088, -0.0146925813, 0.0929594338, 0.0318135694, 0.0089472923, -0.0196155142, -0.1032356247, 0.0138826119, -0.0092470767, -0.0615508892, -0.0264115632, -0.0879893750, -0.0292774457, -0.0798034519, -0.0182057731, 0.0562672094, -0.1190406457, -0.0180934519, -0.1011712626, 0.0297952406, 0.0128163779, 0.0040073390, 0.0994785428, 0.0040796618, -0.0765334740, -0.0414949581, -0.0007927725, -0.0784573704, 0.0603631288, -0.0558656044, -0.2228365093, -0.0690449923, -0.1638553739, 0.0747599825, -0.0852962285, 0.0848676935, 0.0971994922, -0.1198006794, 0.0050165234, -0.2692512870, -0.0657295138, -0.1042954996, -0.1242537498, -0.0707984194, -0.0360929519, 0.0381773748, 0.0010154186, 0.0891705379, 0.0527029149, 0.0894307420, -0.0642674267, -0.0518777408, -0.0760138631, -0.0078018564, 0.0968679488, -0.1515217274, 0.0266114138, -0.0021733949, -0.1900858581, -0.0500626415, 0.0156086292, 0.0227262303, -0.0429147705, -0.0048149936, -0.0048356364, -0.0495774597, 0.0884147212, -0.1651066840, -0.1085246801, -0.0107739586, -0.0814248919, -0.0497334823, 0.0982389078, -0.0430408418, -0.1008412316, 0.1099484637, -0.0561636351, -0.0039830701, 0.0137412725, 0.0182959270, 0.1138726324, 0.0120385680, -0.1090998948, -0.1298699379, 0.0232867450, 0.0421725698, -0.0223397892, -0.0140963290, 0.0703653842, 0.0547901243, -0.0175584052, 0.0267643854, 0.0756478310, 0.0804065987, -0.0587061048, 0.0168099888, 0.0413452722, -0.0063287499, 0.0295781344, -0.0318349861, 0.0959715247, 0.0431820378, 0.1059922650, 0.0044508395, -0.0187786799, -0.1505533010, 0.0739155710, 0.0237713661, 0.0703566894, 0.0000504898, 0.0357099287, -0.2290782332, 0.0507323146, 0.0858767405, -0.1450814307, 0.0943329558, -0.0989991650, -0.0628997833, 0.0458238125, 0.0572558083, 0.0009339196, -0.0238728337, -0.0338163488, -0.1402857900, 0.0541076250, -0.0513027795, -0.0460765958, -0.1412830949, 0.0131516010, -0.0059892349, -0.0812952071, 0.0913025290, 0.0057110405, -0.1942148209, -0.2065587044, -0.0409944467, 0.0577269346, 0.0103116492, -0.0406776257, -0.2125975192, 0.1142020598, 0.0046075783, -0.3208203912, 0.0315490626, -0.1128181443, -0.0628853813, 0.1017174423, -0.0595333204, -0.1017623693, 0.1418971270, -0.0402238443, -0.0014524208, 0.0826980472, -0.0879345089, 0.0426674262, -0.0558263436, 0.2912155390, 0.0523211099, -0.0240905583, 0.0094649857, 0.0117937308, 0.0149763934, -0.0924662501, -0.0011043190, 0.0474453978, 0.1679089814, 0.1011914685, -0.0586299486, 0.0828293264, -0.0691311285, 0.1250944436, 0.0332700498, -0.0659727454, -0.0789475963, 0.0619087070, -0.0445376262, -0.0707782432, 0.1366487443, -0.0534445420, -0.0548113696, -0.0749355182, 0.0606704168, 0.0638645664, 0.1261854619, 0.0633707494, 0.0290531367, -0.1085700765, 0.1250883043, 0.0078162747, 0.1177916527, -0.0324036963, -0.0983672440, -0.0287374835, -0.1235676333, -0.0790552050, 0.0377293676, 0.0074268789, 0.0854794309, -0.0026979134, 0.0461397395, 0.0475815423, 0.0001475302, -0.0984329134, 0.0468805246, -0.0551907793, -0.0474619605, -0.0600489043, -0.0398798883, 0.0848481134, -0.0875844210, -0.0442342907, -0.0000668308, 0.0982968211, 0.1091669649, 0.0275263414, 0.0671089590, 0.0173208416, -0.0932748318, 0.1098719165, 0.0358341485, -0.0136276046, 0.0622959323, 0.1132651344, -0.0273776092, -0.0704040527, -0.0219882764, -0.0230744164, 0.0468996577, 0.0460912362, 0.0830289572, -0.0815914273, 0.0463082530, -0.0001497262, 0.1015429422, -0.0369829386, 0.0220236536, -0.0721525028, 0.0206133146, -0.0533394217, 0.1211716533, 0.0952544883, -0.0049453308, -0.0343719423, -0.1167027429, 0.0042484519, 0.0043035126, -0.0484849028, 0.0340223238, -0.0351412185, 0.0392208993, -0.1063704714, 0.0135693392, 0.0341548361, 0.0176531635, -0.0923619196, -0.0303701106, -0.0899763331, -0.0008560990, 0.1803149432, -0.0758431852, 0.0113204736, 0.0529236458, -0.1000539064, 0.0686717033, 0.1018629745, -0.1885527223, 0.1333736628, 0.0068299733, 0.1599985361, -0.0214738008, -0.0687839314, 0.1208315417, 0.0129311299, -0.0111976024, -0.0089559676, -0.0031865332, -0.0257154722, 0.0565024763, -0.0741709620, -0.0291110668, -0.1620664150, 0.0275246855, -0.0511140935, -0.0205741934, 0.0269135348, -0.1041064262, 0.0763262063, -0.0959522426, 0.0715560466, -0.1566493362, -0.0047940016, 0.0314836875, -0.0283433702, -0.0261261184, 0.0372277983, -0.1070914045, -0.0259919465, -0.0682675913, 0.0725537986, -0.0481324717, 0.0183021370, -0.0472085290, 0.0008189119, 0.0111010484, -0.0412235036, -0.0794001892, -0.0123013472, 0.0685235336, -0.0467441678, -0.1005629748, 0.1441534907, 0.0255431589, -0.0196812227, 0.0102443108, 0.0162217561, 0.0702841580, -0.0379310697, -0.0675072894, -0.0063118599, 0.0502553955, 0.0954463705, -0.0760235563, 0.0232712310, 0.1111021340, 0.1095339581, 0.1135145798, -0.0486484095, 0.0221059881, 0.0109362453, -0.0482233167, -0.0057971990, -0.0812725499, 0.0761937872, -0.0846951157, -0.0080723828, -0.0204307344, -0.0831938386, -0.1208077967, -0.0271274094, 0.0676648244, 0.0567903817, 0.0912022069, -0.0006002810, 0.0376459099, -0.0320207775, 0.0405793451, -0.1299094558, -0.0707932189, 0.0479719192, 0.0762628689, -0.0447640717, 0.0422216021, 0.1171314791, -0.0859789923, 0.0446068421, -0.0200327989, 0.0387479477, -0.0555491298, -0.0346944742, 0.0586121120, -0.1162279919, 0.0460034199, -0.0136548886, 0.0153397266, -0.0606148429, -0.1134752482, -0.0384201072, -0.1186596975, 0.0226631761, -0.0337758325, -0.0624830723, -0.0348902903, -0.1324931234, 0.1161667556, -0.0125683267, 0.0442218594, 0.0606495589, -0.0010081939, -0.0034752907, -0.0426546931, 0.0799780563, 0.0459825769, 0.1038584858, -0.0207006652, 0.0442075171, -0.0197452232, 0.0793427229, 0.0731350854, -0.0006419449, -0.0230353307, 0.0896987170, 0.0585664921, -0.0235985406, -0.0188380610, -0.0835220218, 0.0103514194, 0.1011446193, 0.0148937609, -0.0265433714, -0.0144105889, 0.1313142478, -0.1865037382, 0.0105248159, 0.0518192872, -0.0899231657, -0.0140667679, 0.0353493392, 0.0173099358, 0.0598209314, -0.1001729593, 0.0247263350, 0.0166341644, 0.1095238999, 0.0657897219, -0.1064961031, 0.0008116346, 0.0249722097, 0.0735386759, -0.0579932518, -0.0933159590, -0.0585204177, -0.0331998914, -0.0953711122, -0.1382052898, 0.0699934363, 0.0379256532, -0.0070765670, 0.0016788084, 0.0583139025, -0.0730769932, -0.0854037032, 0.0279537383, -0.0054675117, -0.0206161365, 0.0493819788, -0.0082884170, -0.0842316151, -0.1056875437, -0.0133514479, -0.0278903823, 0.0245784223, -0.1238819212, -0.0321052969, -0.0630170107, 0.0483946092, 0.0176864881, 0.0807684511, -0.1051166430, -0.0313148163, 0.0777211860, -0.0295043737, -0.0814287439, -0.0897468179, 0.0855965763, 0.0194665864, 0.0708931312, 0.0761612728, 0.0689396337, 0.0299523827, 0.0492912047, 0.1436513662, 0.0664048642, 0.0108225495, 0.1646068543, -0.0840900391, -0.1070903242, 0.0354619659, -0.0557448454, 0.0554198809, 0.0503770970, 0.0767774433, 0.0858858675, 0.0723252520, -0.0374172516, -0.0274839811, -0.1658970416, -0.0204550661, -0.0520298369, -0.0059134392, -0.1506814063, -0.1214150786, -0.0505862385, 0.0662779659, 0.0221620910, -0.0754248127, -0.2273175567, 0.0436699614, -0.1086222827, 0.0007431039, -0.0428436324, 0.0211421475, -0.1057832316, -0.0912454277, -0.1283544898, 0.0050802287, -0.0556142330, 0.0292570982, -0.0673508719, -0.1424965709, -0.1133408397, 0.0284152348, 0.0086579407, 0.1128397509, -0.1260438114, -0.0876429752, -0.0433277711, -0.0018559343, -0.0642586797, 0.0848256797, -0.0315822922, -0.0203611013, -0.0506283045, -0.0287868120, -0.2018256485, -0.0517447516, -0.1116077602, -0.0517159067, -0.0716176927, -0.0073973844, -0.0360327959, -0.0209965501, -0.1283310801, -0.1162516847, 0.1208459362, -0.0262494273, -0.0681782812, -0.0916104466, -0.0726926848, 0.0115125543, -0.0741717815, -0.0641692579, -0.2136027068, -0.0181456022, 0.0476034768, 0.0693100840, -0.1055378988, -0.0734903738, 0.0427842326, 0.0180808082, -0.0085150842, -0.0596799776, 0.0076178093, 0.0578477941, 0.0721371174, 0.1338161677, 0.0567304268, 0.0072312988, 0.2481749207, 0.0562899150, 0.0273348987, -0.0582634769, 0.0436221734, -0.0034763415, 0.0563662574, -0.0635436475, 0.1096197665, 0.0037100066, 0.1001319289, 0.0616198964, -0.0049929717, 0.0914653167, 0.0946869105, 0.1416355968, -0.0886108875, 0.0237318911, 0.0616286173, 0.0498788171, -0.0654070824, -0.0181527287, -0.0000215701, -0.0298893079, 0.0452551953, 0.0354381129, -0.0530050583, 0.0421411879, -0.1248406544, 0.0535440519, -0.0497071408, -0.0998016074, 0.0108869011, -0.1257230043, -0.1164485291, 0.0058589657, 0.0144503443, 0.0338050574, -0.0749879554, 0.0278710127, 0.0239453446, 0.0971376896, -0.0050795125, -0.0658777058, -0.0240179040, -0.0990630835, -0.0738879964, -0.0200482886, 0.0972862393, 0.0400094166, -0.1573962420, 0.1277827173, -0.1548000872, 0.0779138654, -0.0341454484, -0.1148385108, -0.0110524027, 0.0309856534, -0.0244411957, 0.1267643273, 0.0074436017, -0.1268980205, -0.1290703416, -0.0139163230, -0.0557954796, 0.0130636562, 0.0469202809, -0.0672020167, -0.2883034348, 0.0783931017, -0.0169843175, 0.1740685701, 0.1231349558, -0.0518794023, -0.0820067823, 0.0291574877, -0.0096650273, -0.0918506980, 0.0535015315, -0.0858445987, -0.1123331040, 0.1928294897, -0.0397204086, -0.0548103303, 0.1547562033, 0.0669050962, -0.0724226013, -0.0164455622, 0.0237102229, 0.0743459985, -0.0578654744, -0.0234253425, 0.0209446289, -0.0544956774, 0.1404850334, 0.0429619476, 0.0098419357, -0.1147061586, -0.0665777326, 0.1388710141, 0.0268461332, 0.0478866585, 0.0248716064, -0.0033800744, 0.0311172586, 0.0018677691, -0.0709553361, 0.0370428637, 0.1085224524, 0.0151014142, -0.1067583561, 0.0281513054, -0.1019353345, -0.0223176777, -0.0239548367, -0.0477619097, -0.0148111265, 0.0374306701, 0.0911082253, -0.1310120076, -0.0191074051, -0.1808620244, -0.0178519785, -0.0169106126, -0.0252314936, -0.0078225452, -0.0216235053, 0.0337411873, 0.0331322029, 0.0534923263, 0.1164375246, 0.0113732154, -0.0274029560, -0.1574697942, 0.0618633293, 0.0921124667, 0.0564300083, 0.0007125374, 0.0567154586, -0.0325084552, 0.0841423869, -0.0628213584, 0.0515766703, -0.0618157387, 0.0322064273, 0.0621077009, -0.0143136857, 0.0086894017, -0.0618429482, 0.0739066005, 0.0238720402, 0.0448922925, 0.0721539110, 0.0730192065, -0.0284473617, 0.1064951420, -0.1795884520, -0.0166843552, -0.0885416865, -0.1031054258, 0.0086304890, -0.1188554615, -0.0538139679, -0.0103312219, -0.0852573588, -0.0442734100, 0.0639783740, -0.1201362312, -0.0253769103, -0.0583288819, -0.0144301066, -0.0694173276, 0.0332301445, -0.1208422184, 0.0035051927, -0.1442542225, 0.0604901053, 0.0346191004, 0.0835901946, -0.0046430351, -0.0105444817, -0.0648222715, 0.0172330514, -0.0323246866, 0.0525259078, 0.0753212720, 0.0756060705, 0.0165975466, 0.0686075911, 0.0633867905, -0.0000467172, -0.0030297982, 0.0234601796, 0.0113781495, 0.0271843374, 0.0901036486, -0.0276393909, 0.1325445175, 0.0385871418, 0.0669706389, -0.0339479446, 0.1179531291, -0.0954802707, -0.0130081726, 0.0751535594, -0.0426223055, -0.0361865722, 0.0077298181, 0.0881935358, 0.0147646368, -0.0296906997, 0.0433447324, -0.1402127147, -0.0029746699, 0.0451804474, 0.0474824309, -0.0898556560, 0.0056176977, -0.0211584009, -0.1348010749, 0.0065042521, 0.0712929517, 0.0417797230, -0.0053154789, 0.1064513996, 0.0466878861, 0.2172175795, -0.0453747436, 0.0228808485, 0.1035882160, -0.0414861217, -0.0309520699, 0.0099204602, -0.1953296214, 0.0180151295, -0.0171775613, 0.0084037324, 0.0073247589, -0.1379349828, -0.1219905093, 0.0496621728, -0.0127908299, 0.0780966207, -0.0835654289, 0.0778391063, 0.0061824271, -0.0606494583, -0.1081700027, 0.1568889767, -0.0204595476, 0.0573582612, 0.0892057419, -0.1125152931, -0.0293985419, 0.0697078109, -0.0231991671, -0.0784603506, 0.0952969342, 0.1433605254, -0.0951539949, -0.1500272453, 0.0116173010, -0.1435222626, 0.0242731534, 0.1094576418, -0.1070617288, 0.0276456885, 0.0847581252, -0.0957232192, -0.0474927053, 0.0103553664, 0.0189333837, 0.1252260059, -0.1277686059, 0.0548619367, 0.0061229654, 0.0605475157, -0.2144051194, 0.0441617146, -0.1071590185, -0.0431032255, -0.1080737710, -0.0745049566, 0.1441958994, 0.0478285216, 0.1599580199, -0.0563987158, -0.0892168805, 0.0300659686, -0.0529244281, -0.0015405843, -0.0255320240, -0.0305378493, 0.0062178276, 0.0611820631, 0.0023086336, -0.0607564487, 0.0846702307, -0.1164594814, -0.0533348955, 0.0118856598, 0.0524905920, -0.0709007531, -0.1199358702, -0.1068719849, 0.1614167988, -0.0370558836, 0.0114925178, 0.0123344306, 0.1548478603, 0.0335661173, 0.1298149973, 0.0442701392, 0.2169150412, -0.0995213985, 0.1024126187, 0.1175785735, -0.1581721157, 0.0918155834, -0.0238644052, -0.0255510807, 0.0181787256, 0.0848881230, -0.0545691401, -0.0199718997, -0.0594863035, -0.0114604775, -0.0187051408, 0.0561707802, 0.0378869735, -0.1815093905, 0.0016464456, 0.1252948642, 0.0761606693, 0.0159120318, 0.0765137598, -0.0309825763, 0.0347679183, 0.0386626460, 0.1090300530, -0.1310839504, -0.0784339309, 0.0845788196, 0.0732773840, 0.0581294149, -0.0419568084, 0.0505697578, -0.1618552804, 0.1186176762, -0.0584185384, 0.0032875969, 0.1390314698, -0.0492334291, -0.0298804995, 0.0196505487, -0.0112457918, -0.0123987319, -0.0383955203, 0.0397502743, -0.0686020926, 0.0225577522, 0.1195360422, 0.1437426805, 0.0490355417, -0.0371509306, 0.0847529918, -0.0520269386, 0.0446156561, -0.0398811400, -0.0581785254, -0.1231976077, 0.0743926316, 0.0382342003, 0.0280041229, 0.0251215212, 0.0025958004, 0.0060493075, 0.0738177970, -0.0567569993, 0.0539715253, 0.0080973366, -0.0139950868, 0.0074174213, -0.0592860468, -0.0437241308, -0.0511887781, -0.0315117538, -0.0181080587, -0.0267454572, 0.0637144223, 0.0166909639, -0.0751333907, -0.0244797114, 0.0732482225, 0.1330040991, 0.1578463316, -0.0337802246, 0.0178413447, -0.0104863569, 0.1142838970, -0.0091616940, -0.0681814477, 0.1181114912, 0.0498974808, -0.0004599618, -0.0761737525, -0.0271806102, -0.0093839504, -0.0305586327, -0.0903977975, -0.0442263074, 0.0545192137, -0.1153106540, -0.0565578677, 0.0349723622, -0.0784511343, -0.0236623716, -0.0946029276, 0.0293502137, 0.0157260019, 0.0660163909, 0.0142347151, 0.0950071067, -0.0886777937, 0.0541297346, -0.0260814447, 0.0074580712, 0.0613490455, -0.0701882541, -0.0535049923, -0.1144149080, 0.0475549623, 0.1510680914, -0.0886562541, 0.0640234724, 0.0781538039, 0.0750268921, -0.0482944660, -0.0397754312, -0.1145590916, -0.0065356693, -0.1220814437, 0.1866204143, 0.0018858905, -0.0193719510, -0.0079351664, 0.1634715199, -0.1983763129, 0.0411363654, -0.0439908430, -0.1400667131, -0.0341362841, -0.0115022287, 0.0705953091, 0.0074502425, -0.1138884202, -0.0336397141, -0.0370728523, 0.0991236120, -0.0272295512, -0.0219338611, 0.0128523549, -0.0539345667, 0.1731777936, 0.0006323664, 0.0680385232, 0.0946220532, -0.0948045328, 0.1496569663, 0.0390978791, 0.1856724918, -0.0442561843, 0.0009151644, 0.0617473274, -0.0679186359, 0.0041825082, -0.0364927761, 0.1433054209, -0.0992653668, -0.0380720086, -0.0218637828, -0.1203661412, -0.0043408941, 0.1189492047, -0.1382977515, -0.0871711746, 0.1277212948, -0.0387128852, 0.0667216256, -0.0213609654, -0.0232028421, -0.1384779066, -0.1245898753, -0.0544252396, -0.0510298871, -0.0656669140, 0.1117378101, 0.0151794553, 0.1234064847, -0.1239985898, -0.0122906948, -0.1133989245, -0.0287105441, 0.0507352203, -0.0311702397, -0.0039801402, -0.0367308669, 0.0041734050, -0.0847025886, 0.0397706516, 0.1873215288, 0.0947687402, 0.0640790537, 0.0604881160, -0.0219825711, -0.0075658169, -0.0762295946, -0.0261225495, 0.0481912158, -0.0156996232, -0.0084109930, 0.0331599452, -0.0516669787, -0.0382379927, -0.0733041838, -0.0430903286, 0.0750529990, 0.0269222148, -0.0150291976, -0.0337008312, 0.0599795207, 0.0637677982, -0.0548114404, 0.0124541838, -0.0794169083, 0.0237420015, 0.0743713081, 0.0004563317, -0.0595887862, -0.0556978509, 0.0220311359, -0.0870190263, -0.0071650762, -0.0900526866, -0.0712389573, 0.0003172656, 0.0254376587, -0.0995568410, -0.0418279655, -0.0379046202, -0.0143775074, -0.0091472063, 0.0492574200, 0.1093173549, -0.0012862051, 0.1291127205, 0.0808559060, 0.0541658513, -0.0620666146, -0.0124963839, 0.1381280571, 0.1135310307, 0.0650493577, -0.1330243200, 0.0599046201, 0.0547896624, 0.0111605059, 0.1591988206, -0.1512620300, 0.0202366598, 0.0754321143, -0.0153283626, -0.0802343041, -0.0921973214, 0.0704452246, -0.0795527846, 0.0444226004, -0.0059069940, 0.0748650953, -0.0023803951, 0.0454066880, -0.0961096659, 0.1082354784, -0.1376655400, 0.0245691650, 0.0835275799, 0.0561393611, -0.0544539094, -0.0362531468, -0.0081415568, 0.1518527567, 0.0031692961, 0.0234748647, -0.0454075150, 0.1044227034, 0.0088942219, 0.0025641671, 0.0470071957, -0.0967610553, -0.0556579754, -0.0025663464, -0.0739618242, -0.0750932470, -0.0781070441, 0.0381569415, 0.0638606921, -0.1227104440, 0.1050977409, 0.0379558541, 0.0518923141, 0.0125022586, -0.1346716136, -0.0073862700, -0.0141149489, 0.0450201258, 0.1303293407, 0.0479861386, 0.1138862967, 0.0085338345, 0.0498450696, -0.0128095709, 0.0685415268, 0.1343736202, 0.0760073140, 0.0278679542, -0.0815872252, -0.0426632911, -0.0531134680, 0.0850311890, -0.0321968533, -0.0537977107, -0.0341054238, -0.0419430919, -0.0883332938, -0.0815292969, 0.0016547609, 0.0048995991, -0.0510250069, 0.0003156881, 0.0495927259, 0.0471637100, -0.0428329818, -0.0199337304, 0.0274188742, -0.0561387874, -0.0548002198, -0.0738753974, 0.0682741776, 0.0403200574, -0.0495304726, -0.0702751279, -0.0608627349, -0.0154656023, -0.0384392813, 0.0202053245, -0.0110192345, 0.0257874634, 0.1166440994, 0.1335966736, -0.0973530188, -0.0158451889, -0.0258471407, 0.0354325548, -0.0092840046, -0.0945283845, -0.0013495514, -0.0006380200, -0.0018244381, 0.0697971061, 0.0658767447, -0.0556905530, 0.0590016544, -0.0418504328, -0.0556060448, -0.0246781297, 0.0517438538, 0.0319529809, -0.0430978797, -0.0446164310, -0.0832496881, 0.1200732440, -0.0173438918, -0.0863562897, 0.0607554466, 0.0594286956, 0.1082939506, -0.0067289933, 0.0529833399, -0.0752245188, 0.0510028303, -0.0376278497, 0.0001325046, 0.0362733491, 0.1047520041, 0.0237841755, -0.0756404623, -0.0698358566, -0.0294870827, -0.0537763946, -0.0588163286, 0.0008269484, 0.0600124076, 0.0071288152, 0.0628543943, 0.0440500788, -0.0200799759, -0.0278061479, 0.1190355346, -0.0512456559, -0.0943708196, 0.0798844919, 0.0629293919, 0.0365374349, 0.0187247060, 0.0979045033, -0.0189575274, -0.0543293953, -0.1258795559, 0.0550106689, -0.0120905461, 0.0670794919, 0.1696505845, 0.0587591715, -0.0217091162, 0.0002480604, 0.0384121500, 0.0758794919, -0.0691711307, -0.0376195945, -0.0038752547, 0.0043549971, -0.0484458655, -0.0412416272, 0.1537357122, -0.0967075825, -0.1088142395, -0.1213781983, 0.0578822531, 0.0101735573, -0.0444964059, 0.0957831144, -0.1187338382, 0.0996762216, 0.0878461599, 0.0018227091, -0.0365830064, 0.0108681349, -0.0343950056, 0.0874207616, -0.0408973433, 0.0529924855, 0.0757377222, 0.0689275861, 0.1200493276, 0.0234705601, 0.0375874378, 0.1081184745, -0.0726277083, 0.0323215537, 0.0227526948, -0.0582923815, -0.0789042935, 0.0332672223, 0.0107808607, 0.0517617352, 0.0508800186, 0.0610210560, 0.0315412916, -0.0351334214, 0.0422852449, -0.0209407154, 0.0298148207, 0.0220431425, -0.1142445579, -0.1408676207, 0.0796047971, -0.0687533394, -0.0388262086, 0.1141306758, 0.0421174988, 0.0511119030, 0.0116804782, 0.0171995759, -0.1138061658, 0.0645603985, -0.0536564738, -0.1284713298, -0.0422484204, -0.0922470987, -0.0215697829, -0.0671055764, -0.0306022335, 0.0548192635, 0.0219235662, 0.0378597751, -0.0959174633, -0.0125052342, -0.0652146563, -0.1315193623, -0.1125418469, -0.1076219752, -0.0216701049, 0.0267157108, -0.1233773977, -0.0257761739, 0.0282464977, -0.0936730802, -0.0022962429, -0.0554311611, -0.1096585691, 0.0543253385, -0.0809386075, 0.1164793074, 0.0209978838, 0.1643279940, -0.0155693777, -0.1069240570, -0.0565414578, 0.1587180346, 0.0245455336, -0.0817046463, 0.1044074818, 0.0808209702, -0.2182336599, 0.0697254837, -0.1442034841, -0.0211854372, -0.0490353405, 0.0632306635, 0.0815308169, 0.0318190008, 0.1179613397, -0.0348427817, 0.0150534110, -0.0477091409, 0.0949621946, 0.0294793732, -0.0777994320, 0.0673817173, -0.0454339422, -0.0381470285, -0.0101630874, -0.0550167970, -0.0404265001, 0.0885230526, -0.0106295086, -0.1109063774, -0.1912983358, -0.0555521213, 0.0247994699, 0.0131068164, -0.0661803707, 0.0567206964, -0.1058368832, 0.0419097021, 0.0361836851, -0.0269840006, -0.0390944891, 0.0158889927, 0.1091043726, -0.0431665592, 0.0455124974, -0.0431602597, -0.0179435126, 0.0080069248, -0.1842484474, 0.0856784955, -0.2461044937, 0.0583534427, -0.0955601484, -0.0163276140, 0.0323388241, 0.0276381820, 0.1039565951, -0.0722486898, 0.0304694790, -0.0573563501, -0.0311925169, 0.0828354806, -0.0972697064, 0.0681785196, 0.1538590789, -0.0150590669, -0.1548410058, 0.0240327977, -0.1906900257, -0.0302872639, -0.0096724285, -0.0560622662, 0.0848507583, -0.0701765269, 0.0707767084, -0.0906475484, -0.2074249089, 0.0158458482, -0.1726944596, -0.0085644899, -0.2227470130, -0.0160054024, -0.0346304663, 0.0706624761, 0.0147485081, 0.0662872344, -0.1014784276, 0.0877038613, 0.0331623815, 0.0451553799, 0.1283972561, 0.1439248919, 0.0264007002, -0.0030064429, 0.0692230389, -0.0431550108, 0.0438522808, 0.1281618327, 0.1729944348, -0.0092415167, -0.0458386801, -0.0588262826, -0.0822740123, -0.0805461332, -0.0731858835, -0.1139653325, -0.1566878706, 0.1272005439, -0.1433527619, 0.1235294417, -0.0731476024, 0.0272048749, 0.0083473409, 0.1030626819, 0.0240619481, -0.0626327172, 0.0202571657, -0.3248992562, 0.1058403179, 0.0098446542, 0.1102861613, -0.0475565754, 0.0395423770, 0.0257999226, 0.0196211468, -0.0242892206, -0.0513572842, 0.0023021770, -0.0761093721, 0.1036204398, -0.0717488825, 0.0256717280, 0.1179163009, -0.0605091378, -0.0571274646, 0.0583316684, -0.1160109416, -0.1583434939, -0.1022805944, 0.0296818931, -0.0683669671, 0.0038630436, 0.0678861663, 0.0459734909, -0.0039317510, 0.0049151802, 0.0227374621, -0.1340042651, 0.0335155725, -0.0226528328, 0.0985101238, -0.0044967616, 0.0281211846, -0.0035833991, 0.1672375798, 0.0633900315, -0.1327581704, -0.1357652694, 0.0527993999, 0.0760870054, 0.0440162756, -0.1444352269, -0.0498253144, 0.1785724312, -0.0234038588, 0.0157874841, -0.0859992430, -0.0534650907, 0.0130493399, 0.1631873846, 0.1052635834, -0.0683581233, -0.0545617305, 0.0348629430, 0.0623569451, -0.0560068600, 0.0358454622, -0.0325761363, 0.0815065280, 0.0340425335, -0.0104563106, 0.0200160835, -0.0679307729, -0.0711088702, -0.0107973479, 0.1793744415, 0.1102917418, 0.2239154279, 0.0766387582, -0.0029908670, -0.0079619121, 0.1131294221, -0.0845364109, -0.0243863743, -0.0864421651, -0.1037875190, -0.0327857397, 0.0159179587, 0.0454903953, 0.1206324846, -0.0022119475, 0.1384416372, -0.0248582717, -0.1627827585, -0.0252671205, -0.1264929771, 0.0148972766, 0.1261322200, 0.0885342956, -0.0312256739, 0.0737422407, -0.1214181483, -0.0652860776, -0.0071612820, -0.0306645092, 0.1334702075, 0.0635800213, -0.0938544944, -0.1370385885, -0.0075425995, -0.1979584694, -0.0602206588, 0.0411201641, 0.0692848042, 0.0433591828, 0.0300483368, -0.0274452474, -0.0654047579, -0.0467715450, -0.0402661934, 0.0609752312, -0.0352934450, -0.0956007466, 0.0254811496, -0.0086097568, -0.0758369565, 0.0560607910, -0.0364289619, -0.0020293016, 0.0306475721, -0.0002807369, 0.2078803182, -0.0774731860, 0.0013293546, 0.1205238253, 0.0925991461, -0.1246319562, 0.1348089874, -0.0949091688, 0.0070762788, 0.0693271831, -0.1030822322, 0.0708617121, -0.0729237646, 0.0755307451, 0.0444349907, -0.0160241798, -0.0681544542, 0.0626444891, -0.1059198752, 0.0385399014, -0.0749946162, -0.1728542000, 0.0039319410, -0.0853062570, 0.0152473282, -0.0624346212, 0.0218475517, -0.0408668071, 0.0250675045, 0.0163427610, -0.2091122419, -0.0482575968, 0.0462969691, 0.0666555837, -0.1117404997, -0.0362180807, 0.0039778324, 0.0775893852, 0.0369847827, -0.0375454351, 0.0003954667, -0.0142454002, -0.0149451615, -0.0319695137, -0.1648017764, 0.0237616934, -0.0880983546, 0.0322047956, -0.0158515684, -0.1388062984, -0.0509458110, 0.0147215463, -0.0109607661, 0.0540354103, -0.0368363187, 0.0544624180, -0.0799806640, -0.0963380858, 0.0483607873, -0.0248504635, -0.0900831297, 0.0820813254, -0.0727831721, -0.0478638522, -0.0176157188, -0.0045589744, -0.0700870082, -0.0400643907, -0.0695967376, 0.0117773544, -0.0015488195, 0.0768426359, 0.1063510180, -0.0387778580, 0.0583004467, 0.1102122515, 0.0830283314, -0.0195607208, 0.0007060257, 0.0041752853, 0.0224896614, 0.1315756142, 0.0724796504, -0.0355678275, -0.0006516118, 0.0104043968, -0.1197396070, 0.1291723996, 0.0087706521, 0.0570456088, 0.0762384608, 0.0189820863, 0.0775497481, -0.0546616316, 0.0319482684, 0.0138086621, 0.0944717973, 0.0790835619, 0.0882207975, 0.0378303975, -0.0957947820, -0.0089882975, 0.1536935717, -0.0184821598, -0.1179263517, 0.0179854762, 0.0244358517, -0.0169764105, 0.0159121864, 0.0016025836, 0.0258589834, -0.0554208048, 0.0212806650, 0.0846708640, 0.0489290990, -0.0713155270, -0.0515373275, -0.0172357261, 0.1238726526, 0.0999652222, -0.0577339381, -0.0964605212, 0.0423888117, -0.0094398027, -0.0633332953, -0.0094168261, -0.1304494441, -0.1361728758, 0.1147939861, -0.0142477062, 0.0561409928, 0.0017610654, 0.1485815495, -0.0095693851, -0.0372578204, 0.1351087093, -0.0369412377, -0.0630448312, -0.0288513899, 0.1365338415, -0.0059935846, -0.1007117406, -0.0115111740, -0.0827682167, -0.0701581389, -0.0039266841, -0.1063106805, -0.0188123640, -0.0903206691, 0.1006806567, -0.0044126981, -0.0570465028, 0.0278191529, -0.0102388933, 0.0768342540, -0.0928289667, -0.0196781456, 0.0083787171, 0.0308542047, -0.0790254250, -0.0501192361, -0.0429158472, -0.1122971922, 0.0302199647, 0.0469489545, 0.0303072874, 0.0764253289, 0.0694349483, -0.0904238373, -0.0819083154, 0.0905179083, 0.0374857001, 0.0567707121, 0.0724992156, 0.0529165156, 0.0217511710, 0.0168239269, 0.0285405573, 0.0063226619, -0.0770443454, -0.1662538499, 0.0469509140, 0.0316991657, -0.1232224628, 0.0923473835, 0.1011404321, 0.0868433788, 0.0653254464, -0.0394251198, -0.2345747352, -0.0704747736, 0.0694482252, -0.0542080030, -0.0435305238, -0.0813372955, 0.0147047695, -0.1198910922, -0.0277243722, 0.0436325446, 0.0497600064, -0.0677762628, 0.0651918799, -0.0296668261, 0.0095609147, 0.0507330298, 0.0897060558, 0.0514961332, 0.0477526821, 0.0238323156, -0.0735412389, -0.0099437749, -0.0676498339, -0.0142797651, 0.0099877594, 0.0552675501, 0.0496556535, 0.0126145221, 0.0992906168, 0.0204478949, -0.0815980136, 0.0774497315, -0.0159103554, 0.0025366135, -0.0231348965, -0.0561668798, 0.0240940880, -0.0699228197, -0.0346807279, 0.0871825740, -0.0021293263, -0.0214222930, -0.0774525702, -0.0598674007, 0.0015270509, 0.0031197781, 0.1040495038, 0.0201718286, -0.0916919336, 0.0170742646, 0.0669416934, -0.0461576581, -0.0605596416, 0.0493011624, -0.0277861506, -0.0045147357, 0.0224762093, 0.0452369228, -0.1049113795, 0.0458927117, -0.0779296234, -0.0072695119, -0.0700641647, 0.0040319422, -0.0576655306, -0.0125648845, -0.0525559895, 0.0948934853, 0.0423935689, 0.0212974567, -0.0411311798, -0.0508308560, 0.0603045300, 0.0326293781, -0.0081646470, -0.0587972291, 0.0693490803, -0.1351985931, -0.1063445583, -0.0341335833, -0.0355287381, -0.0070730159, -0.0203228258, 0.0101502622, 0.1459299028, -0.0906100795, -0.0099436771, -0.0690214485, 0.0873537809, -0.0204706956, 0.0000160378, -0.1555114836, -0.0317481346, 0.0635791719, 0.1350514144, -0.0013703783, -0.0430308245, 0.0083088735, 0.0833247229, 0.0018230138, 0.0873681530, -0.0072933263, 0.0192632955, 0.1017892435, -0.0201461967, -0.1209744215, -0.0077751596, 0.0760718584, 0.0719491318, 0.2113338411, -0.0999659076, 0.0562241413, 0.0466247573, -0.0308128055, 0.0304545406, -0.0714827850, -0.0448081568, -0.0147755230, 0.0251873769, -0.1261011958, 0.1021366119, 0.0440303795, 0.0667464212, 0.0255831461, -0.0403916985, -0.0739228725, 0.0389743894, -0.0989391282, -0.0265257806, 0.0751285702, -0.0146083357, 0.0562466793, -0.0689940602, -0.0150072388, -0.0881809369, 0.0138456468, 0.0627628043, 0.1372874528, -0.0047839629, 0.1191033274, 0.0511446446, 0.0343837291, -0.0340691283, 0.0971699134, -0.0776511431, 0.1195034981, 0.0188095067, -0.1801674217, -0.0650688931, -0.0597539321, -0.0334242396, 0.0583110861, 0.0396514907, -0.0426931344, 0.0231779441, -0.0344639830, -0.0664851442, 0.0142001659, -0.0124506149, -0.0912603885, 0.1205508634, 0.0319571309, -0.0533200838, -0.1084318012, -0.0190334786, -0.0727345049, 0.0259909146, 0.1077214256, 0.0604841411, -0.0504807085, 0.0013528231, -0.0147359511, 0.0254552439, 0.0154299494, -0.0041570091, 0.0614826344, -0.0644726902, 0.0675285906, 0.0826265514, -0.0141526014, 0.0746957362, 0.0816510096, -0.0222356487, 0.0185323767, 0.0403227769, -0.1091835126, -0.1114064604, 0.0764760971, 0.0818153620, -0.0240164846, -0.0022058350, -0.0014782344, -0.0272660479, -0.0919184759, 0.0618180260, 0.0103154434, 0.0607811399, 0.1268847734, 0.0071668723, -0.0049362527, 0.0398083590, -0.1031497195, -0.1235365793, -0.0305317603, -0.0697786808, 0.0676223710, 0.0251796450, -0.0261297859, -0.0143544693, -0.1072855443, 0.0646047667, 0.0293080453, 0.0521906838, -0.0799489021, 0.0515004806, -0.1104101315, 0.0380504876, 0.0086553805, 0.0649655014, 0.1345521808, 0.0264995992, -0.0249408036, -0.0396948196, 0.0723747835, 0.1147231534, 0.0244461112, -0.0578390099, -0.0534510538, 0.0051627429, -0.0478295572, -0.0079401117, -0.1126983911, 0.0162545461, 0.0430368893, -0.1012575403, 0.0041148667, 0.0176670849, 0.0053064050, -0.0342123397, 0.0158247259, 0.1201300025, 0.1284886301, 0.0049290489, -0.1465706080, 0.0589452609, -0.0096864011, 0.0309112202, -0.1242269725, 0.0357149951, 0.0163082145, -0.0753135681, 0.0182782207, 0.0002600456, 0.0975213498, 0.0116150780, -0.1327421516, 0.0232932251, -0.1058226675, 0.0241696313, 0.1889153421, -0.0090913009, 0.0544738583, -0.0038804947, -0.0247142557, 0.0143147549, 0.0379819274, -0.0345066302, 0.0823595449, -0.0417370945, -0.0695108175, -0.0381406136, -0.0108175976, 0.0947160050, -0.1224405989, 0.0332926512, 0.1070402637, 0.0020223993, -0.1626438051, 0.0694124922, -0.0444222838, -0.0289845821, -0.0157297216, -0.0989426225, 0.1378436089, 0.0137858810, -0.0729346722, 0.1233553663, -0.0425776802, 0.0092554297, -0.1320112646, 0.0622069351, 0.0062144147, 0.0993862301, 0.0528625846, -0.0754442438, 0.0805511698, 0.0969756693, -0.0283640102, -0.0543407723, -0.0696609318, -0.1218200400, -0.0681181177, 0.0776233226, -0.0344187543, 0.0127683682, -0.0028323270, 0.0608896874, -0.0331050158, 0.1035778821, 0.0587126650, 0.0333116651, 0.0505705066, 0.0453284755, 0.0135244504, 0.0062196082, -0.1073716879, 0.1182684302, -0.0468125455, -0.0575082488, -0.0216260348, 0.0843451023, -0.0241430476, -0.0094119171, -0.0081279632, -0.0760415569, 0.0283797532, 0.0116020916, -0.0248118974, 0.0220787618, -0.0568207614, -0.0149730956, -0.0675021186, 0.0387659408, -0.1154852659, 0.0403377227, -0.0559940711, 0.0148997298, -0.0585913062, 0.0223438889, 0.1054538935, 0.0904826224, 0.1258926541, 0.1242545992, 0.0905518383, -0.0931260958, 0.0059412145, 0.0243600868, 0.0973441973, 0.1056263670, 0.0952941030, 0.0132885594, -0.0722628161, 0.0236041825, 0.0230774470, 0.0652314126, -0.0442131385, 0.0348774642, 0.0748463720, -0.0149730295, 0.0798699558, 0.0466898307, -0.1612600833, 0.1026110202, 0.0383102223, 0.1438113600, -0.0265868977, 0.0710008293, -0.0499962866, 0.0127934301, -0.0382826626, 0.0271655992, 0.0240910277, 0.0248719435, 0.0205990318, 0.0319590084, -0.0365213305, 0.0494058542, -0.0643423349, -0.0389607064, 0.1051276773, 0.0670127049, 0.0230576564, 0.0562103577, 0.1878161132, -0.0311476439, -0.0852096453, 0.0694977269, -0.0563496687, -0.0254837293, -0.0901567936, -0.0195084978, 0.0193711556, 0.0767828599, 0.0689122975, -0.0770779252, -0.0084379297, -0.1758833528, -0.0885821804, -0.0260636825, -0.1241876334, -0.0088512711, -0.0031406928, 0.0798875988, 0.0499304198, 0.0007922351, -0.0270214919, 0.0160874687, 0.0779894069, 0.0083471946, 0.1124629378, 0.1197680160, -0.0609165132, 0.0598461553, 0.0775089934, -0.1059746146, 0.0919940770, 0.0894498229, 0.0727163926, -0.0287025794, 0.1140296236, -0.2163506746, -0.0455815122, 0.0245797709, 0.0594220571, 0.1006982923, 0.0160786528, -0.0000075992, -0.0405632406, -0.0268583801, -0.0657013357, 0.0196257923, -0.0130676171, 0.0347415991, -0.0340863876, -0.1260567605, 0.0927541628, 0.0058710924, -0.0635085404, 0.0363492779, 0.0975786299, -0.1669774801, -0.0024902616, 0.0220865477, -0.1355300397, -0.0112575563, -0.1001822278, -0.0318462737, 0.0646915883, 0.0819630027, 0.0989179537, -0.0612722822, 0.0451461151, -0.0434045121, -0.0839976743, 0.0796749964, 0.0803723782, -0.1044316664, 0.0325721465, 0.0287969783, -0.0955763757, -0.0146239009, 0.0680483580, 0.0319089852, 0.0288512520, 0.0040097721, -0.0430568308, 0.0908032581, 0.0266171265, 0.0113420365, 0.0178792868, -0.0549592935, 0.0849783495, 0.0327596031, -0.0566214435, -0.0374324061, -0.0383312739, 0.0010761187, 0.0428353287, 0.1134718433, 0.0459641851, -0.0834127665, 0.1059281901, 0.0192611255, 0.0857947767, -0.0536071397, 0.0874004290, -0.1110817119, 0.0604570284, -0.0084198713, -0.0006791853, -0.0355690569, 0.0456228703, -0.0405846387, 0.0548271500, -0.1096970662, 0.0929307118, 0.0054909680, 0.0217062552, 0.1513940394, -0.1485502720, 0.0854760036, 0.1565661281, -0.0105499811, 0.0530530252, 0.1012501493, -0.0983394012, 0.0260638781, -0.0668173656, 0.1306826025, -0.0962606221, -0.0044808146, 0.0577209592, 0.0141897090, 0.0110310279, 0.1686283499, -0.0598379225, 0.1092844009, 0.0621949062, 0.0585807711, 0.0907439962, 0.0000296703, 0.0698971450, -0.0227247532, -0.0365159214, -0.0378366932, 0.0748063549, 0.0572286211, 0.0006816317, -0.0765473396, -0.0191680063, 0.0994892195, -0.0980594978, -0.0801922828, 0.0429337583, -0.0346873142, 0.1056884602, 0.0557796657, -0.0397379547, 0.0283483081, 0.0351967067, -0.0106266681, 0.0386933349, -0.0778347775, 0.0198109541, -0.0255525857, -0.0075292382, -0.0149360979, -0.0926625207, 0.0075367796, 0.0215984322, 0.0300120357, -0.0745250881, -0.0061087869, -0.0269173868, -0.0019556340, 0.0197002236, 0.0290539488, 0.0046670721, 0.0355345681, 0.0764976963, 0.1478284597, 0.0219477080, 0.0246100705, -0.0306362081, -0.0163605250, -0.0042039766, -0.0514960401, -0.0546263903, -0.0464991033, 0.1453487128, 0.1196409911, 0.0566138625, 0.0133624002, 0.1574356407, -0.0114473691, -0.1038015187, -0.0775797814, 0.0406707861, 0.0993444100, -0.0198793225, 0.0553632304, -0.0014285046, 0.0759151131, -0.0357157290, 0.0765200257, 0.0580416583, 0.0961736739, -0.0405357629, 0.0168747641, -0.0471583083, -0.0528204143, -0.0744692087, 0.0739607438, 0.0746839270, -0.0464381129, -0.0066297506, -0.0002226511, -0.0962407067, 0.0584132560, 0.0857876316, 0.0071645509, -0.0069207000, 0.0276301783, -0.0671451911, -0.0062018153, -0.1075871512, 0.0115595935, 0.1125517413, 0.1043421850, -0.0222917739, 0.0017575102, -0.1721786261, -0.0398420803, -0.0218548141, 0.0573353358, -0.0568958260, 0.1114045158, -0.0424306765, -0.1011346802, -0.0903158337, -0.1144982874, -0.0259447396, 0.0662781596, -0.0852204785, 0.0276051722, 0.0513295494, -0.1351348013, 0.0552937090, 0.0152439661, -0.0583070889, 0.1694553494, -0.0353730395, -0.0214938167, -0.0861898288, -0.0351191685, -0.1417125762, -0.0045791985, 0.1045867577, -0.0612314120, 0.0347206742, -0.0036156883, -0.0579861887, 0.0258075278, -0.0455610827, 0.0492513292, -0.0444198363, 0.0002314833, -0.0326905213, 0.0798534080, -0.0101972437, -0.0510818250, 0.0378860570, 0.0190479383, 0.0260690730, -0.0769205913, -0.0867514610, -0.1421618164, 0.0055411044, -0.0392271727, 0.0386185646, 0.1438558251, 0.0187821202, 0.0610370114, -0.1114040092, 0.0841777921, 0.1023880169, -0.0130783767, 0.0388062187, -0.0669738129, 0.0476766080, 0.0397241637, -0.1485532969, 0.0687314197, -0.0310339741, -0.0735725164, 0.0265680570, -0.0948714316, 0.0123004131, 0.1414346993, -0.3507225811, -0.0374164544, -0.0249103382, -0.0600385293, -0.0257879682, -0.0980040953, -0.1055993587, 0.0151234083, 0.0330882743, -0.0221117772, 0.0365689099, 0.1244230196, -0.1129411161, -0.1241159514, -0.0884685665, -0.0367517285, -0.0731093362, 0.1252321601, -0.0222680233, -0.0008952317, -0.0657221526, 0.0870817602, 0.0363812596, 0.0375507697, -0.0479455292, 0.0070974329, 0.0716180205, 0.0249992479, 0.0760449842, 0.0116693191, -0.0885424912, 0.0132073918, 0.0241636429, 0.0640545934, 0.0215289500, 0.0832675174, 0.0248358827, -0.0064112702, -0.0171756241, -0.0475210808, 0.1335178167, -0.0942406803, -0.0182855427, -0.0246387068, -0.1211512685, 0.0024623305, -0.0517719164, -0.0157171302, -0.0295033585, -0.1331210136, -0.0353659354, 0.1363950521, -0.0055535678, -0.0634063557, -0.0460983887, -0.0577141903, 0.0863528922, -0.1161196008, -0.0289739948, 0.0066364319, -0.0072907228, 0.0373109318, 0.1031043679, 0.0157943480, -0.1526228487, -0.0151592763, 0.1292668134, 0.0418195650, 0.0727380738, -0.0306927729, 0.0157923568, 0.0215316266, 0.0124812070, -0.0351352952, 0.0028556881, 0.1026434675, -0.0221997853, -0.1317277700, -0.1142092943, -0.0102409506, 0.0222382993, 0.0473037511, -0.0432364829, -0.0257875156, 0.0360233895, -0.0061683632, -0.0237390734, -0.1052309945, 0.0577877052, 0.0253379941, 0.0177078489, 0.0068582739, -0.1164214313, 0.0178482421, 0.0757476389, 0.1069613621, -0.0061265044, -0.1587689370, -0.0254413225, 0.0331425816, 0.1286329031, 0.0627255365, -0.0677620918, -0.0870949551, -0.0059056222, 0.0316759124, 0.0744289309, -0.0862065032, -0.1325469464, 0.0655607358, 0.0266296696, -0.0228307862, 0.0735299662, 0.1009277478, -0.0426967032, 0.1644908488, -0.0387857743, 0.0212909859, 0.0513751768, 0.1202110946, 0.0683081970, -0.0598144718, -0.0709935501, 0.0558462739, -0.0852044597, 0.0172642786, 0.0086840289, 0.0063353479, 0.0958622023, 0.1082118005, 0.0387961231, -0.0984812528, -0.0066770688, 0.0154654281, -0.0352070779, 0.0734860152, -0.0919511914, 0.0290742125, -0.0141608119, -0.0121177491, 0.1812549084, 0.0028586385, 0.1424786747, 0.1213812381, 0.0113765234, -0.0990377292, 0.0386521667, 0.0515637882, -0.0217196848, 0.0481376164, -0.0618479662, 0.1234707162, 0.0101595381, 0.1058149710, -0.0651052520, 0.0422524139, 0.0913935751, -0.0540312603, -0.0627975613, 0.0299280286, -0.1359157115, -0.0757922158, 0.0183900408, -0.0013159148, -0.0105219232, -0.0009680239, 0.0856930465, 0.0044402108, 0.0676453933, 0.0306533352, 0.0366934240, 0.0389411375, 0.0170519557, 0.1052955762, 0.0259121321, 0.0265600979, 0.0581811257, 0.0370553583, -0.0109947920, -0.0030455750, 0.0440877080, 0.0503238179, 0.0155430743, 0.0072773350, -0.0071217483, -0.0577985011, -0.0887227431, -0.0025433223, 0.0282877069, -0.0224021133, 0.0114496117, -0.1645964682, -0.0243870728, 0.0444056578, -0.1196553782, 0.0212664474, -0.0062032035, -0.0035572250, -0.0708854198, -0.0073128329, -0.0285798479, 0.0117973741, 0.0117017431, -0.0167322643, -0.0422295555, -0.1079631597, -0.0588272735, -0.0329459012, 0.0575368330, -0.0221060198, 0.0751322582, 0.0963597372, -0.1948518455, 0.0472736880, 0.0857940391, 0.0085325157, -0.0093306303, -0.1011146978, -0.0075514214, -0.1207236201, -0.0486067496, -0.1592237800, -0.0169068836, 0.0808110833, 0.0889810473, 0.0552228950, -0.0396700837, 0.0700241923, -0.1009167880, -0.1582083553, 0.0539346188, -0.0199210495, 0.0323729068, 0.0945962593, -0.0149565935, -0.0042716246, 0.0368472077, 0.0015537716, 0.0359717309, -0.1414677799, -0.2090756595, 0.0803608000, -0.1057390124, 0.1042458713, -0.0792803019, -0.2465104461, 0.0525532402, -0.1383661181, 0.0110525461, 0.0366402678, -0.1214206666, -0.0110364081, -0.0149182538, -0.0586680248, -0.0263107736, 0.0796215162, -0.1314529032, -0.1387849450, -0.0325284563, 0.1177166849, -0.0145652490, -0.0110513745, -0.0206148550, 0.0031806049, 0.0858636498, -0.0249982793, -0.0812164694, 0.0548047535, -0.0956728607, -0.0294232406, 0.2033427209, -0.0469527170, -0.1409953684, -0.0116399070, 0.0370507352, 0.0373200886, -0.0048899376, -0.0499080569, 0.0145630483, 0.0614544861, -0.0431671999, -0.0540560521, 0.1229610518, 0.0960905403, 0.0143080875, 0.0814794227, 0.1360974163, 0.0812313259, 0.0079854401, -0.0146666951, -0.0583986118, 0.0774484947, -0.0417103618, 0.1425939202, -0.0783155411, -0.1453492641, 0.0549071059, 0.0986092538, 0.0210736915, 0.0771366209, -0.0233570691, 0.2033895105, 0.0857033953, -0.0782533437, 0.0106360167, 0.0114217661, 0.0075858859, 0.0371648185, 0.0817632973, 0.0374521166, -0.0500572249, -0.0523305796, 0.1255734414, -0.1533842832, 0.0926949382, 0.1105973870, -0.0138113815, 0.0869216770, 0.0213802364, 0.0397441387, 0.1003515348, 0.0729895905, -0.0398031250, -0.0541158840, -0.0750144124, 0.0092879599, -0.0269947387, 0.0233634561, 0.0770918876, 0.3499959409, 0.0508661866, -0.0866328180, -0.1059191301, -0.0398027003, -0.0102795092, 0.0684200823, 0.0557571910, 0.0557519533, 0.1120032519, -0.0109753832, -0.0915931240, 0.3174811006, 0.1663389802, 0.1250248849, -0.0198029019, 0.0898840874, -0.0809223950, -0.0169005208, -0.0544228144, 0.1152785048, -0.0295346994, 0.0074520134, -0.0724438727, -0.0137810400, -0.0491793044, 0.0932480395, -0.0905014351, 0.3100763857, -0.0461219922, 0.0602672733, 0.0711229146, 0.1077029556, 0.1055168360, -0.0500616729, -0.0080782278, 0.1151834428, -0.0263308138, -0.0572438836, -0.0406290703, 0.0462910011, -0.0319639891, 0.0287064221, -0.0415182523, -0.0500343814, -0.0914478153, -0.0160495602, 0.0333235189, -0.0517764986, -0.1143854037, 0.0047857026, 0.0676008388, 0.0173032656, -0.0514784493, 0.0320250951, 0.0870083421, -0.0576326661, 0.0059215622, 0.0201370995, 0.1111687720, 0.1054057702, -0.0405331962, 0.0771667510, -0.0819260255, 0.0660562143, -0.1558027118, 0.0790985599, -0.0115002263, -0.0964356884, -0.0184779484, -0.0816539228, -0.1130119488, -0.0900542140, -0.0823028907, 0.0592577755, -0.0620219037, 0.1189658418, 0.0769549981, -0.0555889159, -0.0585799143, 0.0054907738, -0.1284921318, -0.0078627309, 0.0232244749, -0.0470489338, 0.0238484126, -0.0488549769, 0.0307467580, -0.1360768080, 0.0248647165, 0.0585386269, -0.0267666224, 0.0342545509, -0.0167006329, -0.0713659227, -0.0670544356, 0.0731366500, 0.0113495896, 0.0323447622, -0.0329467840, 0.0179100391, 0.1042148620, -0.0492886305, -0.0584629811, 0.0013338077, -0.0126889516, -0.0517949983, -0.0702592283, -0.0047773705, 0.0524329469, -0.0091591366, 0.0068916804, -0.1020321101, -0.1049548015, -0.0691401586, 0.0408949330, 0.0143599845, -0.0313429944, 0.0070479088, 0.0251979418, -0.0811357722, -0.0917286798, 0.0643125772, 0.0688266605, 0.0214590095, -0.0270906333, 0.0727948844, 0.0330950320, 0.0744879767, 0.0009888462, -0.1026006415, -0.0105725108, 0.0231431928, 0.0097828610, -0.0435435362, 0.0538932309, -0.0746605843, 0.0900300890, 0.0053826566, -0.0106631955, -0.1792216003, 0.0841221064, 0.0124529982, 0.0226818155, -0.0622268766, 0.0168965608, 0.0675085038, -0.0200137943, 0.0738735944, 0.0240705460, 0.0036216911, 0.0282414407, -0.0893382430, -0.0469625741, -0.0675924569, -0.0546251573, -0.0796077922, 0.0507921465, 0.2117730379, -0.0055136760, 0.0252567455, -0.0729080737, -0.0350737832, -0.0522112213, 0.0156432893, 0.0675374717, -0.2225924730, 0.1069122553, 0.0455890186, 0.0158358682, 0.0170083512, 0.0931766629, -0.1300923973, -0.0435930602, -0.0221914724, -0.0357694961, 0.1560958624, -0.0466648228, -0.0683723167, -0.0577416904, -0.1320106685, 0.0350050740, -0.2091622949, 0.1405020058, -0.1420641541, -0.0967196822, -0.0263688769, 0.0473532230, -0.0044457489, -0.0599284656, -0.0292249173, -0.0411893204, -0.0275558997, 0.1487719417, 0.1662673801, -0.0206499137, 0.0414947942, 0.0359297879, 0.0998880640, -0.1320898533, 0.0072093438, -0.0050415602, 0.0163863171, -0.0747181177, -0.0614360720, 0.0272078421, -0.0306779221, 0.0277114697, 0.0227483008, 0.0062252963, 0.1420278549, 0.0967712551, -0.0459657051, 0.0276014190, 0.1492697597, 0.0945202485, -0.0263354704, 0.1588455290, -0.1181434467, 0.0623943694, 0.0008032356, 0.0217085648, 0.1212126017, -0.0665196404, 0.1079441458, 0.1207739189, 0.0662759915, 0.0195664372, 0.1137279794, -0.0009255423, -0.0144687239, 0.0323492251, 0.0232883580, 0.1572370380, 0.0156527385, -0.0108390329, 0.0858564377, -0.0150053371, 0.2411747724, -0.0107260915, 0.0117570143, -0.0398449451, 0.2005632818, -0.0299887639, 0.0995814130, -0.0599488951, -0.0312979855, 0.0577050745, 0.1195431873, 0.0443595909, 0.0189827718, 0.1147388667, 0.1642516255, 0.0596020035, 0.0325034894, 0.0578252636, 0.0123732639, 0.0284648333, -0.0845947862, 0.0174254943, -0.0275928713, -0.0021998265, 0.0934735537, 0.1018817872, -0.0419108942, 0.0387256779, 0.1066680923, 0.0800200105, -0.0255248975, 0.0401082002, 0.1729628593, 0.0995789543, 0.1028163880, 0.1096020043, -0.0576204546, -0.0483602919, 0.1792042851, 0.0964890420, 0.0497692451, -0.0705224201, 0.0668718442, 0.1738035679, 0.0118918475, 0.1662958860, -0.0422720350, 0.0774825886, -0.1837649345, -0.0362045728, 0.0165862851, -0.0963140205, 0.0245201681, -0.0623498596, -0.0227542948, -0.0803659335, -0.0052115121, 0.0152276428, 0.1055526137, -0.0007200733, 0.0780909881, -0.0814182535, -0.0455202311, 0.0442016087, -0.0211854707, -0.0285962746, 0.0400322974, -0.0439206399, 0.1159136519, -0.0023065356, 0.0430485308, 0.0212153699, 0.0476862118, -0.0232478715, 0.1126048490, 0.0879315138, 0.0467758067, -0.0021874774, 0.1783756465, 0.0224618167, 0.1412277371, 0.0260170996, -0.0065507167, 0.0500648655, 0.0984662250, -0.0027005721, 0.0413264446, 0.0533032045, 0.1542854160, -0.0068638986, 0.1756582856, 0.0448279083, 0.0444908366, 0.0002344774, 0.0785154998, 0.0490648076, -0.0773031190, -0.1286500245, -0.0956748277, 0.1001368687, 0.0612208806, -0.0327857696, -0.0042137983, -0.1408318728, -0.0688881129, -0.0184003618, -0.0567282438, -0.0500186905, 0.0605007224, -0.0319048241, -0.0485518612, 0.0954705477, -0.1072214767, 0.0371300094, 0.1220238432, -0.0238835961, 0.1127214432, 0.0068850056, 0.0199125744, 0.0895476192, 0.0088915667, -0.0338374227, 0.0192653500, -0.0611269437, 0.0482613854, -0.0930787250, -0.0655788705, 0.0794616416, -0.0222980604, 0.0498111919, -0.0386954769, 0.0858937204, 0.0840786994, -0.0044492395, -0.0922744274, -0.0278268307, -0.0950320810, -0.0544644222, -0.0668944865, 0.0298338961, 0.0044110077, 0.0159182120, -0.0277116653, -0.0457387231, -0.0065047075, 0.0680979192, -0.1086384952, -0.0140171247, -0.0648676157, -0.0324154459, 0.0014095898, 0.1149315163, -0.0052654613, 0.0160115976, 0.0355692580, -0.0013584381, 0.0087578716, 0.0797674209, 0.0425450876, -0.0459490158, 0.0014843113, 0.0309374109, 0.0534654632, -0.0135351829, 0.0212341081, -0.1361963749, -0.0707937106, 0.0144238910, -0.0299122743, -0.0231920201, 0.0026461328, 0.0564584471, -0.0544628575, -0.0430995747, 0.0226243995, 0.0970739052, -0.0762774572, -0.0493680090, -0.0111049777, -0.0287403762, 0.0727352798, 0.0624859370, 0.1940373331, -0.0342348069, -0.0469981320, 0.0834346786, 0.0528661758, -0.0147561422, -0.0003714757, 0.0045130621, -0.0314501114, 0.0058792084, -0.0571123473, -0.0101132225, 0.0282695740, 0.0982820615, 0.0086414274, -0.0053674174, 0.0016857688, -0.0630702004, -0.0460804477, 0.0167428479, 0.0020856198, 0.0071357237, -0.0124452151, -0.0498932004, 0.0408040546, 0.0566776432, 0.0416716971, -0.0941667631, -0.0156878587, -0.0003261459, -0.0185136776, -0.0366944484, 0.0417463407, 0.0542585924, 0.1125765443, 0.0444665179, 0.0557168722, 0.1170340627, -0.0496730693, 0.0674744621, 0.0343071744, 0.0413682014, 0.1090281531, 0.0965967253, -0.1044678167, -0.0293948352, 0.0817577466, 0.0791704357, 0.0063435375, -0.0300617684, -0.0986150876, -0.0190385673, -0.1151110008, 0.0991207212, -0.0182047002, -0.1048001200, 0.0690655708, 0.0227173250, 0.0650478154, 0.0489562266, -0.0300244913, -0.0143492473, 0.0375066698, 0.0309260841, 0.0423865914, -0.0636634305, -0.0242014341, -0.1178815961, 0.1089259386, 0.0139963049, 0.1083172709, 0.0034522172, -0.0878664181, -0.0119967572, -0.0554751419, -0.0692683533, 0.0321377963, -0.0921654329, 0.0401681289, -0.0084383013, 0.0413196459, 0.0600776747, 0.0246437341, -0.0648962632, 0.1374523491, 0.0485899039, -0.0224902183, 0.0254854821, 0.1339754760, -0.0337214731, -0.0615981258, -0.0028769514, -0.0284034535, 0.0997951627, 0.1118943840, -0.1134555042, 0.0505657084, 0.0006420715, -0.1131925136, -0.0537204705, -0.0329547599, 0.0752886161, 0.1359155029, -0.0236602519, -0.0229781643, -0.0003521721, 0.1115782782, -0.0661946088, 0.0458776020, -0.0043959492, -0.0735030770, 0.0828562677, -0.0257897656, -0.0288769640, 0.0363334939, -0.0878004134, 0.0094720516, 0.0072353305, 0.0676044896, 0.0714341849, 0.1200824529, 0.0306544341, 0.0462452881, -0.0798103884, -0.0443784855, -0.0387581736, -0.0608954132, -0.0794899687, -0.0498151034, 0.0815303326, 0.0663284659, -0.0305925533, 0.0455904119, 0.0229545385, -0.0265320037, -0.0360911451, -0.0618461967, -0.0316175185, -0.0501346737, -0.0042195665, 0.1084664166, 0.0655967146, -0.0221325308, 0.0634785146, 0.0551889688, -0.0195868276, -0.1209838539, 0.0236329008, 0.1395268887, -0.1381240487, 0.1345165521, -0.1761228293, -0.0165385362, -0.0414073505, 0.0427809656, 0.0875290483, 0.0415719971, 0.0262317713, -0.0452981964, 0.1366673410, 0.1098435819, 0.0209956393, 0.0268576704, -0.0472154096, 0.0338023752, -0.0550424345, -0.0517315827, 0.0547478162, 0.0437472835, 0.1254150122, 0.0011373231, 0.0056800060, 0.0676359534, 0.0263543651, 0.0209772810, 0.0810606480, -0.0348040685, -0.0277352706, 0.0129249329, -0.0416317880, -0.0565511435, 0.0953258574, -0.0243010651, -0.0059719221, -0.0468638726, -0.0276836548, 0.0338396132, 0.1029008254, 0.0099754408, -0.0288874675, -0.0150912898, -0.0006847486, 0.0498185903, -0.0123273125, -0.0743114427, 0.0103373304, -0.0672128424, 0.0764435008, -0.0600766130, -0.0903661326, 0.0629079938, 0.0495811366, -0.0607503466, 0.0227357149, -0.0157979503, 0.0211357400, 0.0937051624, 0.1053176075, -0.0552786849, 0.1598510444, 0.1097826213, 0.0487679131, -0.0005807865, 0.0066716047, -0.0241124146, -0.0794857666, 0.0182330534, -0.0588345230, 0.0273157656, -0.0600236170, -0.0428872667, -0.0864365324, 0.0340340659, 0.0318724290, -0.0173450299, -0.0712450892, 0.0386241600, -0.0647140071, -0.0471043848, 0.0873998851, -0.1581632644, 0.0472497232, 0.1593869627, -0.0358253755, 0.0651220381, -0.0856112242, 0.0436615497, -0.1227352694, 0.2216189951, -0.0075688558, 0.0421807431, 0.0071514943, 0.0667311102, 0.0791628137, 0.1367834359, 0.0344128385, -0.0367308818, 0.0095966971, 0.0081927124, -0.0228904355, 0.0681608766, -0.0399918146, 0.1247243434, -0.1393523961, 0.0439963490, -0.1774938405, 0.2528823018, -0.0776962191, -0.1434920728, -0.0761752948, 0.0178642776, -0.0170419496, -0.0480698347, 0.0543121770, -0.1462900639, 0.0081153642, 0.1357662678, 0.1112399995, 0.1446284503, 0.0735272169, -0.1163368523, 0.0078249294, -0.0065842243, -0.0395397209, 0.0136988340, -0.0208606496, -0.0053158668, -0.0067414129, -0.0343092494, -0.1202410012, -0.0428651795, -0.1389746219, -0.0261194129, -0.0340105146, -0.0706072003, 0.0829078928, 0.0940334052, 0.0981691927, 0.0653594583, 0.0212112125, -0.0275746994, -0.0526648276, -0.0825531930, -0.0769534484, 0.0803310573, -0.0252789836, 0.0581257343, -0.1108769551, 0.0600239784, 0.0302532539, 0.0181074291, 0.0327603854, 0.0131778000, 0.0315609947, -0.0586971305, -0.0053355130, 0.0109609235, -0.0346760042, 0.0850770622, 0.1831165403, 0.0018912818, -0.1261262596, -0.0177616775, 0.1261859834, -0.0890217647, -0.0124227684, 0.1289412528, 0.0184062682, 0.0014941059, 0.1145590246, -0.0034411666, -0.0985355824, -0.0707482249, -0.0362666324, -0.0411625914, -0.0308665968, 0.0126832603, -0.0626971126, -0.0689047948, 0.0290266573, 0.0943129212, -0.1449189931, -0.0947287157, 0.0411306322, 0.0255910791, 0.0414054915, -0.0260225199, -0.3120402992, 0.0318922587, 0.0063014212, -0.0261402074, -0.1208795011, 0.2269539237, 0.1555690765, 0.0186723582, 0.0129757077, 0.1333587468, 0.0935633555, 0.1135794520, -0.0021488711, 0.1114217639, 0.0303829107, -0.0261115376, 0.0534813702, 0.0042486438, -0.0432727113, -0.0210857578, -0.0420485921, 0.0151068829, 0.0627673045, -0.0580988042, -0.0307951253, 0.0135550983, -0.0090162391, -0.1246041656, -0.0220259037, -0.0015576036, -0.0118191950, -0.0786248222, 0.0941182151, 0.1072330028, 0.0514377989, 0.0592076033, -0.0487426631, 0.1329645962, -0.0350936465, -0.0844786167, -0.0323258005, 0.0717840791, 0.0273793526, -0.0475650728, -0.0057418915, -0.0173501428, -0.0215999801, -0.1235673726, 0.0652212128, -0.0088161649, 0.0393056646, -0.0978237987, 0.0036861564, 0.0008056976, -0.0228234176, -0.0459452569, 0.1250787824, -0.0516785011, -0.0784896016, 0.0205023270, 0.0932488143, -0.0424055792, -0.0202636980, 0.2483819425, 0.0275125261, 0.0177157950, -0.0056684925, -0.1447284818, 0.0514631160, 0.0642061159, 0.0498802923, -0.0724193379, 0.0663174093, -0.1011096239, -0.0578871742, -0.0233742893, -0.1196402162, 0.0925311521, 0.0121839000, 0.0450569727, 0.0263537653, 0.0194530580, -0.0051774224, -0.0897690207, -0.0179601125, -0.0507707149, 0.0635582432, 0.0313495137, 0.0512953363, -0.1052909344, -0.0209619720, 0.1275556982, -0.2609999776, -0.0356369801, 0.1097906008, -0.0797171444, -0.0100466264, 0.0960407034, -0.0065441937, -0.0162438117, 0.1032636464, -0.1084911078, 0.1116461530, 0.0092957839, -0.0596032254, -0.0690363050, -0.0037556970, -0.2488465160, 0.0744156167, -0.0856183842, 0.0791053399, -0.0546859242, 0.0342876166, -0.1061653420, -0.0756421685, 0.0016208374, -0.0012123612, 0.0425748564, 0.0699345693, -0.1317223459, 0.0993009210, 0.0231157392, 0.0337156951, 0.0374769084, 0.0186713953, 0.0343298689, -0.0210361611, -0.0402122997, -0.0607621521, 0.0189391952, -0.0512193404, 0.0038269043, -0.0670062080, 0.1093468145, -0.0312576480, 0.1170154661, 0.0186934639, 0.1018150598, -0.0846556500, 0.1043502092, 0.1177206710, -0.0875113830, 0.0797856599, -0.1680874527, 0.0653777122, 0.0575849675, -0.0345380008, -0.0492466986, -0.0556949973, -0.0644293278, -0.0939053148, 0.0634820908, -0.0150211714, 0.0802985206, -0.0637303367, -0.1123915687, -0.0281690545, 0.1110858768, -0.0380693264, -0.0987047851, -0.0103021897, 0.0662219226, 0.0735577121, 0.0403173082, 0.0329683200, -0.1055622548, 0.0549093485, -0.0433280244, -0.0807938054, 0.0472836308, -0.0628533959, -0.0098306108, 0.0256016031, -0.0610190108, -0.0248508435, 0.1265293956, -0.0552024767, 0.1431375742, 0.0111839920, -0.0469057709, -0.0906672850, 0.1441220641, 0.0832239985, 0.1546509266, -0.0321734361, -0.2529649436, 0.0678028464, 0.0165654626, 0.1128979474, 0.0986988917, 0.0510827079, -0.0766010284, -0.0755354241, 0.0680359900, -0.0857940763, 0.0013770029, 0.1310615242, -0.1060658246, 0.0411000699, -0.0978747085, -0.0645768940, -0.2026685476, 0.1083286479, 0.0523523651, 0.0390233397, 0.0192208942, 0.0807613209, 0.0262157265, 0.0059926989, 0.1828853190, 0.0333800167, -0.1060409173, 0.0185814947, 0.1040172055, -0.0323153548, 0.0959224328, -0.0524098277, -0.0006410501, -0.0905174613, 0.0922606364, -0.0448665209, -0.0438625179, 0.0055531948, -0.0337753743, 0.1201905459, -0.0315748267, -0.0168707483, -0.0499427542, 0.0878579468, 0.0455468111, 0.0920631886, -0.0007578885, -0.0696214586, -0.0440854505, -0.0445063822, -0.1221536472, 0.0328313857, 0.0764543563, 0.0713795722, -0.0223386213, -0.1353783160, -0.0435455628, -0.0461403057, -0.0639503375, -0.0345255658, 0.1856068522, -0.1335799247, -0.1664214134, -0.0988631621, -0.2272277325, 0.0360562913, 0.1100549325, 0.0600457005, 0.0294370390, -0.0124820983, -0.0659531578, 0.0789708123, -0.0734736994, 0.0874630138, 0.0932988748, -0.1221960708, -0.0144251678, -0.0781218857, 0.0579130761, 0.0303693973, 0.1361349225, -0.0170337670, -0.0770930648, -0.0727696940, -0.1063658968, 0.0393501520, 0.0055140257, 0.0945059657, 0.1369316429, -0.0746242777, -0.1204115301, -0.0002101106, 0.0114130732, 0.0173528213, -0.0570452549, 0.1458287835, 0.0750054047, -0.0134253260, 0.1308094263, -0.0787967891, 0.1180764958, -0.0800253674, -0.0221456587, 0.0592938140, 0.0775378570, -0.0643721372, 0.1015721336, 0.1123705730, 0.0221889131, -0.0094633326, 0.0532189794, 0.0097173890, -0.2073058039, 0.0930874124, -0.0031319866, -0.0082935859, -0.0148644270, 0.1085888445, 0.0368979722, -0.0169150326, 0.0726868287, 0.0643061250, -0.0170102641, -0.1089151129, 0.0137822535, 0.0381194912, -0.0829880312, 0.0258716308, 0.0381301157, 0.0668405294, 0.0101836063, 0.1435070038, -0.0151679134, -0.0079636034, -0.1576971710, 0.0515546799, -0.0704790205, 0.0295366459, -0.0488182455, -0.0908090249, -0.0537072420, 0.0770770311, -0.0008195400, -0.0012401218, 0.0814507902, -0.0170357674, -0.0712599456, -0.0320442468, -0.0992798880, -0.0163459331, -0.0073653380, 0.1223030016, 0.0202528220, -0.0738969669, 0.0013565794, 0.0918553174, -0.0618543513, 0.0513332710, 0.0968582779, -0.0633304641, 0.0268713906, 0.0675717890, 0.1117690355, -0.1034810022, 0.0265278332, -0.1199952438, -0.0347054899, -0.0453220345, -0.0658708587, -0.0423749276, -0.1272700578, 0.1356412917, -0.0055432329, -0.0028940835, -0.0740754008, -0.0957337767, 0.0209257696, -0.0475293398, 0.0686056241, -0.0286119115, -0.0143259615, 0.0935143605, 0.1086136252, 0.1163876355, -0.1332060844, 0.0936150625, 0.0942507014, -0.0422004201, -0.0060051368, -0.0200609565, 0.0848082453, 0.0111017460, -0.0703060627, -0.0502047166, 0.1155557409, -0.0794120952, -0.0712762475, -0.0439009629, -0.0039788210, 0.1199887916, -0.0105373301, 0.0714743584, 0.0143660959, -0.0323107690, 0.0559071600, -0.0064914501, -0.0922772512, 0.1007163897, -0.0052184607, 0.0258917212, 0.0445576496, 0.0228684451, 0.1099615917, 0.0177299064, 0.1365996301, 0.0012618612, -0.0319229439, 0.0821242109, -0.1139716133, -0.1463184655, -0.0101747103, -0.0521831736, -0.0875727311, -0.0191833843, 0.0447155572, 0.1131160036, -0.0172814764, 0.0596553907, -0.0158328321, -0.0824546516, 0.0284944754, -0.0384921022, 0.1075171009, -0.0474541001, 0.0454276018, 0.0244749691, -0.0702313706, 0.0210728757, -0.0217336155, 0.1255128533, -0.0569799691, 0.0906361863, 0.0687549710, -0.0894412175, -0.0910058916, 0.0385683700, 0.0121209975, -0.0486978590, -0.0599843264, -0.0164946243, 0.0803068802, 0.0173907969, -0.0217771847, -0.0807101652, -0.1229460388, 0.0434965566, -0.1082652658, 0.0265157204, -0.0535828322, -0.0805407017, 0.1177627817, 0.0179610755, -0.0638463795, -0.0202518553, -0.0043161032, -0.0475726463, -0.0463197380, -0.0341459587, 0.0381798781, -0.0188458767, 0.0655794814, 0.0444365963, -0.0813729912, -0.0070833745, 0.0310421307, -0.0272368938, 0.0611439571, 0.0120259775, 0.0776438937, -0.0408915244, -0.0134413494, -0.0365793668, 0.0538999513, 0.0894944519, 0.0270525776, -0.0303807557, 0.0211171992, -0.0658833161, -0.0817885324, 0.0221463870, -0.0832473859, -0.0122240307, 0.0107623022, -0.0681851730, 0.0567805693, -0.0900969580, 0.0320466347, 0.0944483951, -0.0336784236, 0.0885554925, 0.0159282554, -0.0406786241, 0.0375797041, 0.0529885553, -0.0378538668, 0.0162841864, 0.0062314356, 0.1047220603, -0.0399964713, -0.0140015231, 0.0101733515, -0.0949067995, -0.0212218184, 0.0483534448, 0.0632000938, -0.0046264455, -0.0259642266, 0.0119020389, -0.1397884637, 0.1122855023, -0.0042189034, 0.0016203026, -0.1522590369, -0.0846243501, 0.0226207580, 0.0115711270, -0.0606288761, 0.0147990072, -0.0357450135, 0.0087130526, -0.0687382072, 0.0296613518, 0.0010102094, 0.0442598648, -0.0282286927, 0.1042454392, -0.0513011850, 0.0658796430, 0.0017954541, -0.0444357581, 0.0418309160, 0.0051708529, -0.0636245087, 0.0572962537, -0.0303701665, 0.0709996670, -0.0445755683, -0.0302288700, 0.0374944396, 0.0495611504, -0.0364911519, -0.0984870344, -0.0050056917, 0.0704874322, -0.0859217644, -0.1016864777, 0.0841265544, 0.0210581049, -0.0224641543, 0.0906809345, -0.0260292310, -0.0632883310, 0.1176064238, 0.0570519231, 0.0473026782, -0.0281076320, 0.0138339698, 0.0015323309, 0.0033028694, -0.0156729054, -0.0113227610, -0.0021790615, -0.1196928248, 0.0344281048, -0.0842980891, -0.0281512663, 0.0975027904, -0.0091106361, -0.0266320128, -0.0410282463, 0.0999239758, -0.0119360499, -0.0006456288, 0.0149102351, -0.1245892569, 0.0328759775, -0.0260027200, -0.0080495132, 0.0451163426, 0.0503996462, 0.0977800637, -0.0582824424, 0.0107135568, 0.0007278002, 0.0008484909, 0.0209991802, -0.0772246271, -0.0683994964, -0.0951649100, 0.0249807276, -0.0311835650, 0.0128769884, -0.0446433760, -0.0150534678, -0.0434239395, 0.0391552448, -0.0715348199, -0.0999754220, -0.1162509620, 0.0455351099, -0.0578827113, 0.0861673355, -0.0006089006, 0.0115880221, -0.0195018835, -0.0360123627, 0.0136972060, 0.0837603956, -0.0334196240, -0.0222894475, 0.0321101584, 0.0817346871, 0.0005279047, -0.1113680229, 0.1048446149, 0.0905346125, -0.1165800914, -0.0792440549, 0.0184315294, 0.0652537271, -0.1577637643, 0.0631195754, -0.0532656386, -0.0500496812, -0.0832918882, -0.0789477900, -0.0345733315, -0.0433969460, -0.0453827009, 0.0241256971, 0.1121859998, 0.0671128780, 0.0160703640, -0.0590313338, 0.0924568921, -0.0555170663, 0.0230668951, 0.0076508317, 0.0162590295, 0.0569721647, 0.0896029919, 0.1188975945, 0.0794715211, 0.0273557976, 0.0890959203, 0.0905187353, 0.1135134846, -0.0208056364, -0.0361164026, 0.0964991301, 0.0658682734, -0.0539549477, -0.0497654341, 0.0023059784, 0.0072129243, 0.0071640322, 0.0074759624, 0.1664898992, 0.0054524229, -0.2734686732, 0.0562407672, -0.0291446429, -0.0476382412, -0.0912844986, 0.0524224527, -0.0469483435, 0.1143913865, -0.1102320701, -0.0485235602, -0.0493401513, 0.0269636270, 0.1447246224, 0.0171821546, 0.1156872287, 0.0257613137, 0.0059878905, -0.0499516800, 0.0771438181, -0.0190590080, 0.0885257348, -0.0666327700, 0.0350416787, -0.0023852384, 0.0799692050, 0.0439110771, -0.0056379810, -0.0689716861, 0.1158462316, -0.0055832351, 0.0753373280, 0.0434632152, 0.0460038930, 0.0058735460, -0.0767350867, 0.0387259610, 0.1113416702, 0.0530005470, -0.0979438499, 0.0832574740, -0.0378652178, -0.0113621475, 0.1091735214, -0.0252233930, -0.0291099548, 0.1307591796, -0.0832350180, -0.0513838790, 0.0704051778, -0.0910263732, 0.0577575155, -0.0071800072, 0.0117402431, -0.1240682378, -0.0987484902, -0.0049320767, -0.2262063473, -0.0090781832, -0.0826085135, 0.0893412903, 0.1104630753, -0.0224017557, -0.0708629638, 0.0244432744, 0.0211539343, -0.1229765564, 0.0312907398, 0.0289680269, -0.1062589660, -0.0830117986, 0.1971435696, 0.0337055549, -0.0488860346, -0.0176953413, 0.0103087202, -0.0796941966, 0.0340467058, -0.0205478854, -0.0071547427, -0.0965899602, 0.0043072649, 0.0369300656, -0.0581461713, -0.0105620436, -0.0917691439, 0.0405638777, -0.0599860474, 0.0377969146, 0.0564055629, 0.0300767906, 0.0653644130, 0.0344045646, -0.1287719607, -0.1119855493, 0.0077250609, 0.1002513841, 0.0572896674, 0.0131542888, -0.0673001632, 0.0259899106, 0.0619684793, 0.0039925454, -0.0583226085, -0.0993186310, -0.0076513062, -0.0740405321, 0.0009007419, -0.0399014875, -0.1290622801, -0.1041573584, 0.1099043265, 0.1002202928, -0.1661867797, 0.0185463037, 0.0988654494, 0.1638731807, 0.0052626859, 0.0198010728, 0.0377656110, 0.0995571017, -0.1324983984, -0.0660149530, -0.1106660441, -0.0356990956, 0.1342794597, -0.0440951921, -0.1226555109, 0.0892824978, 0.0824275091, -0.0991618261, -0.0256953835, -0.0354340598, -0.0047608046, -0.1022221968, -0.0473628715, 0.0569111742, 0.0568438061, -0.0756221935, -0.0826234967, 0.0611295886, -0.0354253463, 0.0850363746, -0.0944215655, -0.0146530308, -0.0780327171, 0.0069119809, -0.0343278646, 0.1287447214, -0.0253386125, -0.0369137265, -0.0588947050, -0.0569217727, -0.0326832645, -0.0056903870, 0.0376417451, 0.1163157672, 0.0193163659, -0.0802421421, -0.0361974426, -0.0692751184, 0.0239607748, 0.0137793329, -0.0931312889, -0.0861661956, 0.0180534720, 0.0617079400, -0.0516905449, 0.0305222366, 0.0826458558, 0.0478114784, -0.1196942031, -0.0976507217, -0.0837582573, -0.0147286523, 0.0159325879, 0.0948903039, -0.0443271212, -0.0875893757, 0.0718228072, 0.0240154695, -0.0291200168, 0.0150968805, 0.0666564777, 0.0077083656, -0.1230238006, 0.0236558653, -0.0439543687, 0.0680063292, -0.0321859941, 0.0705101714, 0.0465906635, 0.0757198036, -0.0125421192, 0.0042037466, -0.0276046898, -0.0118590565, -0.0987681225, -0.0259397607, 0.0477572158, -0.0176136829, -0.0039423918, -0.0084789833, -0.0470158644, 0.1122927740, -0.0139563465, -0.0592292249, 0.0367018022, 0.0489794239, 0.0818643197, 0.1408865750, 0.0299282242, 0.0846846998, -0.0622334629, -0.0679679736, -0.0819566995, -0.0640557483, -0.0127927642, -0.0430352092, -0.0542568937, 0.0456768423, 0.0561621040, 0.0178680606, -0.0526849814, 0.1450293362, -0.0198351126, -0.0806941092, -0.0201143529, 0.0567436777, 0.0417600870, 0.0534374416, 0.0815688074, 0.0281203650, 0.0475143529, 0.0373477973, -0.0050546760, -0.0970042944, 0.1310677379, -0.0707625672, 0.0349210426, -0.0854805559, -0.0635533556, -0.0275416039, 0.0372066423, 0.0308421031, 0.0419837050, 0.1241782978, -0.0418495089, -0.1128790826, -0.0053385505, 0.0459562503, -0.0732863471, 0.0666218624, 0.0018281963, 0.0077118850, 0.1412079781, 0.0884061381, 0.0273889080, -0.0837965757, -0.0649018288, 0.0840963274, 0.0858025998, 0.0358377248, -0.0235462431, -0.0730636865, -0.0088166045, 0.0841119736, -0.2056018114, 0.0951626375, -0.0194219388, 0.0753575191, -0.0080692582, 0.0161400232, 0.1249265596, 0.0661569908, 0.0158118084, -0.0627562851, 0.0312955976, -0.0372381732, 0.1219672933, -0.0161590260, 0.1347651780, 0.0206438433, 0.0346731804, -0.0859915391, -0.0929307789, -0.0603027046, -0.1110755131, -0.1015418768, -0.0930468962, 0.0497289039, -0.0218532644, -0.0530771464, -0.0403347388, -0.0376293622, -0.0563967302, 0.0389374867, 0.1202202216, -0.0174092278, -0.0751924887, 0.0480046719, 0.0315020010, 0.0398869403, -0.0173434615, -0.0439677648, 0.0320396125, -0.0062411409, 0.0274484232, 0.0547349826, 0.0110048940, -0.0078447470, -0.1128544137, 0.1073201150, -0.0191890132, -0.0544065572, 0.0631387904, -0.0732217580, 0.0927467197, 0.0974648967, 0.0611062013, -0.0649049953, -0.0053304923, 0.0143894292, 0.0482273586, -0.0997028500, -0.1059607938, -0.1815753728, -0.0943852067, 0.0072401944, -0.0792418197, 0.0387721919, 0.0417457372, -0.0170441028, 0.1916464418, -0.0577557981, 0.0040614479, 0.1032701284, -0.0699435622, 0.1131885946, -0.2018678784, 0.0617803670, 0.0371612720, 0.0636995435, -0.0495126992, -0.0428088978, -0.2130174190, 0.1336431801, -0.0589700863, -0.1494166553, 0.0799677372, 0.0643951073, 0.0116062118, 0.0135119446, -0.0685375407, -0.2453794181, 0.0154216578, -0.0262358971, 0.0716081634, -0.0998965725, 0.0015510638, 0.0121173207, 0.0779572725, 0.0507463738, 0.0476964302, 0.0696199089, 0.0564093441, -0.0787634030, 0.0262898486, 0.2416420132, -0.0360635743, 0.0164068751, -0.0022219007, -0.1156189293, -0.0553771257, -0.0499291867, -0.0917922109, -0.1090750545, -0.1122034118, 0.0838595405, 0.1801283211, 0.0760788023, 0.0809757859, 0.1304863691, -0.1834411919, -0.0886178240, 0.0454968363, 0.0416897573, 0.0019458631, -0.0016410728, 0.1550886035, -0.1045930386, -0.0805651695, 0.0183562525, 0.0694234744, -0.0513908938, -0.0380681194, 0.0065226499, -0.0992118567, 0.0846510082, -0.0680261031, -0.1104463339, -0.0703441501, 0.1275550574, -0.0248406567, 0.0321758166, -0.0808620080, 0.0028951769, 0.0345885381, -0.0829431191, -0.0159083605, -0.1696234941, 0.0684010983, -0.0874209926, -0.0714003965, -0.0112442747, -0.0343326926, 0.0410888977, 0.0362997092, -0.0488411225, -0.0169862788, -0.1382514834, 0.0346995518, 0.0021552744, 0.0621239878, -0.0749123394, 0.0086097391, -0.0085721668, 0.1033554822, -0.0248548463, 0.0563663878, -0.0454439186, -0.0843613967, 0.0517813750, -0.0796658248, -0.0020065075, -0.0097717773, 0.0996849835, 0.0012222599, 0.0503905118, 0.0186847001, 0.0130073642, -0.0257217642, 0.0205825139, 0.0814557299, 0.0857764408, -0.1315793246, -0.0415863320, 0.0976645797, 0.0786582083, 0.0984179080, -0.0836376771, 0.1090587378, 0.1552219242, 0.0245658718, 0.0474573858, 0.0872393623, 0.0350359455, 0.0768628567, 0.0204312578, -0.0129678221, 0.0125137214, 0.0592629313, 0.0916192755, 0.0402642675, 0.0576324575, -0.0348739251, -0.2288931310, -0.0668564364, -0.0537183546, -0.0584362373, -0.0221852213, 0.0055397679, 0.0084671583, -0.0521399342, -0.0391954333, -0.0729546472, 0.0004642765, -0.0919300765, -0.0355017819, 0.0118212523, 0.0108269034, 0.0011970137, 0.0179984905, -0.0162629988, 0.1109914929, 0.0339882337, -0.0276305061, 0.1015903950, -0.0306649152, 0.0911988690, 0.0074872538, 0.0839152485, 0.0766345561, -0.0199325886, 0.0841536969, -0.0519142561, 0.0274772458, 0.0812584162, 0.0599924549, -0.0319323167, -0.0068112295, 0.0298105851, -0.0303445850, -0.1374849975, 0.0263509583, -0.0234150644, -0.0657242313, -0.0305215493, -0.0758437961, -0.0625139475, 0.0733847991, 0.0260949880, 0.0849690363, 0.2395954579, -0.0858003572, 0.0502820648, -0.0725245103, -0.0900012031, -0.0256755631, -0.0913581550, -0.0045210314, 0.0774568096, 0.0227502156, -0.0176023562, 0.0585013777, -0.0270429496, 0.1475386769, -0.0608857162, -0.0322345011, 0.0345400795, -0.1083181202, 0.0107433014, 0.0033237282, 0.1413022429, -0.0342951976, 0.1554962695, 0.0531495400, 0.0030208440, 0.0314482488, -0.0410995670, 0.0292301904, 0.1053603142, 0.0378527343, -0.0022274447, -0.0023348373, -0.0502451062, -0.0401019678, -0.0324008763, 0.0420271382, 0.0113798240, 0.0630913973, 0.0177832674, 0.1585706472, -0.0292840376, 0.0958412737, -0.0569687709, 0.0649140626, 0.0470012277, -0.0992992371, 0.1146728173, -0.0215125252, 0.0067665484, 0.0490423776, -0.1299557537, 0.0214385409, -0.0675938129, -0.0664807186, 0.0092898244, -0.0032012316, 0.0735172331, 0.0630144849, -0.0498960726, -0.0195867550, 0.0234087557, 0.0181441922, 0.0000021224, 0.0111235557, -0.0032038435, 0.0823418722, 0.0452802964, 0.0000457528, 0.0029218630, 0.0374677628, -0.1081197858, 0.0357054472, 0.0310344808, -0.0406360887, -0.0633471087, 0.0021646023, 0.0330757573, -0.0228233784, -0.0034160549, -0.0343701169, -0.0054424452, 0.0436950736, 0.1387787014, 0.0249160826, -0.0065098414, 0.0167620294, 0.0472963564, -0.0044999444, 0.1117240041, 0.1377095580, -0.0907252282, 0.0598043390, -0.0059813298, -0.1734300256, 0.0629378781, 0.1201177686, 0.1127039641, -0.0148714576, 0.0792018399, -0.0281503238, 0.1467989087, 0.0295673832, -0.0435725972, 0.0820620358, 0.0319291539, -0.0347439125, -0.1003470421, 0.0236209016, 0.1057191193, 0.0888467655, 0.0095948204, -0.0343939923, -0.2066093385, 0.0441314913, 0.0705964714, -0.0434669405, 0.0448123664, -0.0207249355, -0.0681122392, 0.0501596481, 0.0274033640, 0.0406552665, 0.0422269665, 0.0144948838, -0.0035980751, 0.0139939943, -0.0202184673, 0.0123722702, -0.1403901279, 0.0830257162, -0.0081165386, 0.0212998688, -0.0034554682, -0.0577075407, -0.0215778798, -0.0567516387, 0.0358932540, 0.1184473932, -0.0358817130, 0.0692116767, 0.0460201576, -0.0016265594, 0.0197167937, -0.0186682194, 0.0088460855, 0.1300315112, 0.0276597533, 0.0123645728, -0.0269156657, 0.1350150257, 0.0639055818, 0.0824896321, -0.0147628123, -0.0356441922, 0.0914332643, -0.0576718785, 0.1014057696, 0.0329504721, -0.0345939435, -0.0615399405, 0.0417201184, -0.0810713470, 0.0996368602, 0.0819998160, 0.0387539156, -0.0587937869, 0.0603177510, 0.0432142541, -0.0239309166, -0.0121985031, 0.0825357214, -0.0931726918, -0.0552144647, 0.0552835390, -0.0229045730, -0.0621177517, -0.0477628559, 0.0372988917, -0.0927371234, -0.0345291421, -0.0249098353, -0.0783848614, 0.0265181810, -0.0279376302, -0.0930182859, 0.1170134395, -0.0906705037, 0.1835297793, 0.1326751560, -0.0169054884, 0.0129757477, -0.0242993459, 0.0851786360, -0.0362792872, -0.0865346938, 0.1345804632, 0.1857115775, 0.0464357361, -0.0066627376, 0.1107850447, -0.0244895872, 0.0112805348, -0.1046336070, -0.0280403271, 0.0300463941, -0.0069107777, -0.1564943194, 0.0192397088, -0.0614298768, 0.0356031135, -0.1304537654, 0.0441343375, -0.0479016379, 0.0034428551, -0.1040601805, -0.0959312245, -0.0319661908, 0.0771288946, 0.0471979044, 0.0650674701, -0.0569005273, 0.0047058244, -0.0968078673, 0.0834597722, 0.0222643521, -0.1043607891, 0.1014649346, -0.0944060460, -0.0172324590, 0.0119730579, 0.0622069165, 0.0603115745, -0.0842592791, 0.1144193485, 0.0434642658, 0.0057223565, -0.0473660268, -0.0204039663, 0.0186498202, 0.0108297132, -0.0684947893, -0.0188933201, 0.0789817646, -0.0777589083, 0.1468679160, 0.0397081338, -0.0381470285, 0.0776721388, -0.0280407649, 0.0284069572, -0.0825082511, -0.0230494943, -0.0495676659, 0.1456034184, 0.0131411506, 0.0952258408, -0.0749170706, -0.0112561500, 0.0567320436, -0.0761832967, 0.0585606359, -0.0229009036, 0.0946859866, 0.0580723099, -0.0976155400, -0.0668140426, -0.0387794003, 0.1167209074, -0.0893658623, 0.0795975327, -0.0892530233, 0.0314882882, -0.0644727871, -0.0219340585, 0.0506834723, -0.0475196168, -0.0242391545, -0.0261798725, -0.0031553265, 0.1401112974, -0.1051372364, 0.0945768580, -0.0609392487, -0.0279603582, 0.0102821887, -0.0881635323, -0.0922347009, 0.0591273122, -0.1388249397, 0.0339543819, -0.1708892435, 0.0179711375, -0.0197572503, 0.0471531041, 0.0477911644, -0.0523228571, 0.1067144126, 0.0258743986, -0.0438234843, -0.0449924953, 0.0707138851, 0.0857032612, 0.0470189787, 0.0761120617, -0.0336508527, -0.0152470414, 0.0024845726, 0.2193468064, 0.0779119879, -0.1775919199, 0.0116583416, -0.0338273272, 0.0320944302, 0.0445524380, 0.2043199241, 0.2102136314, -0.0887933746, -0.0535179935, 0.0940843374, -0.1156522483, 0.0548798703, 0.0374069028, 0.0790048167, 0.0398506597, 0.0503870063, 0.0421383381, -0.0373094641, -0.0006144597, 0.1464959681, 0.0314536318, -0.0361533128, -0.0477335416, -0.0206262264, -0.0720063299, 0.0809543207, 0.1963196993, 0.0061046788, -0.1393317580, -0.1084344015, 0.0939007103, -0.1767880917, 0.0385083333, 0.1159535944, 0.1186729074, -0.0275509451, 0.0027662585, -0.0200360622, 0.0686535239, 0.0276022647, 0.0111437542, -0.0107553722, 0.0846788958, 0.0575483292, 0.1698594093, -0.0544165745, -0.0082134446, -0.0838281140, -0.0170085710, 0.0100832172, 0.0403089263, -0.0057974975, -0.0308801252, -0.1078299433, 0.1110163182, -0.0391305499, 0.0092106415, 0.0223435666, 0.0076019247, -0.0708387047, 0.1166965738, -0.0228750650, 0.1176314056, -0.0901761949, -0.0894089416, 0.0659854189, 0.1029676870, -0.0242471136, -0.0012101908, 0.0936467946, 0.0089618787, 0.1080965400, 0.0582545176, 0.0159568209, 0.0812956244, 0.0463668294, 0.0272142608, 0.0325896144, -0.1056589633, -0.0172635186, 0.0105601838, -0.0412089601, 0.1331691891, 0.0301812626, -0.0302548259, 0.0518693998, 0.0159888361, 0.0369920023, -0.0687442720, 0.0349794813, 0.0366228372, -0.0151953008, 0.0090578916, 0.0824131966, -0.0638928264, -0.1790015250, -0.0265029706, -0.0443190224, -0.0953587294, 0.0997872725, 0.0772587731, -0.0393055491, 0.1320599765, -0.0547394156, 0.1570137143, 0.1016826853, 0.1479274631, 0.0105328811, 0.0238442440, -0.0556643903, 0.3513855934, 0.1304494888, 0.3261467814, 0.0220621675, -0.0016762250, -0.0123831835, -0.1682897657, -0.1465010345, -0.0256154928, -0.0418558456, 0.1082876772, -0.0411606394, 0.0800407827, -0.0572309308, 0.0559503101, -0.0019931584, -0.2231912762, -0.0218028724, 0.0885592401, -0.0875961035, 0.1146763936, 0.0086813010, 0.0359619223, 0.1474749148, 0.1206052154, 0.0433475338, 0.0524552949, -0.1503751278, 0.1811046600, 0.0182679519, 0.1845513582, -0.0149875348, 0.0272835586, 0.1118158996, -0.1578522176, -0.1494043469, 0.0333607011, -0.1039579511, 0.0403658599, 0.0089227818, -0.0501490422, -0.0922791362, -0.0043554278, -0.1712251455, -0.0250022504, 0.0583146699, -0.0255117901, 0.0551459566, 0.0945353732, -0.0696355850, -0.0244101603, 0.0296794530, 0.0249359459, -0.0888695791, -0.0433331169, 0.0364288203, 0.0804227442, 0.0136845512, 0.2033904046, -0.0746991113, -0.1192175224, 0.0136323031, -0.0516671911, 0.0831251889, -0.1422790885, -0.0656621903, -0.0630949736, -0.0440453403, 0.1224259064, -0.0299449507, -0.0436804965, -0.0369076915, 0.0276229698, -0.0780610740, 0.0593193248, 0.0952990279, -0.0158444401, -0.0336939134, -0.0241051521, 0.0813112706, 0.0393815413, 0.1013641953, -0.0845720693, 0.0193642844, 0.0363394208, -0.0820575207, -0.0206546951, -0.0756762773, 0.0773793310, 0.0549253598, 0.0792304799, 0.0664503500, -0.0898809507, -0.0592103116, 0.0526249409, 0.0946624950, -0.1085670814, 0.0179634262, 0.0239265971, 0.0511813313, -0.1298904866, 0.0509126782, -0.0332587548, 0.0433428809, -0.0839716718, -0.1187805682, -0.0672765225, -0.0596010983, 0.0323219225, 0.0345524736, -0.0399512537, 0.0278596748, -0.0970561877, 0.1033158377, 0.1254987717, 0.0622409135, -0.1694117934, 0.0039306306, 0.1307118982, 0.0294961222, -0.0253285896, 0.0169055704, 0.0761645213, -0.0221074000, 0.0678847954, 0.0682696626, -0.0624821745, -0.0802510157, 0.1369464099, -0.1128269732, -0.0493662879, 0.0297474172, -0.0844301730, -0.0693727806, 0.1046409532, 0.0560472198, -0.0732033849, 0.0020659689, -0.0180852581, 0.0989968330, 0.2565196157, -0.0523991808, 0.1066915989, 0.0057052164, 0.0774281248, -0.0132361576, -0.0171690788, -0.0207068715, -0.0371792428, 0.0642604157, -0.0103355069, -0.1245545521, 0.0495339893, -0.0374731235, 0.0825090930, 0.0284197181, 0.1323044449, -0.0265306495, 0.0042037908, 0.1367640346, -0.1812061071, 0.0379186496, 0.0446374565, 0.0833439827, 0.0119873332, 0.0268305186, 0.0672174394, -0.0261552539, 0.2073820829, -0.0254092645, 0.0357453115, 0.0221340917, 0.1484075785, -0.0199243631, -0.1834544390, -0.0240944736, -0.0654605702, -0.0343910120, -0.1656721979, 0.0942236185, 0.1025223881, 0.0725643486, 0.0443335772, 0.0492878407, 0.1082189828, -0.2049710304, -0.0400861651, 0.0553727411, -0.1049158573, -0.0418694504, 0.0681029707, 0.0346475057, 0.0953253284, -0.0252396353, -0.0260815248, 0.0666361079, 0.2872349322, -0.0926945880, -0.0452132300, 0.0891822204, -0.0657868534, -0.0562502407, 0.1175468788, -0.0572712459, 0.0176052488, -0.0362753049, -0.1198905408, 0.0481109284, -0.0950873941, 0.0509381592, -0.0205007624, -0.0977805257, 0.0563986674, -0.0452987999, 0.0909886509, 0.0052275728, -0.0174757373, -0.0047221570, -0.0819884390, 0.0007221507, 0.0396232828, 0.0051101772, -0.0826297998, 0.0409103855, -0.0053396462, 0.0900960937, 0.0081435228, 0.0183348842, -0.0189422760, -0.0655395016, 0.1080152839, 0.0447103195, 0.0210358668, 0.0392071307, -0.0272796359, 0.1088177413, 0.0484679192, 0.0188336819, 0.0312193707, 0.0039170161, -0.0373420380, -0.0189306531, 0.0746136680, -0.0327323936, -0.0890039280, 0.0111060180, 0.0375097692, 0.0010740786, 0.0895442516, 0.0366634987, 0.0529464930, -0.0105101112, 0.0416472740, 0.0087633319, -0.0194074940, 0.0189482365, -0.0227526687, -0.0401247554, -0.1789288074, 0.0151525354, 0.0428711027, -0.0308276806, -0.1929912716, 0.0308254492, 0.0631375015, 0.0630123317, 0.0126850102, -0.0192799848, -0.1768019199, 0.0002496542, 0.1264857203, -0.1371819079, -0.0315885879, 0.0866958797, -0.0194517449, 0.0456280671, 0.0440235510, -0.1059593186, 0.0993467495, -0.0472509451, 0.0509302244, -0.1067803204, -0.1841525584, 0.0149428258, -0.1295732558, 0.0928282663, -0.1838458180, -0.0111822933, 0.0282480717, 0.0021717558, 0.0438554399, 0.0424645655, 0.0115147661, -0.0851787925, 0.0062736506, 0.0451691374, 0.0473127253, 0.0730484799, 0.0514956675, -0.0004992270, 0.0945351645, 0.1851927787, -0.0055216248, 0.1617550105, 0.0251264945, 0.0303643439, -0.0994064137, 0.0320685357, 0.0660172924, 0.0359202288, -0.0400238782, 0.0417337455, 0.0595236979, -0.0868931860, -0.0779478252, 0.0123111168, -0.0717689395, 0.1243308038, 0.0381081961, 0.0789509416, -0.0741191208, 0.1019891724, 0.0061431467, -0.0480773598, -0.0007429034, 0.1496964991, 0.0691398829, 0.0340254828, 0.0959121138, 0.0221368764, 0.1049828008, 0.0887034759, 0.0556804501, 0.0662921295, -0.0560192838, 0.0152116697, 0.0116942879, 0.0564725287, 0.0697504431, 0.0488742478, 0.0783855990, 0.0460548922, 0.0459471606, 0.1071248800, -0.0676589161, 0.1063238233, 0.0370173343, 0.0038345039, -0.0067576165, 0.0181882512, -0.0391629785, -0.0090025002, 0.0444015488, -0.0553221330, -0.0915350318, -0.0866458043, 0.0066580074, -0.0255976971, 0.0330796726, -0.1293686926, 0.0118196253, 0.0227861311, 0.1162663624, 0.0208793394, 0.0542642362, 0.0441363975, 0.0333182737, 0.1490336806, 0.0275819357, 0.0135748042, 0.1127464101, -0.0148819797, -0.1202523261, 0.0813955143, 